{"learner":{"attributes":{"best_iteration":"183","best_score":"0.790836117115158","scikit_learn":"{\"_estimator_type\": \"ranker\"}"},"feature_names":[],"feature_types":[],"gradient_booster":{"model":{"cats":{"enc":[],"feature_segments":[],"sorted_idx":[]},"gbtree_model_param":{"num_parallel_tree":"1","num_trees":"214"},"iteration_indptr":[0,1,2,3,4,5,6,7,8,9,10,11,12,13,14,15,16,17,18,19,20,21,22,23,24,25,26,27,28,29,30,31,32,33,34,35,36,37,38,39,40,41,42,43,44,45,46,47,48,49,50,51,52,53,54,55,56,57,58,59,60,61,62,63,64,65,66,67,68,69,70,71,72,73,74,75,76,77,78,79,80,81,82,83,84,85,86,87,88,89,90,91,92,93,94,95,96,97,98,99,100,101,102,103,104,105,106,107,108,109,110,111,112,113,114,115,116,117,118,119,120,121,122,123,124,125,126,127,128,129,130,131,132,133,134,135,136,137,138,139,140,141,142,143,144,145,146,147,148,149,150,151,152,153,154,155,156,157,158,159,160,161,162,163,164,165,166,167,168,169,170,171,172,173,174,175,176,177,178,179,180,181,182,183,184,185,186,187,188,189,190,191,192,193,194,195,196,197,198,199,200,201,202,203,204,205,206,207,208,209,210,211,212,213,214],"tree_info":[0,0,0,0,0,0,0,0,0,0,0,0,0,0,0,0,0,0,0,0,0,0,0,0,0,0,0,0,0,0,0,0,0,0,0,0,0,0,0,0,0,0,0,0,0,0,0,0,0,0,0,0,0,0,0,0,0,0,0,0,0,0,0,0,0,0,0,0,0,0,0,0,0,0,0,0,0,0,0,0,0,0,0,0,0,0,0,0,0,0,0,0,0,0,0,0,0,0,0,0,0,0,0,0,0,0,0,0,0,0,0,0,0,0,0,0,0,0,0,0,0,0,0,0,0,0,0,0,0,0,0,0,0,0,0,0,0,0,0,0,0,0,0,0,0,0,0,0,0,0,0,0,0,0,0,0,0,0,0,0,0,0,0,0,0,0,0,0,0,0,0,0,0,0,0,0,0,0,0,0,0,0,0,0,0,0,0,0,0,0,0,0,0,0,0,0,0,0,0,0,0,0,0,0,0,0,0,0,0,0,0,0,0,0],"trees":[{"base_weights":[7.3549487E-3,4.7983626E-1,-5.561959E-1,7.104794E-1,2.3323444E-1,-1.7044912E-1,-7.1412975E-1,7.8484166E-1,6.183223E-1,-8.090381E-3,3.242933E-1,1.8878732E-2,-3.6947075E-1,-8.2783705E-1,-5.2133054E-1,1.345782E-1,7.929271E-1,4.5718417E-1,6.857719E-1,7.7273995E-2,-3.783508E-1,4.4066894E-1,1.5090081E-1,-3.5867337E-2,4.6749395E-1,-5.873096E-1,-2.3415717E-1,-6.5888196E-1,-9.104685E-1,-7.82117E-1,-4.3326044E-1,2.8718565E-2,-2.7267924E-2,7.157134E-4,3.982764E-2,-1.7057523E-2,2.434299E-2,6.1368267E-3,3.5004348E-2,-2.583827E-2,6.7898817E-3,-2.9297752E-2,5.388466E-3,-1.2712811E-2,2.3389228E-2,1.4790915E-2,-1.7344494E-3,-7.017351E-3,7.0605064E-3,2.7612586E-2,-1.0986853E-2,-3.227861E-2,1.33893E-2,-2.8887525E-2,-5.4746615E-3,-3.808507E-2,-2.853953E-2,-4.7055367E-2,-3.7540574E-2,-4.4792477E-2,-2.1898253E-2,-1.6827239E-2,-3.1595822E-2],"categories":[],"categories_nodes":[],"categories_segments":[],"categories_sizes":[],"default_left":[0,0,0,0,0,0,0,0,0,0,0,0,0,0,0,0,0,0,0,0,0,0,0,0,0,0,0,0,0,0,0,0,0,0,0,0,0,0,0,0,0,0,0,0,0,0,0,0,0,0,0,0,0,0,0,0,0,0,0,0,0,0,0],"id":0,"left_children":[1,3,5,7,9,11,13,15,17,19,21,23,25,27,29,31,33,35,37,39,41,43,45,47,49,51,53,55,57,59,61,-1,-1,-1,-1,-1,-1,-1,-1,-1,-1,-1,-1,-1,-1,-1,-1,-1,-1,-1,-1,-1,-1,-1,-1,-1,-1,-1,-1,-1,-1,-1,-1],"loss_changes":[4.374529E2,5.066266E1,4.5524628E1,2.6758728E0,9.525919E0,8.257616E0,1.1215698E1,1.2159882E0,1.9765778E0,3.8126495E0,6.283169E0,2.7961218E0,3.0105085E0,4.042038E0,4.2499924E0,1.5973082E0,6.894989E-1,1.7101212E0,1.0951157E0,3.4808319E0,2.3435998E0,3.6572304E0,3.4501162E0,1.9029782E0,8.424232E-1,2.1785069E0,2.8297417E0,5.8712006E-1,3.728485E-1,1.533308E0,2.7000446E0,0E0,0E0,0E0,0E0,0E0,0E0,0E0,0E0,0E0,0E0,0E0,0E0,0E0,0E0,0E0,0E0,0E0,0E0,0E0,0E0,0E0,0E0,0E0,0E0,0E0,0E0,0E0,0E0,0E0,0E0,0E0,0E0],"parents":[2147483647,0,0,1,1,2,2,3,3,4,4,5,5,6,6,7,7,8,8,9,9,10,10,11,11,12,12,13,13,14,14,15,15,16,16,17,17,18,18,19,19,20,20,21,21,22,22,23,23,24,24,25,25,26,26,27,27,28,28,29,29,30,30],"right_children":[2,4,6,8,10,12,14,16,18,20,22,24,26,28,30,32,34,36,38,40,42,44,46,48,50,52,54,56,58,60,62,-1,-1,-1,-1,-1,-1,-1,-1,-1,-1,-1,-1,-1,-1,-1,-1,-1,-1,-1,-1,-1,-1,-1,-1,-1,-1,-1,-1,-1,-1,-1,-1],"split_conditions":[4E-1,3E0,5.625E-1,1.1111111E-1,2E0,5E1,9.704903E-2,3.667E1,9.704903E-2,5.09E1,5E1,5.85E1,3E0,7.3333335E-1,3.75E1,4.869E1,1.21951215E-2,2.5316456E-2,2.5423728E-2,3.1128405E-2,6.467E1,2.686E1,3.0769232E-1,5E0,6.449E1,3E0,5.076142E-2,4.6875E-2,7E0,5.625879E-2,8E-1,2.8718565E-2,-2.7267924E-2,7.157134E-4,3.982764E-2,-1.7057523E-2,2.434299E-2,6.1368267E-3,3.5004348E-2,-2.583827E-2,6.7898817E-3,-2.9297752E-2,5.388466E-3,-1.2712811E-2,2.3389228E-2,1.4790915E-2,-1.7344494E-3,-7.017351E-3,7.0605064E-3,2.7612586E-2,-1.0986853E-2,-3.227861E-2,1.33893E-2,-2.8887525E-2,-5.4746615E-3,-3.808507E-2,-2.853953E-2,-4.7055367E-2,-3.7540574E-2,-4.4792477E-2,-2.1898253E-2,-1.6827239E-2,-3.1595822E-2],"split_indices":[27,18,27,27,22,10,31,1,31,13,10,1,22,27,1,13,33,32,33,33,11,4,27,22,11,28,29,32,22,33,27,0,0,0,0,0,0,0,0,0,0,0,0,0,0,0,0,0,0,0,0,0,0,0,0,0,0,0,0,0,0,0,0],"split_type":[0,0,0,0,0,0,0,0,0,0,0,0,0,0,0,0,0,0,0,0,0,0,0,0,0,0,0,0,0,0,0,0,0,0,0,0,0,0,0,0,0,0,0,0,0,0,0,0,0,0,0,0,0,0,0,0,0,0,0,0,0,0,0],"sum_hessian":[1.6409069E3,8.9265393E2,7.48253E2,4.6027985E2,4.3237408E2,2.1796408E2,5.302889E2,2.505736E2,2.0970625E2,1.1870156E2,3.1367252E2,1.1216626E2,1.0579782E2,3.3149124E2,1.9879764E2,3.2940965E0,2.472795E2,6.417335E1,1.4553291E2,9.7105064E1,2.1596495E1,1.8677411E2,1.26898415E2,1.00786934E2,1.137933E1,3.925751E1,6.6540306E1,1.1182282E2,2.1966843E2,4.819768E1,1.5059996E2,2.094561E0,1.1995353E0,1.1690896E0,2.4611041E2,1.92378E0,6.2249565E1,3.8457808E0,1.4168712E2,8.00643E0,8.909864E1,1.4989607E1,6.606888E0,6.699563E0,1.8007455E2,7.092377E1,5.5974644E1,6.3517567E1,3.7269367E1,1.0304823E1,1.0745068E0,3.69827E1,2.274814E0,1.67474E1,4.979291E1,4.8069645E1,6.3753178E1,1.8019395E2,3.9474472E1,3.5021126E1,1.3176557E1,1.0309989E2,4.750006E1],"tree_param":{"num_deleted":"0","num_feature":"37","num_nodes":"63","size_leaf_vector":"1"}},{"base_weights":[2.2581706E-3,3.138375E-1,-5.9983414E-1,4.663424E-1,3.0734511E-2,-3.102625E-1,-7.588343E-1,7.424705E-1,3.8634926E-1,-1.12435475E-1,1.3462998E-1,-3.8183406E-1,9.0904236E-2,-5.7545274E-1,-8.580442E-1,2.1144403E-2,7.556783E-1,2.3014562E-1,4.7841874E-1,4.997684E-2,-2.0221949E-1,-4.096126E-1,1.521257E-1,-2.3272163E-1,-4.8444983E-1,1.6282547E-1,-7.267075E-1,-4.063955E-1,-7.8381205E-1,-8.609063E-1,2.8351007E-2,3.4811106E-2,-3.3347398E-2,-1.1471125E-2,3.8158376E-2,5.007445E-3,1.6181929E-2,2.2264916E-2,3.7275407E-2,-2.0350834E-2,5.6308038E-3,1.743154E-2,-1.1948089E-2,-2.9856374E-3,-3.6535796E-2,-1.21874465E-2,8.672434E-3,-1.5060897E-2,6.971975E-3,-1.0655781E-2,-2.7260253E-2,1.5964843E-2,-1.0163017E-2,-2.4340488E-3,-4.125399E-2,-2.2805298E-2,2.2746872E-3,-4.136547E-2,-1.3916691E-2,-3.856066E-2,-4.5483828E-2],"categories":[],"categories_nodes":[],"categories_segments":[],"categories_sizes":[],"default_left":[0,0,0,0,0,0,0,0,0,0,0,0,0,0,0,0,0,0,0,0,0,0,0,0,0,0,0,0,0,0,0,0,0,0,0,0,0,0,0,0,0,0,0,0,0,0,0,0,0,0,0,0,0,0,0,0,0,0,0,0,0],"id":1,"left_children":[1,3,5,7,9,11,13,15,17,19,21,23,25,27,29,31,33,35,37,39,41,43,45,47,49,51,53,55,57,59,-1,-1,-1,-1,-1,-1,-1,-1,-1,-1,-1,-1,-1,-1,-1,-1,-1,-1,-1,-1,-1,-1,-1,-1,-1,-1,-1,-1,-1,-1,-1],"loss_changes":[1.1004569E3,1.6688016E2,9.186755E1,5.5203003E1,2.0161367E1,2.0442032E1,2.2987549E1,5.349701E0,2.7933533E1,8.323206E0,7.539893E0,9.119156E0,6.4935036E0,1.5749191E1,3.895874E0,5.646446E0,4.2553406E0,8.779709E0,1.0512634E1,5.8785987E0,7.5179405E0,2.7348342E0,6.470886E0,6.360714E0,5.7601852E0,5.819789E0,5.5670214E-1,5.7243156E0,4.2385178E0,2.9476318E0,0E0,0E0,0E0,0E0,0E0,0E0,0E0,0E0,0E0,0E0,0E0,0E0,0E0,0E0,0E0,0E0,0E0,0E0,0E0,0E0,0E0,0E0,0E0,0E0,0E0,0E0,0E0,0E0,0E0,0E0,0E0],"parents":[2147483647,0,0,1,1,2,2,3,3,4,4,5,5,6,6,7,7,8,8,9,9,10,10,11,11,12,12,13,13,14,14,15,15,16,16,17,17,18,18,19,19,20,20,21,21,22,22,23,23,24,24,25,25,26,26,27,27,28,28,29,29],"right_children":[2,4,6,8,10,12,14,16,18,20,22,24,26,28,30,32,34,36,38,40,42,44,46,48,50,52,54,56,58,60,-1,-1,-1,-1,-1,-1,-1,-1,-1,-1,-1,-1,-1,-1,-1,-1,-1,-1,-1,-1,-1,-1,-1,-1,-1,-1,-1,-1,-1,-1,-1],"split_conditions":[2.6672282E0,1.8245493E0,3.3603754E0,1.1314021E0,4.58E1,5.5E1,5E1,3.155E1,4.773E1,2.0668628E0,1.1627907E-2,4.174E1,3.2884018E0,4.225373E0,7.8E1,1.38E1,4.075E1,2.3488373E-1,7.083E1,3.75E-2,3.6E1,4E0,3.778E1,5.234E1,1.737E1,5.009E1,4.1666666E-1,1.2E1,6.114E1,4.2442E0,2.8351007E-2,3.4811106E-2,-3.3347398E-2,-1.1471125E-2,3.8158376E-2,5.007445E-3,1.6181929E-2,2.2264916E-2,3.7275407E-2,-2.0350834E-2,5.6308038E-3,1.743154E-2,-1.1948089E-2,-2.9856374E-3,-3.6535796E-2,-1.21874465E-2,8.672434E-3,-1.5060897E-2,6.971975E-3,-1.0655781E-2,-2.7260253E-2,1.5964843E-2,-1.0163017E-2,-2.4340488E-3,-4.125399E-2,-2.2805298E-2,2.2746872E-3,-4.136547E-2,-1.3916691E-2,-3.856066E-2,-4.5483828E-2],"split_indices":[26,26,26,26,8,2,10,4,8,26,32,0,26,26,2,4,11,30,1,33,9,0,1,13,3,13,27,18,4,26,0,0,0,0,0,0,0,0,0,0,0,0,0,0,0,0,0,0,0,0,0,0,0,0,0,0,0,0,0,0,0],"split_type":[0,0,0,0,0,0,0,0,0,0,0,0,0,0,0,0,0,0,0,0,0,0,0,0,0,0,0,0,0,0,0,0,0,0,0,0,0,0,0,0,0,0,0,0,0,0,0,0,0,0,0,0,0,0,0,0,0,0,0,0,0],"sum_hessian":[5.8639863E3,3.8645715E3,1.9994149E3,2.511177E3,1.3533945E3,7.097561E2,1.2896588E3,5.6220856E2,1.9489685E3,5.6909216E2,7.843023E2,6.023415E2,1.07414665E2,4.5515018E2,8.3450867E2,1.0155922E1,5.520527E2,7.240522E2,1.2249164E3,2.0275945E2,3.6633273E2,2.3729582E1,7.6057275E2,2.4687364E2,3.5546783E2,9.946599E1,7.948674E0,2.5290237E2,2.0224779E2,8.332311E2,1.277566E0,5.1204786E0,5.035444E0,3.9417262E0,5.481109E2,3.0376093E2,4.202913E2,1.0921514E3,1.3276491E2,2.3778944E1,1.789805E2,2.2376076E1,3.4395667E2,1.1923138E1,1.1806444E1,3.833975E1,7.22233E2,2.0866031E2,3.8213337E1,6.585697E1,2.8961084E2,6.9772026E1,2.9693964E1,1.196527E0,6.752147E0,2.2783037E2,2.5072004E1,1.8563675E2,1.6611046E1,2.994069E2,5.338242E2],"tree_param":{"num_deleted":"0","num_feature":"37","num_nodes":"61","size_leaf_vector":"1"}},{"base_weights":[-2.5575268E-4,2.9338494E-1,-5.414884E-1,1.8389753E-1,8.0132604E-1,-6.0355604E-1,4.0847495E-1,-2.0525628E-1,2.5375736E-1,9.061912E-1,7.423861E-1,-4.087938E-1,-7.86319E-1,5.0348943E-1,-4.501395E-2,-3.0860296E-1,1.0919304E-1,3.9097834E-1,5.1058162E-2,2.584428E-3,9.111918E-1,9.5670074E-2,7.556405E-1,-1.87865E-1,-4.99659E-1,-8.1803656E-1,-5.3748727E-1,-2.9826292E-1,5.7613367E-1,-4.2926383E-1,5.0064105E-1,-3.912385E-3,-1.9546596E-2,9.525127E-3,-1.0053384E-2,2.424119E-2,1.4641841E-2,1.0123783E-2,-5.5140005E-3,2.2265922E-2,4.587401E-2,-3.0015845E-2,3.3088498E-2,4.04126E-2,3.0905673E-2,-1.3332437E-2,-1.1223941E-3,-1.8886374E-2,-2.7974794E-2,-4.124325E-2,-1.958007E-3,-1.9768696E-2,-3.3459436E-2,1.2564132E-2,-2.849107E-2,3.2932483E-2,8.920565E-3,4.499248E-3,-3.3475325E-2,4.8520546E-3,3.3156212E-2],"categories":[],"categories_nodes":[],"categories_segments":[],"categories_sizes":[],"default_left":[0,0,0,0,0,0,0,0,0,0,0,0,0,0,0,0,0,0,0,0,0,0,0,0,0,0,0,0,0,0,0,0,0,0,0,0,0,0,0,0,0,0,0,0,0,0,0,0,0,0,0,0,0,0,0,0,0,0,0,0,0],"id":2,"left_children":[1,3,5,7,9,11,13,15,17,19,21,23,25,27,29,31,33,35,37,-1,39,41,43,45,47,49,51,53,55,57,59,-1,-1,-1,-1,-1,-1,-1,-1,-1,-1,-1,-1,-1,-1,-1,-1,-1,-1,-1,-1,-1,-1,-1,-1,-1,-1,-1,-1,-1,-1],"loss_changes":[8.3928723E2,1.9024582E2,1.0976257E2,7.665572E1,3.0776978E0,6.175293E1,4.9566917E0,1.3988028E1,6.643846E1,8.6647034E-1,3.3048859E0,1.689566E1,6.6522217E0,5.6907024E0,4.5663533E0,6.1034946E0,2.7364893E0,1.2979202E1,2.361363E1,0E0,2.1394348E-1,3.9659405E0,2.2928314E0,3.2291422E0,4.1595E0,4.19635E0,1.6913834E0,1.4163268E0,2.7450867E0,1.6465778E0,5.283108E-1,0E0,0E0,0E0,0E0,0E0,0E0,0E0,0E0,0E0,0E0,0E0,0E0,0E0,0E0,0E0,0E0,0E0,0E0,0E0,0E0,0E0,0E0,0E0,0E0,0E0,0E0,0E0,0E0,0E0,0E0],"parents":[2147483647,0,0,1,1,2,2,3,3,4,4,5,5,6,6,7,7,8,8,9,9,10,10,11,11,12,12,13,13,14,14,15,15,16,16,17,17,18,18,20,20,21,21,22,22,23,23,24,24,25,25,26,26,27,27,28,28,29,29,30,30],"right_children":[2,4,6,8,10,12,14,16,18,20,22,24,26,28,30,32,34,36,38,-1,40,42,44,46,48,50,52,54,56,58,60,-1,-1,-1,-1,-1,-1,-1,-1,-1,-1,-1,-1,-1,-1,-1,-1,-1,-1,-1,-1,-1,-1,-1,-1,-1,-1,-1,-1,-1,-1],"split_conditions":[3.5714287E-1,6.25E1,6.714E1,4.5E1,7.692308E-2,6.1538464E-1,1.1E1,7.15E1,1.6666667E-1,6.429E1,4.31E1,1.8E1,8.253E1,4.862E1,2.177264E-1,4.862E1,2.1428572E-1,2.35E1,3E1,2.584428E-3,4.65E1,7E0,4E0,7E0,4.375E-1,7.15E1,5E0,3.9647575E-2,5E0,1.457E1,8.181818E-1,-3.912385E-3,-1.9546596E-2,9.525127E-3,-1.0053384E-2,2.424119E-2,1.4641841E-2,1.0123783E-2,-5.5140005E-3,2.2265922E-2,4.587401E-2,-3.0015845E-2,3.3088498E-2,4.04126E-2,3.0905673E-2,-1.3332437E-2,-1.1223941E-3,-1.8886374E-2,-2.7974794E-2,-4.124325E-2,-1.958007E-3,-1.9768696E-2,-3.3459436E-2,1.2564132E-2,-2.849107E-2,3.2932483E-2,8.920565E-3,4.499248E-3,-3.3475325E-2,4.8520546E-3,3.3156212E-2],"split_indices":[27,12,12,12,27,27,18,2,27,12,11,0,8,13,30,13,27,0,0,0,13,22,19,22,27,2,22,29,19,3,27,0,0,0,0,0,0,0,0,0,0,0,0,0,0,0,0,0,0,0,0,0,0,0,0,0,0,0,0,0,0],"split_type":[0,0,0,0,0,0,0,0,0,0,0,0,0,0,0,0,0,0,0,0,0,0,0,0,0,0,0,0,0,0,0,0,0,0,0,0,0,0,0,0,0,0,0,0,0,0,0,0,0,0,0,0,0,0,0,0,0,0,0,0,0],"sum_hessian":[5.2789297E3,3.4225276E3,1.8564021E3,2.8167378E3,6.057897E2,1.7428917E3,1.135104E2,4.283999E2,2.388338E3,2.1280148E2,3.929882E2,8.4531476E2,8.97577E2,9.37564E1,1.9753996E1,3.2244424E2,1.05955666E2,1.4236458E3,9.6469226E2,1.3040354E0,2.1149745E2,8.057579E0,3.8493063E2,2.4724153E2,5.9807324E2,7.940724E2,1.0350464E2,7.5311837E0,8.622522E1,1.171653E1,8.037467E0,8.541228E1,2.3703197E2,8.4259834E1,2.1695835E1,7.25737E2,6.9790875E2,4.9751474E2,4.6717755E2,3.7732637E0,2.0772418E2,3.5870569E0,4.470522E0,2.748925E2,1.1003815E2,1.6706227E2,8.017925E1,1.9928871E2,3.9878452E2,7.871127E2,6.959669E0,5.170936E1,5.179528E1,2.5154338E0,5.0157504E0,7.086642E1,1.5358801E1,3.9040172E0,7.8125124E0,2.7654555E0,5.2720113E0],"tree_param":{"num_deleted":"0","num_feature":"37","num_nodes":"61","size_leaf_vector":"1"}},{"base_weights":[-1.6258497E-3,2.7595976E-1,-5.370997E-1,1.605461E-1,7.594397E-1,-6.054503E-1,5.406977E-1,3.445138E-1,-1.7476747E-2,8.513831E-1,6.704625E-1,-3.288461E-1,-7.27815E-1,6.612037E-1,2.4030039E-3,-4.4345528E-2,3.9450046E-1,1.5086128E-1,-1.678049E-1,-3.5053786E-2,8.6804104E-1,7.062213E-1,2.6951388E-1,-1.7755994E-1,-4.2887965E-1,-6.0654473E-1,-8.300083E-1,-3.1735998E-2,7.092223E-1,2.594817E-1,-3.7887704E-2,-1.1309842E-2,9.951875E-3,3.150382E-2,1.5865026E-2,-1.0371427E-2,9.389713E-3,-1.1655506E-2,2.6840065E-3,-3.7724372E-2,3.504502E-2,3.282444E-2,4.3914348E-2,2.4467407E-2,3.821557E-2,-2.7709732E-2,2.2802891E-2,-2.9716135E-3,-1.879038E-2,-2.2823846E-2,8.4736943E-4,-3.3860944E-2,-2.0152342E-2,-4.185024E-2,-8.555767E-4,3.7351802E-2,2.0643955E-3,-2.925142E-2,1.982832E-2],"categories":[],"categories_nodes":[],"categories_segments":[],"categories_sizes":[],"default_left":[0,0,0,0,0,0,0,0,0,0,0,0,0,0,0,0,0,0,0,0,0,0,0,0,0,0,0,0,0,0,0,0,0,0,0,0,0,0,0,0,0,0,0,0,0,0,0,0,0,0,0,0,0,0,0,0,0,0,0],"id":3,"left_children":[1,3,5,7,9,11,13,15,17,19,21,23,25,27,29,31,33,35,37,39,41,43,45,47,49,51,53,-1,55,57,-1,-1,-1,-1,-1,-1,-1,-1,-1,-1,-1,-1,-1,-1,-1,-1,-1,-1,-1,-1,-1,-1,-1,-1,-1,-1,-1,-1,-1],"loss_changes":[7.4322E2,1.8363109E2,1.2608542E2,8.711278E1,4.6185913E0,5.4110046E1,6.6363697E0,2.5443375E1,3.425534E1,4.582321E0,4.4990845E0,7.404648E0,1.3283203E1,5.6530113E0,4.050639E0,6.6792474E0,2.0881271E1,8.489724E0,1.0354662E1,4.04834E0,7.936096E-2,3.4013824E0,4.6164784E0,4.625309E0,3.660122E0,7.0971527E0,3.403778E0,0E0,2.0173492E0,2.0244002E0,0E0,0E0,0E0,0E0,0E0,0E0,0E0,0E0,0E0,0E0,0E0,0E0,0E0,0E0,0E0,0E0,0E0,0E0,0E0,0E0,0E0,0E0,0E0,0E0,0E0,0E0,0E0,0E0,0E0],"parents":[2147483647,0,0,1,1,2,2,3,3,4,4,5,5,6,6,7,7,8,8,9,9,10,10,11,11,12,12,13,13,14,14,15,15,16,16,17,17,18,18,19,19,20,20,21,21,22,22,23,23,24,24,25,25,26,26,28,28,29,29],"right_children":[2,4,6,8,10,12,14,16,18,20,22,24,26,28,30,32,34,36,38,40,42,44,46,48,50,52,54,-1,56,58,-1,-1,-1,-1,-1,-1,-1,-1,-1,-1,-1,-1,-1,-1,-1,-1,-1,-1,-1,-1,-1,-1,-1,-1,-1,-1,-1,-1,-1],"split_conditions":[2.5952547E0,6.818E1,9.167E1,1.6292405E0,1.5686159E0,3.218876E0,3.9278963E0,3.966E1,4.5E1,4.65E1,6.68E1,4.5E1,4.2442E0,1.8867925E-2,5E1,7.15E1,1.1314021E0,1.4432989E-1,2.7896994E-1,5.905E1,4.747E1,1.5E1,6.907E1,4.094E1,9E0,6.367E1,7.857E1,-3.1735998E-2,8E0,4.1059437E0,-3.7887704E-2,-1.1309842E-2,9.951875E-3,3.150382E-2,1.5865026E-2,-1.0371427E-2,9.389713E-3,-1.1655506E-2,2.6840065E-3,-3.7724372E-2,3.504502E-2,3.282444E-2,4.3914348E-2,2.4467407E-2,3.821557E-2,-2.7709732E-2,2.2802891E-2,-2.9716135E-3,-1.879038E-2,-2.2823846E-2,8.4736943E-4,-3.3860944E-2,-2.0152342E-2,-4.185024E-2,-8.555767E-4,3.7351802E-2,2.0643955E-3,-2.925142E-2,1.982832E-2],"split_indices":[26,12,12,26,26,26,26,12,9,13,8,9,26,33,13,2,26,30,30,3,13,17,8,3,18,8,12,0,22,26,0,0,0,0,0,0,0,0,0,0,0,0,0,0,0,0,0,0,0,0,0,0,0,0,0,0,0,0,0],"split_type":[0,0,0,0,0,0,0,0,0,0,0,0,0,0,0,0,0,0,0,0,0,0,0,0,0,0,0,0,0,0,0,0,0,0,0,0,0,0,0,0,0,0,0,0,0,0,0,0,0,0,0,0,0,0,0,0,0,0,0],"sum_hessian":[4.998143E3,3.2920527E3,1.7060906E3,2.6587117E3,6.333408E2,1.6047599E3,1.0133063E2,1.3070643E3,1.3516475E3,3.0726468E2,3.2607617E2,4.9331467E2,1.1114453E3,8.260894E1,1.8721685E1,1.4889375E2,1.1581705E3,6.3762695E2,7.1402057E2,5.6472473E0,3.0161743E2,2.9867715E2,2.739903E1,1.974601E2,2.9585458E2,5.1145276E2,5.999925E2,2.5150368E0,8.00939E1,1.448248E1,4.2392054E0,8.525981E1,6.3633945E1,2.840943E2,8.7407623E2,5.915391E1,5.78473E2,5.513899E2,1.6263069E2,2.842941E0,2.804306E0,1.6939169E1,2.8467825E2,6.509095E1,2.3358618E2,4.695334E0,2.2703697E1,1.2454726E2,7.291285E1,2.7858585E2,1.7268724E1,3.7788635E2,1.3356642E2,5.9484314E2,5.149397E0,7.569042E1,4.4034834E0,1.5662091E0,1.2916271E1],"tree_param":{"num_deleted":"0","num_feature":"37","num_nodes":"59","size_leaf_vector":"1"}},{"base_weights":[-1.0578473E-2,2.637488E-1,-5.359299E-1,3.8055438E-1,3.4178894E-2,-3.5337788E-1,-7.608208E-1,6.46266E-1,3.202551E-1,1.4223626E-1,-1.6616124E-1,-4.4124132E-1,1.427168E-1,-7.785549E-1,-1.7370175E-1,-4.544531E-1,6.544406E-1,1.405037E-1,3.9157608E-1,2.3142013E-1,-2.7018841E-2,-2.8761277E-1,7.840025E-2,-2.564264E-1,-5.586306E-1,2.0764887E-1,-7.081327E-1,-5.974753E-1,-8.1667507E-1,-5.3158003E-1,2.9626724E-1,-6.0249767E-3,-2.8265411E-2,4.722819E-3,3.325892E-2,3.0655197E-3,1.6606761E-2,1.7636618E-2,3.3634506E-2,1.4306994E-2,-5.684746E-3,-1.836959E-2,1.949774E-3,-1.221699E-2,-3.4517888E-2,-4.6042064E-3,1.926696E-2,8.310601E-3,-1.5184109E-2,-2.4580656E-2,-3.3755563E-2,-6.3162684E-3,1.6778512E-2,-3.7699666E-2,-9.833693E-3,-3.0682122E-2,2.8403495E-2,-3.787347E-2,-4.3223E-2,4.5183823E-3,-3.7230115E-2,-2.7092962E-2,2.7075518E-2],"categories":[],"categories_nodes":[],"categories_segments":[],"categories_sizes":[],"default_left":[0,0,0,0,0,0,0,0,0,0,0,0,0,0,0,0,0,0,0,0,0,0,0,0,0,0,0,0,0,0,0,0,0,0,0,0,0,0,0,0,0,0,0,0,0,0,0,0,0,0,0,0,0,0,0,0,0,0,0,0,0,0,0],"id":4,"left_children":[1,3,5,7,9,11,13,15,17,19,21,23,25,27,29,31,33,35,37,39,41,43,45,47,49,51,53,55,57,59,61,-1,-1,-1,-1,-1,-1,-1,-1,-1,-1,-1,-1,-1,-1,-1,-1,-1,-1,-1,-1,-1,-1,-1,-1,-1,-1,-1,-1,-1,-1,-1,-1],"loss_changes":[6.8167993E2,8.331256E1,6.634619E1,3.278961E1,2.2732403E1,3.918268E1,7.4252014E0,3.7159882E0,2.1489029E1,1.0300617E1,1.0953309E1,1.6403427E1,7.649177E0,4.375458E0,3.954769E0,5.7415545E-2,2.2073517E0,7.2478533E0,1.28941345E1,8.469088E0,5.322466E0,4.120516E0,6.4666243E0,6.0043335E0,3.3025055E0,5.4654393E0,8.2862854E-2,2.7276306E0,9.841614E-1,1.8128123E0,2.4315388E0,0E0,0E0,0E0,0E0,0E0,0E0,0E0,0E0,0E0,0E0,0E0,0E0,0E0,0E0,0E0,0E0,0E0,0E0,0E0,0E0,0E0,0E0,0E0,0E0,0E0,0E0,0E0,0E0,0E0,0E0,0E0,0E0],"parents":[2147483647,0,0,1,1,2,2,3,3,4,4,5,5,6,6,7,7,8,8,9,9,10,10,11,11,12,12,13,13,14,14,15,15,16,16,17,17,18,18,19,19,20,20,21,21,22,22,23,23,24,24,25,25,26,26,27,27,28,28,29,29,30,30],"right_children":[2,4,6,8,10,12,14,16,18,20,22,24,26,28,30,32,34,36,38,40,42,44,46,48,50,52,54,56,58,60,62,-1,-1,-1,-1,-1,-1,-1,-1,-1,-1,-1,-1,-1,-1,-1,-1,-1,-1,-1,-1,-1,-1,-1,-1,-1,-1,-1,-1,-1,-1,-1,-1],"split_conditions":[2.5952547E0,1.8718022E0,3.9278963E0,1.1314021E0,5E1,5.5E1,6.114E1,4.075E1,9.704903E-2,7.34E1,6.581E1,3.479E1,2E0,4.207673E0,2.3684211E-1,4E0,3.278E1,6.959E1,6.917E1,4.6E1,3.797468E-2,4.2857143E-1,1.25E-1,4.817E1,3.3603754E0,4.4061303E-2,7.167E1,1.9117647E-1,4.9904327E0,2.55E1,2.322E1,-6.0249767E-3,-2.8265411E-2,4.722819E-3,3.325892E-2,3.0655197E-3,1.6606761E-2,1.7636618E-2,3.3634506E-2,1.4306994E-2,-5.684746E-3,-1.836959E-2,1.949774E-3,-1.221699E-2,-3.4517888E-2,-4.6042064E-3,1.926696E-2,8.310601E-3,-1.5184109E-2,-2.4580656E-2,-3.3755563E-2,-6.3162684E-3,1.6778512E-2,-3.7699666E-2,-9.833693E-3,-3.0682122E-2,2.8403495E-2,-3.787347E-2,-4.3223E-2,4.5183823E-3,-3.7230115E-2,-2.7092962E-2,2.7075518E-2],"split_indices":[26,26,26,26,10,2,4,11,31,8,11,0,28,26,30,19,4,11,1,9,33,27,33,8,26,33,4,33,26,0,3,0,0,0,0,0,0,0,0,0,0,0,0,0,0,0,0,0,0,0,0,0,0,0,0,0,0,0,0,0,0,0,0],"split_type":[0,0,0,0,0,0,0,0,0,0,0,0,0,0,0,0,0,0,0,0,0,0,0,0,0,0,0,0,0,0,0,0,0,0,0,0,0,0,0,0,0,0,0,0,0,0,0,0,0,0,0,0,0,0,0,0,0,0,0,0,0,0,0],"sum_hessian":[4.7280244E3,3.1064177E3,1.6216068E3,2.058428E3,1.0479896E3,8.964763E2,7.2513055E2,3.7893146E2,1.6794966E3,6.8097986E2,3.670098E2,7.6168475E2,1.3479158E2,7.0355347E2,2.1577091E1,2.3909595E0,3.765405E2,4.779306E2,1.2015659E3,4.4574222E2,2.3523766E2,2.4510991E2,1.21899895E2,2.9710852E2,4.645762E2,1.2593674E2,8.8548355E0,1.2525166E2,5.783018E2,1.2174893E1,9.402197E0,1.115996E0,1.2749634E0,7.2687187E0,3.6927176E2,3.3911038E2,1.3882025E2,1.0576737E3,1.4389224E2,3.8488727E2,6.085496E1,3.7470848E1,1.9776682E2,2.2277998E2,2.2329927E1,7.882036E1,4.3079533E1,2.9626123E1,2.674824E2,2.982168E2,1.663594E2,3.488147E1,9.105527E1,7.69101E0,1.1638255E0,1.2400511E2,1.2465525E0,2.6581177E2,3.1249002E2,3.2530255E0,8.921868E0,1.8545914E0,7.5476055E0],"tree_param":{"num_deleted":"0","num_feature":"37","num_nodes":"63","size_leaf_vector":"1"}},{"base_weights":[-6.914942E-3,2.4003267E-1,-5.099275E-1,5.777958E-1,1.7074704E-1,-3.485754E-1,-7.716317E-1,6.4402133E-1,4.0680355E-1,3.494065E-3,2.627934E-1,-4.1516757E-1,7.497151E-2,-8.14506E-1,-6.322813E-1,-3.1223847E-2,6.5130866E-1,-4.7712433E-1,4.4548234E-1,9.393147E-2,-1.3614127E-1,3.119501E-1,4.905146E-2,-2.3945878E-1,-5.2161634E-1,-3.259288E-1,2.3520711E-1,-5.645677E-3,-8.16868E-1,-1.17279224E-1,-6.622061E-1,3.8513243E-2,3.1067565E-2,-3.418212E-2,1.6789844E-2,2.9180486E-2,1.28504755E-2,-2.3861958E-2,6.002562E-3,-1.3511583E-2,-7.431852E-4,1.2043507E-2,2.0422457E-2,1.1322999E-2,-3.2987606E-3,-2.5962187E-2,-9.248038E-3,-1.896484E-2,-3.0149786E-2,-1.6395173E-3,-2.6551051E-2,4.2512203E-3,3.0375639E-2,-4.1026462E-2,-2.2770774E-2,1.586883E-2,-2.5530098E-2,-3.6113515E-2,-1.8134996E-2],"categories":[],"categories_nodes":[],"categories_segments":[],"categories_sizes":[],"default_left":[0,0,0,0,0,0,0,0,0,0,0,0,0,0,0,0,0,0,0,0,0,0,0,0,0,0,0,0,0,0,0,0,0,0,0,0,0,0,0,0,0,0,0,0,0,0,0,0,0,0,0,0,0,0,0,0,0,0,0],"id":5,"left_children":[1,3,5,7,9,11,13,15,17,19,21,23,25,27,29,-1,31,33,35,37,39,41,43,45,47,49,51,-1,53,55,57,-1,-1,-1,-1,-1,-1,-1,-1,-1,-1,-1,-1,-1,-1,-1,-1,-1,-1,-1,-1,-1,-1,-1,-1,-1,-1,-1,-1],"loss_changes":[5.6685565E2,7.1530106E1,6.318219E1,5.632965E0,3.9121086E1,2.6300064E1,2.9040833E0,3.859558E0,5.2741203E0,1.1417305E1,1.7206635E1,1.4931351E1,8.2597E0,6.272583E-1,2.066307E0,0E0,8.466339E-1,1.3526052E0,3.5560017E0,8.243214E0,5.775529E0,9.041077E0,6.29343E0,4.562746E0,5.567276E0,2.1947038E0,5.069526E0,0E0,1.9869995E-1,1.675875E0,2.0993729E0,0E0,0E0,0E0,0E0,0E0,0E0,0E0,0E0,0E0,0E0,0E0,0E0,0E0,0E0,0E0,0E0,0E0,0E0,0E0,0E0,0E0,0E0,0E0,0E0,0E0,0E0,0E0,0E0],"parents":[2147483647,0,0,1,1,2,2,3,3,4,4,5,5,6,6,7,7,8,8,9,9,10,10,11,11,12,12,13,13,14,14,16,16,17,17,18,18,19,19,20,20,21,21,22,22,23,23,24,24,25,25,26,26,28,28,29,29,30,30],"right_children":[2,4,6,8,10,12,14,16,18,20,22,24,26,28,30,-1,32,34,36,38,40,42,44,46,48,50,52,-1,54,56,58,-1,-1,-1,-1,-1,-1,-1,-1,-1,-1,-1,-1,-1,-1,-1,-1,-1,-1,-1,-1,-1,-1,-1,-1,-1,-1,-1,-1],"split_conditions":[2.6672282E0,1.2237754E0,4.1866198E0,1.1314021E0,4.58E1,5E1,4.58E1,4.018E1,4.5454547E-2,1.974081E0,2.2192035E0,3.606E1,4.761905E-2,7E0,4.72E1,-3.1223847E-2,9.1629076E-1,2.331E1,4.995E1,2.8301887E-2,5.954E1,3.2E1,2.726E1,1.4E1,3.1354942E0,1.741E1,7.15E1,-5.645677E-3,1.3157895E-1,2.55E1,8.391608E-2,3.8513243E-2,3.1067565E-2,-3.418212E-2,1.6789844E-2,2.9180486E-2,1.28504755E-2,-2.3861958E-2,6.002562E-3,-1.3511583E-2,-7.431852E-4,1.2043507E-2,2.0422457E-2,1.1322999E-2,-3.2987606E-3,-2.5962187E-2,-9.248038E-3,-1.896484E-2,-3.0149786E-2,-1.6395173E-3,-2.6551051E-2,4.2512203E-3,3.0375639E-2,-4.1026462E-2,-2.2770774E-2,1.586883E-2,-2.5530098E-2,-3.6113515E-2,-1.8134996E-2],"split_indices":[26,26,26,26,8,2,8,11,33,26,26,0,32,18,8,0,26,3,10,32,11,2,3,17,26,3,2,0,32,0,32,0,0,0,0,0,0,0,0,0,0,0,0,0,0,0,0,0,0,0,0,0,0,0,0,0,0,0,0],"split_type":[0,0,0,0,0,0,0,0,0,0,0,0,0,0,0,0,0,0,0,0,0,0,0,0,0,0,0,0,0,0,0,0,0,0,0,0,0,0,0,0,0,0,0,0,0,0,0,0,0,0,0,0,0,0,0,0,0,0,0],"sum_hessian":[4.5614175E3,3.0597803E3,1.5016375E3,5.1956995E2,2.5402104E3,9.3036115E2,5.7127625E2,3.725243E2,1.4704564E2,9.020951E2,1.6381154E3,8.039759E2,1.2638527E2,4.3315997E2,1.3811626E2,1.6440893E0,3.708802E2,5.689426E0,1.4135622E2,5.476966E2,3.543985E2,1.3314475E3,3.0666785E2,3.045396E2,4.9943628E2,3.5794758E1,9.059051E1,1.617188E0,4.315428E2,7.854831E0,1.3026143E2,6.963965E1,3.0124054E2,4.6636753E0,1.0257506E0,8.036331E1,6.09929E1,2.3195738E1,5.2450085E2,1.6772517E2,1.8667332E2,7.687166E2,5.6273083E2,1.20243904E2,1.8642395E2,4.8258717E1,2.5628088E2,1.8374916E2,3.1568713E2,1.5212047E1,2.0582712E1,6.5426704E1,2.5163809E1,4.2595816E2,5.584633E0,3.8230817E0,4.0317497E0,1.07326256E2,2.2935173E1],"tree_param":{"num_deleted":"0","num_feature":"37","num_nodes":"59","size_leaf_vector":"1"}},{"base_weights":[4.2883568E-3,2.391977E-1,-5.045186E-1,1.3145192E-1,7.093241E-1,-5.820016E-1,5.172288E-1,3.8533983E-1,4.3444918E-3,8.086824E-1,6.264466E-1,-4.468525E-1,-7.8704685E-1,-2.9506817E-2,5.5126405E-1,-4.864826E-3,4.310392E-1,-3.5778347E-1,6.6765904E-2,1.7564446E-1,8.1828207E-1,3.431512E-2,6.412945E-1,-2.820294E-1,-5.1283956E-1,-7.943009E-1,1.0831215E-1,5.8184963E-1,-1.6774045E-1,-9.47135E-3,9.848413E-3,3.0841429E-2,1.6655518E-2,-1.0988824E-2,-2.1659583E-2,7.7489205E-3,-4.6077515E-3,-2.5057063E-2,3.2180298E-2,1.9782322E-2,4.106928E-2,-3.3454116E-2,2.2093793E-2,-5.1302738E-3,3.2529727E-2,-1.5583915E-2,2.4882277E-2,-2.0645596E-2,-3.1361513E-2,-9.333701E-3,-3.9849795E-2,-2.329858E-2,1.9446438E-2,3.0006045E-2,-1.8066105E-2,-3.0359207E-2,2.8172692E-2],"categories":[],"categories_nodes":[],"categories_segments":[],"categories_sizes":[],"default_left":[0,0,0,0,0,0,0,0,0,0,0,0,0,0,0,0,0,0,0,0,0,0,0,0,0,0,0,0,0,0,0,0,0,0,0,0,0,0,0,0,0,0,0,0,0,0,0,0,0,0,0,0,0,0,0,0,0],"id":6,"left_children":[1,3,5,7,9,11,13,15,17,19,21,23,25,-1,27,29,31,33,35,37,39,41,43,45,47,49,51,53,55,-1,-1,-1,-1,-1,-1,-1,-1,-1,-1,-1,-1,-1,-1,-1,-1,-1,-1,-1,-1,-1,-1,-1,-1,-1,-1,-1,-1],"loss_changes":[5.2698303E2,1.5269933E2,1.105531E2,7.9230255E1,4.1227417E0,3.5533325E1,4.0450497E0,1.4608246E1,3.7030018E1,1.3890991E0,2.7118683E0,8.369385E0,3.4187622E0,0E0,2.2146473E0,3.2729464E0,1.3135025E1,2.4114056E0,1.960206E1,1.9191294E0,5.645752E-4,2.7791395E0,2.164978E0,5.379957E0,6.116989E0,6.849365E-1,9.876206E-1,1.8119812E0,1.8536865E0,0E0,0E0,0E0,0E0,0E0,0E0,0E0,0E0,0E0,0E0,0E0,0E0,0E0,0E0,0E0,0E0,0E0,0E0,0E0,0E0,0E0,0E0,0E0,0E0,0E0,0E0,0E0,0E0],"parents":[2147483647,0,0,1,1,2,2,3,3,4,4,5,5,6,6,7,7,8,8,9,9,10,10,11,11,12,12,14,14,15,15,16,16,17,17,18,18,19,19,20,20,21,21,22,22,23,23,24,24,25,25,26,26,27,27,28,28],"right_children":[2,4,6,8,10,12,14,16,18,20,22,24,26,-1,28,30,32,34,36,38,40,42,44,46,48,50,52,54,56,-1,-1,-1,-1,-1,-1,-1,-1,-1,-1,-1,-1,-1,-1,-1,-1,-1,-1,-1,-1,-1,-1,-1,-1,-1,-1,-1,-1],"split_conditions":[2.6672282E0,6.071E1,9.167E1,1.4586151E0,1.5686159E0,4.1866198E0,1.1627907E-2,3.824E1,4.5E1,4.677E1,3.532009E-2,2.471E1,7.857E1,-2.9506817E-2,7.1E1,7.15E1,1.1314021E0,1.6666667E-1,2.0668628E0,5.087E1,1.062E1,7E0,1E1,1.5765765E-1,3.3603754E0,4.6153846E-1,5.277E1,2E0,7.898E1,-9.47135E-3,9.848413E-3,3.0841429E-2,1.6655518E-2,-1.0988824E-2,-2.1659583E-2,7.7489205E-3,-4.6077515E-3,-2.5057063E-2,3.2180298E-2,1.9782322E-2,4.106928E-2,-3.3454116E-2,2.2093793E-2,-5.1302738E-3,3.2529727E-2,-1.5583915E-2,2.4882277E-2,-2.0645596E-2,-3.1361513E-2,-9.333701E-3,-3.9849795E-2,-2.329858E-2,1.9446438E-2,3.0006045E-2,-1.8066105E-2,-3.0359207E-2,2.8172692E-2],"split_indices":[26,12,12,26,26,26,32,12,12,13,29,0,12,0,8,2,26,27,26,0,3,22,17,33,26,27,8,28,0,0,0,0,0,0,0,0,0,0,0,0,0,0,0,0,0,0,0,0,0,0,0,0,0,0,0,0,0],"split_type":[0,0,0,0,0,0,0,0,0,0,0,0,0,0,0,0,0,0,0,0,0,0,0,0,0,0,0,0,0,0,0,0,0,0,0,0,0,0,0,0,0,0,0,0,0,0,0,0,0,0,0,0,0,0,0,0,0],"sum_hessian":[4.4070225E3,3.0153882E3,1.3916343E3,2.4542021E3,5.61186E2,1.2939403E3,9.769401E1,8.180917E2,1.6361106E3,2.5123445E2,3.0995154E2,7.8181256E2,5.1212775E2,2.4259171E0,9.526809E1,8.586094E1,7.322307E2,2.3986133E2,1.3962493E3,4.0411844E0,2.4719327E2,7.6630144E0,3.022885E2,2.2502267E2,5.5678986E2,5.081239E2,4.0038667E0,9.156383E1,3.704259E0,4.4881462E1,4.0979477E1,2.5090964E2,4.813211E2,8.6135826E1,1.537255E2,8.978841E2,4.9836514E2,1.6230125E0,2.4181721E0,2.7385857E0,2.4445468E2,2.5758145E0,5.0872E0,3.608588E0,2.9867993E2,2.173574E2,7.6652536E0,2.9964252E2,2.5714737E2,2.5539854E0,5.0556992E2,1.0974336E0,2.9064329E0,9.0180565E1,1.3832673E0,2.419658E0,1.2846011E0],"tree_param":{"num_deleted":"0","num_feature":"37","num_nodes":"57","size_leaf_vector":"1"}},{"base_weights":[-1.2576903E-3,2.1921802E-1,-4.6295565E-1,1.1177237E-1,6.653585E-1,-5.561963E-1,5.409508E-1,2.5358084E-1,-6.2096704E-2,7.992202E-1,5.607324E-1,-4.346995E-1,-7.531136E-1,6.2517285E-1,1.03165254E-1,-1.1695467E-1,3.0326957E-1,-3.9311755E-1,-9.697634E-3,4.020653E-2,3.3064047E-1,5.790274E-1,-2.956801E-1,-4.4773942E-1,3.2951468E-1,-6.484611E-1,-7.848519E-1,-2.5052477E-2,6.50232E-1,-2.1514429E-1,7.1649647E-1,-1.1779419E-2,8.1380075E-3,2.8375063E-2,1.1852349E-2,-2.3781706E-2,-3.844674E-3,-6.578223E-3,5.209176E-3,-7.8295074E-5,2.5748223E-2,3.3159997E-2,2.1943813E-2,-3.1019026E-2,2.363768E-2,-1.5705457E-2,-2.5716526E-2,2.2894938E-2,-7.0772357E-3,-3.5289746E-2,-1.2948106E-2,-3.9324787E-2,-4.846082E-3,3.347154E-2,-1.1963854E-2,1.4909963E-2,-3.4617044E-2,4.0358674E-2,1.4106156E-2],"categories":[],"categories_nodes":[],"categories_segments":[],"categories_sizes":[],"default_left":[0,0,0,0,0,0,0,0,0,0,0,0,0,0,0,0,0,0,0,0,0,0,0,0,0,0,0,0,0,0,0,0,0,0,0,0,0,0,0,0,0,0,0,0,0,0,0,0,0,0,0,0,0,0,0,0,0,0,0],"id":7,"left_children":[1,3,5,7,9,11,13,15,17,19,21,23,25,27,29,31,33,35,37,-1,39,41,43,45,47,49,51,-1,53,55,57,-1,-1,-1,-1,-1,-1,-1,-1,-1,-1,-1,-1,-1,-1,-1,-1,-1,-1,-1,-1,-1,-1,-1,-1,-1,-1,-1,-1],"loss_changes":[4.3829855E2,1.3961887E2,1.305621E2,5.795169E1,7.4706573E0,3.0148926E1,4.3147736E0,2.3867218E1,1.831897E1,2.9943848E-1,5.1961365E0,8.021576E0,1.1009521E0,3.1314125E0,4.129142E0,5.141179E0,1.9841728E1,3.729782E0,1.2684927E1,0E0,2.608239E-1,3.4171906E0,2.1321423E0,6.7554474E0,9.0134096E-1,2.464447E0,3.3894348E-1,0E0,1.8283577E0,3.6783996E0,5.5374622E-2,0E0,0E0,0E0,0E0,0E0,0E0,0E0,0E0,0E0,0E0,0E0,0E0,0E0,0E0,0E0,0E0,0E0,0E0,0E0,0E0,0E0,0E0,0E0,0E0,0E0,0E0,0E0,0E0],"parents":[2147483647,0,0,1,1,2,2,3,3,4,4,5,5,6,6,7,7,8,8,9,9,10,10,11,11,12,12,13,13,14,14,15,15,16,16,17,17,18,18,20,20,21,21,22,22,23,23,24,24,25,25,26,26,28,28,29,29,30,30],"right_children":[2,4,6,8,10,12,14,16,18,20,22,24,26,28,30,32,34,36,38,-1,40,42,44,46,48,50,52,-1,54,56,58,-1,-1,-1,-1,-1,-1,-1,-1,-1,-1,-1,-1,-1,-1,-1,-1,-1,-1,-1,-1,-1,-1,-1,-1,-1,-1,-1,-1],"split_conditions":[2.6672282E0,6.25E1,9.091E1,1.7227666E0,1.5686159E0,4.2442E0,3.9278963E0,3.966E1,4.5E1,2E0,7.487E1,6.65E1,4.613138E0,1.8867925E-2,2.5178146E-1,6.983E1,1.1314021E0,6.35E1,4.91E1,4.020653E-2,2.413E1,4.957E1,6.325E1,3.08191E0,2.1231422E-1,4.574711E0,6.067E1,-2.5052477E-2,7.567E1,4.9E1,4.93E1,-1.1779419E-2,8.1380075E-3,2.8375063E-2,1.1852349E-2,-2.3781706E-2,-3.844674E-3,-6.578223E-3,5.209176E-3,-7.8295074E-5,2.5748223E-2,3.3159997E-2,2.1943813E-2,-3.1019026E-2,2.363768E-2,-1.5705457E-2,-2.5716526E-2,2.2894938E-2,-7.0772357E-3,-3.5289746E-2,-1.2948106E-2,-3.9324787E-2,-4.846082E-3,3.347154E-2,-1.1963854E-2,1.4909963E-2,-3.4617044E-2,4.0358674E-2,1.4106156E-2],"split_indices":[26,12,12,26,26,26,26,12,12,20,8,1,26,33,30,1,26,1,8,0,3,13,3,26,30,26,1,0,4,13,13,0,0,0,0,0,0,0,0,0,0,0,0,0,0,0,0,0,0,0,0,0,0,0,0,0,0,0,0],"split_type":[0,0,0,0,0,0,0,0,0,0,0,0,0,0,0,0,0,0,0,0,0,0,0,0,0,0,0,0,0,0,0,0,0,0,0,0,0,0,0,0,0,0,0,0,0,0,0,0,0,0,0,0,0,0,0,0,0,0,0],"sum_hessian":[4.3037783E3,2.9131704E3,1.3906078E3,2.3487603E3,5.6441E2,1.2728356E3,1.17772156E2,1.2933992E3,1.0553612E3,2.4469772E2,3.1971225E2,7.891455E2,4.8369012E2,9.841152E1,1.936064E1,1.5277579E2,1.1406234E3,1.4333951E2,9.1202167E2,2.414514E2,3.2463212E0,3.133424E2,6.369843E0,7.7631323E2,1.2832276E1,1.1754225E2,3.661479E2,1.7286142E0,9.668291E1,1.3173181E1,6.1874595E0,1.07387825E2,4.538797E1,2.270625E2,9.1356085E2,1.1327663E2,3.0062885E1,4.40489E2,4.7153265E2,1.5122693E0,1.734052E0,1.9343591E2,1.199065E2,4.613208E0,1.7566352E0,2.6009323E2,5.1622E2,1.0105916E1,2.7263606E0,1.01752365E2,1.5789888E1,3.651321E2,1.0157729E0,9.488242E1,1.8004827E0,6.5269375E0,6.6462426E0,4.4088492E0,1.7786102E0],"tree_param":{"num_deleted":"0","num_feature":"37","num_nodes":"59","size_leaf_vector":"1"}},{"base_weights":[-7.363657E-3,1.8325378E-1,-5.0775397E-1,7.158172E-2,6.4015776E-1,-5.887863E-1,4.5395407E-1,2.3354317E-1,-1.1622658E-1,7.083529E-1,4.743322E-1,-4.632609E-1,-7.4774384E-1,-8.6811855E-2,5.417868E-1,-8.959604E-2,2.776822E-1,2.8996864E-2,-2.2443518E-1,7.3142046E-1,3.2358173E-1,-4.904304E-1,5.006314E-1,-3.0004916E-1,-5.221821E-1,-7.52482E-1,7.3534893E-3,-5.674119E-1,4.486075E-1,6.359764E-1,2.0172667E-2,-1.6697278E-2,-2.557748E-5,2.8366817E-2,1.0636365E-2,-2.5174292E-3,9.155999E-3,-5.93202E-3,-1.7632775E-2,3.6806908E-2,2.437909E-3,2.9756358E-2,-3.8636103E-2,-3.5454277E-2,5.7569267E-3,2.7391488E-2,1.993105E-3,-1.6602898E-2,2.6695883E-2,-2.7110552E-2,7.982502E-3,-3.3015516E-2,-3.8224336E-2,-3.500411E-2,-7.291706E-4,-2.486866E-4,3.5905477E-2,3.2996453E-2,-2.068637E-2,-2.6734248E-2,2.6778234E-2],"categories":[],"categories_nodes":[],"categories_segments":[],"categories_sizes":[],"default_left":[0,0,0,0,0,0,0,0,0,0,0,0,0,0,0,0,0,0,0,0,0,0,0,0,0,0,0,0,0,0,0,0,0,0,0,0,0,0,0,0,0,0,0,0,0,0,0,0,0,0,0,0,0,0,0,0,0,0,0,0,0],"id":8,"left_children":[1,3,5,7,9,11,13,15,17,19,21,23,25,27,29,31,33,35,37,39,41,43,45,47,49,51,-1,53,55,57,59,-1,-1,-1,-1,-1,-1,-1,-1,-1,-1,-1,-1,-1,-1,-1,-1,-1,-1,-1,-1,-1,-1,-1,-1,-1,-1,-1,-1,-1,-1],"loss_changes":[3.9858447E2,1.5435452E2,9.0098724E1,7.402902E1,6.3836975E0,2.0875519E1,4.3286076E0,1.8661697E1,1.7719889E1,3.4824982E0,4.715767E0,5.583664E0,2.0934753E0,3.717477E0,3.8039665E0,3.4345093E0,2.1513344E1,5.9056807E0,8.721638E0,1.234726E0,8.049295E0,7.6759005E-1,3.7188377E0,4.4666386E0,6.057579E0,1.0131836E-2,0E0,5.423169E-1,8.499923E-1,1.9267349E0,3.9797187E0,0E0,0E0,0E0,0E0,0E0,0E0,0E0,0E0,0E0,0E0,0E0,0E0,0E0,0E0,0E0,0E0,0E0,0E0,0E0,0E0,0E0,0E0,0E0,0E0,0E0,0E0,0E0,0E0,0E0,0E0],"parents":[2147483647,0,0,1,1,2,2,3,3,4,4,5,5,6,6,7,7,8,8,9,9,10,10,11,11,12,12,13,13,14,14,15,15,16,16,17,17,18,18,19,19,20,20,21,21,22,22,23,23,24,24,25,25,27,27,28,28,29,29,30,30],"right_children":[2,4,6,8,10,12,14,16,18,20,22,24,26,28,30,32,34,36,38,40,42,44,46,48,50,52,-1,54,56,58,60,-1,-1,-1,-1,-1,-1,-1,-1,-1,-1,-1,-1,-1,-1,-1,-1,-1,-1,-1,-1,-1,-1,-1,-1,-1,-1,-1,-1,-1,-1],"split_conditions":[2.9069011E0,6.25E1,8.214E1,1.8181819E-1,4E0,4.225373E0,3.448276E-2,3.966E1,3E1,3.846154E-1,1.53E1,1.8E1,7.857E1,4.4998097E0,4.01458E0,1.5E1,1.1314021E0,6.581E1,3.0769232E-1,7.707E1,5.009E1,6.183E1,1.6E3,1.5765765E-1,6.35E1,1.8E1,7.3534893E-3,2.60181E-1,6.25E1,6.325E1,2.3684211E-1,-1.6697278E-2,-2.557748E-5,2.8366817E-2,1.0636365E-2,-2.5174292E-3,9.155999E-3,-5.93202E-3,-1.7632775E-2,3.6806908E-2,2.437909E-3,2.9756358E-2,-3.8636103E-2,-3.5454277E-2,5.7569267E-3,2.7391488E-2,1.993105E-3,-1.6602898E-2,2.6695883E-2,-2.7110552E-2,7.982502E-3,-3.3015516E-2,-3.8224336E-2,-3.500411E-2,-7.291706E-4,-2.486866E-4,3.5905477E-2,3.2996453E-2,-2.068637E-2,-2.6734248E-2,2.6778234E-2],"split_indices":[26,12,12,27,19,26,33,12,0,27,3,0,12,26,26,17,26,11,27,8,13,1,24,33,1,0,0,30,7,3,30,0,0,0,0,0,0,0,0,0,0,0,0,0,0,0,0,0,0,0,0,0,0,0,0,0,0,0,0,0,0],"split_type":[0,0,0,0,0,0,0,0,0,0,0,0,0,0,0,0,0,0,0,0,0,0,0,0,0,0,0,0,0,0,0,0,0,0,0,0,0,0,0,0,0,0,0,0,0,0,0,0,0,0,0,0,0,0,0,0,0,0,0,0,0],"sum_hessian":[4.176798E3,3.0250693E3,1.1517285E3,2.4318552E3,5.93214E2,1.0625844E3,8.914423E1,1.30565E3,1.1262053E3,4.1802917E2,1.7518478E2,5.959164E2,4.6666797E2,1.2457552E1,7.668668E1,1.5678757E2,1.1488624E3,4.811716E2,6.450337E2,3.9353534E2,2.449386E1,4.1804485E0,1.7100433E2,1.5968402E2,4.3623233E2,4.6436816E2,2.2998002E0,6.5333614E0,5.9241905E0,6.477144E1,1.191524E1,4.1155014E1,1.1563256E2,2.090242E2,9.3983826E2,3.1808752E2,1.6308406E2,3.5447836E2,2.9055533E2,3.9075662E2,2.778719E0,1.9997736E1,4.4961243E0,2.9458413E0,1.2346071E0,1.549439E2,1.6060448E1,1.5436125E2,5.3227673E0,4.2398254E2,1.2249793E1,5.996488E1,4.044033E2,5.054093E0,1.4792686E0,2.5738528E0,3.350338E0,6.368946E1,1.081979E0,5.7199054E0,6.1953354E0],"tree_param":{"num_deleted":"0","num_feature":"37","num_nodes":"61","size_leaf_vector":"1"}},{"base_weights":[2.4561489E-3,2.1217169E-1,-4.4610035E-1,1.2005534E-1,6.376765E-1,-5.378042E-1,4.756755E-1,2.3274623E-1,-8.403325E-2,6.5995514E-1,9.786119E-2,-4.208476E-1,-7.1747977E-1,-3.265234E-1,5.115765E-1,-1.336664E-1,2.79153E-1,5.9790842E-2,-2.0948763E-1,7.496798E-1,5.8540165E-1,-3.793451E-2,3.068326E-1,-3.185641E-1,-4.9577516E-1,-6.573666E-1,-3.833328E-2,-3.2372188E-2,1.9922605E-2,5.6751704E-1,1.4461687E-1,5.970285E-3,-1.2295165E-2,2.7769193E-2,1.1181441E-2,-1.1262721E-2,5.6365146E-3,-1.4325115E-2,-1.7482879E-3,1.4187462E-2,3.8030393E-2,1.7309254E-2,3.1589516E-2,-4.522124E-3,3.2401975E-2,3.157147E-2,-1.6387733E-2,-3.9860424E-2,-2.3450261E-2,-5.9905653E-3,-3.3156883E-2,-2.9612968E-2,2.9728308E-2,2.3811195E-2,-1.613624E-2],"categories":[],"categories_nodes":[],"categories_segments":[],"categories_sizes":[],"default_left":[0,0,0,0,0,0,0,0,0,0,0,0,0,0,0,0,0,0,0,0,0,0,0,0,0,0,0,0,0,0,0,0,0,0,0,0,0,0,0,0,0,0,0,0,0,0,0,0,0,0,0,0,0,0,0],"id":9,"left_children":[1,3,5,7,9,11,13,15,17,19,21,23,25,27,29,31,33,35,37,39,41,-1,43,45,47,49,-1,-1,-1,51,53,-1,-1,-1,-1,-1,-1,-1,-1,-1,-1,-1,-1,-1,-1,-1,-1,-1,-1,-1,-1,-1,-1,-1,-1],"loss_changes":[3.8347318E2,1.08801125E2,1.100365E2,5.2564625E1,5.877701E0,2.4529938E1,3.5666637E0,2.5070496E1,1.4690499E1,2.7341766E0,3.9483664E0,5.346077E0,8.6938477E-1,1.5764401E0,2.2453117E0,4.749301E0,1.992221E1,5.7562103E0,5.832823E0,8.621292E-1,2.706871E0,0E0,2.4170928E0,2.8825912E0,2.95652E0,5.907669E-1,0E0,0E0,0E0,3.427662E0,2.6858428E0,0E0,0E0,0E0,0E0,0E0,0E0,0E0,0E0,0E0,0E0,0E0,0E0,0E0,0E0,0E0,0E0,0E0,0E0,0E0,0E0,0E0,0E0,0E0,0E0],"parents":[2147483647,0,0,1,1,2,2,3,3,4,4,5,5,6,6,7,7,8,8,9,9,10,10,11,11,12,12,13,13,14,14,15,15,16,16,17,17,18,18,19,19,20,20,22,22,23,23,24,24,25,25,29,29,30,30],"right_children":[2,4,6,8,10,12,14,16,18,20,22,24,26,28,30,32,34,36,38,40,42,-1,44,46,48,50,-1,-1,-1,52,54,-1,-1,-1,-1,-1,-1,-1,-1,-1,-1,-1,-1,-1,-1,-1,-1,-1,-1,-1,-1,-1,-1,-1,-1],"split_conditions":[2.6672282E0,6.071E1,7.857E1,1.8718022E0,2.4849067E0,4.1866198E0,2.0408163E-2,4.189E1,4.5E1,1.5686159E0,2.12E1,3.1696856E0,4.9904327E0,4.995E1,4.1239033E0,6.666667E-2,1.1314021E0,3.960396E-2,6.581E1,1.498E1,9.706E1,-3.793451E-2,6E0,3E0,4.4E1,4.6153846E-1,-3.833328E-2,-3.2372188E-2,1.9922605E-2,3.2E1,5.3E1,5.970285E-3,-1.2295165E-2,2.7769193E-2,1.1181441E-2,-1.1262721E-2,5.6365146E-3,-1.4325115E-2,-1.7482879E-3,1.4187462E-2,3.8030393E-2,1.7309254E-2,3.1589516E-2,-4.522124E-3,3.2401975E-2,3.157147E-2,-1.6387733E-2,-3.9860424E-2,-2.3450261E-2,-5.9905653E-3,-3.3156883E-2,-2.9612968E-2,2.9728308E-2,2.3811195E-2,-1.613624E-2],"split_indices":[26,12,12,26,26,26,33,12,9,26,3,26,26,10,26,27,26,33,11,3,12,0,18,18,1,27,0,0,0,2,5,0,0,0,0,0,0,0,0,0,0,0,0,0,0,0,0,0,0,0,0,0,0,0,0],"split_type":[0,0,0,0,0,0,0,0,0,0,0,0,0,0,0,0,0,0,0,0,0,0,0,0,0,0,0,0,0,0,0,0,0,0,0,0,0,0,0,0,0,0,0,0,0,0,0,0,0,0,0,0,0,0,0],"sum_hessian":[4.0744922E3,2.7767795E3,1.2977126E3,2.283675E3,4.931043E2,1.1806691E3,1.1704354E2,1.4711919E3,8.124833E2,4.733463E2,1.9758013E1,7.171775E2,4.6349158E2,4.6669326E0,1.1237661E2,1.6517145E2,1.3060204E3,3.7877237E2,4.337109E2,2.1070673E2,2.626396E2,3.3590472E0,1.6398966E1,3.0545422E2,4.1172327E2,2.1504094E2,2.4845064E2,3.3090708E0,1.3578616E0,9.703737E1,1.5339241E1,5.0727367E1,1.14444084E2,2.1707532E2,1.0889451E3,5.8818295E1,3.1995407E2,3.0047345E2,1.3323744E2,5.4466863E0,2.0526004E2,4.4033035E1,2.1860655E2,7.9165163E0,8.482449E0,2.27803E0,3.0317618E2,3.1234854E1,3.804884E2,2.5152488E0,2.125257E2,1.7353574E0,9.530201E1,8.961507E0,6.3777337E0],"tree_param":{"num_deleted":"0","num_feature":"37","num_nodes":"55","size_leaf_vector":"1"}},{"base_weights":[4.3123445E-4,2.0484288E-1,-4.2238235E-1,1.0745812E-1,6.293359E-1,-5.0740975E-1,4.3343532E-1,2.1658723E-1,-6.74496E-2,6.5780866E-1,3.007372E-1,-3.8500112E-1,-7.002623E-1,4.7371894E-1,-3.445776E-2,-1.7230846E-1,2.6300764E-1,7.898639E-2,-1.858026E-1,7.4392456E-1,5.8912766E-1,-1.9223344E-1,5.969561E-1,-1.929234E-1,-4.6364993E-1,-7.0418113E-1,9.432773E-3,-2.8515046E-2,5.018748E-1,-1.5377021E-2,1.0804537E-3,2.5619885E-2,1.05283065E-2,9.521178E-3,1.9086942E-4,-7.829418E-3,-2.577965E-2,2.023988E-2,3.7683282E-2,1.2263151E-2,3.127297E-2,1.3229996E-2,-3.901034E-2,-2.819573E-2,3.3559732E-2,-1.7297171E-2,-4.302835E-3,-1.8893054E-2,-2.8264767E-2,-1.9571336E-4,-3.5320666E-2,-8.1750965E-3,2.680607E-2],"categories":[],"categories_nodes":[],"categories_segments":[],"categories_sizes":[],"default_left":[0,0,0,0,0,0,0,0,0,0,0,0,0,0,0,0,0,0,0,0,0,0,0,0,0,0,0,0,0,0,0,0,0,0,0,0,0,0,0,0,0,0,0,0,0,0,0,0,0,0,0,0,0],"id":10,"left_children":[1,3,5,7,9,11,13,15,17,19,21,23,25,27,-1,29,31,33,35,37,39,41,43,45,47,49,-1,-1,51,-1,-1,-1,-1,-1,-1,-1,-1,-1,-1,-1,-1,-1,-1,-1,-1,-1,-1,-1,-1,-1,-1,-1,-1],"loss_changes":[3.4077313E2,1.0980699E2,9.372456E1,4.1303143E1,4.4406433E0,2.7333923E1,5.60236E0,2.4096348E1,1.4431551E1,2.2551575E0,6.1565695E0,1.0749771E1,1.7101593E0,3.6142788E0,0E0,3.748055E0,1.5463181E1,3.1196783E0,4.3543873E0,3.4981537E-1,3.0716782E0,4.5810075E0,2.626831E0,3.40687E0,4.2192764E0,7.021942E-1,0E0,0E0,2.6119041E0,0E0,0E0,0E0,0E0,0E0,0E0,0E0,0E0,0E0,0E0,0E0,0E0,0E0,0E0,0E0,0E0,0E0,0E0,0E0,0E0,0E0,0E0,0E0,0E0],"parents":[2147483647,0,0,1,1,2,2,3,3,4,4,5,5,6,6,7,7,8,8,9,9,10,10,11,11,12,12,13,13,15,15,16,16,17,17,18,18,19,19,20,20,21,21,22,22,23,23,24,24,25,25,28,28],"right_children":[2,4,6,8,10,12,14,16,18,20,22,24,26,28,-1,30,32,34,36,38,40,42,44,46,48,50,-1,-1,52,-1,-1,-1,-1,-1,-1,-1,-1,-1,-1,-1,-1,-1,-1,-1,-1,-1,-1,-1,-1,-1,-1,-1,-1],"split_conditions":[2.6672282E0,6.429E1,9.167E1,1.8245493E0,5E0,4.1866198E0,4.697749E0,3.966E1,3E1,1.5686159E0,6.6E1,2.471E1,8.409E1,4.709E1,-3.445776E-2,5.807E1,1.1314021E0,3.48E1,4.375E-1,4.747E1,5.4E1,4.891E1,3.8E1,1.6E1,3.3775876E0,7E0,9.432773E-3,-2.8515046E-2,1.53E1,-1.5377021E-2,1.0804537E-3,2.5619885E-2,1.05283065E-2,9.521178E-3,1.9086942E-4,-7.829418E-3,-2.577965E-2,2.023988E-2,3.7683282E-2,1.2263151E-2,3.127297E-2,1.3229996E-2,-3.901034E-2,-2.819573E-2,3.3559732E-2,-1.7297171E-2,-4.302835E-3,-1.8893054E-2,-2.8264767E-2,-1.9571336E-4,-3.5320666E-2,-8.1750965E-3,2.680607E-2],"split_indices":[26,12,12,26,19,26,26,12,0,26,6,0,12,13,0,4,26,3,27,13,21,13,5,17,26,18,0,0,3,0,0,0,0,0,0,0,0,0,0,0,0,0,0,0,0,0,0,0,0,0,0,0,0],"split_type":[0,0,0,0,0,0,0,0,0,0,0,0,0,0,0,0,0,0,0,0,0,0,0,0,0,0,0,0,0,0,0,0,0,0,0,0,0,0,0,0,0,0,0,0,0,0,0,0,0,0,0,0,0],"sum_hessian":[3.9408533E3,2.6568833E3,1.2839698E3,2.1621162E3,4.9476718E2,1.1683035E3,1.15666466E2,1.331268E3,8.3084814E2,4.543926E2,4.0374584E1,7.165111E2,4.5179233E2,1.12217606E2,3.4488623E0,1.4167203E2,1.189596E3,3.7151367E2,4.5933447E2,1.9724487E2,2.5714774E2,1.5286188E1,2.5088398E1,2.0915681E2,5.0735428E2,4.5001624E2,1.7760928E0,2.4412367E0,1.0977637E2,8.31205E1,5.8551537E1,2.051616E2,9.844343E2,1.4903613E2,2.2247755E2,4.2331067E2,3.602383E1,6.695707E0,1.9054916E2,2.5313765E1,2.3183397E2,8.91193E0,6.3742585E0,1.1115214E0,2.3976875E1,8.508639E1,1.2407043E2,2.7769604E2,2.2965823E2,1.4386346E0,4.485776E2,5.1888094E0,1.0458756E2],"tree_param":{"num_deleted":"0","num_feature":"37","num_nodes":"53","size_leaf_vector":"1"}},{"base_weights":[7.0126015E-3,2.0257924E-1,-4.067007E-1,1.1027247E-1,6.043353E-1,-5.01321E-1,4.226959E-1,2.0824097E-1,-6.752564E-2,6.851042E-1,4.8522407E-1,-3.289342E-1,-6.338316E-1,4.084405E-2,3.46201E-1,-1.5009132E-1,2.5145438E-1,7.872415E-2,-2.0310351E-1,6.946013E-1,-1.7594999E-1,5.169929E-1,-6.58257E-1,-1.737512E-1,-3.8180324E-1,-6.8149525E-1,-4.162045E-1,-2.3626548E-1,4.0801513E-1,-1.4884673E-2,1.4268408E-3,-1.8383017E-2,1.3698655E-2,6.853953E-3,-6.1769756E-3,-3.771526E-2,-8.953808E-3,3.540939E-2,3.264272E-3,1.3540401E-2,-2.965424E-2,2.7062658E-2,-2.9225955E-2,-3.698246E-2,-1.2428359E-2,-3.0063212E-2,-5.503024E-3,-2.0295128E-2,6.6502104E-3,-3.4249257E-2,3.6002216E-3,-1.2290369E-2,-2.9420143E-2,-2.7819742E-2,1.8410802E-2,-1.0822798E-2,2.3442574E-2],"categories":[],"categories_nodes":[],"categories_segments":[],"categories_sizes":[],"default_left":[0,0,0,0,0,0,0,0,0,0,0,0,0,0,0,0,0,0,0,0,0,0,0,0,0,0,0,0,0,0,0,0,0,0,0,0,0,0,0,0,0,0,0,0,0,0,0,0,0,0,0,0,0,0,0,0,0],"id":11,"left_children":[1,3,5,7,9,11,13,15,17,19,21,23,25,-1,27,29,31,33,35,37,39,41,43,45,47,49,51,53,55,-1,-1,-1,-1,-1,-1,-1,-1,-1,-1,-1,-1,-1,-1,-1,-1,-1,-1,-1,-1,-1,-1,-1,-1,-1,-1,-1,-1],"loss_changes":[3.1464688E2,9.786069E1,9.817346E1,3.7437965E1,4.4117126E0,2.5396423E1,3.58786E0,2.1491436E1,1.5165331E1,2.5054474E0,7.703644E0,3.9475021E0,6.2789917E0,0E0,4.029558E0,3.956193E0,1.734301E1,4.3636465E0,5.1195717E0,2.4201355E0,9.0180826E-1,5.601532E0,1.3522387E-2,3.368881E0,4.570896E0,1.4099579E0,3.2660465E0,2.3555903E0,3.8673363E0,0E0,0E0,0E0,0E0,0E0,0E0,0E0,0E0,0E0,0E0,0E0,0E0,0E0,0E0,0E0,0E0,0E0,0E0,0E0,0E0,0E0,0E0,0E0,0E0,0E0,0E0,0E0,0E0],"parents":[2147483647,0,0,1,1,2,2,3,3,4,4,5,5,6,6,7,7,8,8,9,9,10,10,11,11,12,12,14,14,15,15,16,16,17,17,18,18,19,19,20,20,21,21,22,22,23,23,24,24,25,25,26,26,27,27,28,28],"right_children":[2,4,6,8,10,12,14,16,18,20,22,24,26,-1,28,30,32,34,36,38,40,42,44,46,48,50,52,54,56,-1,-1,-1,-1,-1,-1,-1,-1,-1,-1,-1,-1,-1,-1,-1,-1,-1,-1,-1,-1,-1,-1,-1,-1,-1,-1,-1,-1],"split_conditions":[2.6672282E0,6.071E1,7.857E1,1.8718022E0,1.6666667E-1,3.6323092E0,3E0,4.189E1,4.5E1,2.014903E0,7.277E1,4.6E1,6.467E1,4.084405E-2,9.929E1,5.807E1,2.7777778E-2,1.1764706E-1,4.4E1,2E0,4.583E1,5E1,2.3702438E0,3.8E1,5.833E1,6.517E1,4.225373E0,1.3E1,1.2E3,-1.4884673E-2,1.4268408E-3,-1.8383017E-2,1.3698655E-2,6.853953E-3,-6.1769756E-3,-3.771526E-2,-8.953808E-3,3.540939E-2,3.264272E-3,1.3540401E-2,-2.965424E-2,2.7062658E-2,-2.9225955E-2,-3.698246E-2,-1.2428359E-2,-3.0063212E-2,-5.503024E-3,-2.0295128E-2,6.6502104E-3,-3.4249257E-2,3.6002216E-3,-1.2290369E-2,-2.9420143E-2,-2.7819742E-2,1.8410802E-2,-1.0822798E-2,2.3442574E-2],"split_indices":[26,12,12,26,27,26,19,12,9,26,8,5,8,0,12,4,32,32,1,20,1,10,26,12,1,1,26,18,24,0,0,0,0,0,0,0,0,0,0,0,0,0,0,0,0,0,0,0,0,0,0,0,0,0,0,0,0],"split_type":[0,0,0,0,0,0,0,0,0,0,0,0,0,0,0,0,0,0,0,0,0,0,0,0,0,0,0,0,0,0,0,0,0,0,0,0,0,0,0,0,0,0,0,0,0,0,0,0,0,0,0,0,0,0,0,0,0],"sum_hessian":[3.8869033E3,2.6396318E3,1.2472715E3,2.1475002E3,4.921315E2,1.1199045E3,1.2736686E2,1.3844716E3,7.630287E2,2.904361E2,2.0169543E2,4.88232E2,6.316726E2,1.9126648E1,1.0824021E2,1.4872742E2,1.2357441E3,3.6726935E2,3.9575937E2,2.8745883E2,2.9772637E0,1.9677635E2,4.9190755E0,1.251561E2,3.630759E2,5.164342E2,1.1523841E2,1.0114111E1,9.81261E1,8.107106E1,6.765636E1,4.283169E1,1.1929125E3,2.8528445E2,8.198489E1,1.5261356E1,3.8049802E2,2.8126126E2,6.197571E0,1.606967E0,1.3702966E0,1.9303352E2,3.7428372E0,3.4318821E0,1.4871933E0,1.5133658E1,1.1002244E2,3.4704163E2,1.6034262E1,5.1414386E2,2.2903302E0,5.9142254E1,5.6096153E1,6.6642957E0,3.4498153E0,8.483802E0,8.96423E1],"tree_param":{"num_deleted":"0","num_feature":"37","num_nodes":"57","size_leaf_vector":"1"}},{"base_weights":[2.1241345E-4,1.9119239E-1,-3.9704162E-1,1.04371086E-1,5.953609E-1,-4.9128062E-1,3.9134243E-1,3.2798815E-1,1.7000929E-2,6.1311775E-1,-4.9966868E-2,-3.7856224E-1,-6.7342466E-1,4.463856E-1,-2.1817999E-1,-4.8431978E-2,3.6662677E-1,1.5611596E-1,-1.029715E-1,7.162087E-1,5.350636E-1,-5.9286565E-1,2.8633332E-2,-1.9419722E-1,-4.6142974E-1,-6.114112E-1,-3.6117584E-2,6.621892E-1,2.774493E-1,-4.0393323E-2,3.5532215E-1,-1.1406613E-2,9.52691E-3,2.4738064E-2,1.44997435E-2,1.1226164E-2,-7.8469946E-4,-2.2556903E-3,-1.28851775E-2,7.67114E-3,3.616845E-2,2.713945E-2,-2.7017107E-2,-3.482808E-2,-2.5996687E-3,-1.9148191E-2,-3.691487E-3,-1.8944254E-2,-2.7763212E-2,-2.2228058E-2,-3.15254E-2,3.6679007E-2,5.5001094E-3,-1.0235239E-3,2.2791512E-2,3.0282056E-2,-1.0548878E-2],"categories":[],"categories_nodes":[],"categories_segments":[],"categories_sizes":[],"default_left":[0,0,0,0,0,0,0,0,0,0,0,0,0,0,0,0,0,0,0,0,0,0,0,0,0,0,0,0,0,0,0,0,0,0,0,0,0,0,0,0,0,0,0,0,0,0,0,0,0,0,0,0,0,0,0,0,0],"id":12,"left_children":[1,3,5,7,9,11,13,15,17,19,21,23,25,27,29,31,33,35,37,39,41,43,-1,45,47,49,-1,51,53,-1,55,-1,-1,-1,-1,-1,-1,-1,-1,-1,-1,-1,-1,-1,-1,-1,-1,-1,-1,-1,-1,-1,-1,-1,-1,-1,-1],"loss_changes":[2.8805063E2,8.9912384E1,9.177614E1,4.125528E1,5.2237396E0,2.2360077E1,4.5317593E0,8.646465E0,2.5378433E1,3.1664124E0,4.754393E0,1.034082E1,8.3206177E-1,4.247734E0,4.216416E0,2.4530768E0,5.14077E0,8.278471E0,7.298482E0,6.430664E-1,2.411827E0,3.8266015E-1,0E0,4.821213E0,3.4321976E0,3.3035278E-1,0E0,1.9948978E0,3.7240987E0,0E0,1.0612115E0,0E0,0E0,0E0,0E0,0E0,0E0,0E0,0E0,0E0,0E0,0E0,0E0,0E0,0E0,0E0,0E0,0E0,0E0,0E0,0E0,0E0,0E0,0E0,0E0,0E0,0E0],"parents":[2147483647,0,0,1,1,2,2,3,3,4,4,5,5,6,6,7,7,8,8,9,9,10,10,11,11,12,12,13,13,14,14,15,15,16,16,17,17,18,18,19,19,20,20,21,21,23,23,24,24,25,25,27,27,28,28,30,30],"right_children":[2,4,6,8,10,12,14,16,18,20,22,24,26,28,30,32,34,36,38,40,42,44,-1,46,48,50,-1,52,54,-1,56,-1,-1,-1,-1,-1,-1,-1,-1,-1,-1,-1,-1,-1,-1,-1,-1,-1,-1,-1,-1,-1,-1,-1,-1,-1,-1],"split_conditions":[2.6672282E0,5.161E1,7.857E1,1.410987E0,2E0,4.225373E0,8E0,3.065E1,2.7E1,1.5686159E0,4.566E1,2.637E1,4.9904327E0,4E0,5.893E1,1E0,1.1314021E0,2.091864E0,2.6666668E-1,4.677E1,4.6666667E-1,2E0,2.8633332E-2,1.6E1,3.3775876E0,1.12426035E-1,-3.6117584E-2,5.893E1,5.807E1,-4.0393323E-2,2.3917526E-1,-1.1406613E-2,9.52691E-3,2.4738064E-2,1.44997435E-2,1.1226164E-2,-7.8469946E-4,-2.2556903E-3,-1.28851775E-2,7.67114E-3,3.616845E-2,2.713945E-2,-2.7017107E-2,-3.482808E-2,-2.5996687E-3,-1.9148191E-2,-3.691487E-3,-1.8944254E-2,-2.7763212E-2,-2.2228058E-2,-3.15254E-2,3.6679007E-2,5.5001094E-3,-1.0235239E-3,2.2791512E-2,3.0282056E-2,-1.0548878E-2],"split_indices":[26,12,12,26,20,26,22,12,0,26,3,0,26,19,11,28,26,26,27,13,27,28,0,17,26,30,0,8,4,0,30,0,0,0,0,0,0,0,0,0,0,0,0,0,0,0,0,0,0,0,0,0,0,0,0,0,0],"split_type":[0,0,0,0,0,0,0,0,0,0,0,0,0,0,0,0,0,0,0,0,0,0,0,0,0,0,0,0,0,0,0,0,0,0,0,0,0,0,0,0,0,0,0,0,0,0,0,0,0,0,0,0,0,0,0,0,0],"sum_hessian":[3.7947556E3,2.5630752E3,1.2316803E3,2.1108845E3,4.5219067E2,1.1005085E3,1.3117175E2,5.9226776E2,1.5186168E3,4.4012994E2,1.2060728E1,6.8171387E2,4.1879474E2,1.20552826E2,1.0618925E1,5.511179E1,5.3715594E2,7.030676E2,8.155492E2,1.861259E2,2.5400403E2,6.468445E0,5.5922832E0,2.1243294E2,4.692809E2,1.906493E2,2.2814543E2,5.165176E1,6.890107E1,5.0341034E0,5.584821E0,3.1482786E1,2.3629005E1,1.9898361E2,3.3817236E2,5.0263373E2,2.004339E2,5.9453217E2,2.2101703E2,2.620045E0,1.8350586E2,2.5268411E2,1.3199167E0,5.186283E0,1.282162E0,8.186552E1,1.3056741E2,2.5233963E2,2.1694127E2,2.207321E1,1.685761E2,4.5447468E1,6.2042937E0,2.6135899E1,4.2765167E1,3.8247247E0,1.7600969E0],"tree_param":{"num_deleted":"0","num_feature":"37","num_nodes":"57","size_leaf_vector":"1"}},{"base_weights":[3.6912493E-3,1.5834782E-1,-4.7706684E-1,6.7345366E-2,5.767969E-1,-5.465221E-1,3.402509E-1,1.6812178E-1,-1.5692829E-1,6.854133E-1,4.9746406E-1,-4.334268E-1,-6.731869E-1,-3.426787E-2,4.0088138E-1,2.817357E-1,6.2199857E-2,1.8797176E-2,-2.675171E-1,1.4865999E-1,6.959443E-1,-7.288378E-2,5.161533E-1,-2.7542555E-1,-4.9664643E-1,-6.184586E-1,-3.5702612E-2,-2.7053202E-2,4.4562942E-1,4.4917213E-3,1.6503092E-2,-3.852537E-2,3.9448254E-3,-1.676116E-2,2.7599938E-3,-3.0015016E-2,-1.2177293E-2,2.7915305E-2,-2.9606132E-2,3.512084E-2,4.791234E-3,-3.162011E-2,1.950017E-2,2.6359435E-3,2.6426945E-2,-5.2309586E-3,-2.0675926E-2,-2.5744362E-2,1.2183468E-4,-2.2010896E-2,-3.198061E-2,2.6955888E-2,4.1749105E-3],"categories":[],"categories_nodes":[],"categories_segments":[],"categories_sizes":[],"default_left":[0,0,0,0,0,0,0,0,0,0,0,0,0,0,0,0,0,0,0,0,0,0,0,0,0,0,0,0,0,0,0,0,0,0,0,0,0,0,0,0,0,0,0,0,0,0,0,0,0,0,0,0,0],"id":13,"left_children":[1,3,5,7,9,11,13,15,17,19,21,23,25,-1,27,29,31,33,35,37,39,41,43,45,47,49,-1,-1,51,-1,-1,-1,-1,-1,-1,-1,-1,-1,-1,-1,-1,-1,-1,-1,-1,-1,-1,-1,-1,-1,-1,-1,-1],"loss_changes":[2.7967896E2,1.08335686E2,5.215837E1,5.288536E1,4.038437E0,1.1801743E1,4.7721176E0,1.9407291E1,1.4105892E1,1.0942078E0,3.2072906E0,4.3462296E0,4.449768E-1,0E0,3.1460485E0,7.1900864E0,1.1692778E1,3.6423972E0,3.4069023E0,1.9536928E0,7.387848E-1,2.9171326E0,1.6255188E0,3.0349236E0,2.9080734E0,3.8554382E-1,0E0,0E0,2.2009764E0,0E0,0E0,0E0,0E0,0E0,0E0,0E0,0E0,0E0,0E0,0E0,0E0,0E0,0E0,0E0,0E0,0E0,0E0,0E0,0E0,0E0,0E0,0E0,0E0],"parents":[2147483647,0,0,1,1,2,2,3,3,4,4,5,5,6,6,7,7,8,8,9,9,10,10,11,11,12,12,14,14,15,15,16,16,17,17,18,18,19,19,20,20,21,21,22,22,23,23,24,24,25,25,28,28],"right_children":[2,4,6,8,10,12,14,16,18,20,22,24,26,-1,28,30,32,34,36,38,40,42,44,46,48,50,-1,-1,52,-1,-1,-1,-1,-1,-1,-1,-1,-1,-1,-1,-1,-1,-1,-1,-1,-1,-1,-1,-1,-1,-1,-1,-1],"split_conditions":[3.08191E0,6.25E1,8.409E1,4E0,1.3333334E-1,4.2442E0,2.0408163E-2,3.3E1,2.01E1,2.2E1,3.532009E-2,2.471E1,4.9904327E0,-3.426787E-2,2.917E1,6.4705886E-2,4.4E1,2.6785715E-2,4.083E1,5.128E1,9.217E1,1.3E3,7.763E1,2.12E1,5.833E1,1.12426035E-1,-3.5702612E-2,-2.7053202E-2,3.9278963E0,4.4917213E-3,1.6503092E-2,-3.852537E-2,3.9448254E-3,-1.676116E-2,2.7599938E-3,-3.0015016E-2,-1.2177293E-2,2.7915305E-2,-2.9606132E-2,3.512084E-2,4.791234E-3,-3.162011E-2,1.950017E-2,2.6359435E-3,2.6426945E-2,-5.2309586E-3,-2.0675926E-2,-2.5744362E-2,1.2183468E-4,-2.2010896E-2,-3.198061E-2,2.6955888E-2,4.1749105E-3],"split_indices":[26,12,12,18,27,26,33,9,0,1,29,0,26,0,4,32,1,33,1,0,1,24,12,3,1,30,0,0,26,0,0,0,0,0,0,0,0,0,0,0,0,0,0,0,0,0,0,0,0,0,0,0,0],"split_type":[0,0,0,0,0,0,0,0,0,0,0,0,0,0,0,0,0,0,0,0,0,0,0,0,0,0,0,0,0,0,0,0,0,0,0,0,0,0,0,0,0,0,0,0,0,0,0,0,0,0,0,0,0],"sum_hessian":[3.7595168E3,2.8449778E3,9.145391E2,2.3377378E3,5.0723993E2,8.432145E2,7.132461E1,1.6131334E3,7.246044E2,2.1087982E2,2.963601E2,4.4780475E2,3.9540976E2,3.4059901E0,6.791862E1,7.775058E2,8.356276E2,2.8019885E2,4.4440555E2,4.3486924E0,2.0653113E2,9.311028E0,2.8704907E2,1.2950269E2,3.1830206E2,1.7593097E2,2.1947878E2,2.577203E0,6.5341415E1,1.5698463E2,6.205212E2,1.5538397E1,8.2008923E2,2.5360111E1,2.5483873E2,2.8245253E1,4.1616028E2,2.9588206E0,1.3898718E0,2.0415877E2,2.3723652E0,4.0497036E0,5.2613235E0,7.6087418E0,2.7944034E2,5.867969E1,7.082299E1,3.0704825E2,1.1253836E1,2.0978233E1,1.5495273E2,5.1545593E1,1.3795819E1],"tree_param":{"num_deleted":"0","num_feature":"37","num_nodes":"53","size_leaf_vector":"1"}},{"base_weights":[2.1534122E-3,-9.391812E-2,5.294661E-1,-3.8717943E-1,9.661475E-4,5.787745E-1,2.2678074E-1,-1.5269051E-1,-4.9136537E-1,1.740268E-1,-1.24975346E-1,-4.2963573E-1,5.8683676E-1,-6.2129265E-1,3.0442554E-1,-4.346473E-1,-3.739548E-2,-6.442304E-1,-4.1227219E-1,9.333993E-2,3.140544E-1,-1.8680835E-1,1.0561389E-1,1.3265687E-4,-3.2676194E-2,5.9335864E-1,-2.7631524E-1,-8.019749E-3,-3.4743033E-2,1.4623742E-1,6.266155E-1,-2.4032054E-2,-9.57979E-4,-2.8598173E-2,9.5156376E-4,-3.2467306E-2,6.9018797E-4,-2.166475E-2,-3.4327859E-3,6.3700983E-3,-7.880258E-3,2.1383582E-2,9.76034E-3,-1.1038072E-2,9.759287E-3,-1.295793E-2,8.304407E-3,3.179947E-2,2.3305181E-2,1.968184E-2,-3.110976E-2,-1.2818374E-2,1.729337E-2,-1.1563468E-2,3.5659857E-2],"categories":[],"categories_nodes":[],"categories_segments":[],"categories_sizes":[],"default_left":[0,0,0,0,0,0,0,0,0,0,0,0,0,0,0,0,0,0,0,0,0,0,0,0,0,0,0,0,0,0,0,0,0,0,0,0,0,0,0,0,0,0,0,0,0,0,0,0,0,0,0,0,0,0,0],"id":14,"left_children":[1,3,5,7,9,11,13,15,17,19,21,23,25,27,29,31,33,35,37,39,41,43,45,-1,-1,47,49,-1,-1,51,53,-1,-1,-1,-1,-1,-1,-1,-1,-1,-1,-1,-1,-1,-1,-1,-1,-1,-1,-1,-1,-1,-1,-1,-1],"loss_changes":[1.8629765E2,8.655863E1,8.327286E0,1.8502663E1,5.126906E1,4.2090607E0,5.525156E0,7.635571E0,6.094681E0,1.1165018E1,1.9431849E1,4.3123174E-1,2.8844452E0,1.3015985E-1,3.726231E0,1.2944832E0,5.0832624E0,6.068115E-1,2.4946442E0,5.4052043E0,4.8017006E0,1.3972233E1,6.407754E0,0E0,0E0,2.307312E0,1.2428117E0,0E0,0E0,4.2315273E0,1.9745588E0,0E0,0E0,0E0,0E0,0E0,0E0,0E0,0E0,0E0,0E0,0E0,0E0,0E0,0E0,0E0,0E0,0E0,0E0,0E0,0E0,0E0,0E0,0E0,0E0],"parents":[2147483647,0,0,1,1,2,2,3,3,4,4,5,5,6,6,7,7,8,8,9,9,10,10,11,11,12,12,13,13,14,14,15,15,16,16,17,17,18,18,19,19,20,20,21,21,22,22,25,25,26,26,29,29,30,30],"right_children":[2,4,6,8,10,12,14,16,18,20,22,24,26,28,30,32,34,36,38,40,42,44,46,-1,-1,48,50,-1,-1,52,54,-1,-1,-1,-1,-1,-1,-1,-1,-1,-1,-1,-1,-1,-1,-1,-1,-1,-1,-1,-1,-1,-1,-1,-1],"split_conditions":[6.875E1,4.347826E-2,5E0,2.35E1,2.471E1,7.874016E-3,8.571E1,1.9607844E-2,2.173913E-2,9.090909E-2,1.0483871E-1,1E0,7.707E1,7.5E1,2.3966943E-1,2.874494E-1,3.448276E-2,6.517E1,5.833E1,5E0,7.773E1,6.167E1,5.882353E-2,1.3265687E-4,-3.2676194E-2,4E0,2.416E1,-8.019749E-3,-3.4743033E-2,5.41E1,2E0,-2.4032054E-2,-9.57979E-4,-2.8598173E-2,9.5156376E-4,-3.2467306E-2,6.9018797E-4,-2.166475E-2,-3.4327859E-3,6.3700983E-3,-7.880258E-3,2.1383582E-2,9.76034E-3,-1.1038072E-2,9.759287E-3,-1.295793E-2,8.304407E-3,3.179947E-2,2.3305181E-2,1.968184E-2,-3.110976E-2,-1.2818374E-2,1.729337E-2,-1.1563468E-2,3.5659857E-2],"split_indices":[12,32,19,0,0,33,12,32,32,29,29,28,8,12,30,30,29,1,1,19,8,1,33,0,0,19,3,0,0,8,22,0,0,0,0,0,0,0,0,0,0,0,0,0,0,0,0,0,0,0,0,0,0,0,0],"split_type":[0,0,0,0,0,0,0,0,0,0,0,0,0,0,0,0,0,0,0,0,0,0,0,0,0,0,0,0,0,0,0,0,0,0,0,0,0,0,0,0,0,0,0,0,0,0,0,0,0,0,0,0,0,0,0],"sum_hessian":[3.6754485E3,3.1097097E3,5.657387E2,7.594322E2,2.3502776E3,4.857039E2,8.00348E1,2.3438126E2,5.2505096E2,9.8979016E2,1.3604874E3,3.4376788E0,4.822662E2,6.125663E0,7.3909134E1,6.722095E1,1.6716031E2,1.7659567E2,3.4845526E2,6.2900867E2,3.607815E2,1.0729606E3,2.875268E2,1.5100963E0,1.9275826E0,4.789598E2,3.3064046E0,1.280935E0,4.844728E0,5.054604E1,2.3363094E1,6.0380154E1,6.840793E0,1.5087745E1,1.5207256E2,1.7524648E2,1.3492067E0,3.2811957E2,2.0335684E1,5.5426746E2,7.474118E1,1.8312103E2,1.7766046E2,9.8576416E2,8.719643E1,4.042191E1,2.4710489E2,3.557763E2,1.2318352E2,1.0787828E0,2.2276216E0,1.6660885E1,3.3885155E1,1.9885575E0,2.1374537E1],"tree_param":{"num_deleted":"0","num_feature":"37","num_nodes":"55","size_leaf_vector":"1"}},{"base_weights":[1.3675641E-3,1.624788E-1,-4.458188E-1,7.709001E-2,5.582773E-1,-5.220117E-1,2.7631095E-1,2.0441583E-1,-1.0430259E-1,6.445446E-1,4.5634025E-1,-4.148883E-1,-6.526874E-1,1.6707905E-1,6.980361E-1,-1.6737923E-1,2.442676E-1,-6.6791916E-1,-7.960715E-2,6.549979E-1,-2.1586013E-1,4.6718037E-1,-3.1183422E-2,-6.9406325E-1,-3.936077E-1,-6.550369E-1,1.0910215E-4,2.4896656E-1,-3.3083218E-1,3.4776127E-1,3.7266403E-2,-1.1846671E-2,8.036566E-3,2.3244938E-2,1.0170157E-2,-3.4502454E-2,9.6734654E-4,2.0831595E-3,-8.872124E-3,5.1850453E-3,3.3265036E-2,-3.145162E-2,1.9466024E-2,-1.9737802E-2,2.399971E-2,-1.0758712E-2,-3.526073E-2,-2.0006636E-2,1.849557E-2,-2.331159E-4,-3.2866307E-2,-7.1309838E-3,1.9755209E-2,1.2080655E-2,-3.8128804E-2,2.5199682E-2,1.074256E-3],"categories":[],"categories_nodes":[],"categories_segments":[],"categories_sizes":[],"default_left":[0,0,0,0,0,0,0,0,0,0,0,0,0,0,0,0,0,0,0,0,0,0,0,0,0,0,0,0,0,0,0,0,0,0,0,0,0,0,0,0,0,0,0,0,0,0,0,0,0,0,0,0,0,0,0,0,0],"id":15,"left_children":[1,3,5,7,9,11,13,15,17,19,21,23,25,27,29,31,33,35,37,39,41,43,-1,45,47,49,-1,51,53,55,-1,-1,-1,-1,-1,-1,-1,-1,-1,-1,-1,-1,-1,-1,-1,-1,-1,-1,-1,-1,-1,-1,-1,-1,-1,-1,-1],"loss_changes":[2.590445E2,8.928882E1,5.2540405E1,5.0262413E1,3.8292084E0,1.1792343E1,4.100321E0,1.8983768E1,1.2443603E1,2.4037476E0,2.8476753E0,2.5564804E0,5.960388E-1,3.1005201E0,4.7555923E-2,2.876252E0,1.0319962E1,5.8449745E-1,1.0226116E1,1.3439941E0,1.1879271E0,2.5834312E0,0E0,2.1410942E-2,2.364334E0,5.7025146E-1,0E0,3.7267773E0,2.8742554E0,1.970213E-1,0E0,0E0,0E0,0E0,0E0,0E0,0E0,0E0,0E0,0E0,0E0,0E0,0E0,0E0,0E0,0E0,0E0,0E0,0E0,0E0,0E0,0E0,0E0,0E0,0E0,0E0,0E0],"parents":[2147483647,0,0,1,1,2,2,3,3,4,4,5,5,6,6,7,7,8,8,9,9,10,10,11,11,12,12,13,13,14,14,15,15,16,16,17,17,18,18,19,19,20,20,21,21,23,23,24,24,25,25,27,27,28,28,29,29],"right_children":[2,4,6,8,10,12,14,16,18,20,22,24,26,28,30,32,34,36,38,40,42,44,-1,46,48,50,-1,52,54,56,-1,-1,-1,-1,-1,-1,-1,-1,-1,-1,-1,-1,-1,-1,-1,-1,-1,-1,-1,-1,-1,-1,-1,-1,-1,-1,-1],"split_conditions":[2.9704144E0,6.25E1,7.283E1,1.8718022E0,1.875E-1,4.2442E0,6.3E1,3.966E1,4.35E1,2.014903E0,9.483E1,4.233E1,7.15E1,1E0,2.12E1,7.4E1,1.1314021E0,8.933E1,4.4E1,2.8E1,5.62E1,4.31E1,-3.1183422E-2,6E0,7.8E1,4.6153846E-1,1.0910215E-4,4E0,3.9647575E-2,4.373E1,3.7266403E-2,-1.1846671E-2,8.036566E-3,2.3244938E-2,1.0170157E-2,-3.4502454E-2,9.6734654E-4,2.0831595E-3,-8.872124E-3,5.1850453E-3,3.3265036E-2,-3.145162E-2,1.9466024E-2,-1.9737802E-2,2.399971E-2,-1.0758712E-2,-3.526073E-2,-2.0006636E-2,1.849557E-2,-2.331159E-4,-3.2866307E-2,-7.1309838E-3,1.9755209E-2,1.2080655E-2,-3.8128804E-2,2.5199682E-2,1.074256E-3],"split_indices":[26,12,12,26,27,26,2,12,1,26,7,1,2,25,3,1,26,11,2,1,8,11,0,18,2,27,0,22,29,8,0,0,0,0,0,0,0,0,0,0,0,0,0,0,0,0,0,0,0,0,0,0,0,0,0,0,0],"split_type":[0,0,0,0,0,0,0,0,0,0,0,0,0,0,0,0,0,0,0,0,0,0,0,0,0,0,0,0,0,0,0,0,0,0,0,0,0,0,0,0,0,0,0,0,0,0,0,0,0,0,0,0,0,0,0,0,0],"sum_hessian":[3.5934998E3,2.642208E3,9.5129175E2,2.1743196E3,4.6788867E2,8.6075E2,9.054175E1,1.2774827E3,8.968368E2,2.5053925E2,2.1734941E2,4.752948E2,3.854552E2,7.3023865E1,1.7517885E1,1.2336406E2,1.1541187E3,3.655297E1,8.602838E2,2.4776778E2,2.771466E0,2.1575133E2,1.5980806E0,3.142482E1,4.4386996E2,3.8407697E2,1.3782344E0,6.3139748E1,9.884117E0,3.0774918E0,1.44403925E1,1.0201615E2,2.1347902E1,1.7873495E2,9.7538367E2,3.5408764E1,1.1442064E0,3.8439136E2,4.7589243E2,4.748438E0,2.4301935E2,1.6235881E0,1.1478778E0,2.723812E0,2.1302751E2,1.1769502E0,3.0247871E1,4.4058072E2,3.2892518E0,1.3577983E0,3.8271918E2,1.716608E1,4.597367E1,4.4389424E0,5.445174E0,1.7127049E0,1.3647869E0],"tree_param":{"num_deleted":"0","num_feature":"37","num_nodes":"57","size_leaf_vector":"1"}},{"base_weights":[5.342868E-4,1.7763767E-1,-3.864814E-1,1.04439475E-1,5.250067E-1,-4.706346E-1,3.8926166E-1,2.0514718E-1,-4.7557436E-2,6.279435E-1,4.146174E-1,-3.6242428E-1,-6.4122933E-1,4.3720177E-1,-2.2050351E-1,-1.1876719E-1,2.4239281E-1,-5.836575E-1,-2.5079863E-2,6.3891846E-1,-2.1235162E-1,-3.126509E-2,4.3195185E-1,-3.7673184E-1,1.9013306E-1,-6.468506E-1,9.153303E-3,-3.135724E-2,4.648765E-1,-3.790655E-2,4.3338627E-1,-1.23441955E-2,3.830023E-3,8.864417E-3,1.9870622E-2,3.1844608E-3,-3.2416817E-2,4.0582134E-3,-6.0919737E-3,4.8518563E-3,3.257757E-2,1.2853893E-2,-3.024653E-2,2.2445126E-2,-2.7142758E-2,-1.2485481E-2,-2.1702705E-2,2.3636673E-2,-6.2971236E-3,-5.4201772E-3,-3.2470614E-2,2.5589634E-2,-2.537253E-2,1.6973088E-2,3.52597E-2,2.6353225E-2,3.7228023E-3],"categories":[],"categories_nodes":[],"categories_segments":[],"categories_sizes":[],"default_left":[0,0,0,0,0,0,0,0,0,0,0,0,0,0,0,0,0,0,0,0,0,0,0,0,0,0,0,0,0,0,0,0,0,0,0,0,0,0,0,0,0,0,0,0,0,0,0,0,0,0,0,0,0,0,0,0,0],"id":16,"left_children":[1,3,5,7,9,11,13,15,17,19,21,23,25,27,29,31,33,35,37,39,41,-1,43,45,47,49,51,-1,53,-1,55,-1,-1,-1,-1,-1,-1,-1,-1,-1,-1,-1,-1,-1,-1,-1,-1,-1,-1,-1,-1,-1,-1,-1,-1,-1,-1],"loss_changes":[2.4137192E2,6.1375145E1,7.2356445E1,3.0573986E1,4.514885E0,1.8187653E1,3.275219E0,1.4520222E1,9.583868E0,2.123207E0,3.97855E0,4.9166718E0,1.4170685E0,3.2710457E0,3.3487391E0,3.1362684E0,1.08054695E1,1.3814774E0,7.879675E0,1.3947906E0,8.0588293E-1,0E0,3.5970154E0,4.2437057E0,1.5005686E0,4.5744324E-1,1.374578E0,0E0,2.7493343E0,0E0,1.12490356E-1,0E0,0E0,0E0,0E0,0E0,0E0,0E0,0E0,0E0,0E0,0E0,0E0,0E0,0E0,0E0,0E0,0E0,0E0,0E0,0E0,0E0,0E0,0E0,0E0,0E0,0E0],"parents":[2147483647,0,0,1,1,2,2,3,3,4,4,5,5,6,6,7,7,8,8,9,9,10,10,11,11,12,12,13,13,14,14,15,15,16,16,17,17,18,18,19,19,20,20,22,22,23,23,24,24,25,25,26,26,28,28,30,30],"right_children":[2,4,6,8,10,12,14,16,18,20,22,24,26,28,30,32,34,36,38,40,42,-1,44,46,48,50,52,-1,54,-1,56,-1,-1,-1,-1,-1,-1,-1,-1,-1,-1,-1,-1,-1,-1,-1,-1,-1,-1,-1,-1,-1,-1,-1,-1,-1,-1],"split_conditions":[2.7013612E0,6.25E1,9.167E1,1.8245493E0,1.6666667E-1,4.1866198E0,6.325E1,3.966E1,4.4E1,2.014903E0,2.9850746E-2,6.35E1,7.857E1,2.352E1,4.65E1,7.15E1,1.021978E-1,4.775E1,4.5E1,2.8E1,4.583E1,-3.126509E-2,5E1,2.637E1,7E0,4.6153846E-1,7.941E1,-3.135724E-2,8.928572E-2,-3.790655E-2,4.93E1,-1.23441955E-2,3.830023E-3,8.864417E-3,1.9870622E-2,3.1844608E-3,-3.2416817E-2,4.0582134E-3,-6.0919737E-3,4.8518563E-3,3.257757E-2,1.2853893E-2,-3.024653E-2,2.2445126E-2,-2.7142758E-2,-1.2485481E-2,-2.1702705E-2,2.3636673E-2,-6.2971236E-3,-5.4201772E-3,-3.2470614E-2,2.5589634E-2,-2.537253E-2,1.6973088E-2,3.52597E-2,2.6353225E-2,3.7228023E-3],"split_indices":[26,12,12,26,27,26,3,12,1,26,29,1,12,4,2,2,29,13,9,1,1,0,10,0,18,27,12,0,32,0,13,0,0,0,0,0,0,0,0,0,0,0,0,0,0,0,0,0,0,0,0,0,0,0,0,0,0],"split_type":[0,0,0,0,0,0,0,0,0,0,0,0,0,0,0,0,0,0,0,0,0,0,0,0,0,0,0,0,0,0,0,0,0,0,0,0,0,0,0,0,0,0,0,0,0,0,0,0,0,0,0,0,0,0,0,0,0],"sum_hessian":[3.519528E3,2.4149546E3,1.1045735E3,1.9957148E3,4.1923978E2,9.968299E2,1.07743576E2,1.2001733E3,7.9554144E2,2.1451678E2,2.0472299E2,6.118502E2,3.8497964E2,1.0015253E2,7.5910497E0,1.235455E2,1.0766278E3,3.100851E1,7.6453296E2,2.119877E2,2.529086E0,2.7815404E0,2.0194145E2,5.967174E2,1.5132804E1,3.8168616E2,3.2934809E0,1.989179E0,9.8163345E1,4.0783873E0,3.5126624E0,7.445577E1,4.9089733E1,7.5971124E2,3.169166E2,2.8181355E0,2.8190376E1,3.6448346E2,4.000495E2,5.027268E0,2.0696043E2,1.3089976E0,1.2200884E0,1.9902023E2,2.9212148E0,1.872158E2,4.0950162E2,7.727806E0,7.4049983E0,2.0124075E0,3.7967377E2,1.6740227E0,1.6194582E0,6.6087E1,3.2076347E1,2.4141538E0,1.0985087E0],"tree_param":{"num_deleted":"0","num_feature":"37","num_nodes":"57","size_leaf_vector":"1"}},{"base_weights":[5.384608E-3,1.6955672E-1,-3.7265757E-1,9.253124E-2,5.583869E-1,-4.637584E-1,3.5614893E-1,2.4124828E-1,-3.6211703E-2,4.680923E-1,6.747422E-1,-3.5708714E-1,-6.4206594E-1,1.8807341E-1,5.340625E-1,3.6488506E-1,1.2252912E-1,9.702654E-2,-1.5160258E-1,4.9690363E-1,-3.1702597E-2,6.860253E-1,-2.6407963E-2,-2.2858784E-1,-4.2522818E-1,-5.311104E-1,-6.5971E-1,3.1890026E-1,-4.1418874E-1,-1.4859036E-1,6.0687757E-1,-6.52655E-3,1.8922558E-2,2.0480724E-2,2.6012692E-3,4.1585384E-4,1.2570567E-2,-3.4543905E-2,-6.694292E-3,2.6549963E-2,8.019244E-3,2.1627912E-2,3.5033632E-2,-6.088925E-3,-1.7323676E-2,-2.2308715E-2,-1.1165295E-3,-2.8310362E-2,-1.3477449E-2,-3.3070724E-2,-9.484144E-3,2.1241201E-2,-2.7799902E-2,2.0884383E-2,-4.1528057E-2,-2.8235098E-2,2.2727577E-2,-4.389711E-3,3.291512E-2],"categories":[],"categories_nodes":[],"categories_segments":[],"categories_sizes":[],"default_left":[0,0,0,0,0,0,0,0,0,0,0,0,0,0,0,0,0,0,0,0,0,0,0,0,0,0,0,0,0,0,0,0,0,0,0,0,0,0,0,0,0,0,0,0,0,0,0,0,0,0,0,0,0,0,0,0,0,0,0],"id":17,"left_children":[1,3,5,7,9,11,13,15,17,19,21,23,25,27,29,31,33,35,37,39,-1,41,-1,43,45,47,49,51,53,55,57,-1,-1,-1,-1,-1,-1,-1,-1,-1,-1,-1,-1,-1,-1,-1,-1,-1,-1,-1,-1,-1,-1,-1,-1,-1,-1,-1,-1],"loss_changes":[2.1747878E2,7.311899E1,7.060887E1,3.9073975E1,3.926056E0,1.7716919E1,3.4416294E0,1.3853462E1,1.6841923E1,7.6375427E0,2.725998E0,5.0917053E0,3.3857727E-1,5.052953E0,2.9234257E0,3.1633186E0,9.786182E0,6.963001E0,5.5150356E0,2.499714E0,0E0,3.390808E-1,0E0,2.5707035E0,3.248314E0,3.3771992E-1,1.14486694E-1,5.043436E0,4.35806E0,1.8370872E0,1.904747E0,0E0,0E0,0E0,0E0,0E0,0E0,0E0,0E0,0E0,0E0,0E0,0E0,0E0,0E0,0E0,0E0,0E0,0E0,0E0,0E0,0E0,0E0,0E0,0E0,0E0,0E0,0E0,0E0],"parents":[2147483647,0,0,1,1,2,2,3,3,4,4,5,5,6,6,7,7,8,8,9,9,10,10,11,11,12,12,13,13,14,14,15,15,16,16,17,17,18,18,19,19,21,21,23,23,24,24,25,25,26,26,27,27,28,28,29,29,30,30],"right_children":[2,4,6,8,10,12,14,16,18,20,22,24,26,28,30,32,34,36,38,40,-1,42,-1,44,46,48,50,52,54,56,58,-1,-1,-1,-1,-1,-1,-1,-1,-1,-1,-1,-1,-1,-1,-1,-1,-1,-1,-1,-1,-1,-1,-1,-1,-1,-1,-1,-1],"split_conditions":[2.7536607E0,7.5E1,7.857E1,1.6486586E0,1.01265825E-1,4.2442E0,4.9E1,2.35E1,3.3E1,2E0,4.6153846E-1,4.5E1,3.6E1,1E0,3.3E1,2.4691358E-2,1.1314021E0,6.621E1,4.4E1,2.4680996E0,-3.1702597E-2,3.8E1,-2.6407963E-2,5.3333336E-1,5.833E1,8.144797E-2,5.667E1,8E0,3.3E1,7.8E1,9.167E1,-6.52655E-3,1.8922558E-2,2.0480724E-2,2.6012692E-3,4.1585384E-4,1.2570567E-2,-3.4543905E-2,-6.694292E-3,2.6549963E-2,8.019244E-3,2.1627912E-2,3.5033632E-2,-6.088925E-3,-1.7323676E-2,-2.2308715E-2,-1.1165295E-3,-2.8310362E-2,-1.3477449E-2,-3.3070724E-2,-9.484144E-3,2.1241201E-2,-2.7799902E-2,2.0884383E-2,-4.1528057E-2,-2.8235098E-2,2.2727577E-2,-4.389711E-3,3.291512E-2],"split_indices":[26,12,12,26,32,26,2,0,9,20,27,9,9,25,9,32,26,11,1,26,0,5,0,27,1,29,1,22,9,6,12,0,0,0,0,0,0,0,0,0,0,0,0,0,0,0,0,0,0,0,0,0,0,0,0,0,0,0,0],"split_type":[0,0,0,0,0,0,0,0,0,0,0,0,0,0,0,0,0,0,0,0,0,0,0,0,0,0,0,0,0,0,0,0,0,0,0,0,0,0,0,0,0,0,0,0,0,0,0,0,0,0,0,0,0,0,0,0,0,0,0],"sum_hessian":[3.5020881E3,2.4421074E3,1.0599808E3,2.0393578E3,4.027495E2,9.425284E2,1.17452415E2,9.458676E2,1.0934901E3,2.2959839E2,1.7315111E2,5.916065E2,3.509219E2,6.1453865E1,5.5998547E1,4.6232184E2,4.8354578E2,5.075719E2,5.859183E2,2.2428448E2,5.31391E0,1.7196776E2,1.1833522E0,2.0651617E2,3.8509033E2,5.241412E1,2.9850778E2,5.087336E1,1.0580506E1,5.297062E0,5.0701485E1,1.2092635E1,4.5022922E2,9.438956E1,3.8915622E2,3.230191E2,1.8455281E2,1.7428247E1,5.6849005E2,2.0312608E2,2.1158396E1,1.1062694E1,1.6090506E2,1.0941482E2,9.710136E1,3.6595724E2,1.9133072E1,4.518622E1,7.2279E0,2.9702347E2,1.4843159E0,4.5838173E1,5.0351887E0,3.5282352E0,7.052271E0,3.1722429E0,2.1248188E0,3.4458613E0,4.7255623E1],"tree_param":{"num_deleted":"0","num_feature":"37","num_nodes":"59","size_leaf_vector":"1"}},{"base_weights":[-4.0195524E-3,2.0991984E-1,-2.9494327E-1,4.2073306E-1,1.6312984E-1,-1.2245419E-1,-4.8204422E-1,-4.752884E-1,4.3024084E-1,2.3683776E-1,2.7996283E-2,-1.8294442E-1,1.6586521E-1,-5.827028E-1,-2.8849852E-1,-3.282613E-2,-1.252705E-4,3.6148292E-1,5.5279076E-1,-8.510625E-2,2.5614718E-1,-6.0316347E-2,1.5735513E-1,-5.3355806E-2,-2.7840587E-1,4.4937408E-1,7.422086E-2,-5.914734E-1,4.0439802E-1,-3.484329E-1,9.1909364E-2,1.960816E-2,-6.197682E-3,2.823093E-2,-9.623563E-3,4.277531E-3,-2.3785375E-2,1.1917702E-2,2.9371018E-2,-6.984466E-3,4.3874625E-3,9.822902E-3,-2.1609267E-2,-1.0558334E-2,2.3442858E-3,-1.2515663E-2,-2.6302755E-2,-9.951896E-3,2.6562333E-2,-9.723102E-4,1.7709529E-2,-3.0688573E-2,-1.7384969E-2,2.8854802E-3,2.5472676E-2,-1.3899184E-2,-2.7423257E-2,-2.6197184E-2,9.055188E-3],"categories":[],"categories_nodes":[],"categories_segments":[],"categories_sizes":[],"default_left":[0,0,0,0,0,0,0,0,0,0,0,0,0,0,0,0,0,0,0,0,0,0,0,0,0,0,0,0,0,0,0,0,0,0,0,0,0,0,0,0,0,0,0,0,0,0,0,0,0,0,0,0,0,0,0,0,0,0,0],"id":18,"left_children":[1,3,5,7,9,11,13,15,17,19,21,23,25,27,29,-1,-1,31,33,35,37,39,41,43,45,47,49,51,53,55,57,-1,-1,-1,-1,-1,-1,-1,-1,-1,-1,-1,-1,-1,-1,-1,-1,-1,-1,-1,-1,-1,-1,-1,-1,-1,-1,-1,-1],"loss_changes":[2.1375076E2,1.9452118E1,4.6907745E1,3.2613792E0,1.6140945E1,1.3260005E1,1.3425339E1,3.618859E-1,2.796402E0,6.542145E0,6.5589633E0,7.7476025E0,3.3981695E0,4.2046356E0,5.519985E0,0E0,0E0,3.4840813E0,1.2185478E0,4.046864E0,5.694069E0,4.0248895E0,5.4533496E0,4.2400103E0,2.380415E0,1.808013E0,2.6557019E0,2.256607E0,1.3915265E-1,2.780836E0,1.9379938E0,0E0,0E0,0E0,0E0,0E0,0E0,0E0,0E0,0E0,0E0,0E0,0E0,0E0,0E0,0E0,0E0,0E0,0E0,0E0,0E0,0E0,0E0,0E0,0E0,0E0,0E0,0E0,0E0],"parents":[2147483647,0,0,1,1,2,2,3,3,4,4,5,5,6,6,7,7,8,8,9,9,10,10,11,11,12,12,13,13,14,14,17,17,18,18,19,19,20,20,21,21,22,22,23,23,24,24,25,25,26,26,27,27,28,28,29,29,30,30],"right_children":[2,4,6,8,10,12,14,16,18,20,22,24,26,28,30,-1,-1,32,34,36,38,40,42,44,46,48,50,52,54,56,58,-1,-1,-1,-1,-1,-1,-1,-1,-1,-1,-1,-1,-1,-1,-1,-1,-1,-1,-1,-1,-1,-1,-1,-1,-1,-1,-1,-1],"split_conditions":[2.272126E0,1.2237754E0,3.3603754E0,3.155E1,5E1,5.5E1,4.683E1,7.078E1,7.152E1,3.169014E-2,5E1,3.3E1,4.875E1,6.517E1,6.114E1,-3.282613E-2,-1.252705E-4,5.75E1,5.35E1,1.9600948E0,7.217E1,2.6043957E-1,5.441E1,1.6E1,6.078E1,4.373E1,6.5E1,9.701493E-2,7E1,4.613138E0,2.5423728E-2,1.960816E-2,-6.197682E-3,2.823093E-2,-9.623563E-3,4.277531E-3,-2.3785375E-2,1.1917702E-2,2.9371018E-2,-6.984466E-3,4.3874625E-3,9.822902E-3,-2.1609267E-2,-1.0558334E-2,2.3442858E-3,-1.2515663E-2,-2.6302755E-2,-9.951896E-3,2.6562333E-2,-9.723102E-4,1.7709529E-2,-3.0688573E-2,-1.7384969E-2,2.8854802E-3,2.5472676E-2,-1.3899184E-2,-2.7423257E-2,-2.6197184E-2,9.055188E-3],"split_indices":[26,26,26,4,10,2,8,3,11,33,13,9,0,1,4,0,0,21,13,26,1,30,13,17,3,8,1,33,1,26,33,0,0,0,0,0,0,0,0,0,0,0,0,0,0,0,0,0,0,0,0,0,0,0,0,0,0,0,0],"split_type":[0,0,0,0,0,0,0,0,0,0,0,0,0,0,0,0,0,0,0,0,0,0,0,0,0,0,0,0,0,0,0,0,0,0,0,0,0,0,0,0,0,0,0,0,0,0,0,0,0,0,0,0,0,0,0,0,0,0,0],"sum_hessian":[3.4323015E3,1.9779995E3,1.4543021E3,3.578242E2,1.6201753E3,7.575595E2,6.967426E2,3.24267E0,3.545815E2,1.0478682E3,5.7230707E2,6.264864E2,1.3107314E2,4.570374E2,2.3970523E2,2.0631564E0,1.1795138E0,2.2967154E2,1.2490997E2,5.9099606E1,9.887686E2,3.4043057E2,2.318765E2,2.6640347E2,3.6008292E2,3.1065662E1,1.0000748E2,4.5340958E2,3.6278365E0,2.071519E2,3.255333E1,2.1619955E2,1.3471977E1,1.2319714E2,1.7128323E0,4.1673214E1,1.7426392E1,9.399994E2,4.8769184E1,2.2166174E2,1.1876884E2,2.1807858E2,1.3797908E1,1.0305567E2,1.6334778E2,3.2520352E2,3.48794E1,3.3223495E0,2.7743313E1,7.563385E1,2.4373625E1,4.140212E2,3.9388367E1,1.2039773E0,2.4238591E0,1.5496469E2,5.218721E1,3.5016437E0,2.9051685E1],"tree_param":{"num_deleted":"0","num_feature":"37","num_nodes":"59","size_leaf_vector":"1"}},{"base_weights":[2.1309096E-3,1.283385E-1,-4.4450632E-1,4.7837287E-2,5.206584E-1,-5.125956E-1,2.5823054E-1,1.5494806E-1,-1.488391E-1,5.2765876E-1,-3.381295E-2,-4.0495434E-1,-6.166192E-1,-3.2541823E-2,3.174884E-1,-1.7206585E-1,1.9256009E-1,-6.0104716E-1,-1.3006872E-1,6.4854455E-1,4.6553686E-1,-2.8121507E-1,-4.6043697E-1,-5.510665E-1,-6.6740805E-1,-3.2318223E-2,3.6505312E-1,-1.5328266E-2,9.7215007E-4,2.1473559E-2,7.868263E-3,-1.565189E-2,-3.2798987E-2,-1.5102265E-3,-1.0041616E-2,3.599745E-3,3.2819185E-2,2.9292835E-2,1.9906597E-2,-1.6559009E-2,5.2766516E-3,-2.3408962E-2,1.8375227E-2,-1.4750152E-2,-2.842154E-2,-3.347263E-2,-1.1015615E-2,2.1047642E-2,-1.6922997E-2],"categories":[],"categories_nodes":[],"categories_segments":[],"categories_sizes":[],"default_left":[0,0,0,0,0,0,0,0,0,0,0,0,0,0,0,0,0,0,0,0,0,0,0,0,0,0,0,0,0,0,0,0,0,0,0,0,0,0,0,0,0,0,0,0,0,0,0,0,0],"id":19,"left_children":[1,3,5,7,9,11,13,15,17,19,-1,21,23,-1,25,27,29,31,33,35,37,39,41,43,45,-1,47,-1,-1,-1,-1,-1,-1,-1,-1,-1,-1,-1,-1,-1,-1,-1,-1,-1,-1,-1,-1,-1,-1],"loss_changes":[1.8979883E2,8.2886E1,3.56279E1,4.593411E1,4.1010666E0,7.326721E0,3.7723885E0,1.7393482E1,6.4485416E0,3.038597E0,0E0,2.1734962E0,7.714691E-1,0E0,3.1156898E0,3.769761E0,1.0491108E1,2.7511692E-1,5.220192E0,6.236954E-1,2.1784973E0,2.0913095E0,1.6466026E0,5.2202225E-1,2.4421692E-2,0E0,2.5216742E0,0E0,0E0,0E0,0E0,0E0,0E0,0E0,0E0,0E0,0E0,0E0,0E0,0E0,0E0,0E0,0E0,0E0,0E0,0E0,0E0,0E0,0E0],"parents":[2147483647,0,0,1,1,2,2,3,3,4,4,5,5,6,6,7,7,8,8,9,9,11,11,12,12,14,14,15,15,16,16,17,17,18,18,19,19,20,20,21,21,22,22,23,23,24,24,26,26],"right_children":[2,4,6,8,10,12,14,16,18,20,-1,22,24,-1,26,28,30,32,34,36,38,40,42,44,46,-1,48,-1,-1,-1,-1,-1,-1,-1,-1,-1,-1,-1,-1,-1,-1,-1,-1,-1,-1,-1,-1,-1,-1],"split_conditions":[3.2308044E0,6.862E1,7.857E1,2.0668628E0,6.1538464E-1,4.2442E0,2.0408163E-2,4.189E1,4.283E1,1.5686159E0,-3.381295E-2,4.5E1,4.9904327E0,-3.2541823E-2,2E0,6.067E1,1.1314021E0,4.804E1,4.5E1,4.677E1,5E1,1.2E1,7.5E1,5E1,5.3E1,-3.2318223E-2,8E0,-1.5328266E-2,9.7215007E-4,2.1473559E-2,7.868263E-3,-1.565189E-2,-3.2798987E-2,-1.5102265E-3,-1.0041616E-2,3.599745E-3,3.2819185E-2,2.9292835E-2,1.9906597E-2,-1.6559009E-2,5.2766516E-3,-2.3408962E-2,1.8375227E-2,-1.4750152E-2,-2.842154E-2,-3.347263E-2,-1.1015615E-2,2.1047642E-2,-1.6922997E-2],"split_indices":[26,12,12,26,27,26,33,12,1,26,0,9,26,0,22,1,26,11,9,13,4,18,1,7,1,0,22,0,0,0,0,0,0,0,0,0,0,0,0,0,0,0,0,0,0,0,0,0,0],"split_type":[0,0,0,0,0,0,0,0,0,0,0,0,0,0,0,0,0,0,0,0,0,0,0,0,0,0,0,0,0,0,0,0,0,0,0,0,0,0,0,0,0,0,0,0,0,0,0,0,0],"sum_hessian":[3.3650654E3,2.6242393E3,7.408263E2,2.1783745E3,4.458648E2,6.7563367E2,6.5192635E1,1.4104498E3,7.679246E2,4.4382816E2,2.036663E0,3.3444775E2,3.411859E2,3.3786151E0,6.181402E1,1.4512251E2,1.2653273E3,2.936855E1,7.38556E2,1.4745296E2,2.9637518E2,1.0541533E2,2.2903241E2,1.5411765E2,1.8706827E2,2.314935E0,5.9499084E1,8.489719E1,6.022532E1,1.6221144E2,1.1031158E3,5.7772484E0,2.3591301E1,3.0688934E2,4.316667E2,2.1145792E0,1.4533838E2,1.03655495E2,1.927197E2,9.348183E1,1.1933501E1,2.2734102E2,1.6913962E0,1.0929778E1,1.4318787E2,1.8572163E2,1.3466285E0,5.5491486E1,4.0075994E0],"tree_param":{"num_deleted":"0","num_feature":"37","num_nodes":"49","size_leaf_vector":"1"}},{"base_weights":[3.2774596E-3,1.7272921E-1,-3.059029E-1,1.0602439E-1,5.409985E-1,-4.028317E-1,3.397139E-1,-1.9956872E-1,1.4469112E-1,4.5259002E-1,6.480209E-1,-2.425992E-1,-5.2238077E-1,4.3069857E-1,6.7379646E-2,-2.3552904E-1,2.6719955E-1,2.3912957E-1,1.9951219E-2,-4.3967432E-1,4.814845E-1,6.60724E-1,2.615253E-1,-1.0487614E-1,-3.3223784E-1,-3.6153507E-1,-5.716677E-1,-2.9921833E-2,4.585059E-1,-5.235875E-1,2.3685996E-1,-1.5555332E-2,-5.3144996E-3,1.9312339E-2,-6.626472E-3,9.17021E-3,1.7611785E-2,-2.37261E-3,7.838968E-3,2.203794E-2,-3.973517E-2,2.5748258E-2,-2.3482686E-3,2.1229211E-2,3.4001697E-2,-2.6574314E-2,2.6952446E-2,-8.938089E-3,8.746822E-3,-2.8477907E-2,-1.4512486E-2,-2.3569465E-2,-1.29866E-2,-2.4816213E-2,-3.0905271E-2,2.5532937E-2,-1.5395764E-3,1.9994779E-2,-4.0013004E-2,1.9997137E-3,3.4318857E-2],"categories":[],"categories_nodes":[],"categories_segments":[],"categories_sizes":[],"default_left":[0,0,0,0,0,0,0,0,0,0,0,0,0,0,0,0,0,0,0,0,0,0,0,0,0,0,0,0,0,0,0,0,0,0,0,0,0,0,0,0,0,0,0,0,0,0,0,0,0,0,0,0,0,0,0,0,0,0,0,0,0],"id":20,"left_children":[1,3,5,7,9,11,13,15,17,19,21,23,25,27,29,31,33,35,37,39,41,43,45,47,49,51,53,-1,55,57,59,-1,-1,-1,-1,-1,-1,-1,-1,-1,-1,-1,-1,-1,-1,-1,-1,-1,-1,-1,-1,-1,-1,-1,-1,-1,-1,-1,-1,-1,-1],"loss_changes":[1.7404648E2,5.265805E1,7.3737335E1,2.1511885E1,2.8181152E0,1.947055E1,3.7885342E0,3.4975882E0,1.9013962E1,4.939949E0,5.461998E-1,5.384903E0,4.4312897E0,3.5739956E0,4.107108E0,1.8278446E0,7.700026E-1,5.726101E0,6.43308E0,2.3118358E0,3.175663E0,3.5479736E-1,1.6763419E0,3.6398268E0,2.4799767E0,1.4426155E0,1.2540131E0,0E0,2.8950272E0,2.6641564E0,2.7684207E0,0E0,0E0,0E0,0E0,0E0,0E0,0E0,0E0,0E0,0E0,0E0,0E0,0E0,0E0,0E0,0E0,0E0,0E0,0E0,0E0,0E0,0E0,0E0,0E0,0E0,0E0,0E0,0E0,0E0,0E0],"parents":[2147483647,0,0,1,1,2,2,3,3,4,4,5,5,6,6,7,7,8,8,9,9,10,10,11,11,12,12,13,13,14,14,15,15,16,16,17,17,18,18,19,19,20,20,21,21,22,22,23,23,24,24,25,25,26,26,28,28,29,29,30,30],"right_children":[2,4,6,8,10,12,14,16,18,20,22,24,26,28,30,32,34,36,38,40,42,44,46,48,50,52,54,-1,56,58,60,-1,-1,-1,-1,-1,-1,-1,-1,-1,-1,-1,-1,-1,-1,-1,-1,-1,-1,-1,-1,-1,-1,-1,-1,-1,-1,-1,-1,-1,-1],"split_conditions":[3.5714287E-1,7.885E1,6.875E1,3.966E1,1.005291E-1,5.625E-1,6E0,8.5E1,1.6666667E-1,4.691E1,5E1,4.5E1,4.5E1,2.112676E-2,4.908E1,5.807E1,9.5E1,6.966E1,6.571E1,4.452E1,9.6045196E-2,5.4E1,6.933E1,1.04377106E-1,1.5042374E-1,1.8778281E-1,7.3333335E-1,-2.9921833E-2,5.845E1,1.3E1,7.098E1,-1.5555332E-2,-5.3144996E-3,1.9312339E-2,-6.626472E-3,9.17021E-3,1.7611785E-2,-2.37261E-3,7.838968E-3,2.203794E-2,-3.973517E-2,2.5748258E-2,-2.3482686E-3,2.1229211E-2,3.4001697E-2,-2.6574314E-2,2.6952446E-2,-8.938089E-3,8.746822E-3,-2.8477907E-2,-1.4512486E-2,-2.3569465E-2,-1.29866E-2,-2.4816213E-2,-3.0905271E-2,2.5532937E-2,-1.5395764E-3,1.9994779E-2,-4.0013004E-2,1.9997137E-3,3.4318857E-2],"split_indices":[27,12,12,12,32,27,23,2,27,13,10,9,9,32,13,4,2,11,11,11,32,21,3,32,30,30,27,0,3,17,11,0,0,0,0,0,0,0,0,0,0,0,0,0,0,0,0,0,0,0,0,0,0,0,0,0,0,0,0,0,0],"split_type":[0,0,0,0,0,0,0,0,0,0,0,0,0,0,0,0,0,0,0,0,0,0,0,0,0,0,0,0,0,0,0,0,0,0,0,0,0,0,0,0,0,0,0,0,0,0,0,0,0,0,0,0,0,0,0,0,0,0,0,0,0],"sum_hessian":[3.32005E3,2.1449265E3,1.1751235E3,1.8170848E3,3.2784164E2,1.02205475E3,1.5306879E2,2.0362474E2,1.6134601E3,1.8239702E2,1.4544464E2,4.3801254E2,5.840422E2,1.1430044E2,3.8768353E1,1.8951936E2,1.4105368E1,9.177388E2,6.957214E2,5.2754087E0,1.7712161E2,1.4012944E2,5.315196E0,1.7354445E2,2.6446808E2,1.3894298E2,4.450992E2,2.4672663E0,1.1183317E2,8.174615E0,3.0593739E1,1.18698524E2,7.082084E1,1.0894498E1,3.2108698E0,6.165815E2,3.011573E2,4.665471E2,2.2917429E2,1.4465791E0,3.8288298E0,1.6659244E2,1.0529173E1,1.2330334E1,1.277991E2,1.1406724E0,4.174524E0,1.3757765E2,3.5966793E1,3.786835E1,2.2659975E2,6.5082726E1,7.386025E1,1.7418266E2,2.7091656E2,1.0102187E2,1.0811298E1,1.7818259E0,6.392789E0,2.203326E1,8.560478E0],"tree_param":{"num_deleted":"0","num_feature":"37","num_nodes":"61","size_leaf_vector":"1"}},{"base_weights":[3.1335282E-3,1.540573E-1,-3.3962288E-1,8.000353E-2,5.2085984E-1,-4.1896987E-1,2.8555906E-1,1.9032224E-1,-4.2111546E-2,5.9640014E-1,3.427485E-1,-2.7985966E-1,-5.3817326E-1,4.1320044E-1,-6.3382596E-2,-7.145242E-2,2.2099869E-1,6.889657E-2,-1.3466725E-1,-9.877773E-3,6.0311115E-1,-3.9478913E-1,4.121413E-1,-1.3232282E-1,-3.6356297E-1,-3.8437024E-1,-5.8026624E-1,5.588288E-1,7.1094E-2,-4.9485534E-1,2.782373E-1,-8.140557E-3,1.2608989E-2,-1.2845889E-2,1.1897695E-2,8.202385E-3,-4.8930914E-4,-3.310157E-2,-5.868999E-3,3.06164E-3,3.03935E-2,-4.2790752E-2,2.9058864E-2,2.2253206E-2,-2.5157655E-2,-1.0966031E-2,9.119387E-3,-2.1596111E-2,-1.033562E-2,-1.9792194E-2,1.9935105E-2,-2.9456485E-2,2.0805907E-3,1.7537264E-2,3.4972798E-2,-2.3110805E-2,1.7897397E-2,2.1568375E-2,-3.279447E-2,-3.2043662E-2,2.320295E-2],"categories":[],"categories_nodes":[],"categories_segments":[],"categories_sizes":[],"default_left":[0,0,0,0,0,0,0,0,0,0,0,0,0,0,0,0,0,0,0,0,0,0,0,0,0,0,0,0,0,0,0,0,0,0,0,0,0,0,0,0,0,0,0,0,0,0,0,0,0,0,0,0,0,0,0,0,0,0,0,0,0],"id":21,"left_children":[1,3,5,7,9,11,13,15,17,19,21,23,25,27,29,31,33,35,37,-1,39,41,43,45,47,49,51,53,55,57,59,-1,-1,-1,-1,-1,-1,-1,-1,-1,-1,-1,-1,-1,-1,-1,-1,-1,-1,-1,-1,-1,-1,-1,-1,-1,-1,-1,-1,-1,-1],"loss_changes":[1.69173E2,6.1632668E1,4.9714645E1,2.54734E1,4.9246597E0,1.4567612E1,5.067747E0,7.992321E0,9.235752E0,1.5382309E0,6.0934772E0,5.0357666E0,2.8644562E0,4.095867E0,4.7340665E0,3.1439972E0,7.267723E0,3.0634074E0,4.389838E0,0E0,6.444397E-1,5.211038E0,3.4303455E0,4.1629596E0,2.7208405E0,1.1051397E0,2.0775604E0,1.4541912E0,4.132428E0,2.3918576E0,3.3791127E0,0E0,0E0,0E0,0E0,0E0,0E0,0E0,0E0,0E0,0E0,0E0,0E0,0E0,0E0,0E0,0E0,0E0,0E0,0E0,0E0,0E0,0E0,0E0,0E0,0E0,0E0,0E0,0E0,0E0,0E0],"parents":[2147483647,0,0,1,1,2,2,3,3,4,4,5,5,6,6,7,7,8,8,9,9,10,10,11,11,12,12,13,13,14,14,15,15,16,16,17,17,18,18,20,20,21,21,22,22,23,23,24,24,25,25,26,26,27,27,28,28,29,29,30,30],"right_children":[2,4,6,8,10,12,14,16,18,20,22,24,26,28,30,32,34,36,38,-1,40,42,44,46,48,50,52,54,56,58,60,-1,-1,-1,-1,-1,-1,-1,-1,-1,-1,-1,-1,-1,-1,-1,-1,-1,-1,-1,-1,-1,-1,-1,-1,-1,-1,-1,-1,-1,-1],"split_conditions":[4E-1,6.862E1,6.714E1,1.5384616E-1,4E0,6.1538464E-1,5.009E1,3.966E1,3.3E1,7.874016E-3,4.508E1,4.5E1,3.6E1,5.75E1,6E1,7.217E1,2.7777778E-2,3.98E1,4.283E1,-9.877773E-3,4.691E1,6.35E1,7.696E1,1.04377106E-1,7.692308E-2,2.1693122E-1,5.667E1,5.86E1,5E0,3E0,3.767E1,-8.140557E-3,1.2608989E-2,-1.2845889E-2,1.1897695E-2,8.202385E-3,-4.8930914E-4,-3.310157E-2,-5.868999E-3,3.06164E-3,3.03935E-2,-4.2790752E-2,2.9058864E-2,2.2253206E-2,-2.5157655E-2,-1.0966031E-2,9.119387E-3,-2.1596111E-2,-1.033562E-2,-1.9792194E-2,1.9935105E-2,-2.9456485E-2,2.0805907E-3,1.7537264E-2,3.4972798E-2,-2.3110805E-2,1.7897397E-2,2.1568375E-2,-3.279447E-2,-3.2043662E-2,2.320295E-2],"split_indices":[27,12,12,27,19,27,13,12,9,33,4,9,9,21,6,1,32,3,1,0,13,1,7,32,33,33,1,11,22,19,1,0,0,0,0,0,0,0,0,0,0,0,0,0,0,0,0,0,0,0,0,0,0,0,0,0,0,0,0,0,0],"split_type":[0,0,0,0,0,0,0,0,0,0,0,0,0,0,0,0,0,0,0,0,0,0,0,0,0,0,0,0,0,0,0,0,0,0,0,0,0,0,0,0,0,0,0,0,0,0,0,0,0,0,0,0,0,0,0,0,0,0,0,0,0],"sum_hessian":[3.2682905E3,2.2695183E3,9.9877216E2,1.8893047E3,3.8021362E2,8.86579E2,1.1219321E2,9.9230145E2,8.9700323E2,2.653326E2,1.1488102E2,4.1067245E2,4.759065E2,8.20101E1,3.0183104E1,1.03947365E2,8.8835406E2,4.079626E2,4.8904068E2,1.9856001E0,2.6334702E2,9.476058E0,1.0540496E2,1.4958766E2,2.610848E2,1.0443693E2,3.7146957E2,5.70791E1,2.4931002E1,1.3139322E1,1.704378E1,8.1451256E1,2.2496103E1,2.995173E1,8.5840234E2,1.8416579E2,2.237968E2,1.43384075E1,4.7470227E2,2.4133086E0,2.6093372E2,6.5194964E0,2.956562E0,1.02241135E2,3.1638277E0,1.17428986E2,3.215867E1,1.806148E2,8.0469986E1,1.0341617E2,1.02076E0,3.6630145E2,5.1681356E0,2.4427832E1,3.2651268E1,8.505853E0,1.642515E1,1.6974323E0,1.144189E1,2.4544966E0,1.4589284E1],"tree_param":{"num_deleted":"0","num_feature":"37","num_nodes":"61","size_leaf_vector":"1"}},{"base_weights":[4.59181E-3,1.4324495E-1,-3.9794543E-1,7.113477E-2,5.0413036E-1,-4.5280215E-1,2.6189014E-1,1.804962E-1,-8.1957005E-2,5.983551E-1,4.2040107E-1,-3.4959093E-1,-5.9211606E-1,3.6665156E-1,-4.9471518E-1,-1.234445E-1,2.1416877E-1,4.04299E-2,-1.7493415E-1,2.2301269E-1,6.1842144E-1,6.092222E-2,4.4801816E-1,-5.565977E-1,-3.110793E-1,-2.7545376E-3,-5.94824E-1,1.5907978E-1,5.809225E-1,-3.724542E-2,1.9421468E-2,-1.0770374E-2,5.786331E-3,2.2188256E-2,8.662037E-3,-2.3776408E-2,3.0516179E-3,-3.4324904E-3,-1.3929843E-2,-2.7312815E-2,2.6947618E-2,-2.9055427E-3,3.127106E-2,1.519308E-2,-2.3616966E-2,2.2927554E-2,-2.9052367E-2,-2.9194733E-2,9.316563E-3,-7.359349E-3,-1.820873E-2,-2.7124887E-2,-3.172907E-2,-1.1882502E-2,2.1816581E-2,-1.9801974E-2,3.256305E-2],"categories":[],"categories_nodes":[],"categories_segments":[],"categories_sizes":[],"default_left":[0,0,0,0,0,0,0,0,0,0,0,0,0,0,0,0,0,0,0,0,0,0,0,0,0,0,0,0,0,0,0,0,0,0,0,0,0,0,0,0,0,0,0,0,0,0,0,0,0,0,0,0,0,0,0,0,0],"id":22,"left_children":[1,3,5,7,9,11,13,15,17,19,21,23,25,27,29,31,33,35,37,39,41,43,45,47,49,-1,51,53,55,-1,-1,-1,-1,-1,-1,-1,-1,-1,-1,-1,-1,-1,-1,-1,-1,-1,-1,-1,-1,-1,-1,-1,-1,-1,-1,-1,-1],"loss_changes":[1.7756549E2,6.1544228E1,2.9621796E1,3.3054222E1,2.8562164E0,1.0618652E1,5.190508E0,1.1810619E1,9.37197E0,1.240242E0,2.0767784E0,3.2941551E0,4.3107605E-1,2.402032E0,2.081685E0,2.5647616E0,9.66724E0,3.8144946E0,5.135767E0,2.9314091E0,8.562012E-1,2.2523372E0,2.3980522E0,1.4666176E0,3.1571465E0,0E0,3.1576538E-1,3.3886285E0,2.1284142E0,0E0,0E0,0E0,0E0,0E0,0E0,0E0,0E0,0E0,0E0,0E0,0E0,0E0,0E0,0E0,0E0,0E0,0E0,0E0,0E0,0E0,0E0,0E0,0E0,0E0,0E0,0E0,0E0],"parents":[2147483647,0,0,1,1,2,2,3,3,4,4,5,5,6,6,7,7,8,8,9,9,10,10,11,11,12,12,13,13,14,14,15,15,16,16,17,17,18,18,19,19,20,20,21,21,22,22,23,23,24,24,26,26,27,27,28,28],"right_children":[2,4,6,8,10,12,14,16,18,20,22,24,26,28,30,32,34,36,38,40,42,44,46,48,50,-1,52,54,56,-1,-1,-1,-1,-1,-1,-1,-1,-1,-1,-1,-1,-1,-1,-1,-1,-1,-1,-1,-1,-1,-1,-1,-1,-1,-1,-1,-1],"split_conditions":[2.9704144E0,6.25E1,1E2,1.8718022E0,1.4285715E-1,4.2442E0,4.3463993E0,3.966E1,3E1,3.8E1,7.941E1,2.5316456E-2,4.6153846E-1,7.692308E-2,5.117E1,6.983E1,1.1314021E0,1.21951215E-2,3.0769232E-1,5.113E1,4.7E1,4.754E1,5.3846157E-1,9.456E1,4.4444445E-1,-2.7545376E-3,4.9904327E0,4.9E1,2.15E1,-3.724542E-2,1.9421468E-2,-1.0770374E-2,5.786331E-3,2.2188256E-2,8.662037E-3,-2.3776408E-2,3.0516179E-3,-3.4324904E-3,-1.3929843E-2,-2.7312815E-2,2.6947618E-2,-2.9055427E-3,3.127106E-2,1.519308E-2,-2.3616966E-2,2.2927554E-2,-2.9052367E-2,-2.9194733E-2,9.316563E-3,-7.359349E-3,-1.820873E-2,-2.7124887E-2,-3.172907E-2,-1.1882502E-2,2.1816581E-2,-1.9801974E-2,3.256305E-2],"split_indices":[26,12,12,26,27,26,26,12,0,5,12,32,27,32,1,1,26,32,27,11,13,0,27,7,27,0,26,2,0,0,0,0,0,0,0,0,0,0,0,0,0,0,0,0,0,0,0,0,0,0,0,0,0,0,0,0,0],"split_type":[0,0,0,0,0,0,0,0,0,0,0,0,0,0,0,0,0,0,0,0,0,0,0,0,0,0,0,0,0,0,0,0,0,0,0,0,0,0,0,0,0,0,0,0,0,0,0,0,0,0,0,0,0,0,0,0,0],"sum_hessian":[3.1794116E3,2.3653245E3,8.140871E2,1.9724061E3,3.9291846E2,7.51891E2,6.219615E1,1.1504213E3,8.2198486E2,1.8198048E2,2.1093797E2,4.3392526E2,3.179657E2,5.5084427E1,7.1117268E0,1.1447378E2,1.0359474E3,3.5511197E2,4.668729E2,9.849962E0,1.7213052E2,1.52779455E1,1.9566002E2,6.595466E1,3.679706E2,1.7023888E0,3.162633E2,2.8864647E1,2.621978E1,5.6637297E0,1.4479969E0,8.275374E1,3.172004E1,1.5524098E2,8.807065E2,1.2787475E1,3.423245E2,2.3134224E2,2.3553067E2,2.6554132E0,7.1945496E0,1.6879216E0,1.7044261E2,1.0791718E1,4.4862285E0,1.9422644E2,1.4335922E0,6.382369E1,2.130967E0,9.096275E1,2.7700787E2,1.4287051E2,1.7339279E2,1.1932637E1,1.6932009E1,1.4499736E0,2.4769806E1],"tree_param":{"num_deleted":"0","num_feature":"37","num_nodes":"57","size_leaf_vector":"1"}},{"base_weights":[9.042522E-3,1.3797995E-1,-3.6965373E-1,2.4813353E-1,1.1702782E-2,-2.701597E-1,-6.045684E-1,4.4854543E-1,2.057499E-1,1.0288605E-1,-1.4032763E-1,-4.0585646E-1,-1.5067197E-1,-1.1728884E-1,-6.119083E-1,-2.3165869E-2,4.5954213E-1,7.312302E-2,2.835066E-1,1.2837729E-1,-1.3288644E-1,-6.297864E-2,-2.580372E-1,-5.3534317E-1,-3.2454208E-1,-1.8625575E-1,4.1632053E-1,-1.9615695E-2,2.2899851E-2,-3.7994903E-1,-6.2655693E-1,-2.2199085E-2,2.3466906E-2,-2.200437E-2,4.6621333E-3,-1.5562835E-2,1.4743012E-2,-1.4244077E-2,7.220068E-3,-1.870415E-2,6.3212267E-3,-8.620886E-3,2.5167037E-3,-1.3615529E-2,2.3945263E-2,-1.8885514E-2,-2.8655538E-2,1.1547705E-3,-1.7724194E-2,-1.6695974E-2,-4.065355E-3,-1.9551111E-2,2.7427075E-2,4.960449E-3,-2.3305109E-2,-3.1440698E-2,-9.329437E-3],"categories":[],"categories_nodes":[],"categories_segments":[],"categories_sizes":[],"default_left":[0,0,0,0,0,0,0,0,0,0,0,0,0,0,0,0,0,0,0,0,0,0,0,0,0,0,0,0,0,0,0,0,0,0,0,0,0,0,0,0,0,0,0,0,0,0,0,0,0,0,0,0,0,0,0,0,0],"id":23,"left_children":[1,3,5,7,9,11,13,15,17,19,21,23,25,27,29,-1,31,33,35,37,39,41,43,45,47,49,51,-1,-1,53,55,-1,-1,-1,-1,-1,-1,-1,-1,-1,-1,-1,-1,-1,-1,-1,-1,-1,-1,-1,-1,-1,-1,-1,-1,-1,-1],"loss_changes":[1.5498892E2,3.293419E1,1.8680527E1,1.0649757E1,1.5322319E1,9.1512375E0,7.832718E-1,2.4180984E0,1.0763416E1,4.1690736E0,3.7569208E0,2.6212234E0,6.2053337E0,9.367128E-1,5.613861E-1,0E0,2.136055E0,4.045733E0,4.5410233E0,4.172922E0,4.2938113E0,3.1263413E0,1.8555984E0,3.8396263E-1,1.7318497E0,4.412405E0,2.1620657E0,0E0,0E0,7.280576E-1,1.0089874E-1,0E0,0E0,0E0,0E0,0E0,0E0,0E0,0E0,0E0,0E0,0E0,0E0,0E0,0E0,0E0,0E0,0E0,0E0,0E0,0E0,0E0,0E0,0E0,0E0,0E0,0E0],"parents":[2147483647,0,0,1,1,2,2,3,3,4,4,5,5,6,6,7,7,8,8,9,9,10,10,11,11,12,12,13,13,14,14,16,16,17,17,18,18,19,19,20,20,21,21,22,22,23,23,24,24,25,25,26,26,29,29,30,30],"right_children":[2,4,6,8,10,12,14,16,18,20,22,24,26,28,30,-1,32,34,36,38,40,42,44,46,48,50,52,-1,-1,54,56,-1,-1,-1,-1,-1,-1,-1,-1,-1,-1,-1,-1,-1,-1,-1,-1,-1,-1,-1,-1,-1,-1,-1,-1,-1,-1],"split_conditions":[2.9704144E0,1.7917595E0,4.613138E0,1.1314021E0,5E1,9.704903E-2,9E0,1.596E1,4.773E1,9.533E1,5E0,4.5045044E-2,7.15E1,6.6E1,3.8E1,-2.3165869E-2,2.9850746E-2,2.7777778E-2,1.904762E-2,1.3513514E-2,1E0,8.695652E-2,8.267E1,3.2884018E0,1.679E1,4.761905E-2,3.7037037E-2,-1.9615695E-2,2.2899851E-2,1.2224939E-2,5.4E1,-2.2199085E-2,2.3466906E-2,-2.200437E-2,4.6621333E-3,-1.5562835E-2,1.4743012E-2,-1.4244077E-2,7.220068E-3,-1.870415E-2,6.3212267E-3,-8.620886E-3,2.5167037E-3,-1.3615529E-2,2.3945263E-2,-1.8885514E-2,-2.8655538E-2,1.1547705E-3,-1.7724194E-2,-1.6695974E-2,-4.065355E-3,-1.9551111E-2,2.7427075E-2,4.960449E-3,-2.3305109E-2,-3.1440698E-2,-9.329437E-3],"split_indices":[26,26,26,26,10,31,18,3,8,8,18,32,2,5,5,0,29,32,32,32,28,32,7,26,3,32,29,0,0,29,1,0,0,0,0,0,0,0,0,0,0,0,0,0,0,0,0,0,0,0,0,0,0,0,0,0,0],"split_type":[0,0,0,0,0,0,0,0,0,0,0,0,0,0,0,0,0,0,0,0,0,0,0,0,0,0,0,0,0,0,0,0,0,0,0,0,0,0,0,0,0,0,0,0,0,0,0,0,0,0,0,0,0,0,0,0,0],"sum_hessian":[3.1721287E3,2.3668916E3,8.0523694E2,1.2636365E3,1.1032551E3,5.671714E2,2.3806555E2,2.1891402E2,1.0447225E3,6.898357E2,4.1341943E2,2.6445044E2,3.0272095E2,3.784753E0,2.3428079E2,2.118427E0,2.167956E2,3.8684134E2,6.5788116E2,6.229402E2,6.6895515E1,2.5040741E2,1.6301201E2,9.985524E1,1.645952E2,2.8547632E2,1.7244648E1,2.7757928E0,1.0089602E0,1.5516483E1,2.1876431E2,1.8498847E0,2.1494571E2,1.3805974E1,3.7303537E2,1.1828462E1,6.460527E2,2.2626513E1,6.0031366E2,3.4428993E1,3.2466522E1,1.27115654E2,1.2329176E2,1.6053323E2,2.4787834E0,2.1426584E1,7.842865E1,1.3070431E1,1.5152477E2,1.1769568E2,1.6778062E2,2.1513207E0,1.50933275E1,2.3416088E0,1.3174875E1,2.1722076E2,1.543544E0],"tree_param":{"num_deleted":"0","num_feature":"37","num_nodes":"57","size_leaf_vector":"1"}},{"base_weights":[7.340304E-3,1.6065645E-1,-2.8720015E-1,2.8884402E-1,6.9500625E-2,-4.4850227E-1,-1.3552837E-1,2.2827543E-1,3.850812E-1,1.4438982E-1,-6.650093E-2,-2.9037976E-1,-5.557298E-1,-2.0844547E-1,1.0841713E-1,2.5142887E-1,-2.518281E-1,-2.5312465E-1,4.0052143E-1,-4.232392E-2,1.7939049E-1,-1.7816544E-1,6.2446862E-2,-3.719374E-1,-1.6103749E-1,-4.8080316E-1,-3.097995E-2,-1.6637671E-1,-4.6830773E-1,-1.968164E-1,2.2562142E-1,9.59933E-3,1.7500773E-2,2.0546596E-2,-2.3445776E-2,-2.608329E-2,2.1981072E-2,2.5849218E-2,1.6920362E-2,-6.412282E-3,9.668537E-3,6.3611455E-3,1.5187489E-2,-7.3626623E-3,-3.5753842E-2,-1.4187452E-2,5.2183545E-3,-2.9875958E-2,-1.5666073E-2,-3.7533734E-3,-2.1880478E-2,-2.5792763E-2,-1.4708238E-2,-5.0491393E-3,-1.6038632E-2,-2.6467675E-2,1.5266585E-2,-1.7043335E-2,1.2452989E-2,1.5323249E-2,-7.923785E-3],"categories":[],"categories_nodes":[],"categories_segments":[],"categories_sizes":[],"default_left":[0,0,0,0,0,0,0,0,0,0,0,0,0,0,0,0,0,0,0,0,0,0,0,0,0,0,0,0,0,0,0,0,0,0,0,0,0,0,0,0,0,0,0,0,0,0,0,0,0,0,0,0,0,0,0,0,0,0,0,0,0],"id":24,"left_children":[1,3,5,7,9,11,13,15,17,19,21,23,25,27,29,31,33,35,37,39,41,43,45,47,49,51,-1,53,55,57,59,-1,-1,-1,-1,-1,-1,-1,-1,-1,-1,-1,-1,-1,-1,-1,-1,-1,-1,-1,-1,-1,-1,-1,-1,-1,-1,-1,-1,-1,-1],"loss_changes":[1.416353E2,2.4082775E1,2.6207764E1,4.907013E0,1.2300869E1,8.653709E0,9.891497E0,5.9367466E0,3.3486786E0,5.0956097E0,6.1915407E0,2.178444E0,1.1794739E0,4.595331E0,4.6354604E0,2.8896618E0,3.7620769E0,1.7914426E0,2.1554337E0,2.5302193E0,4.216196E0,3.716845E0,2.9312494E0,1.5233879E0,1.9601164E0,8.06839E-1,0E0,3.697976E0,2.948556E0,2.4060936E0,2.9423723E0,0E0,0E0,0E0,0E0,0E0,0E0,0E0,0E0,0E0,0E0,0E0,0E0,0E0,0E0,0E0,0E0,0E0,0E0,0E0,0E0,0E0,0E0,0E0,0E0,0E0,0E0,0E0,0E0,0E0,0E0],"parents":[2147483647,0,0,1,1,2,2,3,3,4,4,5,5,6,6,7,7,8,8,9,9,10,10,11,11,12,12,13,13,14,14,15,15,16,16,17,17,18,18,19,19,20,20,21,21,22,22,23,23,24,24,25,25,27,27,28,28,29,29,30,30],"right_children":[2,4,6,8,10,12,14,16,18,20,22,24,26,28,30,32,34,36,38,40,42,44,46,48,50,52,-1,54,56,58,60,-1,-1,-1,-1,-1,-1,-1,-1,-1,-1,-1,-1,-1,-1,-1,-1,-1,-1,-1,-1,-1,-1,-1,-1,-1,-1,-1,-1,-1,-1],"split_conditions":[3.5714287E-1,1.5686159E0,9.704903E-2,9.07441E-2,5E1,3.5973122E0,4.9E1,6.581E1,3.409091E-2,4.1E1,6.282E1,4E0,4.6530075E0,4.613138E0,4.761905E-2,6E1,3.671E1,9.047E1,4.598E1,2.7272728E-1,5.3E1,7.8475334E-2,4.796E1,2.541602E0,6.636E1,9.090909E-2,-3.097995E-2,2.637E1,1.0344828E-1,2E0,7.586E1,9.59933E-3,1.7500773E-2,2.0546596E-2,-2.3445776E-2,-2.608329E-2,2.1981072E-2,2.5849218E-2,1.6920362E-2,-6.412282E-3,9.668537E-3,6.3611455E-3,1.5187489E-2,-7.3626623E-3,-3.5753842E-2,-1.4187452E-2,5.2183545E-3,-2.9875958E-2,-1.5666073E-2,-3.7533734E-3,-2.1880478E-2,-2.5792763E-2,-1.4708238E-2,-5.0491393E-3,-1.6038632E-2,-2.6467675E-2,1.5266585E-2,-1.7043335E-2,1.2452989E-2,1.5323249E-2,-7.923785E-3],"split_indices":[27,26,31,29,10,26,2,11,33,5,11,19,26,26,32,5,10,11,3,27,1,29,13,26,11,33,0,0,33,25,0,0,0,0,0,0,0,0,0,0,0,0,0,0,0,0,0,0,0,0,0,0,0,0,0,0,0,0,0,0,0],"split_type":[0,0,0,0,0,0,0,0,0,0,0,0,0,0,0,0,0,0,0,0,0,0,0,0,0,0,0,0,0,0,0,0,0,0,0,0,0,0,0,0,0,0,0,0,0,0,0,0,0,0,0,0,0,0,0,0,0,0,0,0,0],"sum_hessian":[3.1344302E3,2.0617097E3,1.0727203E3,8.559145E2,1.2057953E3,5.189077E2,5.538126E2,5.273742E2,3.2854025E2,7.7756683E2,4.282285E2,2.1118823E2,3.0771948E2,4.2648007E2,1.2733251E2,5.035656E2,2.3808603E1,7.3970346E0,3.2114322E2,1.2271658E2,6.548502E2,2.2928961E2,1.9893887E2,1.2836882E2,8.281942E1,1.4552643E2,1.6219305E2,3.684693E2,5.8010773E1,3.5139618E1,9.2192894E1,3.1598907E2,1.8757655E2,5.6540527E0,1.815455E1,5.5086E0,1.8884344E0,1.0915552E2,2.1198769E2,9.026621E1,3.245037E1,4.6275278E2,1.9209749E2,2.1801202E2,1.1277589E1,2.0864204E1,1.7807468E2,2.4579914E1,1.037889E2,6.415028E1,1.8669136E1,1.2103179E2,2.449463E1,2.6000082E2,1.0846849E2,5.4060745E1,3.9500244E0,2.6737108E1,8.402512E0,7.632943E1,1.5863465E1],"tree_param":{"num_deleted":"0","num_feature":"37","num_nodes":"61","size_leaf_vector":"1"}},{"base_weights":[-2.4614225E-3,1.1357945E-1,-3.8362792E-1,4.109026E-2,4.9061438E-1,-4.5571107E-1,3.1088775E-1,2.0391694E-1,-4.860817E-2,6.107831E-1,4.2466936E-1,-3.515437E-1,-5.846663E-1,4.2337853E-1,-2.708018E-1,3.0975366E-1,9.7965665E-2,8.601159E-2,-1.6134664E-1,3.5261628E-3,6.198249E-1,5.160924E-1,3.0734447E-1,-3.6192316E-1,1.0558766E-1,-3.916045E-3,-5.8725137E-1,1.8984427E-1,5.852858E-1,1.3309516E-1,-5.8266187E-1,1.18817035E-2,2.0168303E-2,6.8314346E-3,-1.2494039E-2,2.7595507E-4,1.1775794E-2,-2.2034137E-2,-6.4738863E-3,1.6056519E-2,3.1460997E-2,-1.9599935E-2,2.6320353E-2,1.9541277E-2,-5.0858567E-3,-1.2624852E-2,-2.0918136E-2,1.6557703E-2,-1.1454832E-2,-2.9466951E-2,-1.8773059E-3,1.4080825E-2,-3.0390982E-2,-2.6902521E-2,3.2708656E-2,-2.4911297E-2,2.0596717E-2,-1.1619911E-2,-3.5603527E-2],"categories":[],"categories_nodes":[],"categories_segments":[],"categories_sizes":[],"default_left":[0,0,0,0,0,0,0,0,0,0,0,0,0,0,0,0,0,0,0,0,0,0,0,0,0,0,0,0,0,0,0,0,0,0,0,0,0,0,0,0,0,0,0,0,0,0,0,0,0,0,0,0,0,0,0,0,0,0,0],"id":25,"left_children":[1,3,5,7,9,11,13,15,17,19,21,23,25,27,29,31,33,35,37,-1,39,41,43,45,47,-1,49,51,53,55,57,-1,-1,-1,-1,-1,-1,-1,-1,-1,-1,-1,-1,-1,-1,-1,-1,-1,-1,-1,-1,-1,-1,-1,-1,-1,-1,-1,-1],"loss_changes":[1.34674E2,6.3775803E1,3.5716797E1,2.8620008E1,2.7227478E0,8.4479065E0,4.525796E0,7.774275E0,1.9195637E1,5.9648895E-1,2.4828033E0,1.7408981E0,3.2880402E-1,2.039527E0,1.5303702E0,2.2517395E0,4.731459E0,6.9386086E0,6.069319E0,0E0,1.5929413E-1,1.4889755E0,3.807189E0,2.062828E0,7.357756E-1,0E0,3.0461884E-1,1.9842899E0,2.914198E0,1.2332063E0,1.379602E-1,0E0,0E0,0E0,0E0,0E0,0E0,0E0,0E0,0E0,0E0,0E0,0E0,0E0,0E0,0E0,0E0,0E0,0E0,0E0,0E0,0E0,0E0,0E0,0E0,0E0,0E0,0E0,0E0],"parents":[2147483647,0,0,1,1,2,2,3,3,4,4,5,5,6,6,7,7,8,8,9,9,10,10,11,11,12,12,13,13,14,14,15,15,16,16,17,17,18,18,20,20,21,21,22,22,23,23,24,24,26,26,27,27,28,28,29,29,30,30],"right_children":[2,4,6,8,10,12,14,16,18,20,22,24,26,28,30,32,34,36,38,-1,40,42,44,46,48,-1,50,52,54,56,58,-1,-1,-1,-1,-1,-1,-1,-1,-1,-1,-1,-1,-1,-1,-1,-1,-1,-1,-1,-1,-1,-1,-1,-1,-1,-1,-1,-1],"split_conditions":[3.08191E0,6.862E1,7.857E1,1.5686159E0,1.5686159E0,4.2442E0,5.933E1,4.5E1,3E1,4.65E1,4.954E1,7.15E1,4.6153846E-1,5.748E1,6.1538464E-1,8.90538E-2,5.647E1,6.581E1,4.8E1,3.5261628E-3,3.169014E-2,4.075E1,5.845E1,4.5E1,1E0,-3.916045E-3,7.15E1,9.375E-2,3.8E1,6.31E1,5.6E1,1.18817035E-2,2.0168303E-2,6.8314346E-3,-1.2494039E-2,2.7595507E-4,1.1775794E-2,-2.2034137E-2,-6.4738863E-3,1.6056519E-2,3.1460997E-2,-1.9599935E-2,2.6320353E-2,1.9541277E-2,-5.0858567E-3,-1.2624852E-2,-2.0918136E-2,1.6557703E-2,-1.1454832E-2,-2.9466951E-2,-1.8773059E-3,1.4080825E-2,-3.0390982E-2,-2.6902521E-2,3.2708656E-2,-2.4911297E-2,2.0596717E-2,-1.1619911E-2,-3.5603527E-2],"split_indices":[26,12,12,26,26,26,8,9,0,13,13,2,27,11,27,29,8,11,2,0,33,11,3,9,25,0,2,33,5,8,21,0,0,0,0,0,0,0,0,0,0,0,0,0,0,0,0,0,0,0,0,0,0,0,0,0,0,0,0],"split_type":[0,0,0,0,0,0,0,0,0,0,0,0,0,0,0,0,0,0,0,0,0,0,0,0,0,0,0,0,0,0,0,0,0,0,0,0,0,0,0,0,0,0,0,0,0,0,0,0,0,0,0,0,0,0,0,0,0,0,0],"sum_hessian":[3.0428098E3,2.333201E3,7.096088E2,1.9578848E3,3.7531628E2,6.431959E2,6.641289E1,6.9500006E2,1.2628846E3,1.3005707E2,2.4525922E2,3.5785452E2,2.853414E2,5.587884E1,1.0534044E1,3.467257E2,3.4827435E2,5.7569305E2,6.871916E2,2.2856464E0,1.2777142E2,1.3593544E2,1.09323784E2,3.5011325E2,7.7412715E0,1.6083419E0,2.8373306E2,2.376822E1,3.211062E1,4.839509E0,5.6945353E0,1.9784393E2,1.4888179E2,3.139825E2,3.4291836E1,3.748905E2,2.0080257E2,6.905815E1,6.181334E2,4.969145E0,1.22802284E2,1.1111023E0,1.3482434E2,9.083152E1,1.8492266E1,1.2099657E2,2.2911668E2,4.630806E0,3.1104655E0,2.8258777E2,1.1452938E0,2.1896006E1,1.8722149E0,1.4618498E0,3.064877E1,1.2416031E0,3.597906E0,2.2905824E0,3.403953E0],"tree_param":{"num_deleted":"0","num_feature":"37","num_nodes":"59","size_leaf_vector":"1"}},{"base_weights":[-3.7120492E-3,1.1988807E-1,-3.760936E-1,5.014685E-2,4.844211E-1,-4.4806162E-1,2.7432522E-1,1.32399E-1,-1.2941448E-1,-2.7970886E-2,4.901983E-1,-3.5895222E-1,-5.6871367E-1,4.1111225E-1,-4.5066493E-4,2.4511178E-1,3.169886E-2,-1.2173224E-2,-2.1455933E-1,4.392847E-1,5.9351826E-1,-1.8468355E-1,-3.9981556E-1,-5.16241E-1,-6.111221E-1,4.8779353E-1,-2.0280573E-1,-2.1044238E-1,5.4765385E-1,-1.5600594E-2,1.3090389E-2,1.2710241E-2,-1.5901293E-3,-4.8413635E-3,7.1969144E-3,-2.691792E-2,-8.802608E-3,2.3984743E-2,5.4751807E-3,-2.5492592E-2,3.0423118E-2,1.0187046E-2,-1.3904291E-2,-2.0864092E-2,1.85191E-3,