{"learner":{"attributes":{"best_iteration":"3","best_score":"0.693359375","scikit_learn":"{\"_estimator_type\": \"classifier\"}"},"feature_names":[],"feature_types":[],"gradient_booster":{"model":{"gbtree_model_param":{"num_parallel_tree":"1","num_trees":"34"},"iteration_indptr":[0,1,2,3,4,5,6,7,8,9,10,11,12,13,14,15,16,17,18,19,20,21,22,23,24,25,26,27,28,29,30,31,32,33,34],"tree_info":[0,0,0,0,0,0,0,0,0,0,0,0,0,0,0,0,0,0,0,0,0,0,0,0,0,0,0,0,0,0,0,0,0,0],"trees":[{"base_weights":[2.3448138E-2,1.5930687E0,-1.2027941E0,1.6647663E0,-5.555556E-2,-1.4639175E0,1.27897E0,1.8312123E0,6.435986E-1,-9.791667E-2,-5.471085E-1,8.634146E-2,-5E-2,4.909091E-2,9.392845E-2,-7.1428575E-2,7.442923E-2,-9.1304354E-2,1.7560465E-2],"categories":[],"categories_nodes":[],"categories_segments":[],"categories_sizes":[],"default_left":[0,0,0,0,0,0,0,0,0,0,0,0,0,0,0,0,0,0,0],"id":0,"left_children":[1,3,5,7,-1,9,11,13,15,-1,17,-1,-1,-1,-1,-1,-1,-1,-1],"loss_changes":[2.8041843E2,1.4237473E1,5.488485E1,9.468796E0,0E0,3.2690186E1,1.02201605E1,3.0039978E-1,2.0198898E1,0E0,3.2216373E1,0E0,0E0,0E0,0E0,0E0,0E0,0E0,0E0],"parents":[2147483647,0,0,1,1,2,2,3,3,5,5,6,6,7,7,8,8,10,10],"right_children":[2,4,6,8,-1,10,12,14,16,-1,18,-1,-1,-1,-1,-1,-1,-1,-1],"split_conditions":[2.2222222E-1,1.8E1,7.25E1,1.5892352E0,-5.555556E-2,5E1,4.567E1,2.389E1,5.183E1,-9.791667E-2,5.555556E-1,8.634146E-2,-5E-2,4.909091E-2,9.392845E-2,-7.1428575E-2,7.442923E-2,-9.1304354E-2,1.7560465E-2],"split_indices":[28,16,2,27,0,5,12,5,10,0,28,0,0,0,0,0,0,0,0],"split_type":[0,0,0,0,0,0,0,0,0,0,0,0,0,0,0,0,0,0,0],"sum_hessian":[1.4369643E2,6.289286E1,8.080357E1,6.164286E1,1.25E0,7.348214E1,7.321429E0,5.232143E1,9.321428E0,4.7E1,2.6482143E1,6.321429E0,1E0,3.9107144E0,4.8410717E1,2.5E0,6.821429E0,1.05E1,1.5982143E1],"tree_param":{"num_deleted":"0","num_feature":"29","num_nodes":"19","size_leaf_vector":"1"}},{"base_weights":[2.1638274E-1,1.5340642E0,-7.838245E-1,-6.0297538E-2,1.6152657E0,-1.4555273E0,4.0631944E-1,8.8772796E-2,1.048763E0,-9.404292E-2,7.036021E-1,1.2900734E0,-4.2948866E-1,7.3300354E-2,-6.859376E-2,-6.614564E-2,7.274822E-2,2.603862E-2,7.899713E-2,-8.667707E-2,6.597984E-2],"categories":[],"categories_nodes":[],"categories_segments":[],"categories_sizes":[],"default_left":[0,0,0,0,0,0,0,0,0,0,0,0,0,0,0,0,0,0,0,0,0],"id":1,"left_children":[1,3,5,-1,7,9,11,-1,13,-1,15,17,19,-1,-1,-1,-1,-1,-1,-1,-1],"loss_changes":[2.0456961E2,1.6837936E1,7.1245834E1,0E0,4.0751343E0,5.3406647E1,2.468385E1,0E0,1.904501E1,0E0,1.7244703E1,2.7737122E0,4.2293163E1,0E0,0E0,0E0,0E0,0E0,0E0,0E0,0E0],"parents":[2147483647,0,0,1,1,2,2,4,4,5,5,6,6,8,8,10,10,11,11,12,12],"right_children":[2,4,6,-1,8,10,12,-1,14,-1,16,18,20,-1,-1,-1,-1,-1,-1,-1,-1],"split_conditions":[4.9E0,2.108E1,5.5E1,-6.0297538E-2,3E0,6.564E1,3.378E1,8.8772796E-2,7.098E1,-9.404292E-2,4.7E1,7.098E1,7.25E1,7.3300354E-2,-6.859376E-2,-6.614564E-2,7.274822E-2,2.603862E-2,7.899713E-2,-8.667707E-2,6.597984E-2],"split_indices":[17,5,2,0,17,4,15,0,9,0,11,9,2,0,0,0,0,0,0,0,0],"split_type":[0,0,0,0,0,0,0,0,0,0,0,0,0,0,0,0,0,0,0,0,0],"sum_hessian":[1.5330515E2,6.5923386E1,8.738177E1,1.4987606E0,6.442462E1,5.5714302E1,3.1667461E1,4.855939E1,1.58652315E1,4.6652935E1,9.061369E0,1.512807E1,1.6539392E1,1.386901E1,1.9962217E0,2.245175E0,6.816194E0,4.905539E0,1.0222531E1,9.480198E0,7.0591936E0],"tree_param":{"num_deleted":"0","num_feature":"29","num_nodes":"21","size_leaf_vector":"1"}},{"base_weights":[1.563331E-1,1.0504904E0,-1.375391E0,-4.9169964E-1,1.4225758E0,-8.9916185E-2,3.0175832E-1,7.8425765E-1,-8.500197E-2,3.5275277E-1,1.5870045E0,-7.3042355E-2,6.497906E-2,6.8201594E-2,-6.0334016E-2,6.306361E-2,-7.2656624E-2,8.600119E-2,5.489362E-2],"categories":[],"categories_nodes":[],"categories_segments":[],"categories_sizes":[],"default_left":[0,0,0,0,0,0,0,0,0,0,0,0,0,0,0,0,0,0,0],"id":2,"left_children":[1,3,5,7,9,-1,11,13,-1,15,17,-1,-1,-1,-1,-1,-1,-1,-1],"loss_changes":[2.0111682E2,5.3846733E1,3.8966064E1,3.0235472E1,1.2611099E1,0E0,2.259107E1,1.2960509E1,0E0,2.0307705E1,2.3155975E0,0E0,0E0,0E0,0E0,0E0,0E0,0E0,0E0],"parents":[2147483647,0,0,1,1,2,2,3,3,4,4,6,6,7,7,9,9,10,10],"right_children":[2,4,6,8,10,-1,12,14,-1,16,18,-1,-1,-1,-1,-1,-1,-1,-1],"split_conditions":[1.14E1,4.6E1,8.4E1,1.25E1,4.37E1,-8.9916185E-2,4.9E1,7.2E1,-8.500197E-2,1.3333334E-1,1.8181819E-1,-7.3042355E-2,6.497906E-2,6.8201594E-2,-6.0334016E-2,6.306361E-2,-7.2656624E-2,8.600119E-2,5.489362E-2],"split_indices":[17,11,8,15,10,0,2,8,0,28,28,0,0,0,0,0,0,0,0],"split_type":[0,0,0,0,0,0,0,0,0,0,0,0,0,0,0,0,0,0,0],"sum_hessian":[1.447883E2,9.161906E1,5.3169247E1,1.7745878E1,7.387318E1,4.2403862E1,1.0765383E1,8.80214E0,8.943738E0,1.0260509E1,6.3612667E1,3.7236686E0,7.0417137E0,7.060853E0,1.7412874E0,7.0269237E0,3.2335846E0,4.8033497E1,1.557917E1],"tree_param":{"num_deleted":"0","num_feature":"29","num_nodes":"19","size_leaf_vector":"1"}},{"base_weights":[5.469781E-2,6.607603E-1,-8.620756E-2,1.5037842E0,9.560776E-2,8.838468E-1,8.08311E-2,-7.790058E-2,3.032737E-1,7.955111E-2,-6.551941E-2,-4.3934118E-2,3.3150215E-2],"categories":[],"categories_nodes":[],"categories_segments":[],"categories_sizes":[],"default_left":[0,0,0,0,0,0,0,0,0,0,0,0,0],"id":3,"left_children":[1,3,-1,5,7,9,-1,-1,11,-1,-1,-1,-1],"loss_changes":[1.5950134E2,5.2400257E1,0E0,1.6625977E0,2.351183E1,1.6067932E1,0E0,0E0,2.6282183E1,0E0,0E0,0E0,0E0],"parents":[2147483647,0,0,1,1,3,3,4,4,5,5,8,8],"right_children":[2,4,-1,6,8,10,-1,-1,12,-1,-1,-1,-1],"split_conditions":[2.83E1,3.5E0,-8.620756E-2,5.833E1,4.5E1,1.964E1,8.08311E-2,-7.790058E-2,4.389E1,7.955111E-2,-6.551941E-2,-4.3934118E-2,3.3150215E-2],"split_indices":[17,17,0,2,3,4,0,0,5,0,0,0,0],"split_type":[0,0,0,0,0,0,0,0,0,0,0,0,0],"sum_hessian":[1.4589085E2,1.0928535E2,3.6605503E1,4.3193638E1,6.609171E1,8.011404E0,3.518223E1,6.648445E0,5.9443268E1,6.2666473E0,1.7447567E0,1.3533624E1,4.590964E1],"tree_param":{"num_deleted":"0","num_feature":"29","num_nodes":"13","size_leaf_vector":"1"}},{"base_weights":[-5.785733E-2,1.2980975E0,-1.0397085E0,-5.1849373E-2,1.3652099E0,-1.3992319E0,1.0164248E0,8.055989E-2,7.14519E-1,-8.573233E-2,4.283542E-1,-5.3754956E-2,1.3814654E0,-7.0221975E-2,5.5339765E-2,-6.800163E-2,6.555492E-2,8.1855856E-2,3.7403055E-2],"categories":[],"categories_nodes":[],"categories_segments":[],"categories_sizes":[],"default_left":[0,0,0,0,0,0,0,0,0,0,0,0,0,0,0,0,0,0,0],"id":4,"left_children":[1,3,5,-1,7,9,11,-1,13,-1,15,-1,17,-1,-1,-1,-1,-1,-1],"loss_changes":[1.896102E2,1.079245E1,6.2462135E1,0E0,8.227394E0,4.1491608E1,1.1310234E1,0E0,1.6409107E1,0E0,1.9474838E1,0E0,6.2036514E-1,0E0,0E0,0E0,0E0,0E0,0E0],"parents":[2147483647,0,0,1,1,2,2,4,4,5,5,6,6,8,8,10,10,12,12],"right_children":[2,4,6,-1,8,10,12,-1,14,-1,16,-1,18,-1,-1,-1,-1,-1,-1],"split_conditions":[4.9E0,2.108E1,6.176E1,-5.1849373E-2,3E0,6.564E1,4.667E1,8.055989E-2,5E0,-8.573233E-2,4.7E1,-5.3754956E-2,5E0,-7.0221975E-2,5.5339765E-2,-6.800163E-2,6.555492E-2,8.1855856E-2,3.7403055E-2],"split_indices":[17,5,0,0,17,4,10,0,22,0,11,0,19,0,0,0,0,0,0],"split_type":[0,0,0,0,0,0,0,0,0,0,0,0,0,0,0,0,0,0,0],"sum_hessian":[1.4040622E2,5.88337E1,8.1572525E1,1.239948E0,5.759375E1,6.970398E1,1.1868544E1,4.072275E1,1.6870998E1,5.9497395E1,1.0206586E1,1.4745969E0,1.0393947E1,2.2323394E0,1.4638659E1,3.1943455E0,7.0122404E0,6.2761617E0,4.1177855E0],"tree_param":{"num_deleted":"0","num_feature":"29","num_nodes":"19","size_leaf_vector":"1"}},{"base_weights":[1.002155E-1,1.1982203E0,-8.5725814E-1,-6.587577E-2,1.30834E0,-8.192244E-2,3.6373934E-1,-8.2325906E-2,1.4516332E0,-7.627788E-2,9.714709E-1,-7.261124E-2,6.706444E-2,7.88558E-2,4.9784895E-2,5.584041E-2,-5.1029176E-2],"categories":[],"categories_nodes":[],"categories_segments":[],"categories_sizes":[],"default_left":[0,0,0,0,0,0,0,0,0,0,0,0,0,0,0,0,0],"id":5,"left_children":[1,3,5,-1,7,-1,9,11,13,-1,15,-1,-1,-1,-1,-1,-1],"loss_changes":[1.5959875E2,2.1303589E1,7.800439E1,0E0,1.3712906E1,0E0,3.8778008E1,1.622056E1,1.970871E0,0E0,8.432167E0,0E0,0E0,0E0,0E0,0E0,0E0],"parents":[2147483647,0,0,1,1,2,2,4,4,6,6,7,7,8,8,10,10],"right_children":[2,4,6,-1,8,-1,10,12,14,-1,16,-1,-1,-1,-1,-1,-1],"split_conditions":[2.2222222E-1,2.5E1,5.5E1,-6.587577E-2,4.6E1,-8.192244E-2,4.807E1,6.86E1,3.5E0,-7.627788E-2,2E0,-7.261124E-2,6.706444E-2,7.88558E-2,4.9784895E-2,5.584041E-2,-5.1029176E-2],"split_indices":[28,5,2,0,11,0,10,0,17,0,20,0,0,0,0,0,0],"split_type":[0,0,0,0,0,0,0,0,0,0,0,0,0,0,0,0,0],"sum_hessian":[1.4983229E2,6.967708E1,8.015521E1,2.4622166E0,6.721486E1,4.8672676E1,3.1482536E1,6.318556E0,6.08963E1,7.2947116E0,2.4187824E1,3.209785E0,3.1087706E0,4.5825203E1,1.50711E1,2.2952604E1,1.2352188E0],"tree_param":{"num_deleted":"0","num_feature":"29","num_nodes":"17","size_leaf_vector":"1"}},{"base_weights":[1.9605714E-1,1.2609518E0,-6.980272E-1,4.018877E-2,1.3751068E0,-1.0122144E0,6.8700746E-2,5.6768693E-2,-6.680986E-2,1.4815787E0,9.6837467E-1,4.7800136E-1,-1.2693827E0,2.8929252E-2,7.758907E-2,7.1062475E-2,-7.132041E-2,-5.7260055E-2,4.994561E-2,-7.176101E-2,3.0901814E-2],"categories":[],"categories_nodes":[],"categories_segments":[],"categories_sizes":[],"default_left":[0,0,0,0,0,0,0,0,0,0,0,0,0,0,0,0,0,0,0,0,0],"id":6,"left_children":[1,3,5,7,9,11,-1,-1,-1,13,15,17,19,-1,-1,-1,-1,-1,-1,-1,-1],"loss_changes":[1.4051166E2,9.32206E0,5.370921E1,1.1743897E1,1.228836E0,2.7571098E1,0E0,0E0,0E0,2.072647E0,1.899731E1,1.0513844E1,1.9754318E1,0E0,0E0,0E0,0E0,0E0,0E0,0E0,0E0],"parents":[2147483647,0,0,1,1,2,2,3,3,4,4,5,5,9,9,10,10,11,11,12,12],"right_children":[2,4,6,8,10,12,-1,-1,-1,14,16,18,20,-1,-1,-1,-1,-1,-1,-1,-1],"split_conditions":[4.9E0,4.6E1,7.25E1,2E0,3E0,5.5E1,6.8700746E-2,5.6768693E-2,-6.680986E-2,5.833E1,7.098E1,4.5E1,9.092E1,2.8929252E-2,7.758907E-2,7.1062475E-2,-7.132041E-2,-5.7260055E-2,4.994561E-2,-7.176101E-2,3.0901814E-2],"split_indices":[17,11,2,22,17,8,0,0,0,2,9,2,9,0,0,0,0,0,0,0,0],"split_type":[0,0,0,0,0,0,0,0,0,0,0,0,0,0,0,0,0,0,0,0,0],"sum_hessian":[1.4565546E2,6.629035E1,7.936511E1,5.784417E0,6.0505936E1,6.9359505E1,1.0005606E1,3.318781E0,2.4656363E0,4.5858677E1,1.4647258E1,1.0081492E1,5.927801E1,3.9747288E0,4.188395E1,1.2659715E1,1.9875425E0,2.1581268E0,7.9233656E0,5.471048E1,4.5675316E0],"tree_param":{"num_deleted":"0","num_feature":"29","num_nodes":"21","size_leaf_vector":"1"}},{"base_weights":[-1.0817788E-1,1.0708953E0,-1.0018661E0,-6.085785E-2,1.1757371E0,5.808433E-2,-1.3696145E0,1.2589577E0,-5.470264E-2,-7.123296E-2,9.2700166E-1,-7.836477E-2,2.915111E-1,1.2974249E-2,6.789325E-2,7.174461E-2,-5.789974E-2,7.348E-2,-5.850742E-2],"categories":[],"categories_nodes":[],"categories_segments":[],"categories_sizes":[],"default_left":[0,0,0,0,0,0,0,0,0,0,0,0,0,0,0,0,0,0,0],"id":7,"left_children":[1,3,5,-1,7,9,11,13,-1,-1,15,-1,17,-1,-1,-1,-1,-1,-1],"loss_changes":[1.3759427E2,1.4947197E1,2.900869E1,0E0,1.1650253E1,2.7186249E1,1.8563416E1,4.8796616E0,0E0,0E0,1.5707432E1,0E0,1.3269282E1,0E0,0E0,0E0,0E0,0E0,0E0],"parents":[2147483647,0,0,1,1,2,2,4,4,5,5,6,6,7,7,10,10,12,12],"right_children":[2,4,6,-1,8,10,12,14,-1,-1,16,-1,18,-1,-1,-1,-1,-1,-1],"split_conditions":[2.2222222E-1,2.5E1,2.778E1,-6.085785E-2,8.4E1,4.39E1,7.5E1,4.6E1,-5.470264E-2,-7.123296E-2,8E0,-7.836477E-2,5.5E1,1.2974249E-2,6.789325E-2,7.174461E-2,-5.789974E-2,7.348E-2,-5.850742E-2],"split_indices":[28,5,15,0,8,0,11,11,0,0,18,0,8,0,0,0,0,0,0],"split_type":[0,0,0,0,0,0,0,0,0,0,0,0,0,0,0,0,0,0,0],"sum_hessian":[1.2856085E2,5.534459E1,7.321627E1,1.960017E0,5.338457E1,1.907603E1,5.414024E1,5.192607E1,1.4585001E0,6.8121014E0,1.2263928E1,4.8433002E1,5.70724E0,5.0021443E0,4.6923927E1,1.0112416E1,2.1515126E0,3.1571572E0,2.5500827E0],"tree_param":{"num_deleted":"0","num_feature":"29","num_nodes":"19","size_leaf_vector":"1"}},{"base_weights":[7.6873496E-2,1.311026E0,-5.6003606E-1,7.3972E-1,1.4039248E0,-1.1366116E0,2.6513183E-1,6.924747E-2,-5.8705658E-2,7.341799E-2,3.0217236E-2,-7.5321175E-2,6.2192744E-1,-7.4970745E-2,8.5527974E-1,-6.150604E-2,7.157289E-2,4.9039904E-2,-5.5265732E-2],"categories":[],"categories_nodes":[],"categories_segments":[],"categories_sizes":[],"default_left":[0,0,0,0,0,0,0,0,0,0,0,0,0,0,0,0,0,0,0],"id":8,"left_children":[1,3,5,7,9,11,13,-1,-1,-1,-1,-1,15,-1,17,-1,-1,-1,-1],"loss_changes":[1.0841698E2,1.4523315E0,4.362584E1,1.2341975E1,1.1350174E0,3.5921036E1,4.113147E1,0E0,0E0,0E0,0E0,0E0,1.6836025E1,0E0,8.297754E0,0E0,0E0,0E0,0E0],"parents":[2147483647,0,0,1,1,2,2,3,3,4,4,5,5,6,6,12,12,14,14],"right_children":[2,4,6,8,10,12,14,-1,-1,-1,-1,-1,16,-1,18,-1,-1,-1,-1],"split_conditions":[3.5E0,5.6E1,5.5E1,1.964E1,3E0,6.453E1,4.807E1,6.924747E-2,-5.8705658E-2,7.341799E-2,3.0217236E-2,-7.5321175E-2,4.7E1,-7.4970745E-2,7.826E1,-6.150604E-2,7.157289E-2,4.9039904E-2,-5.5265732E-2],"split_indices":[17,2,2,4,17,4,10,0,0,0,0,0,11,0,4,0,0,0,0],"split_type":[0,0,0,0,0,0,0,0,0,0,0,0,0,0,0,0,0,0,0],"sum_hessian":[1.3599338E2,4.5931866E1,9.006152E1,7.6778073E0,3.825406E1,5.279456E1,3.726696E1,5.948634E0,1.7291733E0,3.4627174E1,3.6268826E0,4.373969E1,9.054871E0,8.953922E0,2.8313038E1,2.596054E0,6.4588165E0,2.7079159E1,1.2338784E0],"tree_param":{"num_deleted":"0","num_feature":"29","num_nodes":"19","size_leaf_vector":"1"}},{"base_weights":[-1.7879349E-1,-1.154519E0,6.5872866E-1,5.0784357E-2,-7.415847E-2,1.2602122E0,2.117554E-1,2.9172242E-2,1.3343126E0,1.0630065E0,-6.063016E-1,7.011371E-2,3.4168806E-2,1.5186629E-3,7.6427005E-2,-7.517639E-2,3.7939187E-2],"categories":[],"categories_nodes":[],"categories_segments":[],"categories_sizes":[],"default_left":[0,0,0,0,0,0,0,0,0,0,0,0,0,0,0,0,0],"id":9,"left_children":[1,3,5,-1,-1,7,9,-1,11,13,15,-1,-1,-1,-1,-1,-1],"loss_changes":[9.953331E1,4.1584297E1,1.7390278E1,0E0,0E0,6.154976E-1,2.771943E1,0E0,1.1569977E-1,9.287642E0,2.620416E1,0E0,0E0,0E0,0E0,0E0,0E0],"parents":[2147483647,0,0,1,1,2,2,5,5,6,6,8,8,9,9,10,10],"right_children":[2,4,6,-1,-1,8,10,-1,12,14,16,-1,-1,-1,-1,-1,-1],"split_conditions":[5.5E1,1.3333334E-1,3.5E0,5.0784357E-2,-7.415847E-2,6.067E1,3.824E1,2.9172242E-2,6.149E1,2.692E1,7.25E1,7.011371E-2,3.4168806E-2,1.5186629E-3,7.6427005E-2,-7.517639E-2,3.7939187E-2],"split_indices":[2,28,17,0,0,2,15,0,12,15,2,0,0,0,0,0,0],"split_type":[0,0,0,0,0,0,0,0,0,0,0,0,0,0,0,0,0],"sum_hessian":[1.19868576E2,5.5191353E1,6.467722E1,6.983843E0,4.820751E1,2.6797241E1,3.787998E1,3.5202343E0,2.3277006E1,1.8416632E1,1.9463348E1,2.0031372E1,3.245635E0,6.053709E0,1.2362922E1,1.1683045E1,7.7803025E0],"tree_param":{"num_deleted":"0","num_feature":"29","num_nodes":"17","size_leaf_vector":"1"}},{"base_weights":[-9.7732045E-2,1.257381E0,-7.095196E-1,6.7658126E-1,1.3728534E0,-2.721863E-1,-7.0503406E-2,6.596028E-2,-5.864957E-2,3.3269387E-2,7.140807E-2,-6.1906654E-1,8.371339E-1,-4.9058195E-2,5.1457115E-2,-5.3696252E-2,6.1672427E-2],"categories":[],"categories_nodes":[],"categories_segments":[],"categories_sizes":[],"default_left":[0,0,0,0,0,0,0,0,0,0,0,0,0,0,0,0,0],"id":10,"left_children":[1,3,5,7,9,11,-1,-1,-1,-1,-1,13,15,-1,-1,-1,-1],"loss_changes":[1.0448261E2,1.7018967E0,2.6186749E1,1.1623146E1,2.9200745E-1,2.1541094E1,0E0,0E0,0E0,0E0,0E0,2.6191525E1,1.1503225E1,0E0,0E0,0E0,0E0],"parents":[2147483647,0,0,1,1,2,2,3,3,4,4,5,5,11,11,12,12],"right_children":[2,4,6,8,10,12,-1,-1,-1,-1,-1,14,16,-1,-1,-1,-1],"split_conditions":[3E0,5.833E1,2.83E1,4.5E1,5.4E1,5.555556E-1,-7.0503406E-2,6.596028E-2,-5.864957E-2,3.3269387E-2,7.140807E-2,7.5E1,7.098E1,-4.9058195E-2,5.1457115E-2,-5.3696252E-2,6.1672427E-2],"split_indices":[17,2,17,9,11,28,0,0,0,0,0,2,9,0,0,0,0],"split_type":[0,0,0,0,0,0,0,0,0,0,0,0,0,0,0,0,0],"sum_hessian":[1.23952126E2,3.822602E1,8.5726105E1,7.4771123E0,3.0748907E1,5.3633015E1,3.2093094E1,5.761916E0,1.7151963E0,3.1744075E0,2.75745E1,4.1193806E1,1.2439207E1,3.410577E1,7.0880356E0,1.8428875E0,1.0596319E1],"tree_param":{"num_deleted":"0","num_feature":"29","num_nodes":"17","size_leaf_vector":"1"}},{"base_weights":[1.4164777E-1,8.0802864E-1,-1.1938226E0,-2.4879017E-1,1.1618291E0,-7.018267E-2,4.64734E-2,-8.648975E-1,5.8330905E-2,5.533413E-1,6.409538E-2,-7.363867E-2,6.6069044E-2,6.2060226E-2,-6.2628105E-2],"categories":[],"categories_nodes":[],"categories_segments":[],"categories_sizes":[],"default_left":[0,0,0,0,0,0,0,0,0,0,0,0,0,0,0],"id":11,"left_children":[1,3,5,7,9,-1,-1,11,-1,13,-1,-1,-1,-1,-1],"loss_changes":[1.1660844E2,3.2925613E1,2.0756832E1,2.0818398E1,4.081627E0,0E0,0E0,2.3742949E1,0E0,1.7164862E1,0E0,0E0,0E0,0E0,0E0],"parents":[2147483647,0,0,1,1,2,2,3,3,4,4,7,7,9,9],"right_children":[2,4,6,8,10,-1,-1,12,-1,14,-1,-1,-1,-1,-1],"split_conditions":[1.14E1,4.6E1,6.85E1,6.86E1,4.377E1,-7.018267E-2,4.64734E-2,7.2E1,5.8330905E-2,2E0,6.409538E-2,-7.363867E-2,6.6069044E-2,6.2060226E-2,-6.2628105E-2],"split_indices":[17,11,2,0,10,0,0,2,0,18,0,0,0,0,0],"split_type":[0,0,0,0,0,0,0,0,0,0,0,0,0,0,0],"sum_hessian":[1.289468E2,8.628616E1,4.2660625E1,2.1716064E1,6.45701E1,3.9132362E1,3.5282657E0,1.5401116E1,6.314948E0,1.156641E1,5.3003685E1,1.2305918E1,3.0951989E0,8.602456E0,2.9639535E0],"tree_param":{"num_deleted":"0","num_feature":"29","num_nodes":"15","size_leaf_vector":"1"}},{"base_weights":[7.979676E-2,1.0250124E0,-7.5162894E-1,-5.2352346E-2,1.1017711E0,-1.1058208E0,6.574509E-2,1.3010314E0,6.6977626E-1,-3.2264546E-1,-6.998344E-2,4.048096E-2,6.821617E-2,4.3553993E-2,-6.01536E-2,-3.9238032E-2,6.780766E-2],"categories":[],"categories_nodes":[],"categories_segments":[],"categories_sizes":[],"default_left":[0,0,0,0,0,0,0,0,0,0,0,0,0,0,0,0,0],"id":12,"left_children":[1,3,5,-1,7,9,-1,11,13,15,-1,-1,-1,-1,-1,-1,-1],"loss_changes":[1.00952644E2,1.0709217E1,5.1518177E1,0E0,4.15744E0,1.3111099E1,0E0,1.05903625E-1,8.777468E0,1.4546609E1,0E0,0E0,0E0,0E0,0E0,0E0,0E0],"parents":[2147483647,0,0,1,1,2,2,4,4,5,5,7,7,8,8,9,9],"right_children":[2,4,6,-1,8,10,-1,12,14,16,-1,-1,-1,-1,-1,-1,-1],"split_conditions":[2.2222222E-1,2E1,7.25E1,-5.2352346E-2,3E0,3.378E1,6.574509E-2,5.3E1,6.85E1,3.333E1,-6.998344E-2,4.048096E-2,6.821617E-2,4.3553993E-2,-6.01536E-2,-3.9238032E-2,6.780766E-2],"split_indices":[28,5,2,0,17,15,0,7,2,15,0,0,0,0,0,0,0],"split_type":[0,0,0,0,0,0,0,0,0,0,0,0,0,0,0,0,0],"sum_hessian":[1.264783E2,5.907986E1,6.7398445E1,1.6588676E0,5.7420994E1,5.7933804E1,9.464641E0,3.791896E1,1.9502035E1,1.6378685E1,4.155512E1,5.900212E0,3.2018745E1,1.8092272E1,1.4097623E0,1.326095E1,3.1177344E0],"tree_param":{"num_deleted":"0","num_feature":"29","num_nodes":"17","size_leaf_vector":"1"}},{"base_weights":[1.02395795E-1,5.1000303E-1,-6.58832E-2,-1.0138495E-1,9.001064E-1,4.1046146E-1,-6.795135E-2,2.560992E-1,1.1093367E0,-5.714337E-2,3.4370925E-2,-7.137846E-2,6.0839947E-2,5.912736E-2,1.2399042E-2],"categories":[],"categories_nodes":[],"categories_segments":[],"categories_sizes":[],"default_left":[0,0,0,0,0,0,0,0,0,0,0,0,0,0,0],"id":13,"left_children":[1,3,-1,5,7,9,-1,11,13,-1,-1,-1,-1,-1,-1],"loss_changes":[7.112474E1,2.2818863E1,0E0,2.503024E1,7.568203E0,1.2740295E1,0E0,2.6954363E1,2.4615211E0,0E0,0E0,0E0,0E0,0E0,0E0],"parents":[2147483647,0,0,1,1,3,3,4,4,5,5,7,7,8,8],"right_children":[2,4,-1,6,8,10,-1,12,14,-1,-1,-1,-1,-1,-1],"split_conditions":[3.3775876E0,4.7E1,-6.58832E-2,1E0,4.613E1,4.545E1,-6.795135E-2,4.9E1,6.173E1,-5.714337E-2,3.4370925E-2,-7.137846E-2,6.0839947E-2,5.912736E-2,1.2399042E-2],"split_indices":[27,11,0,20,10,5,0,4,10,0,0,0,0,0,0],"split_type":[0,0,0,0,0,0,0,0,0,0,0,0,0,0,0],"sum_hessian":[1.2071646E2,9.4292145E1,2.6424316E1,3.7017193E1,5.7274952E1,2.6788284E1,1.02289095E1,1.4590295E1,4.2684658E1,3.5804749E0,2.320781E1,5.124106E0,9.466188E0,3.899722E1,3.687439E0],"tree_param":{"num_deleted":"0","num_feature":"29","num_nodes":"15","size_leaf_vector":"1"}},{"base_weights":[-7.4522555E-2,1.0136814E0,-9.118437E-1,-5.5171728E-2,1.1268736E0,5.67909E-1,-1.1882739E0,6.614944E-2,8.699236E-1,-5.0408788E-2,1.1546773E0,2.8562084E-1,-6.877528E-2,5.2219838E-2,1.6766448E-3,3.367002E-2,7.159601E-2,-4.9505778E-2,6.6064335E-2],"categories":[],"categories_nodes":[],"categories_segments":[],"categories_sizes":[],"default_left":[0,0,0,0,0,0,0,0,0,0,0,0,0,0,0,0,0,0,0],"id":14,"left_children":[1,3,5,-1,7,9,11,-1,13,-1,15,17,-1,-1,-1,-1,-1,-1,-1],"loss_changes":[9.818233E1,1.2480038E1,2.556527E1,0E0,1.1169586E0,1.0647533E1,1.463102E1,0E0,3.233881E0,0E0,9.501171E-2,1.0085887E1,0E0,0E0,0E0,0E0,0E0,0E0,0E0],"parents":[2147483647,0,0,1,1,2,2,4,4,5,5,6,6,8,8,10,10,11,11],"right_children":[2,4,6,-1,8,10,12,-1,14,-1,16,18,-1,-1,-1,-1,-1,-1,-1],"split_conditions":[4.9E0,4.6E1,5.5E1,-5.5171728E-2,2.2E0,4.67E1,1.944E1,6.614944E-2,2E3,-5.0408788E-2,4.263E1,1.926E1,-6.877528E-2,5.2219838E-2,1.6766448E-3,3.367002E-2,7.159601E-2,-4.9505778E-2,6.6064335E-2],"split_indices":[17,11,8,0,17,5,5,0,25,0,4,5,0,0,0,0,0,0,0],"split_type":[0,0,0,0,0,0,0,0,0,0,0,0,0,0,0,0,0,0,0],"sum_hessian":[1.05738976E2,4.5889362E1,5.9849613E1,1.884974E0,4.400439E1,9.254596E0,5.0595016E1,2.2603558E1,2.1400833E1,2.3158743E0,6.9387207E0,5.6435184E0,4.49515E1,1.7501318E1,3.8995144E0,3.789426E0,3.1492949E0,2.548388E0,3.0951304E0],"tree_param":{"num_deleted":"0","num_feature":"29","num_nodes":"19","size_leaf_vector":"1"}},{"base_weights":[5.9631657E-2,9.4475794E-1,-6.5319914E-1,-2.5013846E-1,1.1259875E0,-1.1259686E0,4.4969505E-1,4.923817E-2,-6.3134044E-2,8.342059E-1,1.2844182E0,-6.675883E-2,6.302702E-1,-6.1019775E-2,8.1811666E-1,5.320835E-2,-5.640429E-2,6.735827E-2,2.7424524E-2,6.6755995E-2,-4.119189E-2,6.376388E-2,-5.1613268E-2],"categories":[],"categories_nodes":[],"categories_segments":[],"categories_sizes":[],"default_left":[0,0,0,0,0,0,0,0,0,0,0,0,0,0,0,0,0,0,0,0,0,0,0],"id":15,"left_children":[1,3,5,7,9,11,13,-1,-1,15,17,-1,19,-1,21,-1,-1,-1,-1,-1,-1,-1,-1],"loss_changes":[7.36066E1,1.1545227E1,3.4225807E1,1.0831666E1,1.0247192E0,1.7577812E1,1.3377131E1,0E0,0E0,9.688522E0,5.325966E-1,0E0,6.765621E0,0E0,1.5765564E1,0E0,0E0,0E0,0E0,0E0,0E0,0E0,0E0],"parents":[2147483647,0,0,1,1,2,2,3,3,4,4,5,5,6,6,9,9,10,10,12,12,14,14],"right_children":[2,4,6,8,10,12,14,-1,-1,16,18,-1,20,-1,22,-1,-1,-1,-1,-1,-1,-1,-1],"split_conditions":[2.2222222E-1,4.6E1,5.14E1,6.666667E-2,4.319E1,8.972E1,6E0,4.923817E-2,-6.3134044E-2,3.5E0,6.763E1,-6.675883E-2,9.108E1,-6.1019775E-2,6E-1,5.320835E-2,-5.640429E-2,6.735827E-2,2.7424524E-2,6.6755995E-2,-4.119189E-2,6.376388E-2,-5.1613268E-2],"split_indices":[28,11,4,28,5,9,18,0,0,17,4,0,9,0,28,0,0,0,0,0,0,0,0],"split_type":[0,0,0,0,0,0,0,0,0,0,0,0,0,0,0,0,0,0,0,0,0,0,0],"sum_hessian":[1.1468276E2,5.101356E1,6.36692E1,6.668184E0,4.4345375E1,4.4550957E1,1.9118244E1,3.016581E0,3.6516025E0,1.7810051E1,2.6535326E1,4.0023056E1,4.5279016E0,3.037314E0,1.608093E1,1.6351507E1,1.4585425E0,2.3685291E1,2.8500354E0,3.1047604E0,1.4231415E0,1.3144272E1,2.9366593E0],"tree_param":{"num_deleted":"0","num_feature":"29","num_nodes":"23","size_leaf_vector":"1"}},{"base_weights":[-9.4441965E-2,9.941913E-1,-8.8501537E-1,-4.291524E-2,1.0671088E0,-1.159245E0,5.294028E-2,4.6716163E-1,1.1665145E0,-6.680339E-2,4.7535118E-1,5.5594414E-2,-5.5917334E-2,6.114785E-2,2.1212632E-2,6.712993E-2,-5.3813834E-2],"categories":[],"categories_nodes":[],"categories_segments":[],"categories_sizes":[],"default_left":[0,0,0,0,0,0,0,0,0,0,0,0,0,0,0,0,0],"id":16,"left_children":[1,3,5,-1,7,9,-1,11,13,-1,15,-1,-1,-1,-1,-1,-1],"loss_changes":[8.56891E1,6.579365E0,3.193909E1,0E0,1.8873901E0,1.5366783E1,0E0,8.874482E0,9.189873E-1,0E0,9.132577E0,0E0,0E0,0E0,0E0,0E0,0E0],"parents":[2147483647,0,0,1,1,2,2,4,4,5,5,7,7,8,8,10,10],"right_children":[2,4,6,-1,8,10,-1,12,14,-1,16,-1,-1,-1,-1,-1,-1],"split_conditions":[1.8181819E-1,3.696E1,7.25E1,-4.291524E-2,4.37E1,1E2,5.294028E-2,3.78E1,7.8E1,-6.680339E-2,4.6E1,5.5594414E-2,-5.5917334E-2,6.114785E-2,2.1212632E-2,6.712993E-2,-5.3813834E-2],"split_indices":[28,15,2,0,10,4,0,10,8,0,2,0,0,0,0,0,0],"split_type":[0,0,0,0,0,0,0,0,0,0,0,0,0,0,0,0,0],"sum_hessian":[9.754154E1,4.0926914E1,5.6614628E1,1.1420407E0,3.9784874E1,4.9968777E1,6.645851E0,6.4651356E0,3.3319736E1,4.525585E1,4.7129245E0,4.808528E0,1.656608E0,3.0363266E1,2.9564717E0,3.1095998E0,1.6033244E0],"tree_param":{"num_deleted":"0","num_feature":"29","num_nodes":"17","size_leaf_vector":"1"}},{"base_weights":[6.2297016E-2,9.050505E-1,-6.7304546E-1,-5.112771E-2,1.0220851E0,3.146275E-1,-1.0727068E0,1.1836435E0,6.2525284E-1,-5.487534E-2,9.3228394E-1,1.4607845E-3,-6.516089E-2,2.109061E-2,6.2498208E-2,-6.625649E-2,5.6098398E-2,-4.4280514E-2,6.1501928E-2,-5.269277E-2,6.50744E-2],"categories":[],"categories_nodes":[],"categories_segments":[],"categories_sizes":[],"default_left":[0,0,0,0,0,0,0,0,0,0,0,0,0,0,0,0,0,0,0,0,0],"id":17,"left_children":[1,3,5,-1,7,9,11,13,15,-1,17,19,-1,-1,-1,-1,-1,-1,-1,-1,-1],"loss_changes":[6.5151306E1,1.20895195E1,2.25185E1,0E0,2.2510033E0,1.5816783E1,9.963444E0,1.0913811E0,1.6617384E1,0E0,7.7690897E0,1.2493811E1,0E0,0E0,0E0,0E0,0E0,0E0,0E0,0E0,0E0],"parents":[2147483647,0,0,1,1,2,2,4,4,5,5,6,6,7,7,8,8,10,10,11,11],"right_children":[2,4,6,-1,8,10,12,14,16,-1,18,20,-1,-1,-1,-1,-1,-1,-1,-1,-1],"split_conditions":[2.2222222E-1,4.65E1,2.778E1,-5.112771E-2,3E0,5.5E1,3.28E1,5.833E1,4.913E1,-5.487534E-2,4.567E1,3.233E1,-6.516089E-2,2.109061E-2,6.2498208E-2,-6.625649E-2,5.6098398E-2,-4.4280514E-2,6.1501928E-2,-5.269277E-2,6.50744E-2],"split_indices":[28,3,15,0,17,3,10,2,10,0,12,10,0,0,0,0,0,0,0,0,0],"split_type":[0,0,0,0,0,0,0,0,0,0,0,0,0,0,0,0,0,0,0,0,0],"sum_hessian":[1.0314857E2,4.795641E1,5.5192158E1,2.3021343E0,4.5654274E1,1.5960974E1,3.9231186E1,3.1036112E1,1.4618162E1,4.6204505E0,1.1340523E1,7.1069384E0,3.212425E1,3.0748792E0,2.7961233E1,2.6286836E0,1.1989478E1,1.3181946E0,1.0022328E1,4.027177E0,3.0797615E0],"tree_param":{"num_deleted":"0","num_feature":"29","num_nodes":"21","size_leaf_vector":"1"}},{"base_weights":[1.1406063E-1,9.6683544E-1,-5.063232E-1,1.1200974E0,2.0732069E-1,-4.2168345E-2,-6.1052587E-2,2.707283E-2,5.7952084E-2,4.6032306E-2,-6.1784603E-2,6.3307196E-1,-5.9182787E-1,-4.5231555E-2,4.375534E-2,3.37925E-2,-6.7650735E-2],"categories":[],"categories_nodes":[],"categories_segments":[],"categories_sizes":[],"default_left":[0,0,0,0,0,0,0,0,0,0,0,0,0,0,0,0,0],"id":18,"left_children":[1,3,5,7,9,11,-1,-1,-1,-1,-1,13,15,-1,-1,-1,-1],"loss_changes":[6.015133E1,5.3359795E0,2.1822834E1,2.6426315E-1,1.0668223E1,1.5596335E1,0E0,0E0,0E0,0E0,0E0,7.820888E0,2.3228794E1,0E0,0E0,0E0,0E0],"parents":[2147483647,0,0,1,1,2,2,3,3,4,4,5,5,11,11,12,12],"right_children":[2,4,6,8,10,12,-1,-1,-1,-1,-1,14,16,-1,-1,-1,-1],"split_conditions":[1.8181819E-1,3.5E0,2.51E1,2.389E1,2.849E1,3.378E1,-6.1052587E-2,2.707283E-2,5.7952084E-2,4.6032306E-2,-6.1784603E-2,3.3E1,5.3E1,-4.5231555E-2,4.375534E-2,3.37925E-2,-6.7650735E-2],"split_indices":[28,17,17,5,4,15,0,0,0,0,0,11,7,0,0,0,0],"split_type":[0,0,0,0,0,0,0,0,0,0,0,0,0,0,0,0,0],"sum_hessian":[1.1177205E2,4.6834824E1,6.4937225E1,3.857587E1,8.258953E0,4.0011917E1,2.492531E1,3.372344E0,3.5203526E1,5.7691054E0,2.4898481E0,1.7886784E1,2.2125132E1,2.0602071E0,1.5826577E1,8.342939E0,1.3782192E1],"tree_param":{"num_deleted":"0","num_feature":"29","num_nodes":"17","size_leaf_vector":"1"}},{"base_weights":[1.1346195E-1,4.8365352E-1,-6.0065564E-2,-2.934028E-1,7.915058E-1,-8.806759E-1,9.298851E-1,9.8585665E-1,2.4553432E-1,3.8679387E-2,-6.508624E-2,-3.5403132E-2,6.357676E-2,2.8826226E-2,5.8519393E-2,-5.3359605E-2,3.6458593E-2],"categories":[],"categories_nodes":[],"categories_segments":[],"categories_sizes":[],"default_left":[0,0,0,0,0,0,0,0,0,0,0,0,0,0,0,0,0],"id":19,"left_children":[1,3,-1,5,7,9,11,13,15,-1,-1,-1,-1,-1,-1,-1,-1],"loss_changes":[5.326292E1,2.0606855E1,0E0,1.8705572E1,6.259712E0,1.3081624E1,5.6917973E0,2.7134514E0,1.18361845E1,0E0,0E0,0E0,0E0,0E0,0E0,0E0,0E0],"parents":[2147483647,0,0,1,1,3,3,4,4,5,5,6,6,7,7,8,8],"right_children":[2,4,-1,6,8,10,12,14,16,-1,-1,-1,-1,-1,-1,-1,-1],"split_conditions":[2.83E1,4.6E1,-6.0065564E-2,5.555556E-1,2.2222222E-1,6.666667E-2,6.2E1,4.319E1,6E1,3.8679387E-2,-6.508624E-2,-3.5403132E-2,6.357676E-2,2.8826226E-2,5.8519393E-2,-5.3359605E-2,3.6458593E-2],"split_indices":[17,11,0,28,28,28,7,5,11,0,0,0,0,0,0,0,0],"split_type":[0,0,0,0,0,0,0,0,0,0,0,0,0,0,0,0,0],"sum_hessian":[1.07239075E2,8.41716E1,2.3067474E1,2.3897747E1,6.0273853E1,1.6335508E1,7.5622377E0,4.3856464E1,1.6417387E1,3.1443493E0,1.319116E1,1.1200387E0,6.4421988E0,1.4909051E1,2.8947414E1,4.0952225E0,1.2322165E1],"tree_param":{"num_deleted":"0","num_feature":"29","num_nodes":"17","size_leaf_vector":"1"}},{"base_weights":[1.0009921E-1,4.5811462E-1,-5.9261512E-2,-1.9774635E-1,8.5237473E-1,2.4201313E-1,-6.436689E-2,-3.9003562E-2,9.048093E-1,5.8977712E-2,-1.10227E-2,2.9372973E-2,5.653559E-2],"categories":[],"categories_nodes":[],"categories_segments":[],"categories_sizes":[],"default_left":[0,0,0,0,0,0,0,0,0,0,0,0,0],"id":20,"left_children":[1,3,-1,5,7,9,-1,-1,11,-1,-1,-1,-1],"loss_changes":[4.9906704E1,2.2050676E1,0E0,1.5924074E1,5.245949E0,1.0690194E1,0E0,0E0,3.0531273E0,0E0,0E0,0E0,0E0],"parents":[2147483647,0,0,1,1,3,3,4,4,5,5,8,8],"right_children":[2,4,-1,6,8,10,-1,-1,12,-1,-1,-1,-1],"split_conditions":[2.83E1,4.7E1,-5.9261512E-2,6E0,1.885E1,2.6E0,-6.436689E-2,-3.9003562E-2,6.164E1,5.8977712E-2,-1.10227E-2,2.9372973E-2,5.653559E-2],"split_indices":[17,11,0,22,5,17,0,0,0,0,0,0,0],"split_type":[0,0,0,0,0,0,0,0,0,0,0,0,0],"sum_hessian":[1.0627335E2,8.362425E1,2.26491E1,3.1583235E1,5.204102E1,2.3055794E1,8.52744E0,1.187688E0,5.085333E1,7.103858E0,1.5951936E1,2.2643726E1,2.8209602E1],"tree_param":{"num_deleted":"0","num_feature":"29","num_nodes":"13","size_leaf_vector":"1"}},{"base_weights":[1.2457293E-1,1.0370555E0,-3.7728983E-1,1.0873606E0,1.5041985E-2,-6.27875E-2,2.1605864E-1,1.1215913E0,2.4064573E-2,4.9713665E-1,-5.3632766E-2,2.6807964E-2,5.7742696E-2,3.619387E-2,-5.6833446E-2],"categories":[],"categories_nodes":[],"categories_segments":[],"categories_sizes":[],"default_left":[0,0,0,0,0,0,0,0,0,0,0,0,0,0,0],"id":21,"left_children":[1,3,5,7,-1,-1,9,11,-1,13,-1,-1,-1,-1,-1],"loss_changes":[4.853798E1,1.064434E0,3.60091E1,1.8189621E-1,0E0,0E0,1.5665778E1,7.385254E-3,0E0,1.37808695E1,0E0,0E0,0E0,0E0,0E0],"parents":[2147483647,0,0,1,1,2,2,3,3,6,6,7,7,9,9],"right_children":[2,4,6,8,-1,-1,10,12,-1,14,-1,-1,-1,-1,-1],"split_conditions":[3.5E0,7.8E1,4.807E1,1.6666667E-1,1.5041985E-2,-6.27875E-2,2.51E1,4.265E1,2.4064573E-2,6.077E1,-5.3632766E-2,2.6807964E-2,5.7742696E-2,3.619387E-2,-5.6833446E-2],"split_indices":[17,8,10,28,0,0,17,0,0,10,0,0,0,0,0],"split_type":[0,0,0,0,0,0,0,0,0,0,0,0,0,0,0],"sum_hessian":[1.0413736E2,3.6573437E1,6.756393E1,3.378778E1,2.7856555E0,2.678782E1,4.0776104E1,3.117635E1,2.611431E0,3.397922E1,6.7968807E0,2.596482E0,2.8579868E1,3.0327314E1,3.6519084E0],"tree_param":{"num_deleted":"0","num_feature":"29","num_nodes":"15","size_leaf_vector":"1"}},{"base_weights":[7.7576146E-2,4.2169163E-1,-5.772111E-2,-3.262246E-2,7.664265E-1,3.9571193E-1,-6.0501862E-2,1.8809834E-1,1.0003661E0,-4.8978526E-2,3.0145088E-2,-6.5110296E-2,4.754057E-2,-1.3494187E-3,5.5912282E-2],"categories":[],"categories_nodes":[],"categories_segments":[],"categories_sizes":[],"default_left":[0,0,0,0,0,0,0,0,0,0,0,0,0,0,0],"id":22,"left_children":[1,3,-1,5,7,9,-1,11,13,-1,-1,-1,-1,-1,-1],"loss_changes":[4.1818848E1,1.2075102E1,0E0,1.7703257E1,5.735832E0,7.9411407E0,0E0,1.6972391E1,3.777607E0,0E0,0E0,0E0,0E0,0E0,0E0],"parents":[2147483647,0,0,1,1,3,3,4,4,5,5,7,7,8,8],"right_children":[2,4,-1,6,8,10,-1,12,14,-1,-1,-1,-1,-1,-1],"split_conditions":[2.83E1,4.7E1,-5.772111E-2,1E0,4.613E1,4.545E1,-6.0501862E-2,7.5E1,1.3E1,-4.8978526E-2,3.0145088E-2,-6.5110296E-2,4.754057E-2,-1.3494187E-3,5.5912282E-2],"split_indices":[17,11,0,20,10,5,0,11,16,0,0,0,0,0,0],"split_type":[0,0,0,0,0,0,0,0,0,0,0,0,0,0,0],"sum_hessian":[9.6492775E1,7.593947E1,2.0553307E1,3.3153282E1,4.278619E1,2.4796444E1,8.356839E0,1.2842343E1,2.9943846E1,2.7584624E0,2.2037981E1,4.10806E0,8.734283E0,3.1615E0,2.6782345E1],"tree_param":{"num_deleted":"0","num_feature":"29","num_nodes":"15","size_leaf_vector":"1"}},{"base_weights":[1.1328678E-1,4.5667744E-1,-5.7289053E-2,9.788101E-1,7.5159006E-2,7.973588E-3,1.0504003E0,-6.016741E-2,3.26003E-1,2.9977519E-2,5.601011E-2,2.5009358E-2,-5.62007E-2],"categories":[],"categories_nodes":[],"categories_segments":[],"categories_sizes":[],"default_left":[0,0,0,0,0,0,0,0,0,0,0,0,0],"id":23,"left_children":[1,3,-1,5,7,-1,9,-1,11,-1,-1,-1,-1],"loss_changes":[4.5005447E1,1.6171888E1,0E0,1.8472176E0,1.5851691E1,0E0,3.1682587E-1,0E0,1.0938969E1,0E0,0E0,0E0,0E0],"parents":[2147483647,0,0,1,1,3,3,4,4,6,6,8,8],"right_children":[2,4,-1,6,8,-1,10,-1,12,-1,-1,-1,-1],"split_conditions":[2.83E1,3.5E0,-5.7289053E-2,1.4E3,4.389E1,7.973588E-3,4.29E1,-6.016741E-2,6.077E1,2.9977519E-2,5.601011E-2,2.5009358E-2,-5.62007E-2],"split_indices":[17,17,0,25,5,0,10,0,10,0,0,0,0],"split_type":[0,0,0,0,0,0,0,0,0,0,0,0,0],"sum_hessian":[1.0188418E2,8.0552155E1,2.1332026E1,3.334787E1,4.7204285E1,2.9390016E0,3.0408869E1,7.119625E0,4.008466E1,5.3624134E0,2.5046455E1,3.637066E1,3.7139993E0],"tree_param":{"num_deleted":"0","num_feature":"29","num_nodes":"13","size_leaf_vector":"1"}},{"base_weights":[4.040228E-2,-6.7587274E-1,5.613832E-1,-6.0059715E-2,-1.0685856E-3,-4.8416656E-1,7.297565E-1,6.8940026E-1,-5.2123446E-2,4.699492E-2,-5.9577346E-2,7.9117113E-1,-4.3929707E-2,4.7352146E-2,-4.471979E-2,-3.767793E-2,4.2000577E-2],"categories":[],"categories_nodes":[],"categories_segments":[],"categories_sizes":[],"default_left":[0,0,0,0,0,0,0,0,0,0,0,0,0,0,0,0,0],"id":24,"left_children":[1,3,5,-1,7,9,11,13,-1,-1,-1,15,-1,-1,-1,-1,-1],"loss_changes":[3.669833E1,1.4687246E1,1.0368523E1,0E0,1.4480115E1,9.6744E0,5.574543E0,5.7885823E0,0E0,0E0,0E0,4.262516E0,0E0,0E0,0E0,0E0,0E0],"parents":[2147483647,0,0,1,1,2,2,4,4,5,5,6,6,7,7,11,11],"right_children":[2,4,6,-1,8,10,12,14,-1,-1,-1,16,-1,-1,-1,-1,-1],"split_conditions":[5.5E1,4.7E1,4.327E1,-6.0059715E-2,2.83E1,1.9E0,2E0,4.9E1,-5.2123446E-2,4.699492E-2,-5.9577346E-2,4.5E1,-4.3929707E-2,4.7352146E-2,-4.471979E-2,-3.767793E-2,4.2000577E-2],"split_indices":[2,11,10,0,17,17,20,3,0,0,0,11,0,0,0,0,0],"split_type":[0,0,0,0,0,0,0,0,0,0,0,0,0,0,0,0,0],"sum_hessian":[9.6326515E1,4.043576E1,5.589076E1,2.2297522E1,1.8138239E1,7.4920044E0,4.8398754E1,1.1110059E1,7.02818E0,2.377344E0,5.1146607E0,4.7108025E1,1.2907287E0,9.9014E0,1.2086594E0,1.0015603E0,4.6106464E1],"tree_param":{"num_deleted":"0","num_feature":"29","num_nodes":"17","size_leaf_vector":"1"}},{"base_weights":[9.086696E-2,3.964781E-1,-5.587846E-2,7.7989395E-3,9.8115563E-1,-7.2556245E-1,3.952287E-1,1.0504591E0,3.8109052E-1,-6.2446397E-2,6.1932325E-2,-6.081853E-2,3.2011475E-2,5.548943E-2,1.2649274E-2,-4.409572E-2,5.11373E-2],"categories":[],"categories_nodes":[],"categories_segments":[],"categories_sizes":[],"default_left":[0,0,0,0,0,0,0,0,0,0,0,0,0,0,0,0,0],"id":25,"left_children":[1,3,-1,5,7,9,11,13,15,-1,-1,-1,-1,-1,-1,-1,-1],"loss_changes":[3.5775105E1,1.7512802E1,0E0,1.3731266E1,8.796463E-1,1.872441E1,1.3259441E1,9.977608E-1,4.756285E0,0E0,0E0,0E0,0E0,0E0,0E0,0E0,0E0],"parents":[2147483647,0,0,1,1,3,3,4,4,5,5,6,6,7,7,8,8],"right_children":[2,4,-1,6,8,10,12,14,16,-1,-1,-1,-1,-1,-1,-1,-1],"split_conditions":[3.3775876E0,6.175E1,-5.587846E-2,4.6E1,8.4E1,1E1,3.8E1,7.85E1,8.17E1,-6.2446397E-2,6.1932325E-2,-6.081853E-2,3.2011475E-2,5.548943E-2,1.2649274E-2,-4.409572E-2,5.11373E-2],"split_indices":[27,0,0,11,8,18,5,2,0,0,0,0,0,0,0,0,0],"split_type":[0,0,0,0,0,0,0,0,0,0,0,0,0,0,0,0,0],"sum_hessian":[9.4669945E1,7.609705E1,1.857289E1,4.63188E1,2.9778255E1,1.5709573E1,3.060923E1,2.6022278E1,3.7559779E0,1.2691947E1,3.0176253E0,3.5160584E0,2.709317E1,2.3855852E1,2.166426E0,1.1391978E0,2.61678E0],"tree_param":{"num_deleted":"0","num_feature":"29","num_nodes":"17","size_leaf_vector":"1"}},{"base_weights":[1.4094782E-2,-4.465182E-1,8.486282E-1,-7.836743E-1,5.582507E-1,9.285285E-1,3.3988956E-2,-9.587558E-1,3.5414483E-2,9.248385E-1,-5.528907E-2,4.197241E-1,1.0401548E0,3.7300024E-2,-4.5180645E-2,8.445172E-3,-5.9467655E-2,-4.104912E-2,6.073426E-2,5.1182847E-2,-5.0281834E-2,5.7115566E-2,8.0349725E-3],"categories":[],"categories_nodes":[],"categories_segments":[],"categories_sizes":[],"default_left":[0,0,0,0,0,0,0,0,0,0,0,0,0,0,0,0,0,0,0,0,0,0,0],"id":26,"left_children":[1,3,5,7,9,11,13,15,-1,17,-1,19,21,-1,-1,-1,-1,-1,-1,-1,-1,-1,-1],"loss_changes":[3.2976734E1,1.9170486E1,1.9539719E0,1.16032505E1,9.854163E0,1.1390381E0,3.1859765E0,1.0044052E1,0E0,7.276168E0,0E0,6.7691526E0,1.7996063E0,0E0,0E0,0E0,0E0,0E0,0E0,0E0,0E0,0E0,0E0],"parents":[2147483647,0,0,1,1,2,2,3,3,4,4,5,5,6,6,7,7,9,9,11,11,12,12],"right_children":[2,4,6,8,10,12,14,16,-1,18,-1,20,22,-1,-1,-1,-1,-1,-1,-1,-1,-1,-1],"split_conditions":[6.35E1,6.564E1,8E0,9.092E1,7E1,4.9E1,6.65E1,1.5384616E-1,3.5414483E-2,4.6E1,-5.528907E-2,4.499E1,2E3,3.7300024E-2,-4.5180645E-2,8.445172E-3,-5.9467655E-2,-4.104912E-2,6.073426E-2,5.1182847E-2,-5.0281834E-2,5.7115566E-2,8.0349725E-3],"split_indices":[2,4,22,9,8,4,2,28,0,11,0,12,25,0,0,0,0,0,0,0,0,0,0],"split_type":[0,0,0,0,0,0,0,0,0,0,0,0,0,0,0,0,0,0,0,0,0,0,0],"sum_hessian":[8.380246E1,5.4298084E1,2.9504377E1,4.0820557E1,1.34775305E1,2.6741728E1,2.7626476E0,3.6853226E1,3.9673276E0,1.1408456E1,2.0690744E0,5.6677256E0,2.1074003E1,1.6863738E0,1.0762739E0,6.30216E0,3.0551067E1,1.363468E0,1.0044988E1,4.1789207E0,1.4888046E0,1.8613049E1,2.4609556E0],"tree_param":{"num_deleted":"0","num_feature":"29","num_nodes":"23","size_leaf_vector":"1"}},{"base_weights":[1.0834468E-1,3.97106E-1,-5.4821044E-2,8.8838655E-1,7.108649E-2,2.9957315E-4,1.0358063E0,-7.1572584E-1,4.7222856E-1,4.7824915E-2,-5.712942E-2,5.4516044E-2,1.8679647E-2,-6.131177E-2,5.4926198E-2,3.3551387E-2,-4.9936496E-2],"categories":[],"categories_nodes":[],"categories_segments":[],"categories_sizes":[],"default_left":[0,0,0,0,0,0,0,0,0,0,0,0,0,0,0,0,0],"id":27,"left_children":[1,3,-1,5,7,9,11,13,15,-1,-1,-1,-1,-1,-1,-1,-1],"loss_changes":[3.2851242E1,1.2093097E1,0E0,3.951992E0,1.5080443E1,6.8827376E0,5.273113E-1,1.6323528E1,9.892988E0,0E0,0E0,0E0,0E0,0E0,0E0,0E0,0E0],"parents":[2147483647,0,0,1,1,3,3,4,4,5,5,6,6,7,7,8,8],"right_children":[2,4,-1,6,8,10,12,14,16,-1,-1,-1,-1,-1,-1,-1,-1],"split_conditions":[2.83E1,3.5E0,-5.4821044E-2,5.833E1,4.95E1,1.48E1,3E0,2.75E1,6.077E1,4.7824915E-2,-5.712942E-2,5.4516044E-2,1.8679647E-2,-6.131177E-2,5.4926198E-2,3.3551387E-2,-4.9936496E-2],"split_indices":[17,17,0,2,10,4,17,17,10,0,0,0,0,0,0,0,0],"split_type":[0,0,0,0,0,0,0,0,0,0,0,0,0,0,0,0,0],"sum_hessian":[9.217851E1,7.4897316E1,1.7281193E1,2.9188324E1,4.5708992E1,4.2980466E0,2.4890278E1,1.5169956E1,3.0539036E1,2.4289494E0,1.869097E0,2.2399807E1,2.490469E0,1.20916195E1,3.0783365E0,2.7382168E1,3.1568677E0],"tree_param":{"num_deleted":"0","num_feature":"29","num_nodes":"17","size_leaf_vector":"1"}},{"base_weights":[1.2529345E-1,7.618685E-1,-4.3739852E-1,-2.6602224E-1,9.298596E-1,-5.757165E-2,2.2206156E-1,4.2112373E-2,-5.657636E-2,5.648302E-2,5.6759435E-1,-4.927377E-2,5.2729833E-1,4.842387E-2,-6.724175E-2,-4.6094395E-2,3.6139313E-2],"categories":[],"categories_nodes":[],"categories_segments":[],"categories_sizes":[],"default_left":[0,0,0,0,0,0,0,0,0,0,0,0,0,0,0,0,0],"id":28,"left_children":[1,3,5,7,9,-1,11,-1,-1,-1,13,-1,15,-1,-1,-1,-1],"loss_changes":[3.2454487E1,7.5757484E0,2.2968525E1,7.417443E0,2.0152378E0,0E0,1.0071212E1,0E0,0E0,0E0,1.2845312E1,0E0,6.71102E0,0E0,0E0,0E0,0E0],"parents":[2147483647,0,0,1,1,2,2,3,3,4,4,6,6,10,10,12,12],"right_children":[2,4,6,8,10,-1,12,-1,-1,-1,14,-1,16,-1,-1,-1,-1],"split_conditions":[2.2222222E-1,4.6E1,5E1,2E0,1.3862944E0,-5.757165E-2,4.5E1,4.2112373E-2,-5.657636E-2,5.648302E-2,7.098E1,-4.927377E-2,4.5454547E-1,4.842387E-2,-6.724175E-2,-4.6094395E-2,3.6139313E-2],"split_indices":[28,11,5,22,27,0,2,0,0,0,9,0,28,0,0,0,0],"split_type":[0,0,0,0,0,0,0,0,0,0,0,0,0,0,0,0,0],"sum_hessian":[8.867514E1,4.1439987E1,4.723515E1,5.7392936E0,3.5700695E1,2.2320963E1,2.4914186E1,2.5284774E0,3.2108161E0,2.1644657E1,1.4056038E1,4.577345E0,2.0336842E1,1.2028264E1,2.027774E0,1.9755929E0,1.8361248E1],"tree_param":{"num_deleted":"0","num_feature":"29","num_nodes":"17","size_leaf_vector":"1"}},{"base_weights":[3.9415233E-2,-9.024526E-1,4.2606208E-1,-2.0884288E-2,-6.098857E-2,6.5562797E-1,-5.086444E-2,-4.679967E-2,5.7565965E-2,1.0717906E0,3.6837283E-1,2.2571435E-2,5.643055E-2,3.0210933E-2,-6.760176E-2],"categories":[],"categories_nodes":[],"categories_segments":[],"categories_sizes":[],"default_left":[0,0,0,0,0,0,0,0,0,0,0,0,0,0,0],"id":29,"left_children":[1,3,5,7,-1,9,-1,-1,-1,11,13,-1,-1,-1,-1],"loss_changes":[3.2319275E1,7.2036E0,2.1491806E1,9.506107E0,0E0,6.160204E0,0E0,0E0,0E0,2.6136208E-1,1.4598097E1,0E0,0E0,0E0,0E0],"parents":[2147483647,0,0,1,1,2,2,3,3,5,5,9,9,10,10],"right_children":[2,4,6,8,-1,10,-1,-1,-1,12,14,-1,-1,-1,-1],"split_conditions":[4.6E1,2.481E1,2.83E1,2.48E1,-6.098857E-2,3E0,-5.086444E-2,-4.679967E-2,5.7565965E-2,5.833E1,5.986E1,2.2571435E-2,5.643055E-2,3.0210933E-2,-6.760176E-2],"split_indices":[11,0,17,0,0,17,0,0,0,2,12,0,0,0,0],"split_type":[0,0,0,0,0,0,0,0,0,0,0,0,0,0,0],"sum_hessian":[8.669189E1,2.4842283E1,6.18496E1,6.857299E0,1.7984985E1,5.383316E1,8.016439E0,3.9641213E0,2.8931777E0,2.0868559E1,3.29646E1,2.5015526E0,1.8367006E1,2.9560966E1,3.4036348E0],"tree_param":{"num_deleted":"0","num_feature":"29","num_nodes":"15","size_leaf_vector":"1"}},{"base_weights":[-7.4376278E-3,8.698671E-1,-4.0066627E-1,-4.9453814E-2,1.0009302E0,-5.838419E-2,7.976256E-2,1.4471354E-2,5.2746743E-2,3.2142702E-1,-5.897001E-2,2.732023E-2,-4.607497E-2],"categories":[],"categories_nodes":[],"categories_segments":[],"categories_sizes":[],"default_left":[0,0,0,0,0,0,0,0,0,0,0,0,0],"id":30,"left_children":[1,3,5,-1,7,-1,9,-1,-1,11,-1,-1,-1],"loss_changes":[2.7915585E1,7.092434E0,2.0678062E1,0E0,6.128044E-1,0E0,1.1115776E1,0E0,0E0,9.000988E0,0E0,0E0,0E0],"parents":[2147483647,0,0,1,1,2,2,4,4,6,6,9,9],"right_children":[2,4,6,-1,8,-1,10,-1,-1,12,-1,-1,-1],"split_conditions":[3E0,2.389E1,4.807E1,-4.9453814E-2,5.3E1,-5.838419E-2,6.037E1,1.4471354E-2,5.2746743E-2,2.51E1,-5.897001E-2,2.732023E-2,-4.607497E-2],"split_indices":[17,5,10,0,7,0,10,0,0,17,0,0,0],"split_type":[0,0,0,0,0,0,0,0,0,0,0,0,0],"sum_hessian":[7.890885E1,2.4047052E1,5.48618E1,1.1525936E0,2.2894459E1,2.0577986E1,3.4283813E1,2.063777E0,2.083068E1,2.9388218E1,4.895596E0,2.5358547E1,4.0296693E0],"tree_param":{"num_deleted":"0","num_feature":"29","num_nodes":"13","size_leaf_vector":"1"}},{"base_weights":[6.2633194E-2,3.5632476E-1,-5.5996027E-2,-1.1675083E-1,6.737864E-1,7.727898E-1,-5.7127446E-1,8.221032E-1,-5.177364E-1,5.1338412E-2,-3.184634E-2,-4.7878385E-2,5.727568E-2,2.2101263E-2,5.790636E-2,3.632522E-2,-6.628792E-2],"categories":[],"categories_nodes":[],"categories_segments":[],"categories_sizes":[],"default_left":[0,0,0,0,0,0,0,0,0,0,0,0,0,0,0,0,0],"id":31,"left_children":[1,3,-1,5,7,9,11,13,15,-1,-1,-1,-1,-1,-1,-1,-1],"loss_changes":[2.8655695E1,9.980561E0,0E0,1.1491106E1,7.4243736E0,4.115108E0,1.3473351E1,4.0354366E0,5.9875517E0,0E0,0E0,0E0,0E0,0E0,0E0,0E0,0E0],"parents":[2147483647,0,0,1,1,3,3,4,4,5,5,6,6,7,7,8,8],"right_children":[2,4,-1,6,8,10,12,14,16,-1,-1,-1,-1,-1,-1,-1,-1],"split_conditions":[8E0,4.7E1,-5.5996027E-2,1.964E1,5.986E1,6E0,7.2E1,6.093E1,2E0,5.1338412E-2,-3.184634E-2,-4.7878385E-2,5.727568E-2,2.2101263E-2,5.790636E-2,3.632522E-2,-6.628792E-2],"split_indices":[18,11,0,4,12,18,2,4,22,0,0,0,0,0,0,0,0],"split_type":[0,0,0,0,0,0,0,0,0,0,0,0,0,0,0,0,0],"sum_hessian":[8.035948E1,6.493205E1,1.5427433E1,2.6329115E1,3.8602936E1,8.66695E0,1.7662165E1,3.460541E1,3.9975264E0,7.57404E0,1.0929104E0,1.4778988E1,2.8831768E0,1.7324766E1,1.7280643E1,1.6136369E0,2.3838894E0],"tree_param":{"num_deleted":"0","num_feature":"29","num_nodes":"17","size_leaf_vector":"1"}},{"base_weights":[8.6311735E-2,3.4058538E-1,-5.2394964E-2,1.6432634E-2,8.30731E-1,-2.1192142E-1,5.7116535E-2,-3.2320243E-1,1.0373061E0,-6.6955745E-2,3.3385109E-3,3.6294766E-2,-5.374348E-2,6.019324E-2,2.7740194E-2],"categories":[],"categories_nodes":[],"categories_segments":[],"categories_sizes":[],"default_left":[0,0,0,0,0,0,0,0,0,0,0,0,0,0,0],"id":32,"left_children":[1,3,-1,5,7,9,-1,11,13,-1,-1,-1,-1,-1,-1],"loss_changes":[2.3844679E1,1.0676244E1,0E0,1.0916706E1,6.714899E0,1.11978245E1,0E0,4.5859475E0,1.1754284E0,0E0,0E0,0E0,0E0,0E0,0E0],"parents":[2147483647,0,0,1,1,3,3,4,4,5,5,7,7,8,8],"right_children":[2,4,-1,6,8,10,-1,12,14,-1,-1,-1,-1,-1,-1],"split_conditions":[2.83E1,6.176E1,-5.2394964E-2,2.48E1,4.8E1,1.6E3,5.7116535E-2,5.1E1,4.4E1,-6.6955745E-2,3.3385109E-3,3.6294766E-2,-5.374348E-2,6.019324E-2,2.7740194E-2],"split_indices":[17,0,0,17,10,25,0,7,4,0,0,0,0,0,0],"split_type":[0,0,0,0,0,0,0,0,0,0,0,0,0,0,0],"sum_hessian":[8.0441696E1,6.628196E1,1.4159737E1,4.0518795E1,2.5763163E1,3.436141E1,6.1573877E0,3.826069E0,2.1937092E1,6.0572615E0,2.8304146E1,1.6113722E0,2.214697E0,1.5196312E1,6.740781E0],"tree_param":{"num_deleted":"0","num_feature":"29","num_nodes":"15","size_leaf_vector":"1"}},{"base_weights":[1.3635825E-1,3.813251E-1,-5.1854234E-2,-1.1753285E-1,7.19438E-1,2.7471432E-1,-5.5192936E-2,8.02283E-1,-5.471018E-2,-4.6557184E-2,2.7924106E-2,2.6056493E-2,5.1631995E-2],"categories":[],"categories_nodes":[],"categories_segments":[],"categories_sizes":[],"default_left":[0,0,0,0,0,0,0,0,0,0,0,0,0],"id":33,"left_children":[1,3,-1,5,7,9,-1,11,-1,-1,-1,-1,-1],"loss_changes":[2.3709715E1,1.1525394E1,0E0,1.1236899E1,6.97336E0,7.712889E0,0E0,2.0119095E0,0E0,0E0,0E0,0E0,0E0],"parents":[2147483647,0,0,1,1,3,3,4,4,5,5,7,7],"right_children":[2,4,-1,6,8,10,-1,12,-1,-1,-1,-1,-1],"split_conditions":[2.83E1,4.7E1,-5.1854234E-2,1E0,7.85E1,4.611E1,-5.5192936E-2,6.35E1,-5.471018E-2,-4.6557184E-2,2.7924106E-2,2.6056493E-2,5.1631995E-2],"split_indices":[17,11,0,20,2,2,0,2,0,0,0,0,0],"split_type":[0,0,0,0,0,0,0,0,0,0,0,0,0],"sum_hessian":[8.0105835E1,6.682959E1,1.3276246E1,2.726084E1,3.9568752E1,2.0020472E1,7.240368E0,3.8373535E1,1.1952169E0,3.379231E0,1.6641241E1,1.8750547E1,1.9622988E1],"tree_param":{"num_deleted":"0","num_feature":"29","num_nodes":"13","size_leaf_vector":"1"}}]},"name":"gbtree"},"learner_model_param":{"base_score":"5E-1","boost_from_average":"1","num_class":"0","num_feature":"29","num_target":"1"},"objective":{"name":"binary:logistic","reg_loss_param":{"scale_pos_weight":"12.6428576"}}},"version":[2,0,3]}