{"learner":{"attributes":{"best_iteration":"19","best_score":"0.716874943643254","scikit_learn":"{\"_estimator_type\": \"ranker\"}"},"feature_names":[],"feature_types":[],"gradient_booster":{"model":{"cats":{"enc":[],"feature_segments":[],"sorted_idx":[]},"gbtree_model_param":{"num_parallel_tree":"1","num_trees":"45"},"iteration_indptr":[0,1,2,3,4,5,6,7,8,9,10,11,12,13,14,15,16,17,18,19,20,21,22,23,24,25,26,27,28,29,30,31,32,33,34,35,36,37,38,39,40,41,42,43,44,45],"tree_info":[0,0,0,0,0,0,0,0,0,0,0,0,0,0,0,0,0,0,0,0,0,0,0,0,0,0,0,0,0,0,0,0,0,0,0,0,0,0,0,0,0,0,0,0,0],"trees":[{"base_weights":[2.9085786E-3,3.8795066E-1,-4.3293172E-1,5.426808E-1,2.2874804E-1,-2.1781942E-1,-7.503361E-1,6.231893E-1,4.1694447E-1,9.1739304E-2,3.4704846E-1,-3.6435792E-1,-2.9057493E-2,-8.465919E-1,-5.215151E-1,6.7758083E-1,5.6323653E-1,4.4488195E-1,2.5875813E-1,1.4788148E-1,-2.1098475E-1,4.183924E-1,1.1513636E-1,-1.9870213E-1,-5.0063276E-1,1.8500687E-1,-1.0668115E-1,-7.357025E-1,-9.260364E-1,-3.1281504E-1,-7.3253083E-1,5.981775E-1,7.222672E-1,-5.205528E-3,5.6950647E-1,5.87572E-1,4.1351166E-1,1.895585E-2,2.2282831E-1,2.549795E-1,7.593667E-2,-4.6498522E-1,-9.5398895E-2,5.8818805E-1,3.1988397E-1,-3.172743E-1,1.5311445E-1,-2.423619E-1,6.2839195E-2,-5.4678166E-1,-1.3680069E-1,2.4440402E-1,-1.1233201E-1,1.299696E-1,-1.7311361E-1,-7.815522E-1,-5.8273405E-1,-9.308867E-1,-3.170524E-3,9.320459E-2,-5.2798665E-1,-7.8727055E-1,1.8788513E-2,1.8497689E-2,-5.7387115E-3,1.7145058E-2,2.2401316E-2,-1.4088332E-3,1.7284548E-2,1.8214524E-2,1.9835343E-3,9.318875E-3,1.4722067E-2,3.705483E-3,1.130972E-2,4.5814735E-4,8.749984E-3,2.8873766E-3,-9.543477E-3,-1.8730273E-2,-4.4599525E-3,-7.1125072E-3,4.504509E-3,1.3210914E-2,1.9633165E-2,1.32409595E-2,7.877019E-3,-1.2857601E-2,4.6784948E-3,5.501741E-3,-1.2858669E-2,-8.53498E-3,4.5074392E-4,-5.113626E-3,1.0512015E-2,-1.8726738E-2,-1.3665763E-2,-1.3379757E-2,4.3813567E-4,9.231115E-3,-1.5179262E-3,-1.0459374E-2,6.10186E-3,5.012145E-3,-2.0028308E-2,1.0627409E-2,-6.020315E-3,-1.2892991E-2,-2.4395186E-2,-1.9331876E-2,8.878065E-3,-1.773395E-2,-2.8269213E-2,-1.0472289E-2,1.0540389E-2,-1.931516E-2,-7.934306E-3,-2.4347905E-2,4.6008345E-4],"categories":[],"categories_nodes":[],"categories_segments":[],"categories_sizes":[],"default_left":[0,0,0,0,0,0,0,0,0,0,0,0,0,0,0,0,0,0,0,0,0,0,0,0,0,0,0,0,0,0,0,0,0,0,0,0,0,0,0,0,0,0,0,0,0,0,0,0,0,0,0,0,0,0,0,0,0,0,0,0,0,0,0,0,0,0,0,0,0,0,0,0,0,0,0,0,0,0,0,0,0,0,0,0,0,0,0,0,0,0,0,0,0,0,0,0,0,0,0,0,0,0,0,0,0,0,0,0,0,0,0,0,0,0,0,0,0,0,0],"id":0,"left_children":[1,3,5,7,9,11,13,15,17,19,21,23,25,27,29,31,33,35,37,39,41,43,45,47,49,51,53,55,57,59,61,63,65,-1,67,69,71,-1,73,75,77,79,81,83,85,87,89,91,93,95,97,99,101,103,105,107,109,111,-1,113,115,117,-1,-1,-1,-1,-1,-1,-1,-1,-1,-1,-1,-1,-1,-1,-1,-1,-1,-1,-1,-1,-1,-1,-1,-1,-1,-1,-1,-1,-1,-1,-1,-1,-1,-1,-1,-1,-1,-1,-1,-1,-1,-1,-1,-1,-1,-1,-1,-1,-1,-1,-1,-1,-1,-1,-1,-1,-1],"loss_changes":[1.0856146E3,8.4483826E1,2.0701569E2,1.7364868E1,2.7434593E1,5.005645E1,2.6546936E1,3.072998E0,2.901764E0,1.3399462E1,1.499218E1,2.2901749E1,1.3182226E1,6.902893E0,1.586393E1,1.5214539E0,2.454132E0,2.3478699E0,1.264885E0,5.0976744E0,3.580461E0,1.1433151E1,3.5832403E0,5.2853737E0,9.3003845E0,3.756908E0,9.171783E0,2.0989227E0,1.8819885E0,1.6252367E1,1.3953102E1,3.084404E0,8.5372925E-1,0E0,2.0990906E0,1.0005951E0,3.6441498E0,0E0,1.4414673E0,2.3385868E0,3.221153E0,1.8405819E0,3.031443E0,2.1983871E0,2.960949E0,9.9937165E-1,3.5754318E0,4.296028E0,4.542238E0,3.215149E0,3.0112195E0,3.3081446E0,2.7453287E0,3.9031856E0,6.6825495E0,2.7349548E0,4.9542656E0,1.3622742E0,0E0,7.55441E0,3.5350494E0,3.4174423E0,0E0,0E0,0E0,0E0,0E0,0E0,0E0,0E0,0E0,0E0,0E0,0E0,0E0,0E0,0E0,0E0,0E0,0E0,0E0,0E0,0E0,0E0,0E0,0E0,0E0,0E0,0E0,0E0,0E0,0E0,0E0,0E0,0E0,0E0,0E0,0E0,0E0,0E0,0E0,0E0,0E0,0E0,0E0,0E0,0E0,0E0,0E0,0E0,0E0,0E0,0E0,0E0,0E0,0E0,0E0,0E0,0E0],"parents":[2147483647,0,0,1,1,2,2,3,3,4,4,5,5,6,6,7,7,8,8,9,9,10,10,11,11,12,12,13,13,14,14,15,15,16,16,17,17,18,18,19,19,20,20,21,21,22,22,23,23,24,24,25,25,26,26,27,27,28,28,29,29,30,30,31,31,32,32,34,34,35,35,36,36,38,38,39,39,40,40,41,41,42,42,43,43,44,44,45,45,46,46,47,47,48,48,49,49,50,50,51,51,52,52,53,53,54,54,55,55,56,56,57,57,59,59,60,60,61,61],"right_children":[2,4,6,8,10,12,14,16,18,20,22,24,26,28,30,32,34,36,38,40,42,44,46,48,50,52,54,56,58,60,62,64,66,-1,68,70,72,-1,74,76,78,80,82,84,86,88,90,92,94,96,98,100,102,104,106,108,110,112,-1,114,116,118,-1,-1,-1,-1,-1,-1,-1,-1,-1,-1,-1,-1,-1,-1,-1,-1,-1,-1,-1,-1,-1,-1,-1,-1,-1,-1,-1,-1,-1,-1,-1,-1,-1,-1,-1,-1,-1,-1,-1,-1,-1,-1,-1,-1,-1,-1,-1,-1,-1,-1,-1,-1,-1,-1,-1,-1,-1],"split_conditions":[2.6741486E0,1.704748E0,4.1604443E0,-1.940605E0,2.9454544E-1,4E-1,4.05E-1,-2.494957E0,-1.0768723E0,4.375E-1,-6.310747E-1,3.269569E0,-3.116223E-1,4.8378677E0,4.7379513E0,9E-2,3.75E-1,4.886E1,1.618E1,2.014903E0,5.882353E-2,2E0,-2.79E1,5.039E1,5.009E1,6.336E1,2E0,1E0,1.764706E-1,2E0,1.7777778E-1,1.5892352E0,4.888889E-1,-5.205528E-3,1.111E1,1.627907E-1,5.018E1,1.895585E-2,-7.410032E-1,4.625E1,2.6173959E0,8.3333336E-2,2E3,3E0,2.0503E-2,5.2E1,2.413793E-1,9E0,2.7272728E-1,1.6E1,5.2E-2,9.375E-2,8.314286E-1,2.86E3,-1E0,3.488372E-1,5.467E1,3.265E1,-3.170524E-3,1.8E3,4.5705786E0,6.828E1,1.8788513E-2,1.8497689E-2,-5.7387115E-3,1.7145058E-2,2.2401316E-2,-1.4088332E-3,1.7284548E-2,1.8214524E-2,1.9835343E-3,9.318875E-3,1.4722067E-2,3.705483E-3,1.130972E-2,4.5814735E-4,8.749984E-3,2.8873766E-3,-9.543477E-3,-1.8730273E-2,-4.4599525E-3,-7.1125072E-3,4.504509E-3,1.3210914E-2,1.9633165E-2,1.32409595E-2,7.877019E-3,-1.2857601E-2,4.6784948E-3,5.501741E-3,-1.2858669E-2,-8.53498E-3,4.5074392E-4,-5.113626E-3,1.0512015E-2,-1.8726738E-2,-1.3665763E-2,-1.3379757E-2,4.3813567E-4,9.231115E-3,-1.5179262E-3,-1.0459374E-2,6.10186E-3,5.012145E-3,-2.0028308E-2,1.0627409E-2,-6.020315E-3,-1.2892991E-2,-2.4395186E-2,-1.9331876E-2,8.878065E-3,-1.773395E-2,-2.8269213E-2,-1.0472289E-2,1.0540389E-2,-1.931516E-2,-7.934306E-3,-2.4347905E-2,4.6008345E-4],"split_indices":[25,25,25,61,39,39,39,61,61,26,61,25,61,25,25,39,54,10,3,25,28,22,36,10,10,10,22,24,32,22,42,25,54,0,3,42,10,0,61,11,25,31,23,18,47,12,60,17,29,16,32,31,39,23,37,53,10,11,0,23,25,10,0,0,0,0,0,0,0,0,0,0,0,0,0,0,0,0,0,0,0,0,0,0,0,0,0,0,0,0,0,0,0,0,0,0,0,0,0,0,0,0,0,0,0,0,0,0,0,0,0,0,0,0,0,0,0,0,0],"split_type":[0,0,0,0,0,0,0,0,0,0,0,0,0,0,0,0,0,0,0,0,0,0,0,0,0,0,0,0,0,0,0,0,0,0,0,0,0,0,0,0,0,0,0,0,0,0,0,0,0,0,0,0,0,0,0,0,0,0,0,0,0,0,0,0,0,0,0,0,0,0,0,0,0,0,0,0,0,0,0,0,0,0,0,0,0,0,0,0,0,0,0,0,0,0,0,0,0,0,0,0,0,0,0,0,0,0,0,0,0,0,0,0,0,0,0,0,0,0,0],"sum_hessian":[6.467043E3,3.4336782E3,3.033365E3,1.7400765E3,1.6936017E3,1.8090298E3,1.2243352E3,1.0584192E3,6.816573E2,7.855724E2,9.0802924E2,1.0178941E3,7.911356E2,8.599071E2,3.64428E2,5.4954626E2,5.08873E2,5.7779913E2,1.038582E2,6.631064E2,1.2246597E2,6.937916E2,2.1423766E2,4.6053067E2,5.5736346E2,2.1016791E2,5.809677E2,3.6320404E2,4.967031E2,1.844674E2,1.7996062E2,2.0307976E2,3.464665E2,4.0689883E0,5.04804E2,1.0093927E2,4.7685983E2,7.666057E0,9.619214E1,2.6543387E2,3.9767252E2,3.7355103E1,8.511087E1,2.5290196E2,4.4088965E2,1.6703293E1,1.9753436E2,3.9471344E2,6.581722E1,4.9417838E2,6.3185066E1,1.7532298E2,3.484492E1,1.27132E2,4.538357E2,2.7628354E2,8.692051E1,4.9364966E2,3.0534294E0,6.409317E1,1.2037423E2,1.73396E2,6.564618E0,1.9866542E2,4.4143414E0,5.1736782E1,2.947297E2,5.318757E0,4.9948523E2,9.7128105E1,3.811168E0,2.066159E2,2.7024396E2,5.9599216E1,3.6592926E1,3.5419792E1,2.3001408E2,3.7890002E2,1.877251E1,2.4193182E1,1.316192E1,5.3991585E1,3.1119284E1,8.06333E1,1.7226866E2,1.3918654E2,3.017031E2,1.3598874E1,3.10442E0,1.8841302E2,9.121345E0,3.3909415E2,5.561931E1,3.65622E1,2.9255022E1,2.641619E2,2.300165E2,2.0130337E1,4.305473E1,1.4431384E2,3.100913E1,1.986913E1,1.4975794E1,1.2223633E2,4.8956738E0,2.1953709E1,4.31882E2,2.398935E1,2.5229419E2,8.146987E1,5.450635E0,1.7769543E1,4.758801E2,2.3491798E1,4.060137E1,8.2611E1,3.7763226E1,1.6828424E2,5.111758E0],"tree_param":{"num_deleted":"0","num_feature":"63","num_nodes":"119","size_leaf_vector":"1"}},{"base_weights":[1.5608588E-3,2.2956873E-1,-4.5997825E-1,4.348122E-1,1.5508167E-1,-2.9769346E-1,-7.152939E-1,4.9525714E-1,3.5250226E-1,6.0048136E-3,2.3275183E-1,-4.7406015E-1,-1.4882718E-1,-8.159531E-1,-4.004809E-1,4.3429956E-1,5.917453E-1,3.3018208E-1,5.016178E-1,1.03119686E-1,-1.687185E-1,3.464966E-1,1.5867287E-1,-6.0343546E-1,-3.476135E-1,8.02122E-3,-2.3334606E-1,-8.382686E-1,-3.7512463E-1,-1.3311948E-1,-5.504423E-1,6.059615E-1,3.874261E-1,6.309358E-1,4.147852E-1,2.2306652E-1,3.8490078E-1,5.369669E-1,-2.2359076E-1,2.9038984E-2,1.7422673E-1,-1.8591645E-1,4.1302428E-1,4.3992653E-1,2.2842316E-1,1.7928599E-1,-1.3992256E-2,-4.4541466E-1,-6.913747E-1,-2.2916536E-1,-5.3349096E-1,-4.374317E-1,1.0740395E-1,-1.1017712E-1,-3.2709217E-1,-6.607374E-1,-8.674058E-1,-7.91195E-1,1.09172754E-1,8.7715015E-2,-6.23358E-1,5.154185E-1,-5.8501095E-1,1.48579655E-2,2.2323383E-2,1.2140283E-2,-8.234829E-3,1.927406E-2,7.009107E-3,-2.6464552E-2,1.4169909E-2,5.0315354E-3,1.5692204E-2,1.513924E-2,9.738203E-3,1.674234E-2,-1.0050081E-2,1.5783576E-2,-2.5839802E-2,1.8308725E-4,1.5200318E-2,5.5610593E-3,-2.3609243E-2,-2.8507994E-3,-9.097321E-3,1.92008E-2,-1.0239324E-2,9.468855E-3,1.4455584E-2,4.9398746E-3,1.1934867E-2,9.310699E-3,4.7316854E-3,2.3623742E-3,-7.158535E-3,-1.4707672E-2,5.8122417E-3,-1.8348435E-2,-2.5794988E-2,-1.7690271E-2,-3.9614826E-3,-1.7643204E-2,-3.9342046E-3,-7.2370367E-3,-2.567059E-2,-1.1525152E-2,5.697016E-3,-1.7608879E-3,-1.2207592E-2,-8.238969E-3,-1.5907435E-2,2.0960387E-2,-2.0558177E-2,-2.6162647E-2,-7.67372E-4,-2.6936684E-2,7.616077E-3,1.1213015E-2,-2.5556363E-2,-1.3546767E-2,1.1961199E-2,-5.848522E-3,-2.5360877E-2,-2.1566339E-2,2.6577447E-2,-6.287131E-4,-1.890903E-2],"categories":[],"categories_nodes":[],"categories_segments":[],"categories_sizes":[],"default_left":[0,0,0,0,0,0,0,0,0,0,0,0,0,0,0,0,0,0,0,0,0,0,0,0,0,0,0,0,0,0,0,0,0,0,0,0,0,0,0,0,0,0,0,0,0,0,0,0,0,0,0,0,0,0,0,0,0,0,0,0,0,0,0,0,0,0,0,0,0,0,0,0,0,0,0,0,0,0,0,0,0,0,0,0,0,0,0,0,0,0,0,0,0,0,0,0,0,0,0,0,0,0,0,0,0,0,0,0,0,0,0,0,0,0,0,0,0,0,0,0,0,0,0,0,0,0,0],"id":1,"left_children":[1,3,5,7,9,11,13,15,17,19,21,23,25,27,29,31,33,35,37,39,41,43,45,47,49,51,53,55,57,59,61,63,65,67,69,71,73,75,77,79,81,83,85,87,89,91,93,95,97,99,101,103,105,107,109,111,113,115,117,119,121,123,125,-1,-1,-1,-1,-1,-1,-1,-1,-1,-1,-1,-1,-1,-1,-1,-1,-1,-1,-1,-1,-1,-1,-1,-1,-1,-1,-1,-1,-1,-1,-1,-1,-1,-1,-1,-1,-1,-1,-1,-1,-1,-1,-1,-1,-1,-1,-1,-1,-1,-1,-1,-1,-1,-1,-1,-1,-1,-1,-1,-1,-1,-1,-1,-1],"loss_changes":[2.6345125E3,2.5610748E2,3.427787E2,2.2021973E1,1.4237411E2,1.3285376E2,1.0159192E2,1.4858337E1,6.133209E0,7.15042E1,6.8063416E1,3.7692566E1,3.6416645E1,2.3649902E1,3.1247406E1,1.2467987E1,6.619507E0,9.579559E0,6.3872147E0,1.4262405E1,1.5138752E1,3.5064117E1,1.7433868E1,1.5586945E1,2.5727081E1,4.267236E1,2.0575401E1,1.1416626E1,2.4102509E1,3.0587772E1,1.8729858E1,4.782669E0,1.4302078E1,3.5631714E0,1.4060934E1,9.210169E0,7.706299E0,4.4834747E0,6.2233386E0,1.4542212E1,1.4944302E1,1.5571774E1,7.673812E0,9.116028E0,1.5166542E1,1.2317062E1,1.0918911E1,1.1896484E1,9.3237E0,2.5090279E1,9.948029E0,1.4222088E1,3.2029587E1,1.1784516E1,1.0651382E1,1.1518204E1,7.8137207E0,7.389744E0,1.4547351E1,3.293684E1,8.177372E0,8.064972E0,1.2374313E1,0E0,0E0,0E0,0E0,0E0,0E0,0E0,0E0,0E0,0E0,0E0,0E0,0E0,0E0,0E0,0E0,0E0,0E0,0E0,0E0,0E0,0E0,0E0,0E0,0E0,0E0,0E0,0E0,0E0,0E0,0E0,0E0,0E0,0E0,0E0,0E0,0E0,0E0,0E0,0E0,0E0,0E0,0E0,0E0,0E0,0E0,0E0,0E0,0E0,0E0,0E0,0E0,0E0,0E0,0E0,0E0,0E0,0E0,0E0,0E0,0E0,0E0,0E0,0E0],"parents":[2147483647,0,0,1,1,2,2,3,3,4,4,5,5,6,6,7,7,8,8,9,9,10,10,11,11,12,12,13,13,14,14,15,15,16,16,17,17,18,18,19,19,20,20,21,21,22,22,23,23,24,24,25,25,26,26,27,27,28,28,29,29,30,30,31,31,32,32,33,33,34,34,35,35,36,36,37,37,38,38,39,39,40,40,41,41,42,42,43,43,44,44,45,45,46,46,47,47,48,48,49,49,50,50,51,51,52,52,53,53,54,54,55,55,56,56,57,57,58,58,59,59,60,60,61,61,62,62],"right_children":[2,4,6,8,10,12,14,16,18,20,22,24,26,28,30,32,34,36,38,40,42,44,46,48,50,52,54,56,58,60,62,64,66,68,70,72,74,76,78,80,82,84,86,88,90,92,94,96,98,100,102,104,106,108,110,112,114,116,118,120,122,124,126,-1,-1,-1,-1,-1,-1,-1,-1,-1,-1,-1,-1,-1,-1,-1,-1,-1,-1,-1,-1,-1,-1,-1,-1,-1,-1,-1,-1,-1,-1,-1,-1,-1,-1,-1,-1,-1,-1,-1,-1,-1,-1,-1,-1,-1,-1,-1,-1,-1,-1,-1,-1,-1,-1,-1,-1,-1,-1,-1,-1,-1,-1,-1,-1],"split_conditions":[2.6741486E0,1.1314021E0,4.0976725E0,-2.494957E0,1.1030875E-1,1.1030875E-1,1.2079993E-1,1.2673092E-1,2.2E3,2.00148E0,2E0,2E0,2E0,6.153E1,2E0,5.3062826E-1,6.675E1,1.1775128E-1,1.401099E-1,2E0,9.283E1,2.3076923E-1,-4.780358E-1,3.1267605E0,3.4468079E0,1.1961936E-1,3.1267605E0,4.31348E0,5.649E1,6E1,7E0,1.0666667E-1,2.5E-1,3.6477986E-1,3.722E1,1E2,2E0,3E0,1E1,5.52E1,7.75E1,-8.15037E-1,1.1E0,2.0175439E-1,1.3280971E-1,-2.1202636E0,6.815E1,4.8954824E-1,6.188341E-1,4.748E1,1.21212125E-1,3.523415E0,1.2E1,5.71E1,4.583E1,2.71E1,2.1428572E-1,6.293E1,6E0,5.448E1,2.631579E-2,1.6E1,3.6097562E-1,1.48579655E-2,2.2323383E-2,1.2140283E-2,-8.234829E-3,1.927406E-2,7.009107E-3,-2.6464552E-2,1.4169909E-2,5.0315354E-3,1.5692204E-2,1.513924E-2,9.738203E-3,1.674234E-2,-1.0050081E-2,1.5783576E-2,-2.5839802E-2,1.8308725E-4,1.5200318E-2,5.5610593E-3,-2.3609243E-2,-2.8507994E-3,-9.097321E-3,1.92008E-2,-1.0239324E-2,9.468855E-3,1.4455584E-2,4.9398746E-3,1.1934867E-2,9.310699E-3,4.7316854E-3,2.3623742E-3,-7.158535E-3,-1.4707672E-2,5.8122417E-3,-1.8348435E-2,-2.5794988E-2,-1.7690271E-2,-3.9614826E-3,-1.7643204E-2,-3.9342046E-3,-7.2370367E-3,-2.567059E-2,-1.1525152E-2,5.697016E-3,-1.7608879E-3,-1.2207592E-2,-8.238969E-3,-1.5907435E-2,2.0960387E-2,-2.0558177E-2,-2.6162647E-2,-7.67372E-4,-2.6936684E-2,7.616077E-3,1.1213015E-2,-2.5556363E-2,-1.3546767E-2,1.1961199E-2,-5.848522E-3,-2.5360877E-2,-2.1566339E-2,2.6577447E-2,-6.287131E-4,-1.890903E-2],"split_indices":[25,25,25,61,30,30,30,30,23,25,22,22,22,8,22,25,10,30,30,22,8,26,61,25,25,30,25,25,11,6,40,28,42,32,4,3,22,27,16,14,7,61,39,29,30,61,11,61,53,11,31,25,16,3,3,8,32,10,41,10,31,16,54,0,0,0,0,0,0,0,0,0,0,0,0,0,0,0,0,0,0,0,0,0,0,0,0,0,0,0,0,0,0,0,0,0,0,0,0,0,0,0,0,0,0,0,0,0,0,0,0,0,0,0,0,0,0,0,0,0,0,0,0,0,0,0,0],"split_type":[0,0,0,0,0,0,0,0,0,0,0,0,0,0,0,0,0,0,0,0,0,0,0,0,0,0,0,0,0,0,0,0,0,0,0,0,0,0,0,0,0,0,0,0,0,0,0,0,0,0,0,0,0,0,0,0,0,0,0,0,0,0,0,0,0,0,0,0,0,0,0,0,0,0,0,0,0,0,0,0,0,0,0,0,0,0,0,0,0,0,0,0,0,0,0,0,0,0,0,0,0,0,0,0,0,0,0,0,0,0,0,0,0,0,0,0,0,0,0,0,0,0,0,0,0,0,0],"sum_hessian":[2.503267E4,1.6755621E4,8.277049E3,4.4604233E3,1.2295198E4,5.061807E3,3.2152412E3,2.568908E3,1.8915154E3,4.211979E3,8.083219E3,2.3159006E3,2.7459065E3,2.4350574E3,7.8018396E2,1.5776863E3,9.912218E2,1.6480441E3,2.4347131E2,2.7075022E3,1.5044766E3,3.186627E3,4.8965923E3,1.1428296E3,1.1730709E3,9.618431E2,1.7840636E3,2.3168716E3,1.181857E2,2.8103076E2,4.991532E2,3.3583813E2,1.2418481E3,8.094021E2,1.818197E2,5.5894604E2,1.089098E3,2.3240276E2,1.1068548E1,1.3267141E3,1.3807882E3,1.461938E3,4.2538567E1,1.777438E3,1.409189E3,4.3743364E3,5.222558E2,4.1076984E2,7.320598E2,7.1785767E2,4.5521323E2,1.7482802E2,7.87015E2,7.719748E2,1.0120888E3,3.2998233E2,1.9868893E3,6.3229862E1,5.4955837E1,1.9431848E2,8.671228E1,1.5243315E1,4.8390988E2,1.8899098E2,1.4684715E2,1.2106857E3,3.1162487E1,7.8596967E2,2.3432428E1,7.115801E0,1.747039E2,4.7320322E2,8.574285E1,3.622733E2,7.268247E2,2.2726059E2,5.1421685E0,5.1680775E0,5.9004707E0,1.266891E3,5.982303E1,1.3657638E3,1.5024299E1,8.2480145E2,6.3713654E2,3.2815056E1,9.723514E0,4.504688E2,1.3269691E3,1.0252711E3,3.8391785E2,6.160867E2,3.7582498E3,3.7010507E2,1.5215074E2,3.8405853E2,2.6711302E1,4.9996924E2,2.3209058E2,1.5126503E2,5.6659265E2,4.0040045E2,5.4812798E1,1.2007797E2,5.4750053E1,1.1257186E2,6.744432E2,6.5886786E2,1.1310691E2,8.0624744E2,2.0584134E2,5.3629146E0,3.2461942E2,1.9758629E3,1.1026292E1,5.7500275E1,5.729589E0,4.3571045E1,1.1384791E1,7.090827E1,1.2341022E2,3.0238504E1,5.6473778E1,3.3021154E0,1.1941199E1,3.6075798E1,4.4783408E2],"tree_param":{"num_deleted":"0","num_feature":"63","num_nodes":"127","size_leaf_vector":"1"}},{"base_weights":[5.652505E-4,1.6032377E-1,-5.423008E-1,2.6451373E-1,-5.8768388E-2,-4.2762884E-1,-8.024154E-1,4.2591563E-1,1.9585828E-1,-1.9015656E-1,3.7264828E-2,-5.526828E-1,-2.5563428E-1,-3.3556408E-1,-8.49409E-1,5.990853E-1,3.9290294E-1,1.1300052E-1,2.4762543E-1,-2.1166389E-1,2.9573473E-1,-1.5192825E-1,8.7402955E-2,-4.8502874E-1,-7.414153E-1,-1.319516E-1,-3.871622E-1,-5.720193E-1,8.3213204E-1,2.1085265E-1,-8.555405E-1,5.057509E-1,7.2714025E-1,5.0067544E-1,3.5532534E-1,2.2333117E-1,5.314739E-2,1.2074406E-1,2.8149754E-1,-2.3018295E-1,4.587455E-2,-5.6286164E-2,5.1304233E-1,-1.06601365E-1,-4.352104E-1,2.378596E-1,3.8978077E-2,-5.127497E-1,-1.7845155E-1,-7.581397E-1,1.8568423E-2,-4.9243933E-1,-4.9416125E-2,-1.3262321E-1,-4.336893E-1,-7.150162E-1,4.077137E-1,2.8315967E-2,8.127537E-3,-2.1148603E-2,2.5040891E-2,-8.613937E-1,2.7931718E-2,1.5738398E-2,-2.0687588E-2,2.2231698E-2,-9.911819E-4,1.7607408E-2,1.097837E-2,1.3395428E-2,8.971046E-3,7.1592806E-3,-1.8557528E-2,7.1379554E-4,9.630104E-3,6.9301985E-3,2.2622917E-4,9.695205E-3,6.172644E-3,-8.588189E-3,-4.0874346E-3,-2.162521E-3,1.8600632E-2,-1.7177822E-2,8.989952E-3,-2.1996917E-3,2.0000748E-2,-1.8347584E-3,-1.4745106E-2,-2.698071E-4,-1.7579444E-2,1.6886257E-2,5.574568E-3,2.0306045E-3,-5.9609157E-3,-1.8251939E-2,-1.1249397E-2,-1.440103E-3,-2.1710413E-2,-4.4891764E-3,-2.305988E-2,1.8290019E-2,-1.8076472E-2,-9.284071E-3,2.5969218E-3,-2.096796E-2,1.602626E-3,-1.3369559E-2,2.296243E-2,-2.3787936E-2,1.357524E-2,-2.072712E-2,2.403316E-2,-2.6402397E-2,-1.9737313E-2,-2.3505524E-2,1.8504681E-2],"categories":[],"categories_nodes":[],"categories_segments":[],"categories_sizes":[],"default_left":[0,0,0,0,0,0,0,0,0,0,0,0,0,0,0,0,0,0,0,0,0,0,0,0,0,0,0,0,0,0,0,0,0,0,0,0,0,0,0,0,0,0,0,0,0,0,0,0,0,0,0,0,0,0,0,0,0,0,0,0,0,0,0,0,0,0,0,0,0,0,0,0,0,0,0,0,0,0,0,0,0,0,0,0,0,0,0,0,0,0,0,0,0,0,0,0,0,0,0,0,0,0,0,0,0,0,0,0,0,0,0,0,0,0,0,0,0],"id":2,"left_children":[1,3,5,7,9,11,13,15,17,19,21,23,25,27,29,31,33,35,37,39,41,43,45,47,49,51,53,55,57,59,61,63,65,67,69,71,73,75,77,79,81,83,85,87,89,91,93,95,97,99,-1,101,103,105,107,109,111,-1,-1,-1,-1,113,115,-1,-1,-1,-1,-1,-1,-1,-1,-1,-1,-1,-1,-1,-1,-1,-1,-1,-1,-1,-1,-1,-1,-1,-1,-1,-1,-1,-1,-1,-1,-1,-1,-1,-1,-1,-1,-1,-1,-1,-1,-1,-1,-1,-1,-1,-1,-1,-1,-1,-1,-1,-1,-1,-1],"loss_changes":[2.0064716E3,4.0805133E2,1.5656262E2,1.3415631E2,7.270622E1,7.8430176E1,3.5000732E1,2.0427368E1,3.6434937E1,2.5489662E1,3.1596676E1,2.6636597E1,2.4996986E1,4.1545715E1,9.675903E0,6.5262146E0,1.2127777E1,2.158648E1,2.2448395E1,1.1126091E1,7.9503164E0,8.91461E0,1.9171942E1,1.3160126E1,1.3119293E1,2.3630905E1,8.773621E0,1.7704338E1,1.3405228E0,5.8448033E0,7.534668E0,7.9582443E0,2.5728455E0,8.884201E0,1.1449005E1,1.4971943E1,1.6674667E1,1.3778608E1,1.2964813E1,1.1417664E1,1.068982E1,7.6011353E0,5.8263206E0,1.0516027E1,6.159836E0,1.0734291E1,1.3611354E1,1.8608124E1,9.270613E0,3.4048767E0,0E0,1.8328434E1,2.2943016E1,1.2330535E1,9.37825E0,1.0258141E1,7.6703296E0,0E0,0E0,0E0,0E0,4.9072266E0,5.514076E0,0E0,0E0,0E0,0E0,0E0,0E0,0E0,0E0,0E0,0E0,0E0,0E0,0E0,0E0,0E0,0E0,0E0,0E0,0E0,0E0,0E0,0E0,0E0,0E0,0E0,0E0,0E0,0E0,0E0,0E0,0E0,0E0,0E0,0E0,0E0,0E0,0E0,0E0,0E0,0E0,0E0,0E0,0E0,0E0,0E0,0E0,0E0,0E0,0E0,0E0,0E0,0E0,0E0,0E0],"parents":[2147483647,0,0,1,1,2,2,3,3,4,4,5,5,6,6,7,7,8,8,9,9,10,10,11,11,12,12,13,13,14,14,15,15,16,16,17,17,18,18,19,19,20,20,21,21,22,22,23,23,24,24,25,25,26,26,27,27,28,28,29,29,30,30,31,31,32,32,33,33,34,34,35,35,36,36,37,37,38,38,39,39,40,40,41,41,42,42,43,43,44,44,45,45,46,46,47,47,48,48,49,49,51,51,52,52,53,53,54,54,55,55,56,56,61,61,62,62],"right_children":[2,4,6,8,10,12,14,16,18,20,22,24,26,28,30,32,34,36,38,40,42,44,46,48,50,52,54,56,58,60,62,64,66,68,70,72,74,76,78,80,82,84,86,88,90,92,94,96,98,100,-1,102,104,106,108,110,112,-1,-1,-1,-1,114,116,-1,-1,-1,-1,-1,-1,-1,-1,-1,-1,-1,-1,-1,-1,-1,-1,-1,-1,-1,-1,-1,-1,-1,-1,-1,-1,-1,-1,-1,-1,-1,-1,-1,-1,-1,-1,-1,-1,-1,-1,-1,-1,-1,-1,-1,-1,-1,-1,-1,-1,-1,-1,-1,-1],"split_conditions":[3.1780539E0,2.014903E0,4.6959248E0,1.0647107E0,1.2E-1,4.3E-1,5E1,5.3062826E-1,1.2E-1,6.608E1,1.3E1,4.195697E0,4E0,8.077E1,7E0,1.0666667E-1,1.5E-1,1.3862944E0,-6E-2,3.50235E-1,1.4E1,1.0810811E-1,2.2082744E0,6.307E1,1.61E2,3.6E0,4.267E1,3.4626E-1,2.631579E-2,4.6E1,2.1428572E-1,2.2E0,2.03E2,5.6E0,9E0,2.6923078E-1,6.266E1,1.4816046E0,5.6E0,4E0,5.256E-1,9.174312E-2,1.47915E-1,3.3333334E-1,3E0,3.847E1,6.964E1,4E0,4E0,3.717E1,1.8568423E-2,2.389E1,1.5E1,1.4E1,2.1780722E0,6.847E1,9.75E-1,2.8315967E-2,8.127537E-3,-2.1148603E-2,2.5040891E-2,2E1,1.02E1,1.5738398E-2,-2.0687588E-2,2.2231698E-2,-9.911819E-4,1.7607408E-2,1.097837E-2,1.3395428E-2,8.971046E-3,7.1592806E-3,-1.8557528E-2,7.1379554E-4,9.630104E-3,6.9301985E-3,2.2622917E-4,9.695205E-3,6.172644E-3,-8.588189E-3,-4.0874346E-3,-2.162521E-3,1.8600632E-2,-1.7177822E-2,8.989952E-3,-2.1996917E-3,2.0000748E-2,-1.8347584E-3,-1.4745106E-2,-2.698071E-4,-1.7579444E-2,1.6886257E-2,5.574568E-3,2.0306045E-3,-5.9609157E-3,-1.8251939E-2,-1.1249397E-2,-1.440103E-3,-2.1710413E-2,-4.4891764E-3,-2.305988E-2,1.8290019E-2,-1.8076472E-2,-9.284071E-3,2.5969218E-3,-2.096796E-2,1.602626E-3,-1.3369559E-2,2.296243E-2,-2.3787936E-2,1.357524E-2,-2.072712E-2,2.403316E-2,-2.6402397E-2,-1.9737313E-2,-2.3505524E-2,1.8504681E-2],"split_indices":[25,25,25,25,39,39,5,25,39,10,16,25,18,11,40,28,49,25,38,47,16,28,25,10,40,46,8,49,31,4,32,37,40,46,55,42,10,25,46,18,50,42,47,56,41,8,0,18,18,10,0,4,16,16,61,10,39,0,0,0,0,55,46,0,0,0,0,0,0,0,0,0,0,0,0,0,0,0,0,0,0,0,0,0,0,0,0,0,0,0,0,0,0,0,0,0,0,0,0,0,0,0,0,0,0,0,0,0,0,0,0,0,0,0,0,0,0],"split_type":[0,0,0,0,0,0,0,0,0,0,0,0,0,0,0,0,0,0,0,0,0,0,0,0,0,0,0,0,0,0,0,0,0,0,0,0,0,0,0,0,0,0,0,0,0,0,0,0,0,0,0,0,0,0,0,0,0,0,0,0,0,0,0,0,0,0,0,0,0,0,0,0,0,0,0,0,0,0,0,0,0,0,0,0,0,0,0,0,0,0,0,0,0,0,0,0,0,0,0,0,0,0,0,0,0,0,0,0,0,0,0,0,0,0,0,0,0],"sum_hessian":[2.313336E4,1.7873982E4,5.2593784E3,1.21132705E4,5.760711E3,3.652022E3,1.6073567E3,3.6133801E3,8.499891E3,2.4321611E3,3.3285498E3,2.1132815E3,1.5387402E3,1.4774522E2,1.4596115E3,5.758077E2,3.0375723E3,3.2696758E3,5.230215E3,2.3296086E3,1.0255256E2,6.968814E2,2.6316685E3,1.5582666E3,5.55015E2,7.940532E2,7.446871E2,1.2328956E2,2.4455658E1,8.200417E0,1.451411E3,3.359187E2,2.3988895E2,7.8212256E2,2.25545E3,1.1489747E3,2.1207012E3,1.1030122E3,4.1272026E3,2.173428E3,1.5618047E2,3.942622E1,6.3126343E1,6.019431E2,9.4938286E1,6.39822E2,1.9918464E3,1.4284338E3,1.2983266E2,5.487118E2,6.3032055E0,1.4700732E2,6.470459E2,1.15679794E2,6.2900726E2,1.0782252E2,1.5467041E1,1.9826519E1,4.6291404E0,3.2700093E0,4.9304075E0,1.4418832E3,9.527844E0,3.3125266E2,4.6660395E0,2.3560101E2,4.2879324E0,4.748336E2,3.0728894E2,8.5822235E2,1.3972275E3,1.1291559E3,1.981887E1,1.9122297E3,2.084714E2,5.58236E2,5.447761E2,2.6602083E3,1.4669943E3,1.3595646E3,8.138635E2,1.3028734E2,2.5893126E1,1.5840669E1,2.358555E1,1.3215472E1,4.991087E1,5.3941675E2,6.252633E1,2.5084951E1,6.985333E1,8.695235E1,5.528697E2,1.7778193E3,2.1402718E2,8.4108496E2,5.8734894E2,1.05644775E2,2.4187878E1,9.58646E0,5.3912537E2,1.2941071E1,1.3406625E2,2.2172878E2,4.2531714E2,2.7923935E1,8.775586E1,6.234162E2,5.591078E0,1.01377884E2,6.4446325E0,3.8787243E0,1.1588317E1,1.317564E3,1.2431922E2,3.8677998E0,5.6600447E0],"tree_param":{"num_deleted":"0","num_feature":"63","num_nodes":"117","size_leaf_vector":"1"}},{"base_weights":[2.4664195E-3,1.9157453E-1,-4.0676337E-1,3.766038E-1,1.2396013E-1,-2.6705635E-1,-6.820363E-1,5.9620124E-1,3.4355062E-1,2.1154346E-2,2.04235E-1,-4.3796647E-1,-1.270283E-1,-8.1029654E-1,-4.1164714E-1,2.7967097E-2,6.201493E-1,2.723667E-1,4.2913613E-1,1.3115472E-1,-5.2304763E-2,3.2941863E-1,1.2499514E-1,-3.3815843E-1,-6.0544884E-1,2.8709607E-2,-2.154924E-1,-8.316733E-1,-5.581756E-1,-4.623245E-1,1.6573961E-1,5.570117E-1,-4.4889635E-1,5.3616613E-1,7.344037E-1,1.6872609E-1,3.292182E-1,4.9256763E-1,3.022797E-1,8.8224575E-2,2.4901241E-1,-1.2620461E-1,1.0032169E-2,3.7466782E-1,2.1512182E-1,3.6236507E-1,1.0396373E-1,-4.4723108E-1,-2.39056E-1,-7.182203E-1,-4.745615E-1,-3.8583273E-1,1.0262189E-1,-1.7450148E-1,-4.317547E-1,-7.5131893E-1,-8.667443E-1,3.4165362E-1,-7.3663574E-1,-2.69839E-1,-6.8319637E-1,6.046448E-1,-4.6534944E-1,6.9136373E-3,2.2200422E-2,4.2160503E-3,-2.5417872E-2,1.7341558E-2,4.068058E-3,2.2620412E-2,1.0938368E-2,2.039555E-2,4.1632457E-3,7.094098E-3,1.2235055E-2,1.640622E-2,1.1605214E-2,-2.2220828E-2,9.736181E-3,1.2648942E-2,1.9178723E-3,6.678066E-3,2.1147113E-2,-5.1440215E-3,6.5218173E-3,1.0186199E-3,-4.423236E-3,1.143068E-2,-1.0621547E-2,4.789975E-3,1.2101171E-2,1.3288841E-2,-5.291855E-3,4.496947E-3,6.401976E-4,-1.431904E-2,1.01640085E-2,-1.779184E-2,-4.5458665E-3,-2.2223884E-2,-5.900652E-3,-1.517803E-2,1.4490816E-2,-6.391745E-3,-2.490464E-2,1.95622E-3,1.6266964E-2,-7.10837E-3,-1.8107991E-3,-6.289425E-3,-1.9236006E-2,-2.3860985E-2,-1.8432414E-2,-2.6156632E-2,-1.6619696E-3,2.2244593E-2,-2.347673E-2,-2.4129584E-2,1.28890565E-2,1.6589557E-3,-1.4403344E-2,1.1183299E-2,-2.1712784E-2,-1.5987288E-2,2.494439E-2,2.1172417E-2,-2.4457816E-2],"categories":[],"categories_nodes":[],"categories_segments":[],"categories_sizes":[],"default_left":[0,0,0,0,0,0,0,0,0,0,0,0,0,0,0,0,0,0,0,0,0,0,0,0,0,0,0,0,0,0,0,0,0,0,0,0,0,0,0,0,0,0,0,0,0,0,0,0,0,0,0,0,0,0,0,0,0,0,0,0,0,0,0,0,0,0,0,0,0,0,0,0,0,0,0,0,0,0,0,0,0,0,0,0,0,0,0,0,0,0,0,0,0,0,0,0,0,0,0,0,0,0,0,0,0,0,0,0,0,0,0,0,0,0,0,0,0,0,0,0,0,0,0,0,0,0,0],"id":3,"left_children":[1,3,5,7,9,11,13,15,17,19,21,23,25,27,29,31,33,35,37,39,41,43,45,47,49,51,53,55,57,59,61,63,65,67,69,71,73,75,77,79,81,83,85,87,89,91,93,95,97,99,101,103,105,107,109,111,113,115,117,119,121,123,125,-1,-1,-1,-1,-1,-1,-1,-1,-1,-1,-1,-1,-1,-1,-1,-1,-1,-1,-1,-1,-1,-1,-1,-1,-1,-1,-1,-1,-1,-1,-1,-1,-1,-1,-1,-1,-1,-1,-1,-1,-1,-1,-1,-1,-1,-1,-1,-1,-1,-1,-1,-1,-1,-1,-1,-1,-1,-1,-1,-1,-1,-1,-1,-1],"loss_changes":[1.7056913E3,1.8854529E2,2.6771533E2,2.9074585E1,9.1119354E1,1.105712E2,8.097571E1,7.145584E0,2.1257935E1,3.9136982E1,6.1461304E1,3.4586365E1,3.5030807E1,8.100708E0,2.2208038E1,5.8844905E0,4.4523163E0,1.1246353E1,1.26562805E1,9.790108E0,1.3380194E1,1.2345886E1,1.8924862E1,1.4014328E1,1.1111755E1,2.8283926E1,1.4297981E1,3.4714355E0,2.0686398E1,2.9388596E1,1.7389662E1,4.8885655E-1,3.0072231E0,4.8675003E0,1.2570114E0,1.0338898E1,8.92778E0,5.870575E0,1.2616016E1,1.1500106E1,6.070709E0,2.070535E1,5.94298E0,8.099762E0,7.074095E0,1.348481E1,1.3244846E1,1.4834145E1,2.1185318E1,4.738739E0,1.1121361E1,1.054744E1,1.2845275E1,9.712696E0,1.1852486E1,2.2370758E0,4.1746216E0,1.0354056E1,8.753117E0,2.5550459E1,1.4116196E1,9.955513E0,1.1189027E1,0E0,0E0,0E0,0E0,0E0,0E0,0E0,0E0,0E0,0E0,0E0,0E0,0E0,0E0,0E0,0E0,0E0,0E0,0E0,0E0,0E0,0E0,0E0,0E0,0E0,0E0,0E0,0E0,0E0,0E0,0E0,0E0,0E0,0E0,0E0,0E0,0E0,0E0,0E0,0E0,0E0,0E0,0E0,0E0,0E0,0E0,0E0,0E0,0E0,0E0,0E0,0E0,0E0,0E0,0E0,0E0,0E0,0E0,0E0,0E0,0E0,0E0,0E0,0E0],"parents":[2147483647,0,0,1,1,2,2,3,3,4,4,5,5,6,6,7,7,8,8,9,9,10,10,11,11,12,12,13,13,14,14,15,15,16,16,17,17,18,18,19,19,20,20,21,21,22,22,23,23,24,24,25,25,26,26,27,27,28,28,29,29,30,30,31,31,32,32,33,33,34,34,35,35,36,36,37,37,38,38,39,39,40,40,41,41,42,42,43,43,44,44,45,45,46,46,47,47,48,48,49,49,50,50,51,51,52,52,53,53,54,54,55,55,56,56,57,57,58,58,59,59,60,60,61,61,62,62],"right_children":[2,4,6,8,10,12,14,16,18,20,22,24,26,28,30,32,34,36,38,40,42,44,46,48,50,52,54,56,58,60,62,64,66,68,70,72,74,76,78,80,82,84,86,88,90,92,94,96,98,100,102,104,106,108,110,112,114,116,118,120,122,124,126,-1,-1,-1,-1,-1,-1,-1,-1,-1,-1,-1,-1,-1,-1,-1,-1,-1,-1,-1,-1,-1,-1,-1,-1,-1,-1,-1,-1,-1,-1,-1,-1,-1,-1,-1,-1,-1,-1,-1,-1,-1,-1,-1,-1,-1,-1,-1,-1,-1,-1,-1,-1,-1,-1,-1,-1,-1,-1,-1,-1,-1,-1,-1,-1],"split_conditions":[2.6390574E0,1.1314021E0,4.1604443E0,5.3062826E-1,1.2030604E-1,1.1030875E-1,4.05E-1,-1.444E1,1.2371134E-1,1.6486586E0,2E0,3.487375E0,2E0,4.809E1,7.971E1,-3.3646398E0,7.382E1,7.8125E-2,9.932518E-1,2E3,2E0,2.7272728E-1,-2.285778E0,2E0,5.7E0,1.1961936E-1,7.5E-1,4.6756287E0,4.863E1,4.7379513E0,4.921698E-1,4.231E1,2.1428572E-1,6.472E1,-2.1202636E0,3.524E1,2E0,1.5E-1,1.07317075E-1,2.61855E-2,2.2222222E-1,4.867E1,-3.8544625E-1,2.6923078E-1,6E0,1.875E-1,5.448E1,1.746E1,4.748E1,4.1367655E0,9.852941E-1,3.523415E0,8.517E1,2.70495E-1,3.1267605E0,6.533E1,8E0,4.634E1,1.0508E0,2E0,7E0,4.8050848E-1,1.8518518E-1,6.9136373E-3,2.2200422E-2,4.2160503E-3,-2.5417872E-2,1.7341558E-2,4.068058E-3,2.2620412E-2,1.0938368E-2,2.039555E-2,4.1632457E-3,7.094098E-3,1.2235055E-2,1.640622E-2,1.1605214E-2,-2.2220828E-2,9.736181E-3,1.2648942E-2,1.9178723E-3,6.678066E-3,2.1147113E-2,-5.1440215E-3,6.5218173E-3,1.0186199E-3,-4.423236E-3,1.143068E-2,-1.0621547E-2,4.789975E-3,1.2101171E-2,1.3288841E-2,-5.291855E-3,4.496947E-3,6.401976E-4,-1.431904E-2,1.01640085E-2,-1.779184E-2,-4.5458665E-3,-2.2223884E-2,-5.900652E-3,-1.517803E-2,1.4490816E-2,-6.391745E-3,-2.490464E-2,1.95622E-3,1.6266964E-2,-7.10837E-3,-1.8107991E-3,-6.289425E-3,-1.9236006E-2,-2.3860985E-2,-1.8432414E-2,-2.6156632E-2,-1.6619696E-3,2.2244593E-2,-2.347673E-2,-2.4129584E-2,1.28890565E-2,1.6589557E-3,-1.4403344E-2,1.1183299E-2,-2.1712784E-2,-1.5987288E-2,2.494439E-2,2.1172417E-2,-2.4457816E-2],"split_indices":[25,25,25,25,30,30,39,36,30,25,22,25,22,3,11,61,11,42,25,23,22,26,61,22,46,30,37,25,3,25,54,4,39,10,61,11,22,31,29,47,42,8,61,42,17,26,10,46,11,25,53,25,8,49,25,11,22,11,50,22,40,54,29,0,0,0,0,0,0,0,0,0,0,0,0,0,0,0,0,0,0,0,0,0,0,0,0,0,0,0,0,0,0,0,0,0,0,0,0,0,0,0,0,0,0,0,0,0,0,0,0,0,0,0,0,0,0,0,0,0,0,0,0,0,0,0,0],"split_type":[0,0,0,0,0,0,0,0,0,0,0,0,0,0,0,0,0,0,0,0,0,0,0,0,0,0,0,0,0,0,0,0,0,0,0,0,0,0,0,0,0,0,0,0,0,0,0,0,0,0,0,0,0,0,0,0,0,0,0,0,0,0,0,0,0,0,0,0,0,0,0,0,0,0,0,0,0,0,0,0,0,0,0,0,0,0,0,0,0,0,0,0,0,0,0,0,0,0,0,0,0,0,0,0,0,0,0,0,0,0,0,0,0,0,0,0,0,0,0,0,0,0,0,0,0,0,0],"sum_hessian":[2.2038574E4,1.50735205E4,6.965053E3,4.0328657E3,1.1040655E4,4.6215073E3,2.343546E3,5.2537335E2,3.5074922E3,4.8415195E3,6.1991357E3,2.0802937E3,2.5412136E3,1.5881862E3,7.5535974E2,2.133393E1,5.0403943E2,1.9171368E3,1.5903553E3,1.9382809E3,2.9032385E3,2.4017222E3,3.7974133E3,1.3053898E3,7.74904E2,9.2081934E2,1.6203943E3,1.4619333E3,1.26252846E2,6.9459436E2,6.0765408E1,1.0033941E1,1.1299988E1,2.937847E2,2.1025475E2,6.805175E2,1.2366194E3,1.0582968E3,5.320586E2,1.4220442E3,5.1623676E2,1.3279463E3,1.5752922E3,1.7189326E3,6.8278955E2,3.0775238E2,3.4896611E3,6.1976276E2,6.8562695E2,4.1384836E2,3.6105563E2,1.3869853E2,7.821208E2,1.3637185E3,2.566758E2,4.5100812E2,1.0109252E3,2.0743883E1,1.05508965E2,3.7233408E2,3.2226025E2,3.586452E1,2.4900888E1,4.4149733E0,5.618968E0,4.8181567E0,6.4818316E0,2.655716E2,2.8213099E1,1.9867975E2,1.1574996E1,3.6468826E1,6.4404865E2,5.691606E2,6.674588E2,6.9641376E2,3.61883E2,1.0443736E1,5.2161487E2,9.547584E1,1.3265684E3,4.8937512E2,2.6861656E1,1.1738182E3,1.54128E2,1.3682286E3,2.0706363E2,1.704545E3,1.43874655E1,5.288468E2,1.5394276E2,2.678595E2,3.9892868E1,2.2422651E3,1.2473959E3,5.973052E2,2.245761E1,1.3477022E2,5.5085675E2,3.9627417E2,1.757418E1,3.5005856E2,1.0997071E1,1.0093103E2,3.77675E1,7.218349E2,6.0285934E1,8.807852E2,4.8293323E2,1.255436E2,1.311322E2,3.375852E2,1.1342292E2,1.0044827E3,6.442478E0,1.5552852E1,5.191031E0,1.00015015E2,5.493952E0,1.4651688E2,2.2581721E2,1.1618095E1,3.1064215E2,5.7382817E0,3.012624E1,5.4945545E0,1.9406334E1],"tree_param":{"num_deleted":"0","num_feature":"63","num_nodes":"127","size_leaf_vector":"1"}},{"base_weights":[9.907302E-4,1.7683409E-1,-3.927565E-1,3.7531194E-1,1.0575601E-1,-5.8030427E-1,-2.0393215E-1,5.791235E-1,3.4630904E-1,-2.1078527E-2,1.6275026E-1,-4.2759788E-1,-8.024042E-1,-1.5882389E-1,-5.602376E-1,4.706061E-1,7.402568E-1,2.2720589E-1,3.99671E-1,5.0582036E-2,-1.6046494E-1,2.162431E-1,8.614123E-2,-5.202661E-1,-3.1592563E-1,-8.139559E-1,3.4825104E-1,-3.7782016E-1,-1.2279432E-1,-7.0679885E-1,3.8519803E-1,5.3061736E-1,7.599514E-3,7.52746E-1,4.4638356E-3,1.5349127E-1,3.4336206E-1,-1.1328082E-1,4.0497845E-1,-1.749225E-2,1.6073589E-1,-2.5785816E-1,-4.0433884E-2,2.236234E-1,-2.1918648E-1,5.1779415E-2,2.4527973E-1,-5.2796686E-1,4.557151E-1,-5.5943334E-1,-2.4172747E-1,-7.723502E-1,-2.727288E-2,-2.2837969E-2,2.5244616E-2,-1.8771544E-1,-5.072787E-1,-4.665252E-2,-2.2828998E-1,3.2632336E-1,-7.4600875E-1,-2.4010248E-2,6.890764E-1,6.3457983E-3,1.7503453E-2,1.9893162E-2,-9.727219E-3,1.9962523E-2,2.4498504E-2,2.9789598E-3,1.1092945E-2,1.0618043E-2,-2.3297532E-2,-2.7508661E-2,1.2338808E-2,1.0938356E-2,1.4381307E-2,1.9595717E-4,-8.831508E-3,6.907335E-3,6.422085E-4,-1.3635822E-2,-5.29007E-3,-1.4067246E-2,-1.3451399E-4,3.1799935E-3,7.5055235E-3,-1.6103161E-2,2.7842252E-3,2.0311999E-3,-1.0577956E-2,4.7234944E-3,1.210615E-2,-1.6010933E-2,2.2223365E-2,2.0391816E-2,6.748486E-3,-2.0693742E-2,-1.13692265E-2,-9.028873E-3,2.4266157E-3,-2.628769E-2,-2.1308683E-2,-8.389389E-3,6.7593195E-3,-1.7493943E-2,1.13590835E-2,-8.95659E-3,2.1976362E-4,-1.2155451E-2,-4.5798663E-3,-2.2454396E-2,2.5601646E-2,2.210387E-2,-2.305732E-2,2.5431782E-2,-1.2545041E-2],"categories":[],"categories_nodes":[],"categories_segments":[],"categories_sizes":[],"default_left":[0,0,0,0,0,0,0,0,0,0,0,0,0,0,0,0,0,0,0,0,0,0,0,0,0,0,0,0,0,0,0,0,0,0,0,0,0,0,0,0,0,0,0,0,0,0,0,0,0,0,0,0,0,0,0,0,0,0,0,0,0,0,0,0,0,0,0,0,0,0,0,0,0,0,0,0,0,0,0,0,0,0,0,0,0,0,0,0,0,0,0,0,0,0,0,0,0,0,0,0,0,0,0,0,0,0,0,0,0,0,0,0,0,0,0,0,0],"id":4,"left_children":[1,3,5,7,9,11,13,15,17,19,21,23,25,27,29,31,33,35,37,39,41,43,45,47,49,51,53,55,57,59,61,63,65,67,-1,69,71,73,75,77,79,81,83,85,87,89,91,93,95,97,99,101,-1,-1,-1,103,105,107,109,111,113,-1,115,-1,-1,-1,-1,-1,-1,-1,-1,-1,-1,-1,-1,-1,-1,-1,-1,-1,-1,-1,-1,-1,-1,-1,-1,-1,-1,-1,-1,-1,-1,-1,-1,-1,-1,-1,-1,-1,-1,-1,-1,-1,-1,-1,-1,-1,-1,-1,-1,-1,-1,-1,-1,-1,-1],"loss_changes":[1.4719008E3,2.072785E2,2.3229883E2,2.2703003E1,7.8234146E1,1.1131055E2,5.249771E1,8.06575E0,2.148285E1,3.3531006E1,3.0580917E1,2.004538E1,1.8096497E1,2.2879822E1,5.116371E1,8.06189E0,1.3055878E0,8.959961E0,6.424286E0,1.662981E1,1.331422E1,1.4176422E1,1.678454E1,8.250427E0,1.5912529E1,4.5510864E0,8.31338E0,9.995571E0,2.004351E1,1.3138809E1,1.854322E1,4.2085342E0,7.680985E0,5.035019E-1,0E0,7.531663E0,5.10408E0,1.082182E1,6.7899475E0,9.1240835E0,8.197985E0,1.0005512E1,7.8808017E0,1.3480347E1,7.359809E0,1.6302818E1,7.514866E0,8.087006E0,3.0613017E-1,4.6003876E0,1.30674095E1,5.3745117E0,0E0,0E0,0E0,6.4301558E0,1.6572155E1,1.9735397E1,1.3935528E1,7.6267986E0,1.0839981E1,0E0,7.431839E0,0E0,0E0,0E0,0E0,0E0,0E0,0E0,0E0,0E0,0E0,0E0,0E0,0E0,0E0,0E0,0E0,0E0,0E0,0E0,0E0,0E0,0E0,0E0,0E0,0E0,0E0,0E0,0E0,0E0,0E0,0E0,0E0,0E0,0E0,0E0,0E0,0E0,0E0,0E0,0E0,0E0,0E0,0E0,0E0,0E0,0E0,0E0,0E0,0E0,0E0,0E0,0E0,0E0,0E0],"parents":[2147483647,0,0,1,1,2,2,3,3,4,4,5,5,6,6,7,7,8,8,9,9,10,10,11,11,12,12,13,13,14,14,15,15,16,16,17,17,18,18,19,19,20,20,21,21,22,22,23,23,24,24,25,25,26,26,27,27,28,28,29,29,30,30,31,31,32,32,33,33,35,35,36,36,37,37,38,38,39,39,40,40,41,41,42,42,43,43,44,44,45,45,46,46,47,47,48,48,49,49,50,50,51,51,55,55,56,56,57,57,58,58,59,59,60,60,62,62],"right_children":[2,4,6,8,10,12,14,16,18,20,22,24,26,28,30,32,34,36,38,40,42,44,46,48,50,52,54,56,58,60,62,64,66,68,-1,70,72,74,76,78,80,82,84,86,88,90,92,94,96,98,100,102,-1,-1,-1,104,106,108,110,112,114,-1,116,-1,-1,-1,-1,-1,-1,-1,-1,-1,-1,-1,-1,-1,-1,-1,-1,-1,-1,-1,-1,-1,-1,-1,-1,-1,-1,-1,-1,-1,-1,-1,-1,-1,-1,-1,-1,-1,-1,-1,-1,-1,-1,-1,-1,-1,-1,-1,-1,-1,-1,-1,-1,-1,-1],"split_conditions":[2.6390574E0,1.1314021E0,1.06578946E-1,5.3062826E-1,1.0803845E-1,4.215086E0,4.7379513E0,1.1057692E-1,9.619238E-2,2.014903E0,2.5E-1,4E0,2.1428572E-1,1.2E1,1.12840466E-1,6.432E1,9.14E1,6E0,3.644E1,6.3E0,4E0,1.4656843E-1,1.3915095E-1,4.7058824E-1,4.715E1,5.4089637E0,1.24E1,3.1267605E0,4E0,7E0,5.65E1,3.553E1,4.037E1,3E0,4.4638356E-3,9.361E1,8.4E1,6.178E1,1.6E1,3.7935E-1,2.7586207E-1,4E0,1E1,-6E-2,3.3E1,1.02E1,1.5E1,1.3043478E-1,4.85E1,6.923077E-1,5.197E1,1.6E3,-2.727288E-2,-2.2837969E-2,2.5244616E-2,9.8E0,1.092E0,1.1930108E-1,4E0,7.8E1,5.294118E-1,-2.4010248E-2,5.4E1,6.3457983E-3,1.7503453E-2,1.9893162E-2,-9.727219E-3,1.9962523E-2,2.4498504E-2,2.9789598E-3,1.1092945E-2,1.0618043E-2,-2.3297532E-2,-2.7508661E-2,1.2338808E-2,1.0938356E-2,1.4381307E-2,1.9595717E-4,-8.831508E-3,6.907335E-3,6.422085E-4,-1.3635822E-2,-5.29007E-3,-1.4067246E-2,-1.3451399E-4,3.1799935E-3,7.5055235E-3,-1.6103161E-2,2.7842252E-3,2.0311999E-3,-1.0577956E-2,4.7234944E-3,1.210615E-2,-1.6010933E-2,2.2223365E-2,2.0391816E-2,6.748486E-3,-2.0693742E-2,-1.13692265E-2,-9.028873E-3,2.4266157E-3,-2.628769E-2,-2.1308683E-2,-8.389389E-3,6.7593195E-3,-1.7493943E-2,1.13590835E-2,-8.95659E-3,2.1976362E-4,-1.2155451E-2,-4.5798663E-3,-2.2454396E-2,2.5601646E-2,2.210387E-2,-2.305732E-2,2.5431782E-2,-1.2545041E-2],"split_indices":[25,25,30,25,30,25,25,43,30,25,26,18,32,16,43,10,8,46,10,46,18,30,30,29,11,25,46,25,18,40,20,3,8,18,0,3,6,3,16,47,29,41,16,38,9,46,16,44,13,26,13,23,0,0,0,46,50,30,21,6,26,0,5,0,0,0,0,0,0,0,0,0,0,0,0,0,0,0,0,0,0,0,0,0,0,0,0,0,0,0,0,0,0,0,0,0,0,0,0,0,0,0,0,0,0,0,0,0,0,0,0,0,0,0,0,0,0],"split_type":[0,0,0,0,0,0,0,0,0,0,0,0,0,0,0,0,0,0,0,0,0,0,0,0,0,0,0,0,0,0,0,0,0,0,0,0,0,0,0,0,0,0,0,0,0,0,0,0,0,0,0,0,0,0,0,0,0,0,0,0,0,0,0,0,0,0,0,0,0,0,0,0,0,0,0,0,0,0,0,0,0,0,0,0,0,0,0,0,0,0,0,0,0,0,0,0,0,0,0,0,0,0,0,0,0,0,0,0,0,0,0,0,0,0,0,0,0],"sum_hessian":[2.1256617E4,1.4694679E4,6.561938E3,3.8736497E3,1.0821029E4,3.291057E3,3.270881E3,4.8019797E2,3.3934517E3,3.3551458E3,7.465884E3,1.9519235E3,1.3391334E3,2.9046042E3,3.6627704E2,2.8929135E2,1.9090662E2,1.0515853E3,2.3418665E3,2.2163337E3,1.138812E3,4.395129E3,3.070755E3,1.0647284E3,8.8719507E2,1.3261129E3,1.3020525E1,4.090168E2,2.4955874E3,3.1733606E2,4.8940968E1,2.5596866E2,3.3322678E1,1.8669179E2,4.2148304E0,6.447425E2,4.068428E2,2.377467E1,2.3180918E3,1.3703243E3,8.460094E2,6.280576E2,5.1075436E2,4.3223535E3,7.277512E1,2.5265398E3,5.4421515E2,1.0568485E3,7.8797946E0,2.0567136E2,6.815237E2,9.2897876E2,3.9713416E2,3.8397465E0,9.1807785E0,1.6668965E2,2.4232715E2,1.4502833E3,1.0453041E3,1.1335685E1,3.0600037E2,9.651851E0,3.928912E1,3.7070873E1,2.188978E2,1.086401E1,2.2458668E1,8.3687164E1,1.0300462E2,5.167239E2,1.2801862E2,4.0371555E2,3.1272595E0,9.09408E0,1.468059E1,1.5065688E3,8.1152295E2,1.2618204E3,1.0850397E2,5.639918E2,2.8201758E2,1.8270786E2,4.453498E2,3.8604137E1,4.721502E2,7.971558E2,3.525198E3,3.5707355E1,3.7067764E1,2.4315989E3,9.494092E1,3.5126562E2,1.9294951E2,1.052673E3,4.175541E0,3.0111938E0,4.868601E0,1.1777321E2,8.789815E1,5.758581E2,1.0566563E2,3.4247144E2,5.865073E2,1.3660681E2,3.0082846E1,2.235301E2,1.8797045E1,2.5513004E2,1.1951533E3,3.1175592E2,7.335481E2,3.5915728E0,7.7441125E0,4.113108E0,3.0188727E2,3.457017E1,4.718948E0],"tree_param":{"num_deleted":"0","num_feature":"63","num_nodes":"117","size_leaf_vector":"1"}},{"base_weights":[2.2121326E-3,1.7141338E-1,-3.8739532E-1,3.5566705E-1,1.0627887E-1,-2.574445E-1,-6.519912E-1,5.9402585E-1,3.2308206E-1,-1.03193745E-2,1.641584E-1,-4.0803093E-1,-1.3202362E-1,-7.5487345E-1,-3.8134086E-1,5.133157E-1,7.1867526E-1,2.0681775E-1,3.7810397E-1,1.00371964E-1,-9.272256E-2,2.6438463E-1,1.0222941E-1,-5.195055E-1,-2.7928427E-1,-7.2800494E-3,-2.0737335E-1,5.76868E-1,-7.6319337E-1,4.9372435E-1,-4.159575E-1,5.761145E-1,1.5373982E-1,7.3952144E-1,4.220901E-1,7.7858485E-2,3.339467E-1,4.0669852E-1,2.4084525E-1,-4.3878164E-3,2.2464484E-1,-1.770689E-1,-1.5251931E-2,1.6613714E-1,3.5615277E-1,1.4809577E-1,4.1789664E-3,-5.6024665E-1,-3.411536E-1,-1.846674E-1,-5.144528E-1,-1.3684875E-1,1.470834E-1,-3.632758E-2,-2.547112E-1,8.218825E-3,2.3937574E-2,-7.859887E-1,-3.5342163E-1,-2.276187E-2,2.5851827E-2,-1.8236417E-1,-5.674606E-1,1.5321523E-2,2.2946093E-2,1.719396E-2,-2.836412E-3,2.257967E-2,1.1788083E-2,1.8533695E-2,-1.8878531E-3,2.3963753E-2,1.4579599E-3,1.6148061E-3,1.1973528E-2,1.2754293E-2,5.3395713E-3,3.4023868E-3,1.4198365E-2,-2.7462172E-3,5.0745443E-3,6.985495E-3,-2.041237E-2,-6.4388076E-3,3.7864032E-3,-1.5030105E-2,-5.7149296E-5,7.7413702E-3,2.5941327E-4,1.1496373E-2,2.4801956E-3,4.547854E-3,-2.2061031E-2,-9.098932E-3,8.438763E-4,-1.8173326E-2,-1.2116766E-2,-8.9090224E-4,-1.4434516E-2,-6.2444024E-3,6.748067E-3,-1.7234374E-2,8.818506E-3,-1.049443E-2,6.2723804E-5,-5.462632E-3,6.7799105E-3,3.559898E-3,-8.788546E-3,-5.6971065E-3,-1.31025445E-2,1.4242286E-2,-2.3760006E-2,-1.6669532E-2,5.6817527E-3,3.5900658E-3,-1.9104352E-2,1.5620604E-3,-1.8869476E-2],"categories":[],"categories_nodes":[],"categories_segments":[],"categories_sizes":[],"default_left":[0,0,0,0,0,0,0,0,0,0,0,0,0,0,0,0,0,0,0,0,0,0,0,0,0,0,0,0,0,0,0,0,0,0,0,0,0,0,0,0,0,0,0,0,0,0,0,0,0,0,0,0,0,0,0,0,0,0,0,0,0,0,0,0,0,0,0,0,0,0,0,0,0,0,0,0,0,0,0,0,0,0,0,0,0,0,0,0,0,0,0,0,0,0,0,0,0,0,0,0,0,0,0,0,0,0,0,0,0,0,0,0,0,0,0,0,0,0,0],"id":5,"left_children":[1,3,5,7,9,11,13,15,17,19,21,23,25,27,29,31,33,35,37,39,41,43,45,47,49,51,53,55,57,59,61,63,65,67,69,71,73,75,77,79,81,83,85,87,89,91,93,95,97,99,101,103,105,107,109,-1,-1,111,113,-1,-1,115,117,-1,-1,-1,-1,-1,-1,-1,-1,-1,-1,-1,-1,-1,-1,-1,-1,-1,-1,-1,-1,-1,-1,-1,-1,-1,-1,-1,-1,-1,-1,-1,-1,-1,-1,-1,-1,-1,-1,-1,-1,-1,-1,-1,-1,-1,-1,-1,-1,-1,-1,-1,-1,-1,-1,-1,-1],"loss_changes":[1.3554316E3,1.7200555E2,2.1389911E2,2.8884827E1,7.148858E1,7.883203E1,5.679132E1,4.148636E0,2.1004211E1,3.206965E1,4.391098E1,2.7087921E1,2.143187E1,1.6885986E1,1.7369408E1,6.1450653E0,7.635193E-1,1.7366123E1,8.677124E0,1.9535137E1,1.3166811E1,2.4309952E1,1.9683731E1,7.189972E0,1.9545883E1,1.7215372E1,1.1501034E1,4.365692E-1,1.3504517E1,1.0802649E1,1.9205452E1,2.5058823E0,4.4701457E0,4.381714E-1,1.3445027E0,1.1097744E1,9.725468E0,7.7237244E0,1.1436277E1,1.2343819E1,5.2551193E0,1.1016806E1,6.817045E0,1.8919521E1,1.0303879E1,9.3305435E0,1.0288753E1,5.631012E0,8.333517E0,6.1153736E0,1.2430794E1,1.3846273E1,1.0244817E1,1.2337388E1,1.3050743E1,0E0,0E0,1.0963074E1,8.8400135E0,0E0,0E0,2.9740765E1,1.2628883E1,0E0,0E0,0E0,0E0,0E0,0E0,0E0,0E0,0E0,0E0,0E0,0E0,0E0,0E0,0E0,0E0,0E0,0E0,0E0,0E0,0E0,0E0,0E0,0E0,0E0,0E0,0E0,0E0,0E0,0E0,0E0,0E0,0E0,0E0,0E0,0E0,0E0,0E0,0E0,0E0,0E0,0E0,0E0,0E0,0E0,0E0,0E0,0E0,0E0,0E0,0E0,0E0,0E0,0E0,0E0,0E0],"parents":[2147483647,0,0,1,1,2,2,3,3,4,4,5,5,6,6,7,7,8,8,9,9,10,10,11,11,12,12,13,13,14,14,15,15,16,16,17,17,18,18,19,19,20,20,21,21,22,22,23,23,24,24,25,25,26,26,27,27,28,28,29,29,30,30,31,31,32,32,33,33,34,34,35,35,36,36,37,37,38,38,39,39,40,40,41,41,42,42,43,43,44,44,45,45,46,46,47,47,48,48,49,49,50,50,51,51,52,52,53,53,54,54,57,57,58,58,61,61,62,62],"right_children":[2,4,6,8,10,12,14,16,18,20,22,24,26,28,30,32,34,36,38,40,42,44,46,48,50,52,54,56,58,60,62,64,66,68,70,72,74,76,78,80,82,84,86,88,90,92,94,96,98,100,102,104,106,108,110,-1,-1,112,114,-1,-1,116,118,-1,-1,-1,-1,-1,-1,-1,-1,-1,-1,-1,-1,-1,-1,-1,-1,-1,-1,-1,-1,-1,-1,-1,-1,-1,-1,-1,-1,-1,-1,-1,-1,-1,-1,-1,-1,-1,-1,-1,-1,-1,-1,-1,-1,-1,-1,-1,-1,-1,-1,-1,-1,-1,-1,-1,-1],"split_conditions":[2.6390574E0,1.1314021E0,4.1604443E0,5.3062826E-1,1.12611525E-1,1.1140367E-1,1.1904591E-1,1.1057692E-1,1.0429448E-1,1.686399E0,2E0,4E0,2E0,1.852E1,7E0,1.3188405E-1,5E0,2E0,1.0647107E0,5.6E0,2E0,3E0,2.00148E0,1.1392405E-1,3.6109178E0,3E0,-2.5E-1,5.889E1,1.1363637E-1,4.6E1,2E0,2.7795E-1,5.297E1,2.4698795E-1,4E0,3.64E1,6.741573E-2,1.5384616E-1,2E0,2E0,3.38E3,3.7E-1,9.463722E-2,2.6666668E-1,1.04E0,1E2,4.5E1,6.6E1,5.45E1,2E-1,9.836066E-1,1.22789785E-1,4.519E1,7.5E1,3.5779479E0,8.218825E-3,2.3937574E-2,3.12E1,5.75E1,-2.276187E-2,2.5851827E-2,5.735294E-1,3.6097562E-1,1.5321523E-2,2.2946093E-2,1.719396E-2,-2.836412E-3,2.257967E-2,1.1788083E-2,1.8533695E-2,-1.8878531E-3,2.3963753E-2,1.4579599E-3,1.6148061E-3,1.1973528E-2,1.2754293E-2,5.3395713E-3,3.4023868E-3,1.4198365E-2,-2.7462172E-3,5.0745443E-3,6.985495E-3,-2.041237E-2,-6.4388076E-3,3.7864032E-3,-1.5030105E-2,-5.7149296E-5,7.7413702E-3,2.5941327E-4,1.1496373E-2,2.4801956E-3,4.547854E-3,-2.2061031E-2,-9.098932E-3,8.438763E-4,-1.8173326E-2,-1.2116766E-2,-8.9090224E-4,-1.4434516E-2,-6.2444024E-3,6.748067E-3,-1.7234374E-2,8.818506E-3,-1.049443E-2,6.2723804E-5,-5.462632E-3,6.7799105E-3,3.559898E-3,-8.788546E-3,-5.6971065E-3,-1.31025445E-2,1.4242286E-2,-2.3760006E-2,-1.6669532E-2,5.6817527E-3,3.5900658E-3,-1.9104352E-2,1.5620604E-3,-1.8869476E-2],"split_indices":[25,25,25,25,30,30,30,43,30,25,22,18,22,4,40,30,22,22,25,46,22,18,25,42,25,18,37,11,32,4,22,49,11,28,21,11,42,26,17,22,23,39,29,26,39,0,4,6,20,43,53,30,11,7,25,0,0,14,20,0,0,53,54,0,0,0,0,0,0,0,0,0,0,0,0,0,0,0,0,0,0,0,0,0,0,0,0,0,0,0,0,0,0,0,0,0,0,0,0,0,0,0,0,0,0,0,0,0,0,0,0,0,0,0,0,0,0,0,0],"split_type":[0,0,0,0,0,0,0,0,0,0,0,0,0,0,0,0,0,0,0,0,0,0,0,0,0,0,0,0,0,0,0,0,0,0,0,0,0,0,0,0,0,0,0,0,0,0,0,0,0,0,0,0,0,0,0,0,0,0,0,0,0,0,0,0,0,0,0,0,0,0,0,0,0,0,0,0,0,0,0,0,0,0,0,0,0,0,0,0,0,0,0,0,0,0,0,0,0,0,0,0,0,0,0,0,0,0,0,0,0,0,0,0,0,0,0,0,0,0,0],"sum_hessian":[2.0559115E4,1.4334427E4,6.224688E3,3.7426606E3,1.0591766E4,4.175802E3,2.048886E3,4.480383E2,3.2946223E3,3.5138804E3,7.0778857E3,1.8965079E3,2.279294E3,1.4832642E3,5.656219E2,2.7505737E2,1.7298093E2,1.0598538E3,2.2347686E3,1.4994572E3,2.0144232E3,2.7018794E3,4.3760063E3,1.0148076E3,8.8170026E2,8.587334E2,1.4205605E3,8.784763E0,1.4744794E3,2.1019262E1,5.446026E2,2.336491E2,4.1408283E1,1.6022563E2,1.2755304E1,5.269398E2,5.329139E2,1.8478507E3,3.8691785E2,8.1412726E2,6.8532983E2,9.6379895E2,1.0506243E3,1.3062311E3,1.3956483E3,2.9810227E3,1.3949834E3,8.243574E2,1.9045021E2,6.300097E2,2.5169055E2,4.6692337E2,3.9181E2,3.0831042E2,1.1122501E3,4.6509323E0,4.1338315E0,1.395908E3,7.857139E1,4.532322E0,1.648694E1,2.1512234E2,3.294803E2,1.7628004E2,5.736905E1,1.4911787E1,2.6496494E1,1.5324655E2,6.979076E0,8.893236E0,3.8620691E0,1.9526485E1,5.0741333E2,1.0092792E2,4.3198596E2,1.7091564E3,1.3869432E2,2.5086717E2,1.3605067E2,5.4226843E2,2.7185883E2,6.799087E2,5.4211483E0,8.578558E2,1.059432E2,2.7118849E1,1.02350543E3,8.244547E2,4.817764E2,1.2696232E3,1.2602516E2,2.970087E3,1.0935931E1,9.996425E1,1.2950192E3,6.36215E2,1.8814241E2,5.9434967E1,1.3101524E2,5.963192E2,3.3690514E1,2.3456291E2,1.7127634E1,1.8375194E2,2.8317145E2,7.551365E1,3.1629636E2,1.9255333E2,1.15757095E2,8.2174585E2,2.905042E2,6.254531E0,1.3896534E3,5.722727E1,2.1344124E1,1.2967499E2,8.5447365E1,2.977708E1,2.997032E2],"tree_param":{"num_deleted":"0","num_feature":"63","num_nodes":"119","size_leaf_vector":"1"}},{"base_weights":[6.456197E-4,1.4606555E-1,-3.874744E-1,3.016788E-1,5.711353E-2,-5.645944E-1,-1.7993511E-1,4.250158E-1,2.564299E-1,-6.968848E-2,1.1878113E-1,-4.0240526E-1,-7.157625E-1,-1.1454119E-2,-2.7107814E-1,-2.3796905E-2,4.3094483E-1,1.7744125E-1,3.0415937E-1,-2.013292E-1,3.585665E-2,2.1578836E-1,6.532121E-2,-5.612289E-1,-2.6484483E-1,-6.334856E-1,-8.3058906E-1,-1.5274437E-1,1.7426226E-1,-3.147726E-1,4.990215E-2,3.846742E-1,5.202331E-1,1.0632567E-1,3.7475276E-1,1.7855766E-1,3.4266886E-1,-7.2423376E-2,-3.07742E-1,2.2065523E-1,-2.378387E-2,2.812332E-1,6.81081E-2,9.0894334E-2,-3.8351666E-2,-6.036506E-1,-1.8519054E-1,-6.4624774E-1,-2.1791989E-1,-4.3833733E-1,-6.880477E-1,-8.386048E-1,6.3970145E-3,1.3982714E-2,-3.7172842E-1,2.4529217E-2,3.9589053E-1,-2.3385276E-1,-5.769167E-1,-6.1129373E-2,6.750316E-1,1.0017517E-2,1.564356E-2,1.5933458E-2,-1.0291426E-2,-6.498299E-3,3.855363E-3,-2.2235774E-3,1.3251513E-2,6.306787E-3,-1.0380656E-2,-1.1100707E-2,1.0416601E-2,-2.9425009E-3,1.821858E-2,-9.765101E-3,3.9373613E-3,8.105424E-3,-3.6160904E-3,4.3475482E-4,-5.796973E-3,7.4531264E-3,1.5005642E-2,1.0813628E-3,1.9762311E-2,8.101525E-3,2.3217408E-3,-2.2935998E-3,9.006291E-3,2.3036676E-2,-1.8474557E-2,-1.0216837E-2,1.9398987E-2,-1.3838996E-2,-2.3815656E-2,-5.737609E-3,-1.847562E-2,-1.7334966E-2,-5.018567E-3,-1.8885117E-2,-2.369404E-2,-2.5703907E-2,-1.2836284E-2,-2.7376201E-3,1.1865243E-2,-1.9388407E-2,-5.7514273E-3,9.864251E-3,-3.6376365E-3,2.0221628E-2,1.3308486E-3,4.1507133E-3,-7.7563673E-3,-9.656089E-3,-2.1637382E-2,-2.5509838E-2,-3.2154846E-4,2.5541127E-2,-1.2468958E-3],"categories":[],"categories_nodes":[],"categories_segments":[],"categories_sizes":[],"default_left":[0,0,0,0,0,0,0,0,0,0,0,0,0,0,0,0,0,0,0,0,0,0,0,0,0,0,0,0,0,0,0,0,0,0,0,0,0,0,0,0,0,0,0,0,0,0,0,0,0,0,0,0,0,0,0,0,0,0,0,0,0,0,0,0,0,0,0,0,0,0,0,0,0,0,0,0,0,0,0,0,0,0,0,0,0,0,0,0,0,0,0,0,0,0,0,0,0,0,0,0,0,0,0,0,0,0,0,0,0,0,0,0,0,0,0,0,0,0,0],"id":6,"left_children":[1,3,5,7,9,11,13,15,17,19,21,23,25,27,29,-1,31,33,35,37,39,41,43,45,47,49,51,53,55,57,59,61,63,65,67,69,71,73,75,77,79,81,83,85,87,89,91,93,95,97,99,101,-1,103,105,107,109,111,113,115,117,-1,-1,-1,-1,-1,-1,-1,-1,-1,-1,-1,-1,-1,-1,-1,-1,-1,-1,-1,-1,-1,-1,-1,-1,-1,-1,-1,-1,-1,-1,-1,-1,-1,-1,-1,-1,-1,-1,-1,-1,-1,-1,-1,-1,-1,-1,-1,-1,-1,-1,-1,-1,-1,-1,-1,-1,-1,-1],"loss_changes":[1.1224637E3,2.0023798E2,1.9915247E2,2.9255676E1,7.1998665E1,7.1404785E1,3.834648E1,1.053154E1,1.446817E1,4.186983E1,3.2110275E1,3.0720596E1,1.3760437E1,2.3059277E1,2.274495E1,0E0,5.6026E0,2.035228E1,1.1545685E1,1.8371143E1,1.8445204E1,2.1247581E1,1.0595278E1,1.0335007E1,1.3443867E1,9.123474E0,5.433502E0,1.8225597E1,1.2591571E1,3.0126541E1,1.3578919E1,6.275131E0,4.6593475E0,7.691597E0,1.1593937E1,9.4619465E0,6.082062E0,1.0658181E1,5.7675095E0,6.9321346E0,8.212337E0,1.0822113E1,1.2796916E1,7.732111E0,1.0228933E1,1.0286758E1,8.986871E0,1.8900185E0,7.0702705E0,7.3204765E0,3.6132202E0,4.2917175E0,0E0,1.1450545E1,1.0539295E1,1.0139836E1,1.4934765E1,1.007008E1,1.2129295E1,6.616629E0,3.7631454E0,0E0,0E0,0E0,0E0,0E0,0E0,0E0,0E0,0E0,0E0,0E0,0E0,0E0,0E0,0E0,0E0,0E0,0E0,0E0,0E0,0E0,0E0,0E0,0E0,0E0,0E0,0E0,0E0,0E0,0E0,0E0,0E0,0E0,0E0,0E0,0E0,0E0,0E0,0E0,0E0,0E0,0E0,0E0,0E0,0E0,0E0,0E0,0E0,0E0,0E0,0E0,0E0,0E0,0E0,0E0,0E0,0E0,0E0],"parents":[2147483647,0,0,1,1,2,2,3,3,4,4,5,5,6,6,7,7,8,8,9,9,10,10,11,11,12,12,13,13,14,14,16,16,17,17,18,18,19,19,20,20,21,21,22,22,23,23,24,24,25,25,26,26,27,27,28,28,29,29,30,30,31,31,32,32,33,33,34,34,35,35,36,36,37,37,38,38,39,39,40,40,41,41,42,42,43,43,44,44,45,45,46,46,47,47,48,48,49,49,50,50,51,51,53,53,54,54,55,55,56,56,57,57,58,58,59,59,60,60],"right_children":[2,4,6,8,10,12,14,16,18,20,22,24,26,28,30,-1,32,34,36,38,40,42,44,46,48,50,52,54,56,58,60,62,64,66,68,70,72,74,76,78,80,82,84,86,88,90,92,94,96,98,100,102,-1,104,106,108,110,112,114,116,118,-1,-1,-1,-1,-1,-1,-1,-1,-1,-1,-1,-1,-1,-1,-1,-1,-1,-1,-1,-1,-1,-1,-1,-1,-1,-1,-1,-1,-1,-1,-1,-1,-1,-1,-1,-1,-1,-1,-1,-1,-1,-1,-1,-1,-1,-1,-1,-1,-1,-1,-1,-1,-1,-1,-1,-1,-1,-1],"split_conditions":[-3.116223E-1,-1.9924302E0,1.1504199E-1,-2.8881764E0,1.06578946E-1,5.293835E-1,2E0,1.02E1,1.1666451E-1,2E0,2E0,2E0,1.5098858E0,3E0,7.2E1,-2.3796905E-2,1.0729614E-1,3E0,3.433E1,4E0,1.4285715E-1,-1.0768723E0,3.529412E-1,8.4E0,3.4042552E-2,1E1,8E0,3.1337813E-1,2.3684211E-1,8E-1,2.112578E0,5.547E1,2.1428572E-1,4.747E1,7.692308E-2,8.82353E-2,9.463722E-2,2.1E-1,1.662E1,1.904762E-1,3.888889E-1,5.7E1,1.5503876E-1,1E1,1.4321294E-1,2.71E1,4.6930376E-1,2.0833334E-2,1.7E1,8.31E0,6E1,3.1851852E-1,6.3970145E-3,1.0714286E-1,1.22789785E-1,-3.3333334E-1,6.557E1,-8E-1,1.1027703E0,1.1363637E-2,0E0,1.0017517E-2,1.564356E-2,1.5933458E-2,-1.0291426E-2,-6.498299E-3,3.855363E-3,-2.2235774E-3,1.3251513E-2,6.306787E-3,-1.0380656E-2,-1.1100707E-2,1.0416601E-2,-2.9425009E-3,1.821858E-2,-9.765101E-3,3.9373613E-3,8.105424E-3,-3.6160904E-3,4.3475482E-4,-5.796973E-3,7.4531264E-3,1.5005642E-2,1.0813628E-3,1.9762311E-2,8.101525E-3,2.3217408E-3,-2.2935998E-3,9.006291E-3,2.3036676E-2,-1.8474557E-2,-1.0216837E-2,1.9398987E-2,-1.3838996E-2,-2.3815656E-2,-5.737609E-3,-1.847562E-2,-1.7334966E-2,-5.018567E-3,-1.8885117E-2,-2.369404E-2,-2.5703907E-2,-1.2836284E-2,-2.7376201E-3,1.1865243E-2,-1.9388407E-2,-5.7514273E-3,9.864251E-3,-3.6376365E-3,2.0221628E-2,1.3308486E-3,4.1507133E-3,-7.7563673E-3,-9.656089E-3,-2.1637382E-2,-2.5509838E-2,-3.2154846E-4,2.5541127E-2,-1.2468958E-3],"split_indices":[61,61,30,61,30,61,22,3,30,22,22,22,61,18,6,0,28,22,3,17,26,61,26,46,43,17,22,61,29,26,61,8,26,13,31,32,29,36,46,32,26,9,28,16,30,8,61,42,16,46,6,29,0,31,30,37,11,37,61,32,37,0,0,0,0,0,0,0,0,0,0,0,0,0,0,0,0,0,0,0,0,0,0,0,0,0,0,0,0,0,0,0,0,0,0,0,0,0,0,0,0,0,0,0,0,0,0,0,0,0,0,0,0,0,0,0,0,0,0],"split_type":[0,0,0,0,0,0,0,0,0,0,0,0,0,0,0,0,0,0,0,0,0,0,0,0,0,0,0,0,0,0,0,0,0,0,0,0,0,0,0,0,0,0,0,0,0,0,0,0,0,0,0,0,0,0,0,0,0,0,0,0,0,0,0,0,0,0,0,0,0,0,0,0,0,0,0,0,0,0,0,0,0,0,0,0,0,0,0,0,0,0,0,0,0,0,0,0,0,0,0,0,0,0,0,0,0,0,0,0,0,0,0,0,0,0,0,0,0,0,0],"sum_hessian":[1.9885596E4,1.4466096E4,5.4195005E3,5.2606636E3,9.205432E3,2.923112E3,2.4963887E3,1.4097236E3,3.85094E3,3.0119917E3,6.1934404E3,1.4119187E3,1.5111934E3,8.767719E2,1.6196167E3,6.1845717E0,1.4035391E3,1.4522667E3,2.3986733E3,1.3398998E3,1.6720919E3,2.199407E3,3.9940334E3,6.538829E2,7.5803577E2,8.841724E2,6.270209E2,4.9804456E2,3.7872736E2,1.4255752E3,1.940416E2,9.27962E2,4.7557715E2,1.0686425E3,3.8362427E2,5.641827E2,1.8344906E3,6.066724E2,7.3322736E2,4.073138E2,1.2647781E3,1.5234032E3,6.7600366E2,3.203857E3,7.901766E2,5.870511E2,6.683182E1,8.164651E1,6.763893E2,1.9516692E2,6.890055E2,6.224377E2,4.583227E0,2.8329184E2,2.1475273E2,2.2668718E2,1.5204018E2,1.0907648E3,3.348103E2,1.655414E2,2.85002E1,6.7931573E2,2.486462E2,4.7003683E2,5.540332E0,6.813511E1,1.0005073E3,4.9787098E1,3.3383716E2,5.326275E2,3.155518E1,1.1130966E1,1.8233596E3,5.8542737E2,2.1245007E1,7.0496313E2,2.8264212E1,3.5586624E2,5.144755E1,1.0324735E3,2.3230463E2,1.3268054E3,1.965978E2,6.422027E2,3.380096E1,2.232179E2,2.980639E3,7.1094147E2,7.92351E1,4.616214E0,5.824349E2,5.681105E1,1.0020769E1,3.8070484E1,4.3576023E1,6.3529755E2,4.1091755E1,1.2810616E2,6.706076E1,4.41929E2,2.4707655E2,5.949978E2,2.7439884E1,2.2264119E2,6.0650635E1,8.401919E1,1.3073354E2,7.3021545E1,1.5366565E2,8.436495E1,6.767522E1,6.757423E1,1.0231906E3,1.2216335E2,2.1264696E2,8.986563E0,1.5655484E2,2.2720957E1,5.779242E0],"tree_param":{"num_deleted":"0","num_feature":"63","num_nodes":"119","size_leaf_vector":"1"}},{"base_weights":[-2.4251767E-5,1.4540324E-1,-3.8274154E-1,2.784792E-1,6.0668744E-2,-2.4380986E-1,-5.737592E-1,3.5464117E-1,2.080794E-1,-3.709961E-2,1.2185221E-1,-3.601686E-1,-1.3056192E-1,-6.831646E-1,-3.7130365E-1,3.0028588E-1,4.2903435E-1,3.5404393E-1,1.8353534E-1,4.8782088E-2,-1.3424158E-1,2.2928034E-1,7.697837E-2,-4.185514E-1,-1.6090423E-1,2.6098235E-2,-1.8989323E-1,-5.933302E-1,-7.9921675E-1,-5.163396E-1,-1.6921476E-1,4.3415236E-1,2.3758306E-1,-4.014818E-2,4.4751677E-1,-3.9541638E-1,3.7075818E-1,2.667831E-1,1.4219527E-1,-4.1210745E-2,1.2090571E-1,-1.7078297E-1,6.9713905E-2,2.553277E-1,-5.7441052E-2,1.2031664E-1,-3.0621905E-3,-4.9328673E-1,-2.476057E-1,-2.0733142E-1,7.6857275E-1,-1.9246833E-1,1.4318891E-1,-4.2229465E-1,-1.2424678E-1,-6.71869E-1,-4.6162915E-1,-8.0729055E-1,4.267281E-3,-5.8721167E-1,2.1346703E-2,-2.757921E-1,1.1235585E-1,1.37340445E-2,2.2308447E-3,4.1391295E-3,1.074583E-2,-8.468478E-3,1.6995018E-2,1.3604685E-2,-2.4954135E-2,9.005944E-3,-2.3343379E-2,-5.0739045E-3,1.1860889E-2,4.0702354E-3,1.0437979E-2,2.3862661E-3,7.0319595E-3,1.0262958E-3,-5.024778E-3,-8.569858E-4,5.029282E-3,-5.7249856E-3,1.642999E-3,3.545441E-3,-2.0097975E-2,3.8137578E-3,9.674584E-3,4.9248957E-3,-9.683555E-3,3.260665E-3,1.1285216E-2,2.864196E-4,-1.2622815E-2,-1.7233342E-2,-1.0214464E-2,-1.7321229E-2,-4.3473835E-3,-1.2924957E-2,-3.7787447E-3,9.284043E-3,2.6031248E-2,5.7799504E-3,-1.2126543E-2,-1.9841578E-2,6.669593E-3,-3.021446E-3,-1.6537499E-2,-4.504654E-3,5.900989E-3,-2.0515503E-2,2.137326E-2,-1.5618107E-2,1.6163411E-3,-2.4531014E-2,-4.01413E-3,-1.2269288E-2,-2.0937638E-2,1.0155473E-2,-1.5688952E-2,-1.26278885E-2,3.3362594E-4,1.1451514E-2,-1.1605292E-2],"categories":[],"categories_nodes":[],"categories_segments":[],"categories_sizes":[],"default_left":[0,0,0,0,0,0,0,0,0,0,0,0,0,0,0,0,0,0,0,0,0,0,0,0,0,0,0,0,0,0,0,0,0,0,0,0,0,0,0,0,0,0,0,0,0,0,0,0,0,0,0,0,0,0,0,0,0,0,0,0,0,0,0,0,0,0,0,0,0,0,0,0,0,0,0,0,0,0,0,0,0,0,0,0,0,0,0,0,0,0,0,0,0,0,0,0,0,0,0,0,0,0,0,0,0,0,0,0,0,0,0,0,0,0,0,0,0,0,0,0,0,0,0,0,0],"id":7,"left_children":[1,3,5,7,9,11,13,15,17,19,21,23,25,27,29,31,33,35,37,39,41,43,45,47,49,51,53,55,57,59,61,63,65,67,69,71,73,75,77,79,81,83,85,87,89,91,93,95,97,99,101,103,105,107,109,111,113,115,-1,117,119,121,123,-1,-1,-1,-1,-1,-1,-1,-1,-1,-1,-1,-1,-1,-1,-1,-1,-1,-1,-1,-1,-1,-1,-1,-1,-1,-1,-1,-1,-1,-1,-1,-1,-1,-1,-1,-1,-1,-1,-1,-1,-1,-1,-1,-1,-1,-1,-1,-1,-1,-1,-1,-1,-1,-1,-1,-1,-1,-1,-1,-1,-1,-1],"loss_changes":[1.08112E3,1.587041E2,1.4180438E2,2.928534E1,5.145533E1,4.0779495E1,4.961444E1,1.0500946E1,1.0137703E1,2.7633728E1,2.5487213E1,1.7703629E1,1.4613394E1,1.4751038E1,2.31268E1,1.2674515E1,9.621628E0,5.268303E0,8.359276E0,1.1417866E1,1.1594805E1,1.1652794E1,1.2950708E1,1.4963242E1,1.5166591E1,1.1098845E1,1.7340717E1,8.244659E0,4.936493E0,1.7564926E1,1.0006265E1,4.0873795E0,1.2432266E1,6.4601936E0,8.51947E0,2.7368455E0,5.386528E0,8.554642E0,9.412128E0,7.4634347E0,6.8254156E0,5.972183E0,8.570019E0,1.2260208E1,7.732088E0,7.164692E0,6.916183E0,9.980759E0,1.2148319E1,5.9840097E0,4.941435E-1,1.2419676E1,1.811816E1,1.0340347E1,7.4331903E0,9.043762E0,9.518219E0,4.3010864E0,0E0,7.745682E0,9.604307E0,1.0058102E1,1.2516163E1,0E0,0E0,0E0,0E0,0E0,0E0,0E0,0E0,0E0,0E0,0E0,0E0,0E0,0E0,0E0,0E0,0E0,0E0,0E0,0E0,0E0,0E0,0E0,0E0,0E0,0E0,0E0,0E0,0E0,0E0,0E0,0E0,0E0,0E0,0E0,0E0,0E0,0E0,0E0,0E0,0E0,0E0,0E0,0E0,0E0,0E0,0E0,0E0,0E0,0E0,0E0,0E0,0E0,0E0,0E0,0E0,0E0,0E0,0E0,0E0,0E0,0E0],"parents":[2147483647,0,0,1,1,2,2,3,3,4,4,5,5,6,6,7,7,8,8,9,9,10,10,11,11,12,12,13,13,14,14,15,15,16,16,17,17,18,18,19,19,20,20,21,21,22,22,23,23,24,24,25,25,26,26,27,27,28,28,29,29,30,30,31,31,32,32,33,33,34,34,35,35,36,36,37,37,38,38,39,39,40,40,41,41,42,42,43,43,44,44,45,45,46,46,47,47,48,48,49,49,50,50,51,51,52,52,53,53,54,54,55,55,56,56,57,57,59,59,60,60,61,61,62,62],"right_children":[2,4,6,8,10,12,14,16,18,20,22,24,26,28,30,32,34,36,38,40,42,44,46,48,50,52,54,56,58,60,62,64,66,68,70,72,74,76,78,80,82,84,86,88,90,92,94,96,98,100,102,104,106,108,110,112,114,116,-1,118,120,122,124,-1,-1,-1,-1,-1,-1,-1,-1,-1,-1,-1,-1,-1,-1,-1,-1,-1,-1,-1,-1,-1,-1,-1,-1,-1,-1,-1,-1,-1,-1,-1,-1,-1,-1,-1,-1,-1,-1,-1,-1,-1,-1,-1,-1,-1,-1,-1,-1,-1,-1,-1,-1,-1,-1,-1,-1,-1,-1,-1,-1,-1,-1],"split_conditions":[-3.665497E-1,-1.940605E0,5.520686E-1,-2.494957E0,1.2E-1,2E-1,4.05E-1,6.952E1,1.2E1,4E0,2E0,7.6E0,2E0,1.4640135E0,2.0879121E-1,4.9586777E-2,2.7777778E-2,4.742E1,7.874016E-2,2.4110672E-1,4E0,1.17E0,-1.0366206E0,4.424E1,5.394E1,5.0691243E-2,2.094E1,3.277E1,8E0,9.72973E-1,1.12840466E-1,6.7669176E-2,5.2E-1,5.2E1,1.548E0,2.4418604E-1,1.946E1,2.821E1,6.948E1,3E0,4.9E1,3.402E-1,2E0,3E0,6E0,2.0588236E-1,1.7454545E-1,8.219178E-2,4.906E1,1.8867925E-1,9E0,1.666E1,1.565E1,-9.06838E-2,2.962963E-1,1.61E2,1.26E1,2.97405E-1,4.267281E-3,1.1E1,3.4E1,1.16595E-1,3.12E1,1.37340445E-2,2.2308447E-3,4.1391295E-3,1.074583E-2,-8.468478E-3,1.6995018E-2,1.3604685E-2,-2.4954135E-2,9.005944E-3,-2.3343379E-2,-5.0739045E-3,1.1860889E-2,4.0702354E-3,1.0437979E-2,2.3862661E-3,7.0319595E-3,1.0262958E-3,-5.024778E-3,-8.569858E-4,5.029282E-3,-5.7249856E-3,1.642999E-3,3.545441E-3,-2.0097975E-2,3.8137578E-3,9.674584E-3,4.9248957E-3,-9.683555E-3,3.260665E-3,1.1285216E-2,2.864196E-4,-1.2622815E-2,-1.7233342E-2,-1.0214464E-2,-1.7321229E-2,-4.3473835E-3,-1.2924957E-2,-3.7787447E-3,9.284043E-3,2.6031248E-2,5.7799504E-3,-1.2126543E-2,-1.9841578E-2,6.669593E-3,-3.021446E-3,-1.6537499E-2,-4.504654E-3,5.900989E-3,-2.0515503E-2,2.137326E-2,-1.5618107E-2,1.6163411E-3,-2.4531014E-2,-4.01413E-3,-1.2269288E-2,-2.0937638E-2,1.0155473E-2,-1.5688952E-2,-1.26278885E-2,3.3362594E-4,1.1451514E-2,-1.1605292E-2],"split_indices":[61,61,61,61,39,39,39,11,16,17,22,46,22,61,29,43,32,13,32,29,22,39,61,3,13,28,3,3,22,53,43,28,39,1,50,29,3,3,3,17,13,47,27,18,48,42,43,43,13,29,17,3,3,61,60,40,46,47,0,17,2,47,3,0,0,0,0,0,0,0,0,0,0,0,0,0,0,0,0,0,0,0,0,0,0,0,0,0,0,0,0,0,0,0,0,0,0,0,0,0,0,0,0,0,0,0,0,0,0,0,0,0,0,0,0,0,0,0,0,0,0,0,0,0,0],"split_type":[0,0,0,0,0,0,0,0,0,0,0,0,0,0,0,0,0,0,0,0,0,0,0,0,0,0,0,0,0,0,0,0,0,0,0,0,0,0,0,0,0,0,0,0,0,0,0,0,0,0,0,0,0,0,0,0,0,0,0,0,0,0,0,0,0,0,0,0,0,0,0,0,0,0,0,0,0,0,0,0,0,0,0,0,0,0,0,0,0,0,0,0,0,0,0,0,0,0,0,0,0,0,0,0,0,0,0,0,0,0,0,0,0,0,0,0,0,0,0,0,0,0,0,0,0],"sum_hessian":[1.9422479E4,1.4074844E4,5.3476343E3,5.4746274E3,8.600216E3,3.0972253E3,2.2504087E3,2.6277551E3,2.8468723E3,3.3105325E3,5.289684E3,1.5265559E3,1.5706693E3,1.4593909E3,7.9101794E2,1.5212742E3,1.106481E3,4.0786383E2,2.4390085E3,1.7573684E3,1.5531641E3,1.5573275E3,3.7323564E3,1.1797877E3,3.4676828E2,4.316055E2,1.1390637E3,8.2606085E2,6.3333E2,4.5960898E2,3.31409E2,4.8337515E2,1.037899E3,4.189098E1,1.06459E3,8.403352E0,3.9946048E2,8.074893E2,1.6315192E3,7.8202234E2,9.75346E2,1.3173124E3,2.3585168E2,1.4277336E3,1.2959384E2,2.4209958E3,1.3113606E3,8.195882E2,3.6019946E2,3.3101126E2,1.5757005E1,1.503367E2,2.812688E2,2.4968756E2,8.893762E2,5.14902E2,3.111589E2,6.280861E2,5.2438397E0,4.0600204E2,5.3606922E1,2.4042587E2,9.098313E1,4.5330682E2,3.006835E1,5.696077E2,4.6829135E2,3.0322794E1,1.1568188E1,1.0602853E3,4.3046217E0,3.0588858E0,5.344466E0,1.7155441E1,3.8230502E2,3.0973718E2,4.9775214E2,9.72535E2,6.5898413E2,4.9006497E2,2.9195737E2,2.3242033E2,7.429257E2,1.209913E3,1.07399414E2,2.221358E2,1.3715872E1,4.918007E2,9.35933E2,7.082506E1,5.8768787E1,2.3171157E3,1.03879906E2,1.2738817E3,3.7478905E1,5.334835E2,2.861047E2,8.443583E1,2.7576364E2,8.720332E1,2.4380795E2,3.530169E0,1.2226836E1,5.33653E1,9.69714E1,2.4527155E1,2.5674164E2,7.19771E1,1.7771048E2,8.234365E2,6.593968E1,5.109854E2,3.9165409E0,2.7920746E2,3.1951448E1,6.183148E2,9.771311E0,1.5735873E2,2.4864331E2,3.4109493E1,1.9497429E1,1.5935008E2,8.107578E1,5.924866E1,3.1734472E1],"tree_param":{"num_deleted":"0","num_feature":"63","num_nodes":"125","size_leaf_vector":"1"}},{"base_weights":[-4.345015E-3,1.5363383E-1,-3.3385113E-1,3.2662642E-1,9.304393E-2,-2.0908512E-1,-6.1107147E-1,5.583169E-1,2.9522565E-1,1.5824293E-1,3.6376357E-2,-3.300911E-1,-9.999013E-2,-7.259185E-1,-3.7156624E-1,4.6575084E-1,6.919593E-1,4.3680507E-1,2.698294E-1,2.684149E-1,1.3438591E-1,-5.8847904E-2,9.9248394E-2,-2.3477532E-1,-4.65344E-1,4.418457E-2,-1.6432588E-1,-7.568407E-1,-4.4111618E-1,-1.4600305E-1,-5.062659E-1,3.9339375E-1,7.0034176E-1,5.9240496E-1,7.5288904E-1,-2.033234E-1,4.709836E-1,1.9538024E-1,3.2973036E-1,-2.4375837E-2,2.7885005E-1,8.696055E-2,1.8410659E-1,-7.8495786E-2,1.9725305E-1,7.3554784E-2,2.7445176E-1,-2.586449E-1,2.6084667E-1,-5.027311E-1,-5.80517E-2,-1.2238182E-2,4.3107933E-1,-1.2893121E-1,-3.680745E-1,-6.733062E-1,-8.1470925E-1,9.93325E-2,-6.196485E-1,8.075696E-3,-2.5912382E-2,6.1185694E-1,-5.5902976E-1,1.2390382E-2,-1.5597299E-2,2.2340767E-2,-5.127996E-4,2.1162229E-2,1.0663035E-2,2.3335788E-2,1.0074554E-2,8.1196416E-4,-2.6028935E-2,4.4422764E-3,1.4661674E-2,3.163868E-3,8.52286E-3,1.1416302E-2,7.056435E-3,1.2361886E-2,5.7196952E-3,2.7400695E-3,-2.5321592E-2,-2.5638428E-3,6.50975E-3,-5.5579436E-3,-1.4435183E-3,7.4969707E-3,-2.2015298E-2,-3.11508E-3,2.77165E-3,1.2724665E-2,3.6001627E-3,-8.601637E-3,-3.766602E-4,1.5549568E-2,-9.9688135E-3,-1.6591275E-2,-8.527335E-3,-2.201101E-2,4.0167132E-3,4.175438E-3,-4.892502E-3,1.850767E-2,3.0291892E-4,-5.6939726E-3,-8.772584E-4,-5.9599816E-3,-1.7371686E-2,-2.0440679E-2,1.3103669E-2,-2.4671057E-2,5.329001E-3,1.1936206E-2,-2.3528889E-2,-2.370437E-2,-8.019097E-3,5.8799665E-3,-1.3627757E-2,2.4607623E-2,1.1495133E-2,-1.856686E-2,-2.6996676E-3],"categories":[],"categories_nodes":[],"categories_segments":[],"categories_sizes":[],"default_left":[0,0,0,0,0,0,0,0,0,0,0,0,0,0,0,0,0,0,0,0,0,0,0,0,0,0,0,0,0,0,0,0,0,0,0,0,0,0,0,0,0,0,0,0,0,0,0,0,0,0,0,0,0,0,0,0,0,0,0,0,0,0,0,0,0,0,0,0,0,0,0,0,0,0,0,0,0,0,0,0,0,0,0,0,0,0,0,0,0,0,0,0,0,0,0,0,0,0,0,0,0,0,0,0,0,0,0,0,0,0,0,0,0,0,0,0,0,0,0,0,0,0,0],"id":8,"left_children":[1,3,5,7,9,11,13,15,17,19,21,23,25,27,29,31,33,35,37,39,41,43,45,47,49,51,53,55,57,59,61,63,65,67,69,71,73,75,77,-1,79,81,83,85,87,89,91,93,95,97,99,101,103,105,107,109,111,113,115,117,-1,119,121,-1,-1,-1,-1,-1,-1,-1,-1,-1,-1,-1,-1,-1,-1,-1,-1,-1,-1,-1,-1,-1,-1,-1,-1,-1,-1,-1,-1,-1,-1,-1,-1,-1,-1,-1,-1,-1,-1,-1,-1,-1,-1,-1,-1,-1,-1,-1,-1,-1,-1,-1,-1,-1,-1,-1,-1,-1,-1,-1,-1],"loss_changes":[9.9022833E2,1.347428E2,2.13094E2,2.4097534E1,3.518286E1,5.6109406E1,5.234552E1,4.587784E0,1.0449585E1,1.1603439E1,3.0519821E1,2.5879349E1,2.0765362E1,1.1042908E1,1.8824654E1,3.7567482E0,5.2669525E-1,9.840347E0,1.1060471E1,9.10656E0,8.572273E0,1.0217613E1,1.3800825E1,1.4081223E1,1.2645401E1,1.5096109E1,1.1113445E1,5.07782E0,1.2500687E1,2.5881317E1,2.3293877E1,3.5086823E0,1.753727E0,1.5052223E0,7.3633575E-1,3.5855544E0,2.3512726E0,8.862038E0,6.542511E0,0E0,9.090755E0,7.677848E0,1.5772629E1,6.1010427E0,7.2788506E0,8.959657E0,9.019554E0,7.808319E0,8.560421E0,8.221603E0,9.320365E0,1.3825166E1,6.879524E0,8.004709E0,8.052723E0,4.60553E0,5.336029E0,8.9842615E0,5.618683E0,1.6910486E1,0E0,5.43952E-1,1.03906555E1,0E0,0E0,0E0,0E0,0E0,0E0,0E0,0E0,0E0,0E0,0E0,0E0,0E0,0E0,0E0,0E0,0E0,0E0,0E0,0E0,0E0,0E0,0E0,0E0,0E0,0E0,0E0,0E0,0E0,0E0,0E0,0E0,0E0,0E0,0E0,0E0,0E0,0E0,0E0,0E0,0E0,0E0,0E0,0E0,0E0,0E0,0E0,0E0,0E0,0E0,0E0,0E0,0E0,0E0,0E0,0E0,0E0,0E0,0E0,0E0],"parents":[2147483647,0,0,1,1,2,2,3,3,4,4,5,5,6,6,7,7,8,8,9,9,10,10,11,11,12,12,13,13,14,14,15,15,16,16,17,17,18,18,19,19,20,20,21,21,22,22,23,23,24,24,25,25,26,26,27,27,28,28,29,29,30,30,31,31,32,32,33,33,34,34,35,35,36,36,37,37,38,38,40,40,41,41,42,42,43,43,44,44,45,45,46,46,47,47,48,48,49,49,50,50,51,51,52,52,53,53,54,54,55,55,56,56,57,57,58,58,59,59,61,61,62,62],"right_children":[2,4,6,8,10,12,14,16,18,20,22,24,26,28,30,32,34,36,38,40,42,44,46,48,50,52,54,56,58,60,62,64,66,68,70,72,74,76,78,-1,80,82,84,86,88,90,92,94,96,98,100,102,104,106,108,110,112,114,116,118,-1,120,122,-1,-1,-1,-1,-1,-1,-1,-1,-1,-1,-1,-1,-1,-1,-1,-1,-1,-1,-1,-1,-1,-1,-1,-1,-1,-1,-1,-1,-1,-1,-1,-1,-1,-1,-1,-1,-1,-1,-1,-1,-1,-1,-1,-1,-1,-1,-1,-1,-1,-1,-1,-1,-1,-1,-1,-1,-1,-1,-1,-1],"split_conditions":[2.5176964E0,1.1314021E0,4.0976725E0,5.3062826E-1,1.6486586E0,1.5E-1,4.5818183E-1,1.0666667E-1,4.84E1,4.823E1,2.6666668E-1,3.3068867E0,2E0,2.1294E-1,2E0,4.89E1,1.5E-1,4.747E1,5.037E1,9E-2,5.209E1,6.592E1,5.4E1,2E-1,5.238E1,2.36385E-1,7.5E-1,4.812997E0,2.20005E-1,5.207298E0,7E0,9.283E1,1.2244898E-1,6E0,6.634E1,8.055E1,3.644E1,2E0,4E-1,-2.4375837E-2,2E0,1.5015E0,6.666667E-2,5.172414E-2,7.8E1,1.1E1,6.818182E-2,5.101E1,3.846154E-1,8.5E0,4E0,4.08E1,4.931E1,2.68E-1,3.109061E0,8.997E1,8E0,2.0663266E-1,2.631579E-1,6.193182E-1,-2.5912382E-2,4.157E1,1.1363637E-1,1.2390382E-2,-1.5597299E-2,2.2340767E-2,-5.127996E-4,2.1162229E-2,1.0663035E-2,2.3335788E-2,1.0074554E-2,8.1196416E-4,-2.6028935E-2,4.4422764E-3,1.4661674E-2,3.163868E-3,8.52286E-3,1.1416302E-2,7.056435E-3,1.2361886E-2,5.7196952E-3,2.7400695E-3,-2.5321592E-2,-2.5638428E-3,6.50975E-3,-5.5579436E-3,-1.4435183E-3,7.4969707E-3,-2.2015298E-2,-3.11508E-3,2.77165E-3,1.2724665E-2,3.6001627E-3,-8.601637E-3,-3.766602E-4,1.5549568E-2,-9.9688135E-3,-1.6591275E-2,-8.527335E-3,-2.201101E-2,4.0167132E-3,4.175438E-3,-4.892502E-3,1.850767E-2,3.0291892E-4,-5.6939726E-3,-8.772584E-4,-5.9599816E-3,-1.7371686E-2,-2.0440679E-2,1.3103669E-2,-2.4671057E-2,5.329001E-3,1.1936206E-2,-2.3528889E-2,-2.370437E-2,-8.019097E-3,5.8799665E-3,-1.3627757E-2,2.4607623E-2,1.1495133E-2,-1.856686E-2,-2.6996676E-3],"split_indices":[25,25,25,25,25,39,39,28,10,10,39,25,22,47,22,0,39,13,10,29,10,10,9,43,10,47,37,25,47,25,40,8,42,21,10,0,10,22,37,0,22,50,26,28,2,16,60,10,29,46,21,14,13,49,25,8,22,29,29,53,0,8,43,0,0,0,0,0,0,0,0,0,0,0,0,0,0,0,0,0,0,0,0,0,0,0,0,0,0,0,0,0,0,0,0,0,0,0,0,0,0,0,0,0,0,0,0,0,0,0,0,0,0,0,0,0,0,0,0,0,0,0,0],"split_type":[0,0,0,0,0,0,0,0,0,0,0,0,0,0,0,0,0,0,0,0,0,0,0,0,0,0,0,0,0,0,0,0,0,0,0,0,0,0,0,0,0,0,0,0,0,0,0,0,0,0,0,0,0,0,0,0,0,0,0,0,0,0,0,0,0,0,0,0,0,0,0,0,0,0,0,0,0,0,0,0,0,0,0,0,0,0,0,0,0,0,0,0,0,0,0,0,0,0,0,0,0,0,0,0,0,0,0,0,0,0,0,0,0,0,0,0,0,0,0,0,0,0,0],"sum_hessian":[1.9020746E4,1.285707E4,6.163677E3,3.3339087E3,9.523161E3,4.2518433E3,1.9118339E3,3.959095E2,2.937999E3,4.4274062E3,5.095755E3,2.0149146E3,2.2369285E3,1.2908281E3,6.210057E2,2.3655037E2,1.5935913E2,4.443929E2,2.4936062E3,7.862488E2,3.6411575E3,2.0265149E3,3.06924E3,1.1835654E3,8.313492E2,6.902993E2,1.5466292E3,1.1629086E3,1.27919586E2,2.3296863E2,3.8803708E2,1.8283406E2,5.3716297E1,6.457365E1,9.478548E1,2.2274044E1,4.2211887E2,1.1136926E3,1.3799136E3,6.782724E0,7.7946606E2,1.8650012E3,1.7761564E3,1.8827642E3,1.437508E2,2.6779397E3,3.9130048E2,1.1296392E3,5.392627E1,7.612377E2,7.011152E1,6.0328735E2,8.701196E1,1.3191097E3,2.2751944E2,4.8108566E2,6.818229E2,3.187425E1,9.6045334E1,1.9260963E2,4.035899E1,1.7008705E1,3.7102838E2,1.795254E2,3.3086662E0,5.05532E1,3.1630938E0,4.2384995E1,2.2188656E1,8.861493E1,6.170554E0,1.725061E1,5.0234337E0,2.246827E1,3.996506E2,5.5418365E2,5.595089E2,8.9547015E2,4.8444342E2,3.0902454E2,4.7044153E2,1.8571757E3,7.825521E0,1.9294391E2,1.5832124E3,4.159074E2,1.4668567E3,1.3675027E2,7.0005164E0,2.565945E2,2.421345E3,1.9781425E2,1.9348624E2,1.0138087E3,1.1583042E2,3.769127E1,1.6235E1,6.175107E2,1.4372699E2,1.4886739E1,5.522478E1,3.011092E2,3.0217813E2,6.004125E1,2.6970716E1,8.184685E2,5.0064127E2,1.27269554E2,1.0024988E2,4.7800565E2,3.0800068E0,6.767705E2,5.0523653E0,2.4235739E1,7.6385107E0,6.3887917E1,3.2157417E1,1.373554E2,5.525424E1,7.5456643E0,9.46304E0,3.2874927E2,4.22791E1],"tree_param":{"num_deleted":"0","num_feature":"63","num_nodes":"123","size_leaf_vector":"1"}},{"base_weights":[-2.8051678E-3,1.0878353E-1,-4.3979463E-1,2.6008356E-1,2.8643286E-2,-6.037227E-1,-2.2702853E-1,3.454021E-1,1.8822472E-1,-9.575857E-2,8.730211E-2,-4.7423458E-1,-7.391041E-1,-6.1271172E-2,-3.367901E-1,2.190659E-1,3.996054E-1,1.10974886E-1,2.6161414E-1,-2.2089298E-1,-4.4282135E-3,1.9086725E-1,3.3169415E-2,5.4032266E-1,-4.896321E-1,-7.524008E-1,1.2201398E-2,-6.315732E-1,1.6287682E-3,-3.981116E-1,3.2766502E-2,3.9238143E-1,1.269232E-1,5.533349E-1,3.6894557E-1,9.616456E-2,5.9013355E-1,-3.0589145E-1,2.7565056E-1,-2.4279325E-1,4.2193827E-1,8.795683E-2,-1.05092935E-1,-3.6171593E-2,2.1925929E-1,8.833001E-2,-4.8773624E-2,-1.9416399E-3,2.3713075E-2,-5.376747E-1,-3.0734825E-1,-7.607483E-1,1.2361295E-1,-6.963229E-1,8.746547E-3,4.177717E-2,-2.3822585E-2,-3.520697E-1,-7.168482E-1,-2.9706356E-1,3.3943573E-1,8.65416E-3,1.9498814E-2,4.9040606E-4,7.952644E-3,-1.0180457E-3,1.7803948E-2,1.1443788E-2,1.1058071E-3,1.3958501E-3,7.151265E-3,-5.9520993E-3,2.1479651E-2,2.389786E-3,-2.3188803E-2,8.490964E-3,-1.1248372E-2,-5.418873E-3,-1.1482765E-2,-1.2276192E-2,1.7023241E-2,-6.2432927E-3,3.5408365E-3,-4.2986637E-3,4.842926E-3,1.9400748E-3,-1.7126217E-2,7.773342E-3,1.9848477E-3,2.9458136E-3,-8.714365E-3,-1.516215E-2,-1.2222811E-3,-1.6832998E-2,-6.507419E-3,-5.490091E-3,-2.249943E-2,-1.539194E-2,-2.3257403E-2,-2.144836E-2,2.0674407E-2,-2.2525223E-2,5.6563653E-3,-3.3006917E-3,8.111818E-3,7.6045603E-3,-1.1402319E-2,-2.4834229E-2,1.8540416E-2,-6.6783704E-4,-2.0861585E-2,1.4108472E-2,-1.893993E-2],"categories":[],"categories_nodes":[],"categories_segments":[],"categories_sizes":[],"default_left":[0,0,0,0,0,0,0,0,0,0,0,0,0,0,0,0,0,0,0,0,0,0,0,0,0,0,0,0,0,0,0,0,0,0,0,0,0,0,0,0,0,0,0,0,0,0,0,0,0,0,0,0,0,0,0,0,0,0,0,0,0,0,0,0,0,0,0,0,0,0,0,0,0,0,0,0,0,0,0,0,0,0,0,0,0,0,0,0,0,0,0,0,0,0,0,0,0,0,0,0,0,0,0,0,0,0,0,0,0,0,0,0,0],"id":9,"left_children":[1,3,5,7,9,11,13,15,17,19,21,23,25,27,29,31,33,35,37,39,41,43,45,47,49,51,-1,53,55,57,59,61,63,65,67,69,71,73,75,77,79,81,83,85,87,89,91,-1,-1,93,95,97,99,101,-1,103,-1,105,107,109,111,-1,-1,-1,-1,-1,-1,-1,-1,-1,-1,-1,-1,-1,-1,-1,-1,-1,-1,-1,-1,-1,-1,-1,-1,-1,-1,-1,-1,-1,-1,-1,-1,-1,-1,-1,-1,-1,-1,-1,-1,-1,-1,-1,-1,-1,-1,-1,-1,-1,-1,-1,-1],"loss_changes":[9.084895E2,1.7994235E2,1.3204303E2,3.1440521E1,7.081474E1,3.7163208E1,3.001381E1,1.5992401E1,1.579763E1,3.553833E1,3.6963844E1,1.739476E1,1.6217712E1,2.3636106E1,2.2514694E1,1.1244125E1,7.535034E0,9.607138E0,1.1482109E1,1.8573204E1,1.673678E1,1.4598389E1,1.9585026E1,2.6038957E0,9.298828E0,7.645996E0,0E0,4.1152496E0,1.9022943E1,1.2246506E1,1.4487819E1,6.3698807E0,7.0724516E0,6.4073715E0,5.6874084E0,9.321711E0,4.174692E0,6.366087E0,6.814331E0,1.0975906E1,5.5038295E0,8.379654E0,8.790467E0,1.3648939E1,1.2258652E1,9.704027E0,6.37321E0,0E0,0E0,6.2947845E0,1.2398043E1,3.2763672E0,5.5234933E0,3.1063557E0,0E0,1.9700691E1,0E0,1.2751389E1,1.6291122E1,7.544201E0,9.718414E0,0E0,0E0,0E0,0E0,0E0,0E0,0E0,0E0,0E0,0E0,0E0,0E0,0E0,0E0,0E0,0E0,0E0,0E0,0E0,0E0,0E0,0E0,0E0,0E0,0E0,0E0,0E0,0E0,0E0,0E0,0E0,0E0,0E0,0E0,0E0,0E0,0E0,0E0,0E0,0E0,0E0,0E0,0E0,0E0,0E0,0E0,0E0,0E0,0E0,0E0,0E0,0E0],"parents":[2147483647,0,0,1,1,2,2,3,3,4,4,5,5,6,6,7,7,8,8,9,9,10,10,11,11,12,12,13,13,14,14,15,15,16,16,17,17,18,18,19,19,20,20,21,21,22,22,23,23,24,24,25,25,27,27,28,28,29,29,30,30,31,31,32,32,33,33,34,34,35,35,36,36,37,37,38,38,39,39,40,40,41,41,42,42,43,43,44,44,45,45,46,46,49,49,50,50,51,51,52,52,53,53,55,55,57,57,58,58,59,59,60,60],"right_children":[2,4,6,8,10,12,14,16,18,20,22,24,26,28,30,32,34,36,38,40,42,44,46,48,50,52,-1,54,56,58,60,62,64,66,68,70,72,74,76,78,80,82,84,86,88,90,92,-1,-1,94,96,98,100,102,-1,104,-1,106,108,110,112,-1,-1,-1,-1,-1,-1,-1,-1,-1,-1,-1,-1,-1,-1,-1,-1,-1,-1,-1,-1,-1,-1,-1,-1,-1,-1,-1,-1,-1,-1,-1,-1,-1,-1,-1,-1,-1,-1,-1,-1,-1,-1,-1,-1,-1,-1,-1,-1,-1,-1,-1,-1],"split_conditions":[3.1780539E0,-1.9666005E0,1.1399212E-1,1.0647107E0,9.92647E-2,4.31348E0,2E0,9.619238E-2,1.23088606E-1,2E0,2E0,3.335E1,2.1428572E-1,1.1930108E-1,7.2E1,6.931472E-1,5.3062826E-1,6.3125E-1,-3.24E-1,6.2E1,2.00148E0,3.4782607E-2,2.0794415E0,6.7226894E-2,8.5E0,1E2,1.2201398E-2,1.1111111E-1,5.207298E0,4.928702E0,6E0,1.25E-1,2E0,-1.444E1,1.6E0,6E0,-2.25E-1,1.2973422E-1,1.468269E-1,5.882353E-1,3.104E1,2.8985508E-2,1.459854E-1,3.4782607E-2,2.5176964E0,2E-1,-3.883E1,-1.9416399E-3,2.3713075E-2,8.606E1,3.94739E0,9.708738E-3,0E0,2.5480855E0,8.746547E-3,3.4E1,-2.3822585E-2,-1.2E0,1.5789473E-1,1.1E1,5.0076926E-1,8.65416E-3,1.9498814E-2,4.9040606E-4,7.952644E-3,-1.0180457E-3,1.7803948E-2,1.1443788E-2,1.1058071E-3,1.3958501E-3,7.151265E-3,-5.9520993E-3,2.1479651E-2,2.389786E-3,-2.3188803E-2,8.490964E-3,-1.1248372E-2,-5.418873E-3,-1.1482765E-2,-1.2276192E-2,1.7023241E-2,-6.2432927E-3,3.5408365E-3,-4.2986637E-3,4.842926E-3,1.9400748E-3,-1.7126217E-2,7.773342E-3,1.9848477E-3,2.9458136E-3,-8.714365E-3,-1.516215E-2,-1.2222811E-3,-1.6832998E-2,-6.507419E-3,-5.490091E-3,-2.249943E-2,-1.539194E-2,-2.3257403E-2,-2.144836E-2,2.0674407E-2,-2.2525223E-2,5.6563653E-3,-3.3006917E-3,8.111818E-3,7.6045603E-3,-1.1402319E-2,-2.4834229E-2,1.8540416E-2,-6.6783704E-4,-2.0861585E-2,1.4108472E-2,-1.893993E-2],"split_indices":[25,61,30,25,30,25,22,30,30,22,22,4,32,30,6,25,25,54,38,5,25,28,25,28,46,8,0,28,25,25,21,28,22,36,37,46,38,30,30,53,3,43,28,43,25,43,36,0,0,11,25,28,38,61,0,40,0,37,28,17,54,0,0,0,0,0,0,0,0,0,0,0,0,0,0,0,0,0,0,0,0,0,0,0,0,0,0,0,0,0,0,0,0,0,0,0,0,0,0,0,0,0,0,0,0,0,0,0,0,0,0,0,0],"split_type":[0,0,0,0,0,0,0,0,0,0,0,0,0,0,0,0,0,0,0,0,0,0,0,0,0,0,0,0,0,0,0,0,0,0,0,0,0,0,0,0,0,0,0,0,0,0,0,0,0,0,0,0,0,0,0,0,0,0,0,0,0,0,0,0,0,0,0,0,0,0,0,0,0,0,0,0,0,0,0,0,0,0,0,0,0,0,0,0,0,0,0,0,0,0,0,0,0,0,0,0,0,0,0,0,0,0,0,0,0,0,0,0,0],"sum_hessian":[1.8628701E4,1.4839953E4,3.7887478E3,5.137816E3,9.702138E3,2.1389397E3,1.6498079E3,2.347182E3,2.790634E3,3.1086897E3,6.5934473E3,1.0955671E3,1.0433727E3,6.578733E2,9.9193463E2,7.062072E2,1.6409749E3,1.3607834E3,1.4298506E3,1.3110133E3,1.7976764E3,2.2624558E3,4.3309917E3,1.5868741E1,1.0796984E3,1.031743E3,1.1629619E1,6.445261E1,5.9342065E2,8.5069867E2,1.4123593E2,2.439992E2,4.6220798E2,2.700228E2,1.370952E3,1.3211487E3,3.9634712E1,3.400975E1,1.3958408E3,1.2684225E3,4.2590908E1,9.3745416E2,8.602223E2,2.5144951E2,2.0110062E3,2.588467E3,1.7425247E3,4.8580227E0,1.1010718E1,8.529466E2,2.267518E2,1.0221348E3,9.608264E0,6.045768E1,3.9949243E0,5.6581934E2,2.7601349E1,7.4516345E2,1.0553523E2,6.806342E1,7.317251E1,1.753725E2,6.862671E1,2.5735754E2,2.0485045E2,1.7281204E1,2.527416E2,1.3210228E3,4.9929184E1,9.8031445E2,3.408343E2,5.375894E0,3.425882E1,1.908506E1,1.4924689E1,1.3807401E3,1.5100715E1,8.799106E2,3.8851187E2,6.0752783E0,3.651563E1,8.589073E1,8.515634E2,7.527999E2,1.0742234E2,2.1229193E2,3.9157574E1,1.5951007E3,4.159055E2,2.5234988E3,6.4968414E1,2.9046259E1,1.7134784E3,7.941969E2,5.874966E1,1.7812581E2,4.862598E1,5.853556E1,9.6359924E2,3.7635617E0,5.844702E0,5.7091656E1,3.3660243E0,3.4034854E2,2.2547076E2,3.2585217E1,7.1257825E2,9.7786644E1,7.7485895E0,4.0901447E1,2.7161976E1,6.493559E1,8.236916E0],"tree_param":{"num_deleted":"0","num_feature":"63","num_nodes":"113","size_leaf_vector":"1"}},{"base_weights":[3.842527E-3,1.41285E-1,-3.418359E-1,3.106459E-1,8.577268E-2,-2.1729824E-1,-5.83195E-1,5.2614766E-1,2.825892E-1,-1.1685717E-2,1.4281373E-1,-3.7322596E-1,-9.574418E-2,-7.015004E-1,-3.9630836E-1,4.3684623E-1,6.709582E-1,1.6227771E-1,3.3812374E-1,8.854645E-2,-8.1624135E-2,2.3366944E-1,8.570768E-2,-4.8699275E-1,-2.651243E-1,4.1587546E-2,-1.8214896E-1,-7.130252E-1,2.8878966E-1,-4.522446E-1,2.5201806E-1,4.824732E-1,-1.9951881E-1,6.8613964E-1,1.7381401E-3,4.4227075E-2,2.8069922E-1,3.963864E-1,2.745039E-1,1.2191153E-1,-8.0965266E-2,-1.03351936E-1,1.3046443E-1,1.4922018E-1,3.032208E-1,2.0533963E-1,5.545292E-2,-5.0578016E-1,6.706665E-1,-5.8813375E-1,-1.941917E-1,-1.03537284E-1,1.9696368E-1,2.443413E-1,-2.0252474E-1,-4.8408672E-1,-7.334487E-1,-2.2194942E-2,2.5606833E-2,-2.813007E-1,-5.888461E-1,7.0510614E-1,-5.8223027E-1,1.5152474E-2,-2.3872001E-2,-1.6196042E-2,9.6947765E-3,2.09135E-2,1.0569518E-2,2.1798974E-2,4.0880262E-4,2.4076174E-3,1.0065455E-2,8.575901E-3,1.392077E-2,8.454756E-3,-1.7152732E-2,-6.436885E-3,4.1005528E-3,-1.427891E-2,1.4076353E-3,-5.372728E-3,-1.0481023E-3,6.3670655E-3,-6.5123723E-3,4.7977003E-3,-1.7829597E-2,9.809756E-3,-3.3727922E-3,4.731278E-4,7.957887E-3,3.981043E-3,7.466239E-4,-8.462757E-3,-1.6075237E-2,7.04E-3,2.4787642E-2,1.0959655E-2,-1.8490858E-2,-2.4089422E-3,-1.0361506E-2,-8.163169E-3,9.344216E-5,9.475135E-3,-1.2992058E-3,9.897837E-3,-2.1905085E-2,-5.046397E-3,-1.1774323E-2,-1.755427E-3,-2.0083837E-2,-1.5448628E-2,-2.2383492E-2,-1.3659533E-2,2.2849578E-3,-1.1129963E-2,-2.141666E-2,-2.0772286E-2,2.5655285E-2,9.90012E-4,-2.3786772E-2],"categories":[],"categories_nodes":[],"categories_segments":[],"categories_sizes":[],"default_left":[0,0,0,0,0,0,0,0,0,0,0,0,0,0,0,0,0,0,0,0,0,0,0,0,0,0,0,0,0,0,0,0,0,0,0,0,0,0,0,0,0,0,0,0,0,0,0,0,0,0,0,0,0,0,0,0,0,0,0,0,0,0,0,0,0,0,0,0,0,0,0,0,0,0,0,0,0,0,0,0,0,0,0,0,0,0,0,0,0,0,0,0,0,0,0,0,0,0,0,0,0,0,0,0,0,0,0,0,0,0,0,0,0,0,0,0,0,0,0,0,0],"id":10,"left_children":[1,3,5,7,9,11,13,15,17,19,21,23,25,27,29,31,33,35,37,39,41,43,45,47,49,51,53,55,57,59,61,63,65,67,-1,69,71,73,75,77,79,81,83,85,87,89,91,93,95,97,99,101,103,105,107,109,111,-1,-1,113,115,117,119,-1,-1,-1,-1,-1,-1,-1,-1,-1,-1,-1,-1,-1,-1,-1,-1,-1,-1,-1,-1,-1,-1,-1,-1,-1,-1,-1,-1,-1,-1,-1,-1,-1,-1,-1,-1,-1,-1,-1,-1,-1,-1,-1,-1,-1,-1,-1,-1,-1,-1,-1,-1,-1,-1,-1,-1,-1,-1],"loss_changes":[8.7020544E2,1.23183624E2,1.564972E2,1.9409668E1,5.487829E1,6.514111E1,3.892096E1,4.510666E0,1.9082855E1,2.556213E1,3.228817E1,1.8392715E1,2.2953215E1,1.2581726E1,2.5120834E1,6.8510475E0,1.2615814E0,1.2660358E1,7.1518097E0,8.486314E0,9.91068E0,1.4067352E1,1.3833872E1,1.627275E1,1.7629715E1,1.687784E1,1.0365612E1,4.658142E0,8.291831E0,1.4665863E1,2.1355099E1,6.6837006E0,3.0690732E0,2.5406647E-1,0E0,9.494524E0,4.9433937E0,7.4940186E0,5.9826965E0,6.2561207E0,1.2503605E1,1.0091341E1,5.7305384E0,8.7465725E0,1.3045456E1,8.762699E0,7.2087717E0,4.7002106E0,6.289072E-1,3.9649696E0,1.0932474E1,6.962064E0,1.0335679E1,4.793339E0,7.321865E0,7.1205883E0,2.334961E0,0E0,0E0,1.770264E1,9.327034E0,8.217886E0,2.6247535E0,0E0,0E0,0E0,0E0,0E0,0E0,0E0,0E0,0E0,0E0,0E0,0E0,0E0,0E0,0E0,0E0,0E0,0E0,0E0,0E0,0E0,0E0,0E0,0E0,0E0,0E0,0E0,0E0,0E0,0E0,0E0,0E0,0E0,0E0,0E0,0E0,0E0,0E0,0E0,0E0,0E0,0E0,0E0,0E0,0E0,0E0,0E0,0E0,0E0,0E0,0E0,0E0,0E0,0E0,0E0,0E0,0E0,0E0],"parents":[2147483647,0,0,1,1,2,2,3,3,4,4,5,5,6,6,7,7,8,8,9,9,10,10,11,11,12,12,13,13,14,14,15,15,16,16,17,17,18,18,19,19,20,20,21,21,22,22,23,23,24,24,25,25,26,26,27,27,28,28,29,29,30,30,31,31,32,32,33,33,35,35,36,36,37,37,38,38,39,39,40,40,41,41,42,42,43,43,44,44,45,45,46,46,47,47,48,48,49,49,50,50,51,51,52,52,53,53,54,54,55,55,56,56,59,59,60,60,61,61,62,62],"right_children":[2,4,6,8,10,12,14,16,18,20,22,24,26,28,30,32,34,36,38,40,42,44,46,48,50,52,54,56,58,60,62,64,66,68,-1,70,72,74,76,78,80,82,84,86,88,90,92,94,96,98,100,102,104,106,108,110,112,-1,-1,114,116,118,120,-1,-1,-1,-1,-1,-1,-1,-1,-1,-1,-1,-1,-1,-1,-1,-1,-1,-1,-1,-1,-1,-1,-1,-1,-1,-1,-1,-1,-1,-1,-1,-1,-1,-1,-1,-1,-1,-1,-1,-1,-1,-1,-1,-1,-1,-1,-1,-1,-1,-1,-1,-1,-1,-1,-1,-1,-1,-1],"split_conditions":[2.6741486E0,1.1314021E0,4.0976725E0,5.3062826E-1,1.1666451E-1,1.1140367E-1,9.619238E-2,1.1057692E-1,1.0429448E-1,1.6486586E0,2E0,2E0,2E0,2.1428572E-1,8.077E1,6.702E1,9.14E1,2E0,-2.494957E0,3.402E-1,6.2E1,3E0,-1.9136493E0,2.219E1,4.667E1,3E0,-1.0159205E0,4.215086E0,1.24E1,2E0,4.921698E-1,6.666667E-1,6.25E1,-2.023202E0,1.7381401E-3,3.731E1,6.741573E-2,1.2542151E-1,2.25E0,1.352E1,1.6E3,2E0,-6.4754957E-1,6.427E1,1.0695652E0,4.867E1,2.0503E-2,1.8181818E-2,4.968E1,4.879E1,3.3068867E0,1.22789785E-1,5.467E1,6.219E1,6.666667E-1,4E0,9.708738E-3,-2.2194942E-2,2.5606833E-2,4.6E0,1.8928E-2,3.611111E-1,4.195697E0,1.5152474E-2,-2.3872001E-2,-1.6196042E-2,9.6947765E-3,2.09135E-2,1.0569518E-2,2.1798974E-2,4.0880262E-4,2.4076174E-3,1.0065455E-2,8.575901E-3,1.392077E-2,8.454756E-3,-1.7152732E-2,-6.436885E-3,4.1005528E-3,-1.427891E-2,1.4076353E-3,-5.372728E-3,-1.0481023E-3,6.3670655E-3,-6.5123723E-3,4.7977003E-3,-1.7829597E-2,9.809756E-3,-3.3727922E-3,4.731278E-4,7.957887E-3,3.981043E-3,7.466239E-4,-8.462757E-3,-1.6075237E-2,7.04E-3,2.4787642E-2,1.0959655E-2,-1.8490858E-2,-2.4089422E-3,-1.0361506E-2,-8.163169E-3,9.344216E-5,9.475135E-3,-1.2992058E-3,9.897837E-3,-2.1905085E-2,-5.046397E-3,-1.1774323E-2,-1.755427E-3,-2.0083837E-2,-1.5448628E-2,-2.2383492E-2,-1.3659533E-2,2.2849578E-3,-1.1129963E-2,-2.141666E-2,-2.0772286E-2,2.5655285E-2,9.90012E-4,-2.3786772E-2],"split_indices":[25,25,25,25,30,30,30,43,30,25,22,22,22,32,11,10,8,22,61,47,5,18,61,46,11,18,61,25,46,22,54,56,7,61,0,11,42,30,37,3,23,22,61,8,39,8,47,43,13,10,25,30,10,3,37,46,28,0,0,46,47,53,25,0,0,0,0,0,0,0,0,0,0,0,0,0,0,0,0,0,0,0,0,0,0,0,0,0,0,0,0,0,0,0,0,0,0,0,0,0,0,0,0,0,0,0,0,0,0,0,0,0,0,0,0,0,0,0,0,0,0],"split_type":[0,0,0,0,0,0,0,0,0,0,0,0,0,0,0,0,0,0,0,0,0,0,0,0,0,0,0,0,0,0,0,0,0,0,0,0,0,0,0,0,0,0,0,0,0,0,0,0,0,0,0,0,0,0,0,0,0,0,0,0,0,0,0,0,0,0,0,0,0,0,0,0,0,0,0,0,0,0,0,0,0,0,0,0,0,0,0,0,0,0,0,0,0,0,0,0,0,0,0,0,0,0,0,0,0,0,0,0,0,0,0,0,0,0,0,0,0,0,0,0,0],"sum_hessian":[1.8313898E4,1.3104223E4,5.2096753E3,3.2337803E3,9.870442E3,3.4377493E3,1.7719263E3,3.7047012E2,2.8633103E3,3.6444514E3,6.2259907E3,1.5050382E3,1.9327109E3,1.0833658E3,6.885604E2,2.3163977E2,1.3883035E2,9.0551044E2,1.9577998E3,1.4977239E3,2.1467273E3,2.4017363E3,3.8242544E3,7.3159686E2,7.734414E2,7.465938E2,1.1861172E3,1.0711796E3,1.2186206E1,6.341498E2,5.441066E1,2.1636815E2,1.52716255E1,1.3535892E2,3.4714394E0,4.5415308E2,4.5135733E2,1.0191958E3,9.38604E2,1.2516431E3,2.460808E2,1.947704E3,1.9902338E2,1.0861177E3,1.3156187E3,7.707609E2,3.0534934E3,7.2046765E2,1.1129205E1,1.3795178E2,6.354896E2,3.862041E2,3.603897E2,5.3582226E1,1.1325349E3,8.9755905E1,9.814237E2,4.2094846E0,7.9767213E0,2.8302716E2,3.511226E2,3.536072E1,1.9049938E1,2.1320183E2,3.1663213E0,9.229086E0,6.04254E0,1.2999599E2,5.362927E0,1.8514854E1,4.356382E2,9.745565E1,3.539017E2,3.8892163E2,6.302742E2,9.3121466E2,7.389299E0,5.207556E1,1.1995675E3,5.952041E1,1.8656038E2,9.2360724E2,1.0240968E3,1.6143079E2,3.7592594E1,1.0714789E3,1.4638865E1,1.2446499E3,7.09688E1,1.8542567E2,5.853352E2,8.647236E2,2.1887698E3,8.6582306E1,6.338854E2,3.5866644E0,7.54254E0,3.6234095E0,1.3432837E2,3.633256E2,2.7216403E2,1.490587E2,2.371454E2,2.4089305E2,1.19496666E2,4.9864323E1,3.7179022E0,9.608588E2,1.7167606E2,2.7633076E1,6.2122826E1,5.6064777E1,9.2535895E2,1.9017488E2,9.285228E1,1.294915E2,2.2163109E2,3.0785E0,3.2282223E1,5.0742216E0,1.3975718E1],"tree_param":{"num_deleted":"0","num_feature":"63","num_nodes":"121","size_leaf_vector":"1"}},{"base_weights":[2.5195493E-3,1.4980051E-1,-3.1602097E-1,2.7913356E-1,7.5178295E-2,-4.9925494E-1,-1.476229E-1,3.6421087E-1,2.0857468E-1,-4.407918E-2,1.2373721E-1,-3.0650312E-1,-6.630623E-1,-8.603111E-2,-3.6727366E-1,2.8579932E-1,4.5835E-1,1.6776533E-1,2.802469E-1,-1.4530063E-1,3.6813833E-2,2.2034754E-1,6.1258547E-2,-4.348227E-1,-1.6971882E-1,-6.9526416E-1,-4.1306448E-1,4.0114313E-2,-1.6533342E-1,-5.830567E-1,-2.641704E-1,4.43969E-1,1.9894229E-1,-8.58543E-3,4.6300387E-1,1.3742368E-1,3.9627302E-1,3.0692402E-1,-1.5413174E-1,-8.163336E-2,-2.9219508E-1,5.121355E-1,2.29386E-2,1.283744E-1,2.6031792E-1,6.3812815E-2,-7.374094E-1,-4.750052E-1,-2.1114914E-1,-1.4543836E-1,-6.574951E-1,-5.606148E-1,-7.5447065E-1,2.0459586E-1,-5.202292E-1,-8.620944E-2,1.7417288E-1,1.9909352E-2,-2.1436152E-1,-6.301234E-1,5.2673286E-1,4.5572442E-1,-3.109799E-1,1.0553356E-2,1.8162452E-2,4.7706524E-3,1.4115597E-2,1.1831153E-2,1.548026E-2,5.0322604E-3,-3.706162E-3,-3.4370408E-3,1.3656138E-2,8.728584E-3,2.0357516E-2,3.5008215E-3,-1.858843E-2,-2.9467752E-3,1.4521233E-2,-1.3043277E-2,-4.6997275E-3,1.0602501E-3,1.8704489E-2,-1.1766028E-3,2.98573E-3,4.896954E-3,-1.1890352E-2,8.354585E-3,4.2709243E-4,-4.482768E-3,2.1646144E-3,-2.6168788E-2,-8.883536E-3,-1.5513631E-2,-9.178601E-3,-1.0855906E-2,3.8157841E-3,-1.133591E-2,-2.9180264E-3,1.2573113E-3,-2.4746737E-2,-1.7906887E-2,-4.37419E-3,-2.1348037E-2,-2.3966292E-2,-2.2588562E-2,1.8329926E-2,-2.1855803E-2,-1.0185102E-2,-9.176207E-3,1.3438212E-3,1.2257546E-2,2.2826537E-3,2.0013102E-3,-1.1457108E-2,-5.0256285E-3,-1.1794073E-2,-2.0172875E-2,7.342905E-3,2.3090899E-2,5.2679856E-3,2.3717608E-2,-1.5801039E-2,-1.3202422E-2,3.0931762E-5],"categories":[],"categories_nodes":[],"categories_segments":[],"categories_sizes":[],"default_left":[0,0,0,0,0,0,0,0,0,0,0,0,0,0,0,0,0,0,0,0,0,0,0,0,0,0,0,0,0,0,0,0,0,0,0,0,0,0,0,0,0,0,0,0,0,0,0,0,0,0,0,0,0,0,0,0,0,0,0,0,0,0,0,0,0,0,0,0,0,0,0,0,0,0,0,0,0,0,0,0,0,0,0,0,0,0,0,0,0,0,0,0,0,0,0,0,0,0,0,0,0,0,0,0,0,0,0,0,0,0,0,0,0,0,0,0,0,0,0,0,0,0,0,0,0],"id":11,"left_children":[1,3,5,7,9,11,13,15,17,19,21,23,25,27,29,31,33,35,37,39,41,43,45,47,49,51,53,55,57,59,61,63,65,-1,67,69,71,73,75,77,79,81,83,85,87,89,91,93,95,97,99,101,103,105,107,109,111,113,115,117,119,121,123,-1,-1,-1,-1,-1,-1,-1,-1,-1,-1,-1,-1,-1,-1,-1,-1,-1,-1,-1,-1,-1,-1,-1,-1,-1,-1,-1,-1,-1,-1,-1,-1,-1,-1,-1,-1,-1,-1,-1,-1,-1,-1,-1,-1,-1,-1,-1,-1,-1,-1,-1,-1,-1,-1,-1,-1,-1,-1,-1,-1,-1,-1],"loss_changes":[8.430213E2,1.1856946E2,1.7523254E2,2.690979E1,4.513671E1,8.569183E1,4.0039925E1,1.4903046E1,7.147415E0,1.8476028E1,3.3417557E1,2.1895348E1,1.1545105E1,2.316108E1,1.4270668E1,1.5213516E1,3.3336334E0,1.0829475E1,1.0371246E1,9.3490715E0,8.262561E0,7.9613953E0,6.9112606E0,5.698311E0,7.0990677E0,9.945435E0,1.1370855E1,1.515872E1,1.29132805E1,1.1238487E1,1.4987663E1,5.6514664E0,7.739809E0,0E0,3.1378937E0,1.0997183E1,5.5756855E0,4.7869186E0,6.65478E0,6.62289E0,5.780531E0,1.8646488E0,5.811953E0,1.2150639E1,6.769264E0,5.9780064E0,3.849311E-1,3.7299957E0,5.148009E0,6.4565744E0,3.3737879E0,5.9496155E0,1.145752E0,1.0530692E1,5.222477E0,1.3281783E1,9.951365E0,5.636558E0,9.34631E0,7.59536E0,6.3604975E-1,9.398492E0,1.668708E1,0E0,0E0,0E0,0E0,0E0,0E0,0E0,0E0,0E0,0E0,0E0,0E0,0E0,0E0,0E0,0E0,0E0,0E0,0E0,0E0,0E0,0E0,0E0,0E0,0E0,0E0,0E0,0E0,0E0,0E0,0E0,0E0,0E0,0E0,0E0,0E0,0E0,0E0,0E0,0E0,0E0,0E0,0E0,0E0,0E0,0E0,0E0,0E0,0E0,0E0,0E0,0E0,0E0,0E0,0E0,0E0,0E0,0E0,0E0,0E0,0E0,0E0],"parents":[2147483647,0,0,1,1,2,2,3,3,4,4,5,5,6,6,7,7,8,8,9,9,10,10,11,11,12,12,13,13,14,14,15,15,16,16,17,17,18,18,19,19,20,20,21,21,22,22,23,23,24,24,25,25,26,26,27,27,28,28,29,29,30,30,31,31,32,32,34,34,35,35,36,36,37,37,38,38,39,39,40,40,41,41,42,42,43,43,44,44,45,45,46,46,47,47,48,48,49,49,50,50,51,51,52,52,53,53,54,54,55,55,56,56,57,57,58,58,59,59,60,60,61,61,62,62],"right_children":[2,4,6,8,10,12,14,16,18,20,22,24,26,28,30,32,34,36,38,40,42,44,46,48,50,52,54,56,58,60,62,64,66,-1,68,70,72,74,76,78,80,82,84,86,88,90,92,94,96,98,100,102,104,106,108,110,112,114,116,118,120,122,124,-1,-1,-1,-1,-1,-1,-1,-1,-1,-1,-1,-1,-1,-1,-1,-1,-1,-1,-1,-1,-1,-1,-1,-1,-1,-1,-1,-1,-1,-1,-1,-1,-1,-1,-1,-1,-1,-1,-1,-1,-1,-1,-1,-1,-1,-1,-1,-1,-1,-1,-1,-1,-1,-1,-1,-1,-1,-1,-1,-1,-1,-1],"split_conditions":[2.5176964E0,1.3083328E0,1.0803845E-1,-2.494957E0,9.619238E-2,3.6270041E0,4.0976725E0,1.2471741E-1,1.2602241E-1,2E0,2E0,4E0,4.758E1,2E0,1.5E1,6.931472E-1,4.658E1,6.017E1,1.4599775E-1,-1.2330902E0,-2.3625174E0,5.2083332E-2,1.6179E0,7E1,1.6374269E-1,4.215086E0,4.84E1,3E0,-3.3333334E-1,1.468269E-1,1.3E1,1.0869565E-1,6.2E1,-8.58543E-3,8.3333336E-2,6.6E1,5.15E1,2.3076923E-1,1.0986123E0,5.1E1,7.462686E-2,6.4327486E-2,6E0,4.2857143E-1,6.95E1,3.833E1,6.666667E-1,1.1320755E-1,9.583333E-1,1.6E-1,9.615385E-3,5.394E1,8.8235295E-1,8.75E-1,8.8607594E-2,1.22789785E-1,-3.3333334E-1,1.25E-1,3.5610461E0,6.353E1,3E0,2.0833334E-2,4.6E1,1.0553356E-2,1.8162452E-2,4.7706524E-3,1.4115597E-2,1.1831153E-2,1.548026E-2,5.0322604E-3,-3.706162E-3,-3.4370408E-3,1.3656138E-2,8.728584E-3,2.0357516E-2,3.5008215E-3,-1.858843E-2,-2.9467752E-3,1.4521233E-2,-1.3043277E-2,-4.6997275E-3,1.0602501E-3,1.8704489E-2,-1.1766028E-3,2.98573E-3,4.896954E-3,-1.1890352E-2,8.354585E-3,4.2709243E-4,-4.482768E-3,2.1646144E-3,-2.6168788E-2,-8.883536E-3,-1.5513631E-2,-9.178601E-3,-1.0855906E-2,3.8157841E-3,-1.133591E-2,-2.9180264E-3,1.2573113E-3,-2.4746737E-2,-1.7906887E-2,-4.37419E-3,-2.1348037E-2,-2.3966292E-2,-2.2588562E-2,1.8329926E-2,-2.1855803E-2,-1.0185102E-2,-9.176207E-3,1.3438212E-3,1.2257546E-2,2.2826537E-3,2.0013102E-3,-1.1457108E-2,-5.0256285E-3,-1.1794073E-2,-2.0172875E-2,7.342905E-3,2.3090899E-2,5.2679856E-3,2.3717608E-2,-1.5801039E-2,-1.3202422E-2,3.0931762E-5],"split_indices":[25,25,30,61,30,25,25,30,30,22,22,18,3,22,16,25,13,1,30,61,61,42,50,6,32,25,3,18,37,30,40,43,40,0,42,6,2,42,25,5,42,43,48,26,8,4,37,42,53,29,42,13,26,26,31,30,37,43,25,3,48,31,9,0,0,0,0,0,0,0,0,0,0,0,0,0,0,0,0,0,0,0,0,0,0,0,0,0,0,0,0,0,0,0,0,0,0,0,0,0,0,0,0,0,0,0,0,0,0,0,0,0,0,0,0,0,0,0,0,0,0,0,0,0,0],"split_type":[0,0,0,0,0,0,0,0,0,0,0,0,0,0,0,0,0,0,0,0,0,0,0,0,0,0,0,0,0,0,0,0,0,0,0,0,0,0,0,0,0,0,0,0,0,0,0,0,0,0,0,0,0,0,0,0,0,0,0,0,0,0,0,0,0,0,0,0,0,0,0,0,0,0,0,0,0,0,0,0,0,0,0,0,0,0,0,0,0,0,0,0,0,0,0,0,0,0,0,0,0,0,0,0,0,0,0,0,0,0,0,0,0,0,0,0,0,0,0,0,0,0,0,0,0],"sum_hessian":[1.7967129E4,1.2286739E4,5.6803887E3,4.494413E3,7.792326E3,2.7194214E3,2.9609675E3,2.03569E3,2.4587231E3,2.2547937E3,5.537532E3,1.2506523E3,1.468769E3,2.313606E3,6.473616E2,1.1128209E3,9.22869E2,1.5688047E3,8.899185E2,1.0011982E3,1.2535957E3,2.1737502E3,3.3637817E3,6.4416846E2,6.064838E2,1.2995895E3,1.6917949E2,8.932368E2,1.4203691E3,2.0780177E2,4.395598E2,3.9301514E2,7.198057E2,5.356977E0,9.175121E2,1.386327E3,1.8247765E2,8.387034E2,5.1215057E1,6.9955255E2,3.016456E2,3.453757E1,1.2190581E3,6.5978204E2,1.5139683E3,3.3539753E3,9.806463E0,5.4511584E2,9.905262E1,5.7896246E2,2.7521349E1,4.001114E2,8.9947815E2,2.4878613E1,1.4430087E2,4.6006924E2,4.3316757E2,2.9737848E2,1.1229907E3,1.9976198E2,8.039784E0,2.6303041E1,4.1325677E2,2.521875E2,1.4082762E2,6.2894025E2,9.08655E1,4.0349548E2,5.140166E2,1.2423494E3,1.4397763E2,1.8776018E1,1.6370163E2,8.058565E2,3.2846947E1,3.285105E1,1.8364006E1,6.8042065E2,1.913188E1,1.4592728E2,1.5571834E2,6.7881007E0,2.774947E1,6.731789E2,5.4587915E2,6.193286E2,4.045343E1,1.409754E3,1.0421422E2,1.2561817E2,3.2283572E3,6.7627153E0,3.043748E0,4.347483E2,1.1036757E2,6.8479095E1,3.0573523E1,9.821733E1,4.8074515E2,5.4596734E0,2.2061676E1,3.6752655E2,3.258485E1,4.6631857E2,4.3315955E2,7.1587396E0,1.7719873E1,6.5628685E1,7.867219E1,1.713754E2,2.8869385E2,1.26847946E2,3.0631964E2,2.6710187E2,3.02766E1,8.913782E2,2.3161255E2,1.9076862E2,8.993361E0,4.0472727E0,3.9925117E0,1.9762283E1,6.5407586E0,2.9201794E2,1.2123881E2],"tree_param":{"num_deleted":"0","num_feature":"63","num_nodes":"125","size_leaf_vector":"1"}},{"base_weights":[-2.036424E-3,1.13875695E-1,-3.741065E-1,2.2474296E-1,1.2952786E-2,-5.248536E-1,-1.903379E-1,3.0174795E-1,1.5084283E-1,-1.2623918E-1,7.435951E-2,-3.21266E-1,-6.542498E-1,-1.4509666E-1,-5.115143E-1,5.131724E-1,2.7447602E-1,8.168365E-2,1.9180104E-1,-7.630976E-2,-3.257362E-1,1.21684104E-1,1.476738E-2,4.059468E-1,-3.3508432E-1,-5.7794863E-1,-7.4807817E-1,-3.59878E-1,-1.1096802E-1,-6.6080683E-1,3.6207944E-1,-2.2052351E-2,5.368945E-1,1.9781137E-1,3.6712438E-1,8.988888E-2,-2.5003428E-2,2.0361446E-1,-2.3889336E-1,-8.701107E-2,3.924978E-1,-2.9678443E-1,-2.1940893E-2,2.6263514E-1,9.542143E-2,2.8296782E-2,-2.845215E-1,6.4534247E-1,-1.1685227E-2,-3.575984E-1,3.1563066E-2,2.1225022E-2,-5.862355E-1,-4.2160597E-1,-7.6820314E-1,-1.4908203E-1,-5.016525E-1,-9.767742E-2,-6.264642E-1,2.224052E-2,-6.888574E-1,-2.0832082E-2,6.0759103E-1,-1.810394E-2,9.135146E-3,1.41299E-2,2.0224072E-2,1.3820782E-2,5.300069E-3,1.2307404E-2,6.6573387E-3,3.5425054E-3,-4.948553E-3,1.5654195E-2,5.705543E-3,1.2965057E-2,-1.5694296E-2,-3.7508882E-3,-1.3959991E-4,1.632311E-2,-6.446512E-3,-9.247885E-3,1.847171E-2,4.647377E-3,1.4274219E-2,3.8240803E-3,-1.8676525E-3,3.0317745E-4,8.086586E-3,2.0294216E-2,-1.0293708E-2,2.4191014E-2,6.735603E-3,-1.1076747E-2,1.197784E-2,1.6208548E-2,-1.0659846E-2,-1.8349882E-2,-8.035023E-3,-2.3925094E-2,7.266719E-3,-2.1372003E-2,-2.3932425E-2,-7.534026E-3,1.3951998E-2,-1.8864451E-2,-4.8275646E-3,-4.2413664E-4,-5.1850113E-3,1.7954467E-2,-2.3565931E-2,-2.154487E-2,9.0243295E-4,2.3685334E-2,-9.699628E-3],"categories":[],"categories_nodes":[],"categories_segments":[],"categories_sizes":[],"default_left":[0,0,0,0,0,0,0,0,0,0,0,0,0,0,0,0,0,0,0,0,0,0,0,0,0,0,0,0,0,0,0,0,0,0,0,0,0,0,0,0,0,0,0,0,0,0,0,0,0,0,0,0,0,0,0,0,0,0,0,0,0,0,0,0,0,0,0,0,0,0,0,0,0,0,0,0,0,0,0,0,0,0,0,0,0,0,0,0,0,0,0,0,0,0,0,0,0,0,0,0,0,0,0,0,0,0,0,0,0,0,0,0,0,0,0],"id":12,"left_children":[1,3,5,7,9,11,13,15,17,19,21,23,25,27,29,31,33,35,37,39,41,43,45,47,49,51,53,55,57,59,61,63,65,67,69,71,-1,73,75,77,79,81,-1,83,85,87,89,91,-1,93,95,-1,97,99,101,103,105,107,109,-1,111,-1,113,-1,-1,-1,-1,-1,-1,-1,-1,-1,-1,-1,-1,-1,-1,-1,-1,-1,-1,-1,-1,-1,-1,-1,-1,-1,-1,-1,-1,-1,-1,-1,-1,-1,-1,-1,-1,-1,-1,-1,-1,-1,-1,-1,-1,-1,-1,-1,-1,-1,-1,-1,-1],"loss_changes":[7.6476117E2,1.5127882E2,1.1658569E2,3.6618286E1,6.0513676E1,6.0731995E1,2.7529427E1,1.8045593E1,9.3027725E0,2.1563072E1,1.385215E1,9.189369E0,9.686768E0,1.2176231E1,3.0778648E1,4.572708E0,1.9786194E1,9.275793E0,1.0556999E1,8.737188E0,4.8742294E0,1.0110004E1,8.817231E0,3.5366821E0,7.3140717E0,8.765472E0,3.8187256E0,6.740877E0,9.801159E0,8.390221E0,9.454042E0,3.2607057E0,2.7937012E0,8.433849E0,7.829117E0,8.751933E0,0E0,8.493088E0,1.083124E1,5.312501E0,3.698608E0,4.4458427E0,0E0,9.78787E0,1.1678122E1,9.136013E0,5.5361304E0,7.430773E-1,0E0,7.4826126E0,1.044631E1,0E0,6.1466675E0,9.881706E0,4.0881348E-1,5.9536963E0,5.788471E0,8.815738E0,7.48384E0,0E0,4.1705475E0,0E0,5.1307716E0,0E0,0E0,0E0,0E0,0E0,0E0,0E0,0E0,0E0,0E0,0E0,0E0,0E0,0E0,0E0,0E0,0E0,0E0,0E0,0E0,0E0,0E0,0E0,0E0,0E0,0E0,0E0,0E0,0E0,0E0,0E0,0E0,0E0,0E0,0E0,0E0,0E0,0E0,0E0,0E0,0E0,0E0,0E0,0E0,0E0,0E0,0E0,0E0,0E0,0E0,0E0,0E0],"parents":[2147483647,0,0,1,1,2,2,3,3,4,4,5,5,6,6,7,7,8,8,9,9,10,10,11,11,12,12,13,13,14,14,15,15,16,16,17,17,18,18,19,19,20,20,21,21,22,22,23,23,24,24,25,25,26,26,27,27,28,28,29,29,30,30,31,31,32,32,33,33,34,34,35,35,37,37,38,38,39,39,40,40,41,41,43,43,44,44,45,45,46,46,47,47,49,49,50,50,52,52,53,53,54,54,55,55,56,56,57,57,58,58,60,60,62,62],"right_children":[2,4,6,8,10,12,14,16,18,20,22,24,26,28,30,32,34,36,38,40,42,44,46,48,50,52,54,56,58,60,62,64,66,68,70,72,-1,74,76,78,80,82,-1,84,86,88,90,92,-1,94,96,-1,98,100,102,104,106,108,110,-1,112,-1,114,-1,-1,-1,-1,-1,-1,-1,-1,-1,-1,-1,-1,-1,-1,-1,-1,-1,-1,-1,-1,-1,-1,-1,-1,-1,-1,-1,-1,-1,-1,-1,-1,-1,-1,-1,-1,-1,-1,-1,-1,-1,-1,-1,-1,-1,-1,-1,-1,-1,-1,-1,-1],"split_conditions":[2.9177706E0,1.5475625E0,1.1473857E-1,1.1314021E0,9.619238E-2,3.7400477E0,4.7379513E0,5.3062826E-1,1.1872898E-1,2.5494452E0,-1.0768723E0,4.1578948E-1,4.8378677E0,1.2E1,1.12840466E-1,-1.444E1,1.2362637E-1,1.19E2,9.036E1,6E1,5.311E1,4.5E1,3.125E-1,1.9642857E-1,1.5789473E-1,3.12E1,9.708738E-3,6E1,9E-1,-1.3353139E-1,5.65E1,4E0,1.2307692E-1,5E1,-2.1202636E0,1.904762E-1,-2.5003428E-2,6.25E-2,1.2237754E0,5.04E1,5.782E1,1E1,-2.1940893E-2,5.65E1,1.4018692E-1,1.4906833E-1,-6.8E-1,3.0726933E0,-1.1685227E-2,6.317E1,3.3526012E-1,2.1225022E-2,5.394E1,1E0,4E0,2E0,2.601156E-1,2.49717E1,-5.88E-1,2.224052E-2,6.9E1,-2.0832082E-2,5.4E1,-1.810394E-2,9.135146E-3,1.41299E-2,2.0224072E-2,1.3820782E-2,5.300069E-3,1.2307404E-2,6.6573387E-3,3.5425054E-3,-4.948553E-3,1.5654195E-2,5.705543E-3,1.2965057E-2,-1.5694296E-2,-3.7508882E-3,-1.3959991E-4,1.632311E-2,-6.446512E-3,-9.247885E-3,1.847171E-2,4.647377E-3,1.4274219E-2,3.8240803E-3,-1.8676525E-3,3.0317745E-4,8.086586E-3,2.0294216E-2,-1.0293708E-2,2.4191014E-2,6.735603E-3,-1.1076747E-2,1.197784E-2,1.6208548E-2,-1.0659846E-2,-1.8349882E-2,-8.035023E-3,-2.3925094E-2,7.266719E-3,-2.1372003E-2,-2.3932425E-2,-7.534026E-3,1.3951998E-2,-1.8864451E-2,-4.8275646E-3,-4.2413664E-4,-5.1850113E-3,1.7954467E-2,-2.3565931E-2,-2.154487E-2,9.0243295E-4,2.3685334E-2,-9.699628E-3],"split_indices":[25,25,30,25,30,25,25,25,30,25,61,54,25,16,43,36,30,40,0,5,13,4,60,29,28,14,28,7,26,61,20,48,28,7,61,32,0,26,25,13,0,17,0,20,32,43,38,25,0,1,29,0,13,24,41,24,29,45,38,0,9,0,5,0,0,0,0,0,0,0,0,0,0,0,0,0,0,0,0,0,0,0,0,0,0,0,0,0,0,0,0,0,0,0,0,0,0,0,0,0,0,0,0,0,0,0,0,0,0,0,0,0,0,0,0],"split_type":[0,0,0,0,0,0,0,0,0,0,0,0,0,0,0,0,0,0,0,0,0,0,0,0,0,0,0,0,0,0,0,0,0,0,0,0,0,0,0,0,0,0,0,0,0,0,0,0,0,0,0,0,0,0,0,0,0,0,0,0,0,0,0,0,0,0,0,0,0,0,0,0,0,0,0,0,0,0,0,0,0,0,0,0,0,0,0,0,0,0,0,0,0,0,0,0,0,0,0,0,0,0,0,0,0,0,0,0,0,0,0,0,0,0,0],"sum_hessian":[1.7730605E4,1.3519521E4,4.2110835E3,6.4417793E3,7.077742E3,2.3123691E3,1.8987144E3,3.1531104E3,3.288669E3,2.166296E3,4.9114463E3,8.99931E2,1.4124382E3,1.6655544E3,2.3315991E2,3.582186E2,2.7948918E3,1.2243358E3,2.0643333E3,1.7337593E3,4.3253668E2,2.73691E3,2.1745364E3,1.6252249E1,8.836788E2,7.829244E2,6.2951385E2,2.2705942E2,1.438495E3,1.9933772E2,3.3822186E1,1.5206029E1,3.4301257E2,1.5310846E3,1.2638071E3,1.2143495E3,9.986298E0,2.0097358E3,5.4597343E1,1.6958628E3,3.7896473E1,4.0533728E2,2.7199392E1,4.2844687E2,2.308463E3,2.081354E3,9.318249E1,1.2637613E1,3.6146362E0,8.3257874E2,5.110004E1,4.4745092E0,7.784499E2,3.7826843E1,5.91687E2,9.212936E1,1.3493007E2,1.4034993E3,3.4995766E1,3.4108539E0,1.9592686E2,6.032938E0,2.778925E1,5.163974E0,1.0042055E1,2.3473436E2,1.0827821E2,1.1242454E2,1.41866E3,9.73031E2,2.907761E2,1.093865E3,1.20484566E2,7.9855354E1,1.9298805E3,1.6090422E1,3.850692E1,1.1599026E3,5.359602E2,3.0410118E1,7.4863567E0,4.0095584E2,4.3814297E0,2.8576672E2,1.4268016E2,1.9186807E3,3.897823E2,1.9363907E3,1.4496323E2,4.7497373E0,8.8432755E1,8.477564E0,4.160049E0,8.2048694E2,1.2091779E1,2.190317E1,2.919687E1,7.200282E2,5.8421684E1,2.402257E1,1.3804274E1,2.135153E2,3.781717E2,7.950861E1,1.2620744E1,9.764373E1,3.7286335E1,6.652418E2,7.3825745E2,3.7046242E0,3.1291142E1,1.8825443E2,7.6724424E0,2.3373468E1,4.415781E0],"tree_param":{"num_deleted":"0","num_feature":"63","num_nodes":"115","size_leaf_vector":"1"}},{"base_weights":[-1.0964749E-3,1.00672215E-1,-4.262078E-1,2.1506447E-1,-1.492731E-3,-5.53469E-1,-1.9853419E-1,3.1315908E-1,1.5366837E-1,-1.2565814E-1,5.4900512E-2,-4.287855E-1,-6.940037E-1,-2.1572305E-2,-3.173277E-1,2.3039076E-1,3.9035687E-1,1.7006516E-1,-7.86154E-3,2.0016173E-3,-1.9576834E-1,1.5165222E-1,-7.7767125E-3,-5.32061E-1,-3.3136263E-1,-7.05443E-1,3.1257674E-1,-1.8558346E-1,2.0388742E-1,-3.8303074E-1,3.4245204E-2,4.6902254E-1,1.957708E-1,4.4734058E-1,3.0008066E-1,9.137998E-2,2.1554914E-1,2.430411E-2,-3.7051402E-2,-2.8620582E-2,1.8942729E-1,-2.071353E-1,6.236462E-1,6.0051598E-2,2.3683506E-1,1.7116835E-2,-1.19775996E-1,1.8152736E-2,-5.4272676E-1,-3.6084142E-1,6.346783E-2,3.873401E-2,-7.1145254E-1,-2.0948304E-2,2.443203E-2,-2.393667E-1,4.6013227E-1,9.424025E-2,6.6635776E-1,-5.8851576E-1,-3.1278336E-1,-3.1875864E-1,3.501862E-1,-1.0095299E-2,1.4882225E-2,2.992456E-3,8.869278E-3,1.3669553E-2,-5.5672275E-3,7.7344975E-3,1.6400214E-2,-2.707572E-3,3.8305838E-3,6.6582737E-3,-7.503717E-3,6.004657E-4,-1.4167967E-2,-1.1365124E-3,2.2944264E-2,2.0114444E-2,3.2764054E-3,-9.380544E-3,-3.4984748E-3,2.3139214E-2,-6.438528E-4,1.1501849E-3,1.1112736E-2,5.2515157E-3,1.14255175E-2,-1.3728778E-2,7.373717E-4,-1.9101677E-3,-1.5068196E-2,-1.9321483E-2,-1.2970451E-2,-6.754036E-3,-1.3901433E-2,9.64371E-3,-1.6314538E-2,-2.004999E-2,1.9126765E-2,-2.1482706E-2,6.190058E-3,1.365213E-2,-8.549628E-3,2.027345E-2,-3.7384497E-3,1.3575275E-2,-2.1980605E-3,-2.2627567E-3,2.3431081E-2,8.775761E-3,-1.8532157E-2,1.3531515E-2,-1.05283465E-2,1.6349971E-3,-2.1475498E-2,-2.2539074E-2,1.3686083E-2],"categories":[],"categories_nodes":[],"categories_segments":[],"categories_sizes":[],"default_left":[0,0,0,0,0,0,0,0,0,0,0,0,0,0,0,0,0,0,0,0,0,0,0,0,0,0,0,0,0,0,0,0,0,0,0,0,0,0,0,0,0,0,0,0,0,0,0,0,0,0,0,0,0,0,0,0,0,0,0,0,0,0,0,0,0,0,0,0,0,0,0,0,0,0,0,0,0,0,0,0,0,0,0,0,0,0,0,0,0,0,0,0,0,0,0,0,0,0,0,0,0,0,0,0,0,0,0,0,0,0,0,0,0,0,0,0,0,0,0],"id":13,"left_children":[1,3,5,7,9,11,13,15,17,19,21,23,25,27,29,31,33,35,37,39,41,43,45,47,49,51,53,55,57,59,61,63,65,67,69,71,73,-1,75,77,79,81,83,85,87,89,