{"learner":{"attributes":{"best_iteration":"2","best_score":"0.6925287356321839","scikit_learn":"{\"_estimator_type\": \"classifier\"}"},"feature_names":[],"feature_types":[],"gradient_booster":{"model":{"cats":{"enc":[],"feature_segments":[],"sorted_idx":[]},"gbtree_model_param":{"num_parallel_tree":"1","num_trees":"33"},"iteration_indptr":[0,1,2,3,4,5,6,7,8,9,10,11,12,13,14,15,16,17,18,19,20,21,22,23,24,25,26,27,28,29,30,31,32,33],"tree_info":[0,0,0,0,0,0,0,0,0,0,0,0,0,0,0,0,0,0,0,0,0,0,0,0,0,0,0,0,0,0,0,0,0],"trees":[{"base_weights":[-6.854448E-3,1.6304194E0,-1.1734617E0,1.698769E0,-5E-2,-1.7293123E0,5.304209E-2,9.895366E-1,9.3939394E-2,-9.796955E-2,7.52381E-2,-8.7878786E-2,9.082873E-1,-6.923077E-2,8.115942E-2,6.429463E-2,-6.666667E-2],"categories":[],"categories_nodes":[],"categories_segments":[],"categories_sizes":[],"default_left":[0,0,0,0,0,0,0,0,0,0,0,0,0,0,0,0,0],"id":0,"left_children":[1,3,5,7,-1,9,11,13,-1,-1,-1,-1,15,-1,-1,-1,-1],"loss_changes":[2.4842058E2,1.1428085E1,5.1865616E1,4.9223785E0,0E0,4.1855804E1,3.977341E1,2.1601994E1,0E0,0E0,0E0,0E0,1.6445972E1,0E0,0E0,0E0,0E0],"parents":[2147483647,0,0,1,1,2,2,3,3,5,5,6,6,7,7,12,12],"right_children":[2,4,6,8,-1,10,12,14,-1,-1,-1,-1,16,-1,-1,-1,-1],"split_conditions":[2.2222222E-1,1.8E1,5.5E1,6E1,-5E-2,1E2,4.84E1,5.41E1,9.3939394E-2,-9.796955E-2,7.52381E-2,-8.7878786E-2,5.603E1,-6.923077E-2,8.115942E-2,6.429463E-2,-6.666667E-2],"split_indices":[28,16,2,2,0,4,10,10,0,0,0,0,10,0,0,0,0],"split_type":[0,0,0,0,0,0,0,0,0,0,0,0,0,0,0,0,0],"sum_hessian":[1.280577E2,5.3115383E1,7.494231E1,5.2115383E1,1E0,5.128846E1,2.3653847E1,1.1865384E1,4.025E1,4.825E1,3.0384614E0,7.25E0,1.6403847E1,2.25E0,9.615384E0,1.4403846E1,2E0],"tree_param":{"num_deleted":"0","num_feature":"29","num_nodes":"17","size_leaf_vector":"1"}},{"base_weights":[1.5899368E-1,1.5686419E0,-1.0839428E0,1.7322898E0,8.1937736E-1,-1.4754097E0,4.104929E-1,3.8001753E-2,8.994075E-2,7.759338E-2,-7.3578626E-2,-9.35021E-2,-8.512238E-2,9.0335417E-1,-7.114883E-2,-8.063729E-2,5.5813815E-2,-6.070056E-2,6.680079E-2],"categories":[],"categories_nodes":[],"categories_segments":[],"categories_sizes":[],"default_left":[0,0,0,0,0,0,0,0,0,0,0,0,0,0,0,0,0,0,0],"id":1,"left_children":[1,3,5,7,9,11,13,-1,-1,-1,-1,-1,15,17,-1,-1,-1,-1,-1],"loss_changes":[2.3893646E2,6.4101105E0,4.3047035E1,1.9644623E0,2.4676184E1,3.1501022E1,1.5600319E1,0E0,0E0,0E0,0E0,0E0,2.713806E1,1.361991E1,0E0,0E0,0E0,0E0,0E0],"parents":[2147483647,0,0,1,1,2,2,3,3,4,4,5,5,6,6,12,12,13,13],"right_children":[2,4,6,8,10,12,14,-1,-1,-1,-1,-1,16,18,-1,-1,-1,-1,-1],"split_conditions":[4.9E0,3.5E0,5.647E1,2.389E1,2.849E1,6.183E1,5.986E1,3.8001753E-2,8.994075E-2,7.759338E-2,-7.3578626E-2,-9.35021E-2,5.167E1,4.433E1,-7.114883E-2,-8.063729E-2,5.5813815E-2,-6.070056E-2,6.680079E-2],"split_indices":[17,17,4,5,4,5,12,0,0,0,0,0,2,5,0,0,0,0,0],"split_type":[0,0,0,0,0,0,0,0,0,0,0,0,0,0,0,0,0,0,0],"sum_hessian":[1.3440077E2,6.2854137E1,7.154664E1,5.0510162E1,1.2343974E1,5.6705406E1,1.4841232E1,4.0304585E0,4.6479706E1,9.597845E0,2.746129E0,4.389949E1,1.2805917E1,1.2096759E1,2.7444737E0,5.486824E0,7.319093E0,1.7460414E0,1.0350718E1],"tree_param":{"num_deleted":"0","num_feature":"29","num_nodes":"19","size_leaf_vector":"1"}},{"base_weights":[6.617219E-2,1.3670177E0,-1.117239E0,-7.3238425E-2,1.5303398E0,-8.9470044E-2,8.7745935E-2,1.6839995E0,1.0386251E0,-8.174852E-2,1.0236641E0,4.359268E-2,8.711085E-2,-7.13353E-2,8.5556574E-2,7.163339E-2,-6.405022E-2],"categories":[],"categories_nodes":[],"categories_segments":[],"categories_sizes":[],"default_left":[0,0,0,0,0,0,0,0,0,0,0,0,0,0,0,0,0],"id":2,"left_children":[1,3,5,-1,7,-1,9,11,13,-1,15,-1,-1,-1,-1,-1,-1],"loss_changes":[1.9157408E2,2.9648003E1,5.29608E1,0E0,2.5210876E0,0E0,4.0849514E1,4.4085693E-1,2.907691E1,0E0,1.7255743E1,0E0,0E0,0E0,0E0,0E0,0E0],"parents":[2147483647,0,0,1,1,2,2,4,4,6,6,7,7,8,8,10,10],"right_children":[2,4,6,-1,8,-1,10,12,14,-1,16,-1,-1,-1,-1,-1,-1],"split_conditions":[2.2222222E-1,4.6E1,5.5E1,-7.3238425E-2,3.5E0,-8.9470044E-2,4.84E1,2.389E1,5.41E1,-8.174852E-2,5.603E1,4.359268E-2,8.711085E-2,-7.13353E-2,8.5556574E-2,7.163339E-2,-6.405022E-2],"split_indices":[28,11,2,0,17,0,10,5,10,0,10,0,0,0,0,0,0],"split_type":[0,0,0,0,0,0,0,0,0,0,0,0,0,0,0,0,0],"sum_hessian":[1.22452286E2,5.8257988E1,6.41943E1,2.7422597E0,5.5515728E1,4.0896507E1,2.3297792E1,4.045034E1,1.506539E1,7.938577E0,1.5359215E1,3.7742686E0,3.667607E1,2.9884822E0,1.2076907E1,1.3365616E1,1.9935992E0],"tree_param":{"num_deleted":"0","num_feature":"29","num_nodes":"17","size_leaf_vector":"1"}},{"base_weights":[1.3496108E-1,1.345509E0,-9.74544E-1,-5.877273E-2,1.4234326E0,-1.3624518E0,6.643131E-1,8.297738E-2,8.5306054E-1,-8.609706E-2,-4.4735644E-2,1.1818947E0,-6.4442605E-2,6.5920584E-2,-7.1821935E-2,-7.445964E-2,5.5725437E-2,-5.988268E-2,8.547705E-2],"categories":[],"categories_nodes":[],"categories_segments":[],"categories_sizes":[],"default_left":[0,0,0,0,0,0,0,0,0,0,0,0,0,0,0,0,0,0,0],"id":3,"left_children":[1,3,5,-1,7,9,11,-1,13,-1,15,17,-1,-1,-1,-1,-1,-1,-1],"loss_changes":[1.8282034E2,1.4451302E1,4.6100883E1,0E0,7.142746E0,2.7309906E1,1.59582E1,0E0,2.3908785E1,0E0,2.412871E1,1.6874828E1,0E0,0E0,0E0,0E0,0E0,0E0,0E0],"parents":[2147483647,0,0,1,1,2,2,4,4,5,5,6,6,8,8,10,10,11,11],"right_children":[2,4,6,-1,8,10,12,-1,14,-1,16,18,-1,-1,-1,-1,-1,-1,-1],"split_conditions":[2.2222222E-1,1.9E1,5.647E1,-5.877273E-2,3E0,6.183E1,6E-1,8.297738E-2,7.098E1,-8.609706E-2,5.167E1,7E0,-6.4442605E-2,6.5920584E-2,-7.1821935E-2,-7.445964E-2,5.5725437E-2,-5.988268E-2,8.547705E-2],"split_indices":[28,5,4,0,17,5,28,0,9,0,2,18,0,0,0,0,0,0,0],"split_type":[0,0,0,0,0,0,0,0,0,0,0,0,0,0,0,0,0,0,0],"sum_hessian":[1.3414098E2,6.404771E1,7.009326E1,1.4980605E0,6.254965E1,5.681431E1,1.3278953E1,4.288649E1,1.9663158E1,4.4395813E1,1.2418497E1,1.0809387E1,2.4695654E0,1.6694145E1,2.9690127E0,5.4023566E0,7.016141E0,1.7314028E0,9.077984E0],"tree_param":{"num_deleted":"0","num_feature":"29","num_nodes":"19","size_leaf_vector":"1"}},{"base_weights":[-2.6290946E-2,1.191412E0,-8.687113E-1,2.4223704E-2,1.3340948E0,-1.3292674E0,6.450944E-1,6.887495E-2,-7.181055E-2,1.5467461E0,8.411382E-1,-8.3284885E-2,-9.003573E-2,-6.669077E-2,1.0728036E0,4.1937005E-2,8.0611974E-2,6.185946E-2,-6.707456E-2,-7.147985E-2,4.423995E-2,-5.2439537E-2,6.829976E-2],"categories":[],"categories_nodes":[],"categories_segments":[],"categories_sizes":[],"default_left":[0,0,0,0,0,0,0,0,0,0,0,0,0,0,0,0,0,0,0,0,0,0,0],"id":4,"left_children":[1,3,5,7,9,11,13,-1,-1,15,17,-1,19,-1,21,-1,-1,-1,-1,-1,-1,-1,-1],"loss_changes":[1.3196347E2,8.729752E0,5.385816E1,1.5318059E1,3.6115875E0,2.4287003E1,1.701002E1,0E0,0E0,1.1062622E-1,1.5763327E1,0E0,1.8988136E1,0E0,1.1191959E1,0E0,0E0,0E0,0E0,0E0,0E0,0E0,0E0],"parents":[2147483647,0,0,1,1,2,2,3,3,4,4,5,5,6,6,9,9,10,10,12,12,14,14],"right_children":[2,4,6,8,10,12,14,-1,-1,16,18,-1,20,-1,22,-1,-1,-1,-1,-1,-1,-1,-1],"split_conditions":[4.9E0,4.6E1,5.647E1,1.48E1,3E0,6.183E1,4.7E1,6.887495E-2,-7.181055E-2,5.833E1,6.85E1,-8.3284885E-2,5.167E1,-6.669077E-2,3.288E1,4.1937005E-2,8.0611974E-2,6.185946E-2,-6.707456E-2,-7.147985E-2,4.423995E-2,-5.2439537E-2,6.829976E-2],"split_indices":[17,11,4,4,17,5,11,0,0,2,2,0,2,0,0,0,0,0,0,0,0,0,0],"split_type":[0,0,0,0,0,0,0,0,0,0,0,0,0,0,0,0,0,0,0,0,0,0,0],"sum_hessian":[1.26633286E2,5.1613155E1,7.502013E1,5.7495866E0,4.586357E1,5.7613777E1,1.7406353E1,3.0137548E0,2.7358317E0,3.0548065E1,1.5315505E1,4.5041607E1,1.2572168E1,2.7169862E0,1.4689366E1,3.7555628E0,2.6792501E1,1.3329885E1,1.9856203E0,5.0989647E0,7.4732037E0,1.4706067E0,1.321876E1],"tree_param":{"num_deleted":"0","num_feature":"29","num_nodes":"23","size_leaf_vector":"1"}},{"base_weights":[4.6780292E-2,1.2045906E0,-1.0502894E0,-7.0339926E-2,1.3427954E0,-1.3089327E0,1.0059808E0,7.8110985E-2,8.119281E-1,4.8467866E-1,-8.220097E-2,-4.9271584E-2,7.481856E-2,-6.309645E-2,5.6965787E-2,-5.952183E-2,5.7107158E-2],"categories":[],"categories_nodes":[],"categories_segments":[],"categories_sizes":[],"default_left":[0,0,0,0,0,0,0,0,0,0,0,0,0,0,0,0,0],"id":5,"left_children":[1,3,5,-1,7,9,11,-1,13,15,-1,-1,-1,-1,-1,-1,-1],"loss_changes":[1.6804306E2,2.5112549E1,3.745691E1,0E0,5.909981E0,3.7335686E1,9.441192E0,0E0,1.508778E1,1.2749949E1,0E0,0E0,0E0,0E0,0E0,0E0,0E0],"parents":[2147483647,0,0,1,1,2,2,4,4,5,5,6,6,8,8,9,9],"right_children":[2,4,6,-1,8,10,12,-1,14,16,-1,-1,-1,-1,-1,-1,-1],"split_conditions":[2.2222222E-1,2.5E1,7.25E1,-7.0339926E-2,3E0,5.5E1,7E1,7.8110985E-2,4.7E1,4.863E1,-8.220097E-2,-4.9271584E-2,7.481856E-2,-6.309645E-2,5.6965787E-2,-5.952183E-2,5.7107158E-2],"split_indices":[28,5,2,0,17,8,8,0,11,5,0,0,0,0,0,0,0],"split_type":[0,0,0,0,0,0,0,0,0,0,0,0,0,0,0,0,0],"sum_hessian":[1.3030066E2,6.3347664E1,6.695299E1,2.7227159E0,6.062495E1,5.9795227E1,7.157762E0,4.1520466E1,1.9104485E1,9.342327E0,5.04529E1,1.2148651E0,5.942897E0,2.2155306E0,1.6888954E1,2.404752E0,6.937575E0],"tree_param":{"num_deleted":"0","num_feature":"29","num_nodes":"17","size_leaf_vector":"1"}},{"base_weights":[9.8128185E-2,1.2467605E0,-1.0024911E0,-9.888463E-4,1.3729299E0,-1.2648283E0,8.684061E-1,5.593854E-2,-6.762856E-2,1.5013334E0,7.860697E-1,3.5008997E-2,-1.4224452E0,6.33121E-2,-4.3741904E-2,3.878322E-2,7.739123E-2,-6.5524444E-2,6.933127E-2,-1.13573475E-2,-7.95983E-2],"categories":[],"categories_nodes":[],"categories_segments":[],"categories_sizes":[],"default_left":[0,0,0,0,0,0,0,0,0,0,0,0,0,0,0,0,0,0,0,0,0],"id":6,"left_children":[1,3,5,7,9,11,13,-1,-1,15,17,-1,19,-1,-1,-1,-1,-1,-1,-1,-1],"loss_changes":[1.5973503E2,9.728714E0,3.2791656E1,1.1613213E1,3.0484543E0,1.8662323E1,7.0262837E0,0E0,0E0,3.1565857E-1,1.7144E1,0E0,1.0404869E1,0E0,0E0,0E0,0E0,0E0,0E0,0E0,0E0],"parents":[2147483647,0,0,1,1,2,2,3,3,4,4,5,5,6,6,9,9,10,10,12,12],"right_children":[2,4,6,8,10,12,14,-1,-1,16,18,-1,20,-1,-1,-1,-1,-1,-1,-1,-1],"split_conditions":[4.9E0,4.6E1,7.5E1,2E0,3E0,4.5E1,2.83E1,5.593854E-2,-6.762856E-2,5.833E1,5.527E1,3.5008997E-2,4E0,6.33121E-2,-4.3741904E-2,3.878322E-2,7.739123E-2,-6.5524444E-2,6.933127E-2,-1.13573475E-2,-7.95983E-2],"split_indices":[17,11,11,22,17,8,17,0,0,2,10,0,18,0,0,0,0,0,0,0,0],"split_type":[0,0,0,0,0,0,0,0,0,0,0,0,0,0,0,0,0,0,0,0,0],"sum_hessian":[1.243633E2,6.0789333E1,6.3573967E1,5.6735034E0,5.511583E1,5.6039986E1,7.53398E0,3.1970563E0,2.476447E0,4.3942978E1,1.11728525E1,3.905677E0,5.2134308E1,6.356871E0,1.177109E0,3.7105253E0,4.0232452E1,2.224595E0,8.948257E0,6.7661076E0,4.5368202E1],"tree_param":{"num_deleted":"0","num_feature":"29","num_nodes":"21","size_leaf_vector":"1"}},{"base_weights":[-1.460223E-2,1.1305919E0,-1.0882145E0,-6.084882E-2,1.222099E0,3.6073625E-1,-1.3563778E0,1.4138596E0,6.651953E-1,-5.9700932E-2,5.356996E-2,-5.3386533E-1,-7.7357806E-2,3.679434E-2,7.299032E-2,-7.006054E-2,6.7871206E-2,-6.895287E-2,6.266599E-2],"categories":[],"categories_nodes":[],"categories_segments":[],"categories_sizes":[],"default_left":[0,0,0,0,0,0,0,0,0,0,0,0,0,0,0,0,0,0,0],"id":7,"left_children":[1,3,5,-1,7,9,11,13,15,-1,-1,17,-1,-1,-1,-1,-1,-1,-1],"loss_changes":[1.5070712E2,1.4229729E1,2.5068764E1,0E0,5.2097626E0,1.3067595E1,7.583145E0,2.325592E-1,2.5703817E1,0E0,0E0,1.927525E1,0E0,0E0,0E0,0E0,0E0,0E0,0E0],"parents":[2147483647,0,0,1,1,2,2,4,4,5,5,6,6,7,7,8,8,11,11],"right_children":[2,4,6,-1,8,10,12,14,16,-1,-1,18,-1,-1,-1,-1,-1,-1,-1],"split_conditions":[2.2222222E-1,2.5E1,5.5E1,-6.084882E-2,3.5E0,4.863E1,2.481E1,4.5E1,5.41E1,-5.9700932E-2,5.356996E-2,2.48E1,-7.7357806E-2,3.679434E-2,7.299032E-2,-7.006054E-2,6.7871206E-2,-6.895287E-2,6.266599E-2],"split_indices":[28,5,8,0,17,5,0,11,10,0,0,0,0,0,0,0,0,0,0],"split_type":[0,0,0,0,0,0,0,0,0,0,0,0,0,0,0,0,0,0,0],"sum_hessian":[1.2057582E2,5.8317257E1,6.2258564E1,1.726461E0,5.6590797E1,9.669067E0,5.2589497E1,4.095115E1,1.56396475E1,2.8198297E0,6.849238E0,1.061647E1,4.1973026E1,3.6791515E0,3.7271996E1,3.6674778E0,1.197217E1,7.3628225E0,3.2536483E0],"tree_param":{"num_deleted":"0","num_feature":"29","num_nodes":"19","size_leaf_vector":"1"}},{"base_weights":[-7.25202E-2,1.2066113E0,-8.6234E-1,1.3177649E0,1.9795217E-1,-1.2032866E0,8.903892E-1,4.8276913E-1,1.4024736E0,-6.0874254E-2,5.7795145E-2,-7.5162545E-2,-5.708325E-1,-5.024345E-2,1.2829282E0,6.1637856E-2,-5.2263994E-2,3.636012E-2,7.288644E-2,6.849077E-2,-4.8782136E-2,3.2774832E-2,7.543623E-2],"categories":[],"categories_nodes":[],"categories_segments":[],"categories_sizes":[],"default_left":[0,0,0,0,0,0,0,0,0,0,0,0,0,0,0,0,0,0,0,0,0,0,0],"id":8,"left_children":[1,3,5,7,9,11,13,15,17,-1,-1,-1,19,-1,21,-1,-1,-1,-1,-1,-1,-1,-1],"loss_changes":[1.1584065E2,4.64933E0,4.3402126E1,2.1006622E0,8.897332E0,1.0472733E1,1.0298636E1,7.1814003E0,2.5069427E-1,0E0,0E0,0E0,1.7697536E1,0E0,4.945488E-1,0E0,0E0,0E0,0E0,0E0,0E0,0E0,0E0],"parents":[2147483647,0,0,1,1,2,2,3,3,4,4,5,5,6,6,7,7,8,8,12,12,14,14],"right_children":[2,4,6,8,10,12,14,16,18,-1,-1,-1,20,-1,22,-1,-1,-1,-1,-1,-1,-1,-1],"split_conditions":[4E0,3E0,6.683E1,4.6E1,4.863E1,5.287E1,4.84E1,1.48E1,5.6E1,-6.0874254E-2,5.7795145E-2,-7.5162545E-2,5.32E1,-5.024345E-2,5.647E1,6.1637856E-2,-5.2263994E-2,3.636012E-2,7.288644E-2,6.849077E-2,-4.8782136E-2,3.2774832E-2,7.543623E-2],"split_indices":[17,17,2,11,5,10,10,4,2,0,0,0,10,0,4,0,0,0,0,0,0,0,0],"split_type":[0,0,0,0,0,0,0,0,0,0,0,0,0,0,0,0,0,0,0,0,0,0,0],"sum_hessian":[1.1263162E2,4.2795544E1,6.983608E1,3.8271587E1,4.5239563E0,5.8725986E1,1.1110095E1,4.141999E0,3.412959E1,1.7166148E0,2.8073416E0,3.8899597E1,1.9826387E1,1.6386138E0,9.471481E0,2.9079726E0,1.2340261E0,3.6525605E0,3.0477028E1,3.0104647E0,1.6815924E1,3.5394044E0,5.9320774E0],"tree_param":{"num_deleted":"0","num_feature":"29","num_nodes":"23","size_leaf_vector":"1"}},{"base_weights":[-3.287579E-2,1.0427502E0,-1.0129913E0,-5.0404143E-2,1.1164345E0,-7.3287115E-2,4.7271207E-1,1.3155358E0,6.001745E-1,-3.2578528E-1,7.295912E-2,2.6757797E-2,6.9403574E-2,5.0677456E-2,-5.9708394E-2,-6.420309E-2,3.773572E-2],"categories":[],"categories_nodes":[],"categories_segments":[],"categories_sizes":[],"default_left":[0,0,0,0,0,0,0,0,0,0,0,0,0,0,0,0,0],"id":9,"left_children":[1,3,5,-1,7,-1,9,11,13,15,-1,-1,-1,-1,-1,-1,-1],"loss_changes":[1.22328514E2,9.487656E0,4.152027E1,0E0,4.749939E0,0E0,1.2237601E1,1.4112167E0,1.3700018E1,1.0360319E1,0E0,0E0,0E0,0E0,0E0,0E0,0E0],"parents":[2147483647,0,0,1,1,2,2,4,4,6,6,7,7,8,8,9,9],"right_children":[2,4,6,-1,8,-1,10,12,14,16,-1,-1,-1,-1,-1,-1,-1],"split_conditions":[2.2222222E-1,1.9E1,5.647E1,-5.0404143E-2,3.5E0,-7.3287115E-2,7.25E1,5.833E1,7.098E1,1E2,7.295912E-2,2.6757797E-2,6.9403574E-2,5.0677456E-2,-5.9708394E-2,-6.420309E-2,3.773572E-2],"split_indices":[28,5,4,0,17,0,2,2,9,4,0,0,0,0,0,0,0],"split_type":[0,0,0,0,0,0,0,0,0,0,0,0,0,0,0,0,0],"sum_hessian":[1.1403308E2,5.4337063E1,5.9696022E1,1.4447426E0,5.289232E1,4.5763542E1,1.3932477E1,3.705388E1,1.5838441E1,8.069984E0,5.8624935E0,3.8637118E0,3.3190166E1,1.3226504E1,2.6119359E0,4.1770415E0,3.8929424E0],"tree_param":{"num_deleted":"0","num_feature":"29","num_nodes":"17","size_leaf_vector":"1"}},{"base_weights":[7.8063495E-2,1.1795466E0,-6.9500893E-1,1.2334937E-1,1.2924361E0,-1.8323953E-1,-6.9974996E-2,5.14838E-2,-5.8845844E-2,6.624209E-2,3.180623E-2,-7.475801E-1,6.24861E-1,-7.1336746E-2,2.171513E-2,4.811535E-2,-5.500097E-2],"categories":[],"categories_nodes":[],"categories_segments":[],"categories_sizes":[],"default_left":[0,0,0,0,0,0,0,0,0,0,0,0,0,0,0,0,0],"id":10,"left_children":[1,3,5,7,9,11,-1,-1,-1,-1,-1,13,15,-1,-1,-1,-1],"loss_changes":[1.05137794E2,5.908737E0,2.5923595E1,8.30603E0,1.3288116E-1,2.0173098E1,0E0,0E0,0E0,0E0,0E0,2.1407446E1,1.1717539E1,0E0,0E0,0E0,0E0],"parents":[2147483647,0,0,1,1,2,2,3,3,4,4,5,5,11,11,12,12],"right_children":[2,4,6,8,10,12,-1,-1,-1,-1,-1,14,16,-1,-1,-1,-1],"split_conditions":[1.6666667E-1,4.6E1,2.83E1,2E0,6.173E1,7E0,-6.9974996E-2,5.14838E-2,-5.8845844E-2,6.624209E-2,3.180623E-2,5.497E1,5.603E1,-7.1336746E-2,2.171513E-2,4.811535E-2,-5.500097E-2],"split_indices":[28,11,17,22,10,18,0,0,0,0,0,10,10,0,0,0,0],"split_type":[0,0,0,0,0,0,0,0,0,0,0,0,0,0,0,0,0],"sum_hessian":[1.2150709E2,4.9893055E1,7.161403E1,5.0198503E0,4.4873203E1,4.221067E1,2.9403358E1,3.0806463E0,1.939204E0,4.179113E1,3.0820756E0,2.489796E1,1.7312708E1,1.5680295E1,9.217667E0,1.4849698E1,2.4630096E0],"tree_param":{"num_deleted":"0","num_feature":"29","num_nodes":"17","size_leaf_vector":"1"}},{"base_weights":[1.1678314E-1,1.2451317E0,-5.5538636E-1,4.4192436E-1,1.318423E0,-1.1766553E0,1.6988957E-1,5.7941597E-2,-4.9508777E-2,3.1844724E-2,6.85024E-2,-7.052454E-2,4.783532E-2,6.366173E-1,-6.55831E-2,5.102395E-2,-5.6896206E-2],"categories":[],"categories_nodes":[],"categories_segments":[],"categories_sizes":[],"default_left":[0,0,0,0,0,0,0,0,0,0,0,0,0,0,0,0,0],"id":11,"left_children":[1,3,5,7,9,11,13,-1,-1,-1,-1,-1,-1,15,-1,-1,-1],"loss_changes":[8.569506E1,1.8985825E0,3.21593E1,6.310239E0,4.686432E-1,2.0470196E1,2.4067726E1,0E0,0E0,0E0,0E0,0E0,0E0,1.902369E1,0E0,0E0,0E0],"parents":[2147483647,0,0,1,1,2,2,3,3,4,4,5,5,6,6,13,13],"right_children":[2,4,6,8,10,12,14,-1,-1,-1,-1,-1,-1,16,-1,-1,-1],"split_conditions":[3E0,4.6E1,4.957E1,1.48E1,5.833E1,1E2,5.837E1,5.7941597E-2,-4.9508777E-2,3.1844724E-2,6.85024E-2,-7.052454E-2,4.783532E-2,2.56E1,-6.55831E-2,5.102395E-2,-5.6896206E-2],"split_indices":[17,11,10,4,2,4,10,0,0,0,0,0,0,17,0,0,0],"split_type":[0,0,0,0,0,0,0,0,0,0,0,0,0,0,0,0,0],"sum_hessian":[1.1107659E2,4.11489E1,6.992769E1,4.0286126E0,3.7120285E1,3.732924E1,3.2598454E1,2.8118298E0,1.2167826E0,3.552942E0,3.3567345E1,3.3947166E1,3.3820739E0,2.5222885E1,7.3755684E0,2.1086477E1,4.1364074E0],"tree_param":{"num_deleted":"0","num_feature":"29","num_nodes":"17","size_leaf_vector":"1"}},{"base_weights":[1.2725314E-1,1.0282719E0,-8.000315E-1,-5.2062947E-2,1.0966258E0,-6.836656E-2,1.4280649E-1,1.2747774E0,4.0435982E-1,-6.115949E-2,5.272166E-1,3.8682934E-2,6.628005E-2,-6.1137464E-2,4.7652684E-2,4.1345306E-2,-5.0374042E-2],"categories":[],"categories_nodes":[],"categories_segments":[],"categories_sizes":[],"default_left":[0,0,0,0,0,0,0,0,0,0,0,0,0,0,0,0,0],"id":12,"left_children":[1,3,5,-1,7,-1,9,11,13,-1,15,-1,-1,-1,-1,-1,-1],"loss_changes":[9.8743256E1,9.612438E0,3.1389236E1,0E0,6.693306E0,0E0,1.2624666E1,1.4659882E-1,1.3153776E1,0E0,9.343092E0,0E0,0E0,0E0,0E0,0E0,0E0],"parents":[2147483647,0,0,1,1,2,2,4,4,6,6,7,7,8,8,10,10],"right_children":[2,4,6,-1,8,-1,10,12,14,-1,16,-1,-1,-1,-1,-1,-1],"split_conditions":[2.2222222E-1,2E1,5.5E1,-5.2062947E-2,3.5E0,-6.836656E-2,3.846154E-1,5.3E1,1E0,-6.115949E-2,1E0,3.8682934E-2,6.628005E-2,-6.1137464E-2,4.7652684E-2,4.1345306E-2,-5.0374042E-2],"split_indices":[28,5,2,0,17,0,28,7,26,0,26,0,0,0,0,0,0],"split_type":[0,0,0,0,0,0,0,0,0,0,0,0,0,0,0,0,0],"sum_hessian":[1.16199875E2,5.8879383E1,5.7320496E1,1.4274528E0,5.7451927E1,3.5506332E1,2.1814163E1,4.5023796E1,1.2428131E1,4.3114586E0,1.7502705E1,5.6396375E0,3.938416E1,2.8243291E0,9.603802E0,1.502908E1,2.4736252E0],"tree_param":{"num_deleted":"0","num_feature":"29","num_nodes":"17","size_leaf_vector":"1"}},{"base_weights":[1.2188437E-1,9.8905057E-1,-6.5352273E-1,-1.5387423E-1,1.1305019E0,-8.738237E-1,5.3266313E-2,5.493164E-2,-6.3132845E-2,3.6967447E-1,1.1911353E0,4.8200184E-1,-1.1654347E0,-5.4168057E-2,5.625964E-2,3.131481E-2,6.367732E-2,-4.826547E-2,5.03954E-2,-6.8569355E-2,5.7994306E-2],"categories":[],"categories_nodes":[],"categories_segments":[],"categories_sizes":[],"default_left":[0,0,0,0,0,0,0,0,0,0,0,0,0,0,0,0,0,0,0,0,0],"id":13,"left_children":[1,3,5,7,9,11,-1,-1,-1,13,15,17,19,-1,-1,-1,-1,-1,-1,-1,-1],"loss_changes":[7.611066E1,8.803501E0,2.3594683E1,1.077361E1,1.7564201E0,2.1754452E1,0E0,0E0,0E0,6.669414E0,1.2344589E0,8.733176E0,2.285707E1,0E0,0E0,0E0,0E0,0E0,0E0,0E0,0E0],"parents":[2147483647,0,0,1,1,2,2,3,3,4,4,5,5,9,9,10,10,11,11,12,12],"right_children":[2,4,6,8,10,12,-1,-1,-1,14,16,18,20,-1,-1,-1,-1,-1,-1,-1,-1],"split_conditions":[2E-1,4.6E1,7.25E1,1.48E1,2.389E1,5.5E1,5.3266313E-2,5.493164E-2,-6.3132845E-2,6.067E1,4.37E1,4.863E1,9.092E1,-5.4168057E-2,5.625964E-2,3.131481E-2,6.367732E-2,-4.826547E-2,5.03954E-2,-6.8569355E-2,5.7994306E-2],"split_indices":[28,11,2,4,5,8,0,0,0,2,10,5,9,0,0,0,0,0,0,0,0],"split_type":[0,0,0,0,0,0,0,0,0,0,0,0,0,0,0,0,0,0,0,0,0],"sum_hessian":[1.112301E2,5.237816E1,5.885194E1,5.758855E0,4.6619305E1,5.2601723E1,6.2502193E0,2.708464E0,3.050391E0,3.9648836E0,4.2654423E1,9.195409E0,4.340631E1,1.2078941E0,2.7569895E0,6.5259175E0,3.61285E1,2.2280965E0,6.967312E0,4.02515E1,3.154815E0],"tree_param":{"num_deleted":"0","num_feature":"29","num_nodes":"21","size_leaf_vector":"1"}},{"base_weights":[7.660578E-2,5.5802625E-1,-6.4693086E-2,1.155153E0,8.418749E-2,3.7171257E-1,1.2440233E0,4.1378793E-1,-6.970116E-2,5.4926027E-2,-5.1518947E-2,6.5806516E-2,2.3406468E-2,-1.5183859E-2,4.8622336E-2],"categories":[],"categories_nodes":[],"categories_segments":[],"categories_sizes":[],"default_left":[0,0,0,0,0,0,0,0,0,0,0,0,0,0,0],"id":14,"left_children":[1,3,-1,5,7,9,11,13,-1,-1,-1,-1,-1,-1,-1],"loss_changes":[6.887986E1,2.1731295E1,0E0,1.9086494E0,2.2060003E1,6.120782E0,1.0712204E0,1.5055624E1,0E0,0E0,0E0,0E0,0E0,0E0,0E0],"parents":[2147483647,0,0,1,1,3,3,4,4,5,5,6,6,7,7],"right_children":[2,4,-1,6,8,10,12,14,-1,-1,-1,-1,-1,-1,-1],"split_conditions":[2.83E1,3E0,-6.4693086E-2,2.389E1,5.65E1,4.8E1,5.5E1,4.7E1,-6.970116E-2,5.4926027E-2,-5.1518947E-2,6.5806516E-2,2.3406468E-2,-1.5183859E-2,4.8622336E-2],"split_indices":[17,17,0,5,3,8,5,11,0,0,0,0,0,0,0],"split_type":[0,0,0,0,0,0,0,0,0,0,0,0,0,0,0],"sum_hessian":[1.0230529E2,7.614851E1,2.6156776E1,3.3055035E1,4.309348E1,3.895622E0,2.9159412E1,3.582546E1,7.2680206E0,2.7082489E0,1.1873732E0,2.6042868E1,3.1165462E0,1.5883402E1,1.9942057E1],"tree_param":{"num_deleted":"0","num_feature":"29","num_nodes":"15","size_leaf_vector":"1"}},{"base_weights":[-1.1298001E-2,9.345065E-1,-8.609613E-1,1.1786783E0,2.630908E-1,-1.1592405E0,4.7667375E-1,2.2775976E-2,6.248949E-2,-6.4176016E-2,1.065316E0,-6.69109E-2,4.7568213E-2,-4.8097294E-2,5.4924797E-2,6.303927E-2,2.6033228E-2],"categories":[],"categories_nodes":[],"categories_segments":[],"categories_sizes":[],"default_left":[0,0,0,0,0,0,0,0,0,0,0,0,0,0,0,0,0],"id":15,"left_children":[1,3,5,7,9,11,13,-1,-1,-1,15,-1,-1,-1,-1,-1,-1],"loss_changes":[7.9174934E1,7.3344E0,2.125713E1,1.1743546E0,1.839351E1,1.7411522E1,1.0154682E1,0E0,0E0,0E0,3.637085E-1,0E0,0E0,0E0,0E0,0E0,0E0],"parents":[2147483647,0,0,1,1,2,2,3,3,4,4,5,5,6,6,10,10],"right_children":[2,4,6,8,10,12,14,-1,-1,-1,16,-1,-1,-1,-1,-1,-1],"split_conditions":[2.2222222E-1,3.5E0,1.8E1,4.6E1,5.583E1,7.764E1,4.907E1,2.2775976E-2,6.248949E-2,-6.4176016E-2,5.3E1,-6.69109E-2,4.7568213E-2,-4.8097294E-2,5.4924797E-2,6.303927E-2,2.6033228E-2],"split_indices":[28,17,16,11,10,0,10,0,0,0,7,0,0,0,0,0,0],"split_type":[0,0,0,0,0,0,0,0,0,0,0,0,0,0,0,0,0],"sum_hessian":[9.652223E1,4.5629642E1,5.0892586E1,3.290695E1,1.2722691E1,4.17223E1,9.170287E0,3.6092176E0,2.9297735E1,4.1404195E0,8.582271E0,3.87982E1,2.924101E0,2.6024342E0,6.5678525E0,5.34806E0,3.2342107E0],"tree_param":{"num_deleted":"0","num_feature":"29","num_nodes":"17","size_leaf_vector":"1"}},{"base_weights":[-9.089469E-2,8.7553877E-1,-9.633682E-1,1.0895828E0,1.0528198E-1,-6.5731995E-2,5.2336395E-1,5.8126676E-1,1.1797172E0,5.253684E-2,-6.321189E-2,-4.5266487E-2,5.2951515E-2,5.7452496E-2,-6.169356E-2,2.7118703E-2,6.234436E-2],"categories":[],"categories_nodes":[],"categories_segments":[],"categories_sizes":[],"default_left":[0,0,0,0,0,0,0,0,0,0,0,0,0,0,0,0,0],"id":16,"left_children":[1,3,5,7,9,-1,11,13,15,-1,-1,-1,-1,-1,-1,-1,-1],"loss_changes":[7.545882E1,6.893715E0,2.522472E1,8.334656E-1,1.47309265E1,0E0,8.377951E0,8.596293E0,4.8785782E-1,0E0,0E0,0E0,0E0,0E0,0E0,0E0,0E0],"parents":[2147483647,0,0,1,1,2,2,3,3,4,4,6,6,7,7,8,8],"right_children":[2,4,6,8,10,-1,12,14,16,-1,-1,-1,-1,-1,-1,-1,-1],"split_conditions":[2.2222222E-1,1.5040774E0,1.8E1,4.29E1,3.667E1,-6.5731995E-2,4.9E1,6.666667E-2,5.6E1,5.253684E-2,-6.321189E-2,-4.5266487E-2,5.2951515E-2,5.7452496E-2,-6.169356E-2,2.7118703E-2,6.234436E-2],"split_indices":[28,27,16,10,2,0,2,28,2,0,0,0,0,0,0,0,0],"split_type":[0,0,0,0,0,0,0,0,0,0,0,0,0,0,0,0,0],"sum_hessian":[8.7492E1,4.1509106E1,4.5982895E1,3.2158203E1,9.3509035E0,3.728846E1,8.694432E0,5.96534E0,2.6192863E1,5.669622E0,3.6812818E0,2.1827219E0,6.51171E0,4.823493E0,1.1418471E0,3.3624935E0,2.283037E1],"tree_param":{"num_deleted":"0","num_feature":"29","num_nodes":"17","size_leaf_vector":"1"}},{"base_weights":[5.1068462E-2,9.1571736E-1,-8.9929575E-1,-4.8394676E-2,9.9074495E-1,-6.381954E-2,-8.151018E-2,5.9361823E-2,7.129318E-1,-5.5039257E-2,5.142897E-1,-5.8633145E-2,4.9134623E-2,-4.565031E-2,4.9276203E-2],"categories":[],"categories_nodes":[],"categories_segments":[],"categories_sizes":[],"default_left":[0,0,0,0,0,0,0,0,0,0,0,0,0,0,0],"id":17,"left_children":[1,3,5,-1,7,-1,9,-1,11,-1,13,-1,-1,-1,-1],"loss_changes":[7.745281E1,7.9295616E0,1.3751381E1,0E0,1.769928E0,0E0,9.825714E0,0E0,1.2525362E1,0E0,7.830374E0,0E0,0E0,0E0,0E0],"parents":[2147483647,0,0,1,1,2,2,4,4,6,6,8,8,10,10],"right_children":[2,4,6,-1,8,-1,10,-1,12,-1,14,-1,-1,-1,-1],"split_conditions":[2.2222222E-1,4.65E1,2E3,-4.8394676E-2,5.65E1,-6.381954E-2,5E1,5.9361823E-2,5.9E1,-5.5039257E-2,4.283E1,-5.8633145E-2,4.9134623E-2,-4.565031E-2,4.9276203E-2],"split_indices":[28,3,25,0,3,0,5,0,2,0,2,0,0,0,0],"split_type":[0,0,0,0,0,0,0,0,0,0,0,0,0,0,0],"sum_hessian":[9.225348E1,4.83242E1,4.3929283E1,1.3952457E0,4.6928955E1,2.9681734E1,1.4247549E1,2.5570185E1,2.1358768E1,4.9432397E0,9.304309E0,2.2543168E0,1.9104452E1,2.076732E0,7.2275767E0],"tree_param":{"num_deleted":"0","num_feature":"29","num_nodes":"15","size_leaf_vector":"1"}},{"base_weights":[9.719668E-2,9.1989E-1,-7.565036E-1,-1.3675718E-1,1.0546662E0,-1.0567461E0,7.3658115E-1,5.311606E-2,-6.0336925E-2,6.0199298E-2,6.5882516E-1,-6.315004E-2,6.4307815E-1,6.544575E-2,-4.614253E-2,5.506699E-2,-6.0915448E-2,6.274161E-2,-3.849276E-2],"categories":[],"categories_nodes":[],"categories_segments":[],"categories_sizes":[],"default_left":[0,0,0,0,0,0,0,0,0,0,0,0,0,0,0,0,0,0,0],"id":18,"left_children":[1,3,5,7,9,11,13,-1,-1,-1,15,-1,17,-1,-1,-1,-1,-1,-1],"loss_changes":[6.949738E1,7.312889E0,2.2575645E1,9.723426E0,1.8523102E0,1.5149338E1,9.4991455E0,0E0,0E0,0E0,1.3359604E1,0E0,5.3636456E0,0E0,0E0,0E0,0E0,0E0,0E0],"parents":[2147483647,0,0,1,1,2,2,3,3,4,4,5,5,6,6,10,10,12,12],"right_children":[2,4,6,8,10,12,14,-1,-1,-1,16,-1,18,-1,-1,-1,-1,-1,-1],"split_conditions":[2.2222222E-1,4.6E1,6.763E1,1.48E1,3E0,6.88E1,4.65E1,5.311606E-2,-6.0336925E-2,6.0199298E-2,7.098E1,-6.315004E-2,7.132E1,6.544575E-2,-4.614253E-2,5.506699E-2,-6.0915448E-2,6.274161E-2,-3.849276E-2],"split_indices":[28,11,4,4,17,0,3,0,0,0,9,0,0,0,0,0,0,0,0],"split_type":[0,0,0,0,0,0,0,0,0,0,0,0,0,0,0,0,0,0,0],"sum_hessian":[9.696127E1,4.933786E1,4.7623413E1,5.5795317E0,4.375833E1,3.9893517E1,7.729897E0,2.6344194E0,2.9451125E0,3.0290508E1,1.3467822E1,3.580586E1,4.0876575E0,5.904631E0,1.8252658E0,1.1233038E1,2.234784E0,2.930669E0,1.1569884E0],"tree_param":{"num_deleted":"0","num_feature":"29","num_nodes":"19","size_leaf_vector":"1"}},{"base_weights":[1.412771E-1,5.341322E-1,-5.9819587E-2,1.0218799E0,1.8518019E-1,6.1237845E-3,1.1105652E0,-7.347543E-1,6.6860944E-1,5.8618426E-2,3.331289E-2,-6.256001E-2,6.078739E-2,4.39041E-2,-5.28149E-2],"categories":[],"categories_nodes":[],"categories_segments":[],"categories_sizes":[],"default_left":[0,0,0,0,0,0,0,0,0,0,0,0,0,0,0],"id":19,"left_children":[1,3,-1,5,7,-1,9,11,13,-1,-1,-1,-1,-1,-1],"loss_changes":[5.1816204E1,1.2740736E1,0E0,2.3735275E0,2.0729237E1,0E0,1.8959045E-3,1.7792118E1,1.1895148E1,0E0,0E0,0E0,0E0,0E0,0E0],"parents":[2147483647,0,0,1,1,3,3,4,4,6,6,7,7,8,8],"right_children":[2,4,-1,6,8,-1,10,12,14,-1,-1,-1,-1,-1,-1],"split_conditions":[2.83E1,3.5E0,-5.9819587E-2,1.4E3,4.953E1,6.1237845E-3,1.3333334E-1,2.8E1,6.037E1,5.8618426E-2,3.331289E-2,-6.256001E-2,6.078739E-2,4.39041E-2,-5.28149E-2],"split_indices":[17,17,0,25,10,0,28,17,10,0,0,0,0,0,0],"split_type":[0,0,0,0,0,0,0,0,0,0,0,0,0,0,0],"sum_hessian":[9.638572E1,7.496903E1,2.1416683E1,3.0462145E1,4.450689E1,2.9478142E0,2.751433E1,1.5152599E1,2.9354292E1,2.2715897E1,4.798434E0,1.2263931E1,2.888668E0,2.6613316E1,2.7409773E0],"tree_param":{"num_deleted":"0","num_feature":"29","num_nodes":"15","size_leaf_vector":"1"}},{"base_weights":[8.665656E-2,8.632913E-1,-6.082242E-1,-4.30933E-2,9.3566984E-1,-1.0124975E0,4.746104E-1,1.7964584E-1,1.0113322E0,-6.146598E-2,4.0051516E-2,7.8895444E-1,-4.4791605E-2,-5.1154952E-2,5.0713122E-2,5.3261336E-2,1.1083754E-2,-3.8567152E-2,5.219197E-2],"categories":[],"categories_nodes":[],"categories_segments":[],"categories_sizes":[],"default_left":[0,0,0,0,0,0,0,0,0,0,0,0,0,0,0,0,0,0,0],"id":20,"left_children":[1,3,5,-1,7,9,11,13,15,-1,-1,17,-1,-1,-1,-1,-1,-1,-1],"loss_changes":[5.053211E1,6.321743E0,2.2146206E1,0E0,2.2706757E0,1.5280605E1,6.7961416E0,6.173505E0,1.4132195E0,0E0,0E0,5.5893335E0,0E0,0E0,0E0,0E0,0E0,0E0,0E0],"parents":[2147483647,0,0,1,1,2,2,4,4,5,5,6,6,7,7,8,8,11,11],"right_children":[2,4,6,-1,8,10,12,14,16,-1,-1,18,-1,-1,-1,-1,-1,-1,-1],"split_conditions":[2.2222222E-1,1.9E1,8.4E1,-4.30933E-2,4.6E1,1E2,5E0,6.549E1,6.17E1,-6.146598E-2,4.0051516E-2,3.434E1,-4.4791605E-2,-5.1154952E-2,5.0713122E-2,5.3261336E-2,1.1083754E-2,-3.8567152E-2,5.219197E-2],"split_indices":[28,5,8,0,11,4,22,0,10,0,0,4,0,0,0,0,0,0,0],"split_type":[0,0,0,0,0,0,0,0,0,0,0,0,0,0,0,0,0,0,0],"sum_hessian":[9.166248E1,4.3170517E1,4.849197E1,1.2990732E0,4.1871445E1,3.5356625E1,1.3135344E1,4.1162143E0,3.775523E1,3.1868614E1,3.4880118E0,1.1029718E1,2.1056252E0,1.5937172E0,2.522497E0,3.5016373E1,2.7388563E0,1.2642536E0,9.765465E0],"tree_param":{"num_deleted":"0","num_feature":"29","num_nodes":"19","size_leaf_vector":"1"}},{"base_weights":[1.2514839E-1,4.9062303E-1,-5.8193244E-2,1.0397202E0,2.543113E-2,2.3382623E-1,5.658554E-2,-3.6391434E-1,1.0115054E0,4.8766065E-2,-5.22991E-2,-4.830844E-2,2.6486967E-2,-3.7422515E-2,6.4875685E-2],"categories":[],"categories_nodes":[],"categories_segments":[],"categories_sizes":[],"default_left":[0,0,0,0,0,0,0,0,0,0,0,0,0,0,0],"id":21,"left_children":[1,3,-1,5,7,9,-1,11,13,-1,-1,-1,-1,-1,-1],"loss_changes":[4.2955986E1,1.8058168E1,0E0,2.1407585E0,1.547664E1,5.3708305E0,0E0,1.6092152E1,6.7116632E0,0E0,0E0,0E0,0E0,0E0,0E0],"parents":[2147483647,0,0,1,1,3,3,4,4,5,5,7,7,8,8],"right_children":[2,4,-1,6,8,10,-1,12,14,-1,-1,-1,-1,-1,-1],"split_conditions":[2.83E1,3E0,-5.8193244E-2,2.389E1,5.555556E-1,4.8E1,5.658554E-2,5.647E1,7.098E1,4.8766065E-2,-5.22991E-2,-4.830844E-2,2.6486967E-2,-3.7422515E-2,6.4875685E-2],"split_indices":[17,17,0,5,28,8,0,4,9,0,0,0,0,0,0],"split_type":[0,0,0,0,0,0,0,0,0,0,0,0,0,0,0],"sum_hessian":[8.896991E1,6.979911E1,1.91708E1,3.1446117E1,3.8352993E1,3.5846071E0,2.786151E1,2.79486E1,1.0404391E1,2.4202685E0,1.1643386E0,1.6647985E1,1.1300617E1,1.2284192E0,9.175972E0],"tree_param":{"num_deleted":"0","num_feature":"29","num_nodes":"15","size_leaf_vector":"1"}},{"base_weights":[1.405035E-1,5.068466E-1,-5.7553567E-2,9.3803275E-1,9.2107624E-2,1.5237425E-1,1.0269299E0,-2.5946772E-1,9.084638E-1,-5.2797306E-2,4.781139E-2,1.840431E-2,5.4661084E-2,-4.2928573E-2,3.500056E-2,-3.8200703E-2,5.811159E-2],"categories":[],"categories_nodes":[],"categories_segments":[],"categories_sizes":[],"default_left":[0,0,0,0,0,0,0,0,0,0,0,0,0,0,0,0,0],"id":22,"left_children":[1,3,-1,5,7,9,11,13,15,-1,-1,-1,-1,-1,-1,-1,-1],"loss_changes":[4.3658928E1,1.2720671E1,0E0,2.288227E0,1.1031081E1,5.606189E0,9.633713E-1,1.6160727E1,5.787739E0,0E0,0E0,0E0,0E0,0E0,0E0,0E0,0E0],"parents":[2147483647,0,0,1,1,3,3,4,4,5,5,6,6,7,7,8,8],"right_children":[2,4,-1,6,8,10,12,14,16,-1,-1,-1,-1,-1,-1,-1,-1],"split_conditions":[2.83E1,1.8181819E-1,-5.7553567E-2,2.389E1,5.555556E-1,5.9E1,4.6E1,6.65E1,7.098E1,-5.2797306E-2,4.781139E-2,1.840431E-2,5.4661084E-2,-4.2928573E-2,3.500056E-2,-3.8200703E-2,5.811159E-2],"split_indices":[17,28,0,5,28,2,11,2,9,0,0,0,0,0,0,0,0],"split_type":[0,0,0,0,0,0,0,0,0,0,0,0,0,0,0,0,0],"sum_hessian":[9.003803E1,7.061603E1,1.9422E1,3.4002922E1,3.661311E1,3.732219E0,3.0270702E1,2.6068502E1,1.0544606E1,1.3657193E0,2.3664997E0,3.3663738E0,2.690433E1,1.611277E1,9.955731E0,1.124279E0,9.420327E0],"tree_param":{"num_deleted":"0","num_feature":"29","num_nodes":"17","size_leaf_vector":"1"}},{"base_weights":[5.1641716E-3,8.488359E-1,-7.405448E-1,5.4796215E-2,5.046013E-1,-1.0443856E0,8.618165E-1,9.0284336E-1,-5.3078395E-1,-6.0655605E-2,1.4216834E-1,-3.874996E-2,6.478267E-2,2.0658696E-2,5.972156E-2,2.72622E-2,-6.1925586E-2,4.7170695E-2,-4.7076162E-2],"categories":[],"categories_nodes":[],"categories_segments":[],"categories_sizes":[],"default_left":[0,0,0,0,0,0,0,0,0,0,0,0,0,0,0,0,0,0,0],"id":23,"left_children":[1,3,5,-1,7,9,11,13,15,-1,17,-1,-1,-1,-1,-1,-1,-1,-1],"loss_changes":[5.345156E1,2.8372707E0,2.2858694E1,0E0,8.111006E0,7.8533173E0,6.4982653E0,1.4679575E0,5.0702925E0,0E0,5.8127513E0,0E0,0E0,0E0,0E0,0E0,0E0,0E0,0E0],"parents":[2147483647,0,0,1,1,2,2,4,4,5,5,6,6,7,7,8,8,10,10],"right_children":[2,4,6,-1,8,10,12,14,16,-1,18,-1,-1,-1,-1,-1,-1,-1,-1],"split_conditions":[2E-1,2.5E0,6.66E1,5.4796215E-2,7.098E1,7.505E1,7E1,1E0,3E0,-6.0655605E-2,7.826E1,-3.874996E-2,6.478267E-2,2.0658696E-2,5.972156E-2,2.72622E-2,-6.1925586E-2,4.7170695E-2,-4.7076162E-2],"split_indices":[28,17,0,0,9,4,5,20,17,0,4,0,0,0,0,0,0,0,0],"split_type":[0,0,0,0,0,0,0,0,0,0,0,0,0,0,0,0,0,0,0],"sum_hessian":[8.296144E1,3.885914E1,4.4102303E1,2.1350378E1,1.750876E1,3.7365295E1,6.737009E0,1.2737518E1,4.771242E0,3.2693882E1,4.671413E0,1.246757E0,5.490252E0,5.656096E0,7.081422E0,1.9841418E0,2.7871003E0,2.7601178E0,1.9112952E0],"tree_param":{"num_deleted":"0","num_feature":"29","num_nodes":"19","size_leaf_vector":"1"}},{"base_weights":[-7.7153265E-2,-1.0239701E0,5.738905E-1,1.6329132E-2,-5.8864173E-2,-5.205538E-1,7.866896E-1,4.5873933E-2,-6.1841436E-2,-3.924368E-2,8.510734E-1,5.5908382E-2,2.3562249E-2],"categories":[],"categories_nodes":[],"categories_segments":[],"categories_sizes":[],"default_left":[0,0,0,0,0,0,0,0,0,0,0,0,0],"id":24,"left_children":[1,3,5,-1,-1,7,9,-1,-1,-1,11,-1,-1],"loss_changes":[4.7516068E1,6.8816185E0,1.1065073E1,0E0,0E0,9.4260235E0,4.584057E0,0E0,0E0,0E0,3.2936096E0,0E0,0E0],"parents":[2147483647,0,0,1,1,2,2,5,5,6,6,10,10],"right_children":[2,4,6,-1,-1,8,10,-1,-1,-1,12,-1,-1],"split_conditions":[5.5E1,1.3333334E-1,4.347E1,1.6329132E-2,-5.8864173E-2,1.8E0,2.389E1,4.5873933E-2,-6.1841436E-2,-3.924368E-2,1.8181819E-1,5.5908382E-2,2.3562249E-2],"split_indices":[2,28,10,0,0,17,5,0,0,0,28,0,0],"split_type":[0,0,0,0,0,0,0,0,0,0,0,0,0],"sum_hessian":[7.513069E1,3.0378395E1,4.4752296E1,2.9817426E0,2.7396652E1,7.04956E0,3.7702736E1,2.2504768E0,4.799083E0,1.0434061E0,3.665933E1,2.038252E1,1.6276808E1],"tree_param":{"num_deleted":"0","num_feature":"29","num_nodes":"13","size_leaf_vector":"1"}},{"base_weights":[-1.2231532E-1,8.770414E-1,-6.822599E-1,9.770444E-1,7.533647E-2,-9.4352037E-1,6.889212E-1,5.9934264E-1,5.2478183E-2,3.975245E-2,-4.5553733E-2,-5.9992183E-2,1.1479114E-1,-4.5047015E-2,6.260518E-2,9.7433785E-3,4.5036253E-2,3.544144E-2,-5.0468024E-2],"categories":[],"categories_nodes":[],"categories_segments":[],"categories_sizes":[],"default_left":[0,0,0,0,0,0,0,0,0,0,0,0,0,0,0,0,0,0,0],"id":25,"left_children":[1,3,5,7,9,11,13,15,-1,-1,-1,-1,17,-1,-1,-1,-1,-1,-1],"loss_changes":[4.0659046E1,2.0225563E0,1.7288095E1,5.3806305E-3,3.552144E0,1.0834835E1,8.30106E0,5.634556E-1,0E0,0E0,0E0,0E0,6.4593053E0,0E0,0E0,0E0,0E0,0E0,0E0],"parents":[2147483647,0,0,1,1,2,2,3,3,4,4,5,5,6,6,7,7,12,12],"right_children":[2,4,6,8,10,12,14,16,-1,-1,-1,-1,18,-1,-1,-1,-1,-1,-1],"split_conditions":[1.3333334E-1,7.8E1,6.601E1,4.37E1,3.4E1,6.167E1,7E1,4.9E1,5.2478183E-2,3.975245E-2,-4.5553733E-2,-5.9992183E-2,5E1,-4.5047015E-2,6.260518E-2,9.7433785E-3,4.5036253E-2,3.544144E-2,-5.0468024E-2],"split_indices":[28,8,0,10,10,2,5,4,0,0,0,0,3,0,0,0,0,0,0],"split_type":[0,0,0,0,0,0,0,0,0,0,0,0,0,0,0,0,0,0,0],"sum_hessian":[7.059005E1,2.5145506E1,4.5444546E1,2.2162315E1,2.983189E0,3.843345E1,7.0110946E0,5.0620823E0,1.7100233E1,1.8369204E0,1.1462688E0,3.0832159E1,7.60129E0,1.6770521E0,5.3340425E0,2.86442E0,2.197662E0,5.2149816E0,2.3863087E0],"tree_param":{"num_deleted":"0","num_feature":"29","num_nodes":"19","size_leaf_vector":"1"}},{"base_weights":[-1.1865049E-2,-7.479524E-1,6.3836324E-1,1.3407055E-1,-5.71081E-2,8.1073606E-1,-4.4876244E-2,6.4648044E-1,-6.154994E-2,5.3695744E-1,1.136349E0,5.4515924E-2,-5.0409276E-2,4.609075E-2,-1.4095329E-2,5.9910174E-2,2.2983117E-2],"categories":[],"categories_nodes":[],"categories_segments":[],"categories_sizes":[],"default_left":[0,0,0,0,0,0,0,0,0,0,0,0,0,0,0,0,0],"id":26,"left_children":[1,3,5,7,-1,9,-1,11,-1,13,15,-1,-1,-1,-1,-1,-1],"loss_changes":[3.4296143E1,1.1836412E1,1.08029585E1,8.681658E0,0E0,2.4869194E0,0E0,7.6006775E0,0E0,6.805125E0,7.593727E-2,0E0,0E0,0E0,0E0,0E0,0E0],"parents":[2147483647,0,0,1,1,2,2,3,3,5,5,7,7,9,9,10,10],"right_children":[2,4,6,8,-1,10,-1,12,-1,14,16,-1,-1,-1,-1,-1,-1],"split_conditions":[5.7E1,2.2222222E-1,3.3775876E0,7.098E1,-5.71081E-2,4.87E1,-4.4876244E-2,6E0,-6.154994E-2,1.5040774E0,7.75E1,5.4515924E-2,-5.0409276E-2,4.609075E-2,-1.4095329E-2,5.9910174E-2,2.2983117E-2],"split_indices":[11,28,27,9,0,5,0,22,0,27,9,0,0,0,0,0,0],"split_type":[0,0,0,0,0,0,0,0,0,0,0,0,0,0,0,0,0],"sum_hessian":[6.965801E1,3.260144E1,3.7056572E1,1.0273942E1,2.2327497E1,3.374186E1,3.3147125E0,7.852674E0,2.4212685E0,1.9768974E1,1.3972888E1,6.460746E0,1.3919282E0,1.3362849E1,6.406124E0,1.2096481E1,1.8764061E0],"tree_param":{"num_deleted":"0","num_feature":"29","num_nodes":"17","size_leaf_vector":"1"}},{"base_weights":[9.444394E-2,-7.392398E-1,6.2275857E-1,-9.648185E-1,5.06903E-2,-4.3863695E-2,7.045637E-1,4.4842422E-2,-5.7868402E-2,7.6739335E-1,-3.6049556E-2,5.134814E-2,2.401961E-2],"categories":[],"categories_nodes":[],"categories_segments":[],"categories_sizes":[],"default_left":[0,0,0,0,0,0,0,0,0,0,0,0,0],"id":27,"left_children":[1,3,5,7,-1,-1,9,-1,-1,11,-1,-1,-1],"loss_changes":[3.513167E1,1.3233852E1,6.5973454E0,1.1064524E1,0E0,0E0,4.7415543E0,0E0,0E0,2.8792496E0,0E0,0E0,0E0],"parents":[2147483647,0,0,1,1,2,2,3,3,6,6,9,9],"right_children":[2,4,6,8,-1,-1,10,-1,-1,12,-1,-1,-1],"split_conditions":[5.5E1,1E2,2.026E1,2.5E0,5.06903E-2,-4.3863695E-2,5.625E-1,4.4842422E-2,-5.7868402E-2,3E0,-3.6049556E-2,5.134814E-2,2.401961E-2],"split_indices":[2,4,5,17,0,0,28,0,0,17,0,0,0],"split_type":[0,0,0,0,0,0,0,0,0,0,0,0,0],"sum_hessian":[7.771838E1,2.9991838E1,4.7726547E1,2.6970905E1,3.0209327E0,1.9653144E0,4.5761234E1,2.1852312E0,2.4785673E1,4.4271698E1,1.4895357E0,2.1892996E1,2.2378702E1],"tree_param":{"num_deleted":"0","num_feature":"29","num_nodes":"13","size_leaf_vector":"1"}},{"base_weights":[2.1232186E-1,5.254601E-1,-5.393974E-2,9.7114456E-1,2.353013E-1,1.0373276E0,1.2689419E-2,-5.7888318E-2,4.8796895E-1,2.4815714E-2,5.4147806E-2,-5.512173E-3,4.382261E-2],"categories":[],"categories_nodes":[],"categories_segments":[],"categories_sizes":[],"default_left":[0,0,0,0,0,0,0,0,0,0,0,0,0],"id":28,"left_children":[1,3,-1,5,7,9,-1,-1,11,-1,-1,-1,-1],"loss_changes":[3.2988056E1,8.204533E0,0E0,9.423809E-1,1.4931742E1,2.8440475E-2,0E0,0E0,8.289411E0,0E0,0E0,0E0,0E0],"parents":[2147483647,0,0,1,1,3,3,4,4,5,5,8,8],"right_children":[2,4,-1,6,8,10,-1,-1,12,-1,-1,-1,-1],"split_conditions":[3.3775876E0,1.3862944E0,-5.393974E-2,2E0,4.389E1,4.5E1,1.2689419E-2,-5.7888318E-2,4.7E1,2.4815714E-2,5.4147806E-2,-5.512173E-3,4.382261E-2],"split_indices":[27,27,0,18,5,11,0,0,11,0,0,0,0],"split_type":[0,0,0,0,0,0,0,0,0,0,0,0,0],"sum_hessian":[7.919131E1,6.421104E1,1.4980271E1,2.4394344E1,3.9816696E1,2.1925465E1,2.4688797E0,5.5630403E0,3.4253654E1,2.6291447E0,1.929632E1,1.376839E1,2.0485266E1],"tree_param":{"num_deleted":"0","num_feature":"29","num_nodes":"13","size_leaf_vector":"1"}},{"base_weights":[-1.5255095E-2,-4.39328E-1,7.979518E-1,3.2958728E-1,-7.181792E-1,4.04931E-1,1.0163627E0,-5.471201E-2,7.0897853E-1,-8.9517236E-1,5.1339954E-1,8.1183845E-1,-4.584617E-2,5.4958966E-2,1.4342256E-2,4.680042E-2,-7.119994E-3,6.9644446E-3,-5.7988685E-2,-3.444931E-2,5.5418212E-2,5.1761925E-2,5.9039225E-3],"categories":[],"categories_nodes":[],"categories_segments":[],"categories_sizes":[],"default_left":[0,0,0,0,0,0,0,0,0,0,0,0,0,0,0,0,0,0,0,0,0,0,0],"id":29,"left_children":[1,3,5,7,9,11,13,-1,15,17,19,21,-1,-1,-1,-1,-1,-1,-1,-1,-1,-1,-1],"loss_changes":[2.4609287E1,1.0288108E1,1.6885328E0,7.8855686E0,8.027237E0,6.3390865E0,5.947933E-1,0E0,2.2593303E0,8.569992E0,4.3390045E0,1.1926093E0,0E0,0E0,0E0,0E0,0E0,0E0,0E0,0E0,0E0,0E0,0E0],"parents":[2147483647,0,0,1,1,2,2,3,3,4,4,5,5,6,6,8,8,9,9,10,10,11,11],"right_children":[2,4,6,8,10,12,14,-1,16,18,20,22,-1,-1,-1,-1,-1,-1,-1,-1,-1,-1,-1],"split_conditions":[6.5E1,3E0,5.647E1,4.6E1,7.5E1,4.9E0,2E3,-5.471201E-2,5.65E1,2.481E1,6.453E1,4.499E1,-4.584617E-2,5.4958966E-2,1.4342256E-2,4.680042E-2,-7.119994E-3,6.9644446E-3,-5.7988685E-2,-3.444931E-2,5.5418212E-2,5.1761925E-2,5.9039225E-3],"split_indices":[2,18,4,11,11,17,25,0,3,0,4,12,0,0,0,0,0,0,0,0,0,0,0],"split_type":[0,0,0,0,0,0,0,0,0,0,0,0,0,0,0,0,0,0,0,0,0,0,0],"sum_hessian":[6.934389E1,4.5878716E1,2.3465174E1,1.2161678E1,3.3717037E1,9.4015255E0,1.4063648E1,2.1623473E0,9.9993305E0,2.9719173E1,3.9978633E0,7.4836593E0,1.9178666E0,1.2174814E1,1.8888344E0,7.8157635E0,2.183567E0,6.1498547E0,2.3569319E1,1.2710743E0,2.726789E0,5.288482E0,2.195177E0],"tree_param":{"num_deleted":"0","num_feature":"29","num_nodes":"23","size_leaf_vector":"1"}},{"base_weights":[1.01065725E-1,8.0769956E-1,-4.508478E-1,-5.0414443E-2,9.214205E-1,6.0669196E-1,-7.247946E-1,9.151968E-2,1.0304034E0,-3.7990227E-2,5.20782E-2,-5.7629414E-2,6.349424E-1,4.4574227E-2,-4.98686E-2,5.53406E-2,2.0595057E-2,-3.356476E-2,4.8811387E-2],"categories":[],"categories_nodes":[],"categories_segments":[],"categories_sizes":[],"default_left":[0,0,0,0,0,0,0,0,0,0,0,0,0,0,0,0,0,0,0],"id":30,"left_children":[1,3,5,-1,7,9,11,13,15,-1,-1,-1,17,-1,-1,-1,-1,-1,-1],"loss_changes":[2.7898413E1,7.3968983E0,1.2109724E1,0E0,2.6186543E0,6.039877E0,1.9607325E1,4.8780437E0,7.925148E-1,0E0,0E0,0E0,4.404808E0,0E0,0E0,0E0,0E0,0E0,0E0],"parents":[2147483647,0,0,1,1,2,2,4,4,5,5,6,6,7,7,8,8,12,12],"right_children":[2,4,6,-1,8,10,12,14,16,-1,-1,-1,18,-1,-1,-1,-1,-1,-1],"split_conditions":[1.8181819E-1,2.389E1,5.5E1,-5.0414443E-2,4.6E1,4.863E1,1.8E1,2E0,7.2E1,-3.7990227E-2,5.20782E-2,-5.7629414E-2,4.907E1,4.4574227E-2,-4.98686E-2,5.53406E-2,2.0595057E-2,-3.356476E-2,4.8811387E-2],"split_indices":[28,5,8,0,11,5,16,22,2,0,0,0,10,0,0,0,0,0,0],"split_type":[0,0,0,0,0,0,0,0,0,0,0,0,0,0,0,0,0,0,0],"sum_hessian":[6.960053E1,3.0318836E1,3.92817E1,1.3231628E0,2.8995672E1,7.8321123E0,3.1449587E1,3.5792863E0,2.5416388E1,1.710385E0,6.1217275E0,2.4038927E1,7.410661E0,2.1679053E0,1.411381E0,2.1919044E1,3.4973416E0,1.3348163E0,6.075845E0],"tree_param":{"num_deleted":"0","num_feature":"29","num_nodes":"19","size_leaf_vector":"1"}},{"base_weights":[1.0223388E-1,7.456753E-1,-5.5804557E-1,-2.51492E-2,8.437426E-1,-8.876304E-1,6.663793E-1,4.3783985E-2,-4.8707467E-2,1.887586E-1,9.6927094E-1,3.4643346E-1,-5.7309907E-2,-3.325684E-2,5.123154E-2,3.877596E-2,-5.0824244E-2,7.5631486E-3,5.1177364E-2,5.5608567E-2,-3.7315708E-2],"categories":[],"categories_nodes":[],"categories_segments":[],"categories_sizes":[],"default_left":[0,0,0,0,0,0,0,0,0,0,0,0,0,0,0,0,0,0,0,0,0],"id":31,"left_children":[1,3,5,7,9,11,13,-1,-1,15,17,19,-1,-1,-1,-1,-1,-1,-1,-1,-1],"loss_changes":[3.0354683E1,2.751423E0,1.485749E1,5.1680207E0,2.4537926E0,9.421686E0,4.530423E0,0E0,0E0,5.314015E0,1.029295E0,5.572146E0,0E0,0E0,0E0,0E0,0E0,0E0,0E0,0E0,0E0],"parents":[2147483647,0,0,1,1,2,2,3,3,4,4,5,5,6,6,9,9,10,10,11,11],"right_children":[2,4,6,8,10,12,14,-1,-1,16,18,20,-1,-1,-1,-1,-1,-1,-1,-1,-1],"split_conditions":[2.2222222E-1,4.6E1,1.8E1,1.48E1,4.37E1,1.665E1,4.907E1,4.3783985E-2,-4.8707467E-2,2E0,6.666667E-2,1.25E1,-5.7309907E-2,-3.325684E-2,5.123154E-2,3.877596E-2,-5.0824244E-2,7.5631486E-3,5.1177364E-2,5.5608567E-2,-3.7315708E-2],"split_indices":[28,11,16,4,10,4,10,0,0,18,28,15,0,0,0,0,0,0,0,0,0],"split_type":[0,0,0,0,0,0,0,0,0,0,0,0,0,0,0,0,0,0,0,0,0],"sum_hessian":[6.946835E1,3.511728E1,3.4351074E1,4.0474267E0,3.1069853E1,2.7282393E1,7.0686803E0,2.116049E0,1.9313776E0,5.3995733E0,2.5670279E1,4.6672482E0,2.2615145E1,1.3170335E0,5.751647E0,3.8713777E0,1.5281957E0,1.8329195E0,2.383736E1,2.7337856E0,1.9334629E0],"tree_param":{"num_deleted":"0","num_feature":"29","num_nodes":"21","size_leaf_vector":"1"}},{"base_weights":[1.4431052E-1,4.3471363E-1,-5.234536E-2,-5.506398E-2,5.4334325E-1,5.180533E-2,1.980845E-1,2.4443565E-2,-5.9392553E-2],"categories":[],"categories_nodes":[],"categories_segments":[],"categories_sizes":[],"default_left":[0,0,0,0,0,0,0,0,0],"id":32,"left_children":[1,3,-1,-1,5,-1,7,-1,-1],"loss_changes":[2.5579435E1,1.0459292E1,0E0,0E0,9.2991295E0,0E0,1.4317536E1,0E0,0E0],"parents":[2147483647,0,0,1,1,4,4,6,6],"right_children":[2,4,-1,-1,6,-1,8,-1,-1],"split_conditions":[2.83E1,2.5E1,-5.234536E-2,-5.506398E-2,3E0,5.180533E-2,7.75E1,2.4443565E-2,-5.9392553E-2],"split_indices":[17,5,0,0,17,0,9,0,0],"split_type":[0,0,0,0,0,0,0,0,0],"sum_hessian":[7.162767E1,5.809898E1,1.3528695E1,3.233944E0,5.4865036E1,2.1779598E1,3.3085438E1,2.7882582E1,5.2028546E0],"tree_param":{"num_deleted":"0","num_feature":"29","num_nodes":"9","size_leaf_vector":"1"}}]},"name":"gbtree"},"learner_model_param":{"base_score":"[5E-1]","boost_from_average":"1","num_class":"0","num_feature":"29","num_target":"1"},"objective":{"name":"binary:logistic","reg_loss_param":{"scale_pos_weight":"12.1538458"}}},"version":[3,2,0]}