{"learner":{"attributes":{"best_iteration":"7","best_score":"0.720068073199451","scikit_learn":"{\"_estimator_type\": \"ranker\"}"},"feature_names":[],"feature_types":[],"gradient_booster":{"model":{"cats":{"enc":[],"feature_segments":[],"sorted_idx":[]},"gbtree_model_param":{"num_parallel_tree":"1","num_trees":"33"},"iteration_indptr":[0,1,2,3,4,5,6,7,8,9,10,11,12,13,14,15,16,17,18,19,20,21,22,23,24,25,26,27,28,29,30,31,32,33],"tree_info":[0,0,0,0,0,0,0,0,0,0,0,0,0,0,0,0,0,0,0,0,0,0,0,0,0,0,0,0,0,0,0,0,0],"trees":[{"base_weights":[-1.9132576E-3,3.4548506E-1,-4.8735526E-1,5.3258693E-1,1.50561E-1,-2.8721845E-1,-7.771822E-1,6.4507806E-1,4.6824795E-1,-4.296928E-3,2.6081178E-1,-4.5434406E-1,-9.85797E-2,-6.084958E-1,-8.517796E-1,5.16114E-1,6.877399E-1,4.9767196E-1,3.3779564E-1,7.455918E-2,-2.3958708E-1,4.3985444E-1,1.8337719E-1,-7.2062474E-1,-3.5071903E-1,5.4856353E-3,-2.551118E-1,-3.8644347E-1,-7.022147E-1,-5.7686263E-1,-8.873966E-1,7.792775E-2,5.3844213E-1,2.469648E-3,6.92029E-1,4.182268E-1,5.4213625E-1,-8.966315E-3,3.536491E-1,-7.3622875E-2,1.689687E-1,-3.4261352E-1,-5.6101363E-3,6.213738E-1,3.3768117E-1,2.5472805E-1,6.976517E-2,-4.90115E-1,-8.247384E-1,-1.6730282E-1,-4.8453152E-1,5.149698E-1,-4.6482705E-2,5.3208023E-1,-3.086174E-1,-6.401762E-1,-6.913966E-2,-8.801359E-1,-6.0197616E-1,-2.5035012E-1,-8.655484E-1,-9.171278E-1,-7.1627355E-1,1.7814571E-2,-9.479827E-3,2.4661481E-2,1.4858212E-2,2.4745014E-2,1.9995907E-2,1.7249487E-2,1.0569874E-2,1.9935675E-2,1.4088195E-2,1.6756682E-2,9.320246E-3,1.9792575E-2,-3.355878E-3,6.579879E-3,-1.0340298E-3,-1.7998537E-2,-5.86766E-3,2.5485058E-3,-1.5253645E-2,3.811747E-3,2.0009844E-2,4.864257E-3,1.2383183E-2,8.236593E-3,-1.3874952E-2,-5.9602084E-3,4.793977E-3,-1.7544948E-2,3.965325E-3,-2.5129678E-2,-6.6067013E-3,-1.0419851E-2,-2.4344765E-3,-1.9123444E-2,-1.1611862E-2,-2.138068E-2,2.0289205E-2,-2.2401467E-3,1.6784018E-2,2.421418E-2,-1.2671899E-2,-1.156153E-2,3.4851937E-3,3.4562318E-4,-2.1849902E-2,8.730311E-3,-1.266312E-2,-1.3310533E-2,-2.8042264E-2,-1.1811218E-2,-2.3364872E-2,8.553134E-3,-2.1907568E-2,-2.788551E-2,-9.3806E-3,-9.201476E-3,-2.7627142E-2,-2.2537254E-2,-6.2070314E-5],"categories":[],"categories_nodes":[],"categories_segments":[],"categories_sizes":[],"default_left":[0,0,0,0,0,0,0,0,0,0,0,0,0,0,0,0,0,0,0,0,0,0,0,0,0,0,0,0,0,0,0,0,0,0,0,0,0,0,0,0,0,0,0,0,0,0,0,0,0,0,0,0,0,0,0,0,0,0,0,0,0,0,0,0,0,0,0,0,0,0,0,0,0,0,0,0,0,0,0,0,0,0,0,0,0,0,0,0,0,0,0,0,0,0,0,0,0,0,0,0,0,0,0,0,0,0,0,0,0,0,0,0,0,0,0,0,0,0,0,0,0,0,0],"id":0,"left_children":[1,3,5,7,9,11,13,15,17,19,21,23,25,27,29,31,33,35,37,39,41,43,45,47,49,51,53,55,57,59,61,63,65,-1,67,69,71,-1,73,75,77,79,81,83,85,87,89,91,93,95,97,99,101,103,105,107,109,111,113,115,117,119,121,-1,-1,-1,-1,-1,-1,-1,-1,-1,-1,-1,-1,-1,-1,-1,-1,-1,-1,-1,-1,-1,-1,-1,-1,-1,-1,-1,-1,-1,-1,-1,-1,-1,-1,-1,-1,-1,-1,-1,-1,-1,-1,-1,-1,-1,-1,-1,-1,-1,-1,-1,-1,-1,-1,-1,-1,-1,-1,-1,-1],"loss_changes":[1.1006512E3,1.3866061E2,1.5768915E2,1.3743469E1,3.1834728E1,5.0774277E1,1.3467529E1,3.5152893E0,4.5846252E0,1.4423027E1,1.5019386E1,2.3324066E1,1.235731E1,6.893631E0,7.0094604E0,1.708046E0,1.3078003E0,3.3347168E0,2.437214E0,8.158199E0,4.701706E0,5.875553E0,6.1595E0,5.3174973E0,1.5062798E1,1.2113212E1,1.2923048E1,8.36175E0,3.7663116E0,8.357157E0,2.793457E0,2.187659E0,1.6744461E0,0E0,1.2170563E0,3.5798264E0,5.3959503E0,0E0,1.8151455E0,6.4481277E0,3.6545115E0,5.007619E0,2.8059125E0,2.5533485E0,2.7293205E0,6.777153E0,7.169635E0,4.594801E0,1.086586E0,4.032276E0,5.0626984E0,8.869218E0,7.1346607E0,5.4988427E0,9.31497E0,3.3344498E0,6.16281E0,1.6025696E0,5.4851723E0,1.1537953E1,1.402298E0,1.0414124E0,2.6195908E0,0E0,0E0,0E0,0E0,0E0,0E0,0E0,0E0,0E0,0E0,0E0,0E0,0E0,0E0,0E0,0E0,0E0,0E0,0E0,0E0,0E0,0E0,0E0,0E0,0E0,0E0,0E0,0E0,0E0,0E0,0E0,0E0,0E0,0E0,0E0,0E0,0E0,0E0,0E0,0E0,0E0,0E0,0E0,0E0,0E0,0E0,0E0,0E0,0E0,0E0,0E0,0E0,0E0,0E0,0E0,0E0,0E0,0E0,0E0,0E0],"parents":[2147483647,0,0,1,1,2,2,3,3,4,4,5,5,6,6,7,7,8,8,9,9,10,10,11,11,12,12,13,13,14,14,15,15,16,16,17,17,18,18,19,19,20,20,21,21,22,22,23,23,24,24,25,25,26,26,27,27,28,28,29,29,30,30,31,31,32,32,34,34,35,35,36,36,38,38,39,39,40,40,41,41,42,42,43,43,44,44,45,45,46,46,47,47,48,48,49,49,50,50,51,51,52,52,53,53,54,54,55,55,56,56,57,57,58,58,59,59,60,60,61,61,62,62],"right_children":[2,4,6,8,10,12,14,16,18,20,22,24,26,28,30,32,34,36,38,40,42,44,46,48,50,52,54,56,58,60,62,64,66,-1,68,70,72,-1,74,76,78,80,82,84,86,88,90,92,94,96,98,100,102,104,106,108,110,112,114,116,118,120,122,-1,-1,-1,-1,-1,-1,-1,-1,-1,-1,-1,-1,-1,-1,-1,-1,-1,-1,-1,-1,-1,-1,-1,-1,-1,-1,-1,-1,-1,-1,-1,-1,-1,-1,-1,-1,-1,-1,-1,-1,-1,-1,-1,-1,-1,-1,-1,-1,-1,-1,-1,-1,-1,-1,-1,-1,-1,-1,-1,-1],"split_conditions":[2.9177706E0,1.8082888E0,4.3214803E0,1.1314021E0,3.2E-1,4.65E-1,4.7282724E0,2E0,2.3076923E-1,2.6100698E0,2E0,2E0,6.666667E-1,2.3809524E-2,5E1,4.747E1,-3.7E2,1.5428571E-1,4.9E1,3E0,3E0,2.7272728E-1,3.846154E-1,3.342862E0,3.4499876E0,3.007E1,-1.3333334E0,4.5622625E0,4E0,5E1,9E-1,1.125E-1,4.833E1,2.469648E-3,5.3062826E-1,1E0,2E0,-8.966315E-3,4.5E1,2.3809524E-2,4.1666666E-1,3E0,7E1,4.9E1,1.3E1,2.7368422E0,2E0,5.5E1,4.302713E0,4E0,1.5E1,3.3333334E-1,1.89E2,4E1,6.444722E1,4.4444445E-1,6.12E-1,4.806E1,7.647059E-1,3.6923077E-2,6.3254744E-2,-2.6E0,3E0,1.7814571E-2,-9.479827E-3,2.4661481E-2,1.4858212E-2,2.4745014E-2,1.9995907E-2,1.7249487E-2,1.0569874E-2,1.9935675E-2,1.4088195E-2,1.6756682E-2,9.320246E-3,1.9792575E-2,-3.355878E-3,6.579879E-3,-1.0340298E-3,-1.7998537E-2,-5.86766E-3,2.5485058E-3,-1.5253645E-2,3.811747E-3,2.0009844E-2,4.864257E-3,1.2383183E-2,8.236593E-3,-1.3874952E-2,-5.9602084E-3,4.793977E-3,-1.7544948E-2,3.965325E-3,-2.5129678E-2,-6.6067013E-3,-1.0419851E-2,-2.4344765E-3,-1.9123444E-2,-1.1611862E-2,-2.138068E-2,2.0289205E-2,-2.2401467E-3,1.6784018E-2,2.421418E-2,-1.2671899E-2,-1.156153E-2,3.4851937E-3,3.4562318E-4,-2.1849902E-2,8.730311E-3,-1.266312E-2,-1.3310533E-2,-2.8042264E-2,-1.1811218E-2,-2.3364872E-2,8.553134E-3,-2.1907568E-2,-2.788551E-2,-9.3806E-3,-9.201476E-3,-2.7627142E-2,-2.2537254E-2,-6.2070314E-5],"split_indices":[22,22,22,22,28,28,22,18,23,22,19,18,23,39,4,11,48,28,17,18,19,23,23,22,22,3,26,22,30,11,38,52,11,0,22,19,19,0,2,39,23,18,5,17,13,42,18,2,22,18,13,38,29,2,44,38,28,11,23,52,49,47,24,0,0,0,0,0,0,0,0,0,0,0,0,0,0,0,0,0,0,0,0,0,0,0,0,0,0,0,0,0,0,0,0,0,0,0,0,0,0,0,0,0,0,0,0,0,0,0,0,0,0,0,0,0,0,0,0,0,0,0,0],"split_type":[0,0,0,0,0,0,0,0,0,0,0,0,0,0,0,0,0,0,0,0,0,0,0,0,0,0,0,0,0,0,0,0,0,0,0,0,0,0,0,0,0,0,0,0,0,0,0,0,0,0,0,0,0,0,0,0,0,0,0,0,0,0,0,0,0,0,0,0,0,0,0,0,0,0,0,0,0,0,0,0,0,0,0,0,0,0,0,0,0,0,0,0,0,0,0,0,0,0,0,0,0,0,0,0,0,0,0,0,0,0,0,0,0,0,0,0,0,0,0,0,0,0,0],"sum_hessian":[6.524567E3,3.8031765E3,2.7213904E3,1.9396404E3,1.8635361E3,1.6109546E3,1.1104358E3,7.0244666E2,1.2371938E3,7.753885E2,1.0881477E3,8.534378E2,7.5751685E2,3.432972E2,7.6713855E2,1.7786609E2,5.2458057E2,1.0072008E3,2.29993E2,5.812643E2,1.941242E2,3.2711615E2,7.6103156E2,2.3741328E2,6.160245E2,4.5559448E2,3.0192236E2,1.03409065E2,2.3988815E2,8.9960014E1,6.771785E2,8.841583E0,1.690245E2,3.8323343E0,5.207482E2,3.6516302E2,6.420378E2,5.154058E0,2.2483894E2,2.2629669E2,3.5496762E2,1.3445547E2,5.966872E1,1.1598231E2,2.1113383E2,4.6669476E2,2.943368E2,7.564382E1,1.6176947E2,2.607989E2,3.5522562E2,4.1345413E1,4.1424905E2,1.864637E1,2.83276E2,5.689517E1,4.65139E1,8.364314E1,1.5624501E2,4.3090515E1,4.6869495E1,5.732257E2,1.0395286E2,3.6084297E0,5.233154E0,1.9945286E1,1.4907922E2,7.8830215E1,4.41918E2,1.05788925E2,2.5937408E2,2.358699E2,4.0616788E2,3.6899517E1,1.8793942E2,1.04093485E1,2.1588734E2,2.8446924E2,7.049838E1,4.776744E1,8.668804E1,5.126683E1,8.40189E0,1.0119542E1,1.0586276E2,6.420445E1,1.4692938E2,4.547423E2,1.1952449E1,7.362258E1,2.2071419E2,6.5703545E1,9.940271E0,1.5800742E2,3.7620604E0,8.343098E1,1.773679E2,1.3612447E2,2.1910115E2,4.4054785E0,3.6939934E1,3.9667258E2,1.757648E1,1.4594829E1,4.0515413E0,2.3999716E2,4.3278824E1,6.882692E0,5.0012474E1,2.310948E1,2.340442E1,1.0315958E1,7.332719E1,7.3231255E1,8.3013756E1,2.055832E1,2.2532196E1,4.1398247E1,5.4712505E0,4.0305686E0,5.691951E2,9.905133E1,4.901526E0],"tree_param":{"num_deleted":"0","num_feature":"53","num_nodes":"123","size_leaf_vector":"1"}},{"base_weights":[4.122445E-3,2.3614825E-1,-4.4006315E-1,3.486291E-1,7.818572E-2,-2.6747423E-1,-7.2981894E-1,4.3046632E-1,2.4239826E-1,-1.2739894E-1,1.5458885E-1,-5.139811E-1,-1.2903531E-1,-8.109226E-1,-4.5753565E-1,3.1826824E-1,4.8272017E-1,1.560376E-1,3.0491334E-1,-5.942623E-2,-2.642723E-1,1.9583964E-1,-1.0401726E-2,-6.198873E-1,-3.7189946E-1,-4.3643132E-1,-9.686381E-2,-3.891062E-1,-8.397387E-1,-1.23125136E-1,-6.3306814E-1,4.622089E-1,2.423444E-1,6.7846924E-1,4.5703E-1,1.861459E-1,-2.2910868E-1,4.2762598E-1,2.505017E-1,-7.0386894E-2,5.102218E-1,-3.8801318E-1,-1.5445875E-1,7.7652186E-2,2.3251526E-1,-2.7575558E-2,2.7671598E-2,-4.6921125E-1,-7.146241E-1,-3.465945E-2,-4.2713383E-1,-4.8408216E-1,2.242615E-2,-2.6501201E-2,-2.6946583E-1,4.5426935E-1,-6.248746E-1,-7.2172725E-1,-9.093406E-1,-5.769664E-1,8.433058E-2,-2.922861E-1,-7.4332285E-1,1.1797586E-2,1.9757789E-2,5.8680363E-3,1.2483956E-2,-2.3065878E-2,2.0740252E-2,1.42402565E-2,8.688667E-3,4.226215E-3,1.18020605E-2,-1.7861826E-2,9.612046E-3,1.43519E-2,4.5826784E-3,1.9881083E-3,8.504845E-3,1.5522703E-4,-4.703749E-3,3.9720405E-3,2.1642035E-2,-1.4920483E-2,-4.4988943E-3,-1.7042925E-4,-1.1918368E-2,4.313431E-3,-3.7242258E-3,6.2145684E-3,1.4720876E-2,1.0528368E-3,-8.28152E-3,-1.5836649E-2,2.2095535E-3,-2.1885648E-2,1.7568488E-2,-4.8296014E-3,1.5395937E-2,-1.0578191E-2,-2.0966997E-2,-1.8059535E-2,-2.429372E-3,-6.8045417E-3,1.181129E-3,-5.2689314E-3,-1.5437769E-2,-2.6074577E-2,2.4686072E-2,-1.4460075E-3,-2.827726E-2,1.1486304E-2,-2.2160029E-2,-2.7337624E-2,1.8207614E-4,-2.3136543E-2,4.7157514E-3,1.0833092E-2,-1.1087717E-2,2.6142835E-3,-1.9804996E-2,-2.4583716E-2,-9.770175E-3],"categories":[],"categories_nodes":[],"categories_segments":[],"categories_sizes":[],"default_left":[0,0,0,0,0,0,0,0,0,0,0,0,0,0,0,0,0,0,0,0,0,0,0,0,0,0,0,0,0,0,0,0,0,0,0,0,0,0,0,0,0,0,0,0,0,0,0,0,0,0,0,0,0,0,0,0,0,0,0,0,0,0,0,0,0,0,0,0,0,0,0,0,0,0,0,0,0,0,0,0,0,0,0,0,0,0,0,0,0,0,0,0,0,0,0,0,0,0,0,0,0,0,0,0,0,0,0,0,0,0,0,0,0,0,0,0,0,0,0,0,0,0,0],"id":1,"left_children":[1,3,5,7,9,11,13,15,17,19,21,23,25,27,29,31,33,35,37,39,41,43,45,47,49,51,53,55,57,59,61,63,65,67,69,71,73,75,77,79,81,83,85,87,89,91,-1,93,95,97,99,101,-1,103,105,107,109,111,113,115,117,119,121,-1,-1,-1,-1,-1,-1,-1,-1,-1,-1,-1,-1,-1,-1,-1,-1,-1,-1,-1,-1,-1,-1,-1,-1,-1,-1,-1,-1,-1,-1,-1,-1,-1,-1,-1,-1,-1,-1,-1,-1,-1,-1,-1,-1,-1,-1,-1,-1,-1,-1,-1,-1,-1,-1,-1,-1,-1,-1,-1,-1],"loss_changes":[2.6004834E3,2.944607E2,4.327693E2,8.405481E1,1.0831764E2,1.8515335E2,7.0986084E1,3.1896973E1,2.2707184E1,1.7369514E1,3.421644E1,2.9135376E1,3.434245E1,2.9920166E1,4.3588303E1,1.8903458E1,1.8436462E1,2.0589565E1,1.6210587E1,7.839782E0,8.361759E0,1.7414291E1,1.6148012E1,1.5604065E1,1.5556473E1,1.8930347E1,3.8234222E1,3.2294685E1,1.846875E1,2.4274237E1,1.8102737E1,7.8627625E0,9.189278E0,8.550537E0,9.605835E0,1.5369728E1,2.6139412E1,1.0384079E1,1.0287323E1,8.0127325E0,1.7967525E0,7.492771E0,1.1920313E1,1.2747528E1,1.9993103E1,1.5413591E1,0E0,1.3862221E1,1.3670013E1,8.300072E0,1.4300156E1,1.5017296E1,0E0,2.9540262E1,2.0881935E1,1.8154999E1,2.308221E1,1.6537506E1,2.564209E0,1.1650818E1,2.2427876E1,1.6924524E1,1.1426651E1,0E0,0E0,0E0,0E0,0E0,0E0,0E0,0E0,0E0,0E0,0E0,0E0,0E0,0E0,0E0,0E0,0E0,0E0,0E0,0E0,0E0,0E0,0E0,0E0,0E0,0E0,0E0,0E0,0E0,0E0,0E0,0E0,0E0,0E0,0E0,0E0,0E0,0E0,0E0,0E0,0E0,0E0,0E0,0E0,0E0,0E0,0E0,0E0,0E0,0E0,0E0,0E0,0E0,0E0,0E0,0E0,0E0,0E0,0E0,0E0],"parents":[2147483647,0,0,1,1,2,2,3,3,4,4,5,5,6,6,7,7,8,8,9,9,10,10,11,11,12,12,13,13,14,14,15,15,16,16,17,17,18,18,19,19,20,20,21,21,22,22,23,23,24,24,25,25,26,26,27,27,28,28,29,29,30,30,31,31,32,32,33,33,34,34,35,35,36,36,37,37,38,38,39,39,40,40,41,41,42,42,43,43,44,44,45,45,47,47,48,48,49,49,50,50,51,51,53,53,54,54,55,55,56,56,57,57,58,58,59,59,60,60,61,61,62,62],"right_children":[2,4,6,8,10,12,14,16,18,20,22,24,26,28,30,32,34,36,38,40,42,44,46,48,50,52,54,56,58,60,62,64,66,68,70,72,74,76,78,80,82,84,86,88,90,92,-1,94,96,98,100,102,-1,104,106,108,110,112,114,116,118,120,122,-1,-1,-1,-1,-1,-1,-1,-1,-1,-1,-1,-1,-1,-1,-1,-1,-1,-1,-1,-1,-1,-1,-1,-1,-1,-1,-1,-1,-1,-1,-1,-1,-1,-1,-1,-1,-1,-1,-1,-1,-1,-1,-1,-1,-1,-1,-1,-1,-1,-1,-1,-1,-1,-1,-1,-1,-1,-1,-1,-1],"split_conditions":[2.6741486E0,1.686399E0,4.104295E0,-2.0548358E0,9.777778E-2,1.0674157E-1,1.21672384E-1,1.1298903E-1,1.200878E-1,-8.329091E-1,-6.3177824E-1,4E0,1.1E1,8E0,1E0,8.329091E-1,5.3062826E-1,1E0,4.613E1,6.2E1,4E0,-2E-2,6.8E0,3.1780539E0,5.45E1,3.4285715E0,3.3333334E-1,4.756E1,4.685828E0,1.6057808E-2,4.574914E-3,2.556627E-1,4E0,-1.08E0,5.8E1,5.507E1,1.9E3,3.0508474E-1,-1.5E-1,1.2727273E-1,4.991E1,-2.360773E-1,-3.845584E-1,-1.0285714E-1,5.4E1,2.2580644E-1,2.7671598E-2,1.9105524E-1,7E0,1E0,3.723281E0,1.7857143E-1,2.242615E-2,3E0,3.508556E0,1.5615819E0,4.4296255E0,-1.8E0,9.103E1,2E3,5E0,4E0,2.1875E-1,1.1797586E-2,1.9757789E-2,5.8680363E-3,1.2483956E-2,-2.3065878E-2,2.0740252E-2,1.42402565E-2,8.688667E-3,4.226215E-3,1.18020605E-2,-1.7861826E-2,9.612046E-3,1.43519E-2,4.5826784E-3,1.9881083E-3,8.504845E-3,1.5522703E-4,-4.703749E-3,3.9720405E-3,2.1642035E-2,-1.4920483E-2,-4.4988943E-3,-1.7042925E-4,-1.1918368E-2,4.313431E-3,-3.7242258E-3,6.2145684E-3,1.4720876E-2,1.0528368E-3,-8.28152E-3,-1.5836649E-2,2.2095535E-3,-2.1885648E-2,1.7568488E-2,-4.8296014E-3,1.5395937E-2,-1.0578191E-2,-2.0966997E-2,-1.8059535E-2,-2.429372E-3,-6.8045417E-3,1.181129E-3,-5.2689314E-3,-1.5437769E-2,-2.6074577E-2,2.4686072E-2,-1.4460075E-3,-2.827726E-2,1.1486304E-2,-2.2160029E-2,-2.7337624E-2,1.8207614E-4,-2.3136543E-2,4.7157514E-3,1.0833092E-2,-1.1087717E-2,2.6142835E-3,-1.9804996E-2,-2.4583716E-2,-9.770175E-3],"split_indices":[22,22,22,36,25,25,25,25,25,36,36,15,13,0,51,22,22,47,7,4,15,27,45,22,17,45,26,11,22,49,49,49,15,27,17,7,20,52,27,52,11,36,36,27,8,39,0,36,51,31,22,39,0,15,22,36,22,26,0,20,30,15,39,0,0,0,0,0,0,0,0,0,0,0,0,0,0,0,0,0,0,0,0,0,0,0,0,0,0,0,0,0,0,0,0,0,0,0,0,0,0,0,0,0,0,0,0,0,0,0,0,0,0,0,0,0,0,0,0,0,0,0,0],"split_type":[0,0,0,0,0,0,0,0,0,0,0,0,0,0,0,0,0,0,0,0,0,0,0,0,0,0,0,0,0,0,0,0,0,0,0,0,0,0,0,0,0,0,0,0,0,0,0,0,0,0,0,0,0,0,0,0,0,0,0,0,0,0,0,0,0,0,0,0,0,0,0,0,0,0,0,0,0,0,0,0,0,0,0,0,0,0,0,0,0,0,0,0,0,0,0,0,0,0,0,0,0,0,0,0,0,0,0,0,0,0,0,0,0,0,0,0,0,0,0,0,0,0,0],"sum_hessian":[2.5230084E4,1.6573291E4,8.656794E3,9.679544E3,6.8937466E3,5.4265E3,3.2302942E3,5.465796E3,4.213748E3,1.8676442E3,5.0261025E3,1.950569E3,3.4759312E3,2.4874048E3,7.428895E2,1.7389847E3,3.7268113E3,1.7708818E3,2.4428662E3,1.2488745E3,6.1876965E2,4.0206711E3,1.00543134E3,1.1156283E3,8.349406E2,3.281281E2,3.147803E3,1.5998679E2,2.327418E3,2.5630298E2,4.8658655E2,5.987512E2,1.1402335E3,4.2941656E2,3.2973948E3,1.6429622E3,1.2791969E2,7.483287E2,1.6945375E3,1.2261583E3,2.2716223E1,2.8974448E2,3.2902518E2,9.529382E2,3.067733E3,9.882076E2,1.7223736E1,4.3296454E2,6.826638E2,1.1773332E2,7.172073E2,3.1600125E2,1.2126865E1,2.237018E3,9.107849E2,3.4751E1,1.2523579E2,8.676568E2,1.4597612E3,7.984614E1,1.7645683E2,1.19837204E2,3.6674936E2,4.4537122E2,1.5338E2,9.0022723E2,2.400063E2,3.2678196E0,4.2614874E2,2.9813198E3,3.1607483E2,1.3497982E3,2.9316388E2,7.67063E1,5.12134E1,6.310317E2,1.1729697E2,2.5783206E2,1.4367054E3,6.5462634E2,5.71532E2,8.727978E0,1.3988244E1,1.9780394E2,9.194053E1,2.0465494E2,1.2437024E2,7.1794916E2,2.3498901E2,2.7949653E3,2.7276767E2,7.89851E2,1.983566E2,3.90756E2,4.2208515E1,6.7536475E2,7.2990475E0,9.6246544E1,2.1486784E1,5.6465674E2,1.5255049E2,2.4410918E2,7.1892075E1,5.5297656E2,1.6840415E3,6.5989325E2,2.508917E2,7.2745256E0,2.7476473E1,4.489548E1,8.034031E1,1.2779288E1,8.548775E2,1.4567207E3,3.0405164E0,6.3099968E1,1.674617E1,1.0974546E2,6.671138E1,5.9368317E1,6.0468884E1,3.0938824E2,5.736111E1],"tree_param":{"num_deleted":"0","num_feature":"53","num_nodes":"123","size_leaf_vector":"1"}},{"base_weights":[3.3516735E-3,1.9241977E-1,-4.2803323E-1,3.1519777E-1,4.584105E-2,-6.511977E-1,-2.5569627E-1,4.225455E-1,2.5037113E-1,-1.6838504E-1,1.2436665E-1,-5.4983115E-1,-8.533138E-1,-1.5513545E-1,-5.558407E-1,2.9484555E-1,4.9054107E-1,1.5309627E-1,3.054479E-1,7.528203E-3,-2.5473973E-1,1.8771218E-1,5.8365498E-2,-7.008906E-1,-3.879013E-1,-8.6478084E-1,2.2741537E-1,1.0994583E-1,-2.0718889E-1,-5.8129644E-1,1.6767462E-1,2.770006E-2,2.749422E-1,-4.2165396E-1,4.9389353E-1,9.6438825E-2,3.6086267E-1,4.3806157E-1,2.3803468E-1,-2.4115765E-2,4.809866E-1,-3.7187734E-1,-9.627219E-2,2.4563012E-1,3.374318E-2,1.8838619E-1,1.4625306E-2,-6.252761E-1,-7.991794E-1,-4.085054E-1,3.5937428E-1,-8.735214E-1,-1.0388386E-1,-1.03682885E-2,2.2123275E-2,1.8656489E-1,-3.0008656E-1,-1.4905383E-1,-3.401669E-1,-6.3922584E-1,-1.9113667E-1,-7.815463E-1,8.263826E-1,1.8937521E-3,1.0249257E-2,5.316583E-3,-2.3514614E-2,1.5034627E-2,2.5498974E-3,6.0739915E-4,7.352143E-3,-1.9496994E-2,1.1635112E-2,1.4232409E-2,6.3035144E-3,8.8836085E-3,2.4229987E-3,-7.7930805E-3,1.6586289E-3,2.1599734E-2,-2.55422E-3,-1.1689367E-2,1.9950598E-2,6.2522483E-3,-4.1481894E-3,3.5265177E-3,9.023445E-3,1.8745538E-2,3.8737652E-4,-9.472827E-3,6.4008287E-3,-7.0452485E-3,1.3082147E-3,-1.9285358E-2,1.0138546E-2,-2.4217894E-2,8.774531E-3,-1.0423693E-2,-1.6431281E-2,1.781761E-2,-2.3554748E-2,-2.662766E-2,-1.3943159E-2,1.8397838E-2,-2.4739066E-2,6.89052E-3,-2.2176642E-2,-1.7578369E-2,1.228356E-2,-3.1805015E-3,-1.1224653E-2,-1.1830792E-2,3.8103384E-3,-1.5316638E-2,-2.4712002E-2,-1.55852735E-2,1.5822625E-2,-2.6708446E-2,-8.175408E-3,1.4666936E-2,2.769499E-2],"categories":[],"categories_nodes":[],"categories_segments":[],"categories_sizes":[],"default_left":[0,0,0,0,0,0,0,0,0,0,0,0,0,0,0,0,0,0,0,0,0,0,0,0,0,0,0,0,0,0,0,0,0,0,0,0,0,0,0,0,0,0,0,0,0,0,0,0,0,0,0,0,0,0,0,0,0,0,0,0,0,0,0,0,0,0,0,0,0,0,0,0,0,0,0,0,0,0,0,0,0,0,0,0,0,0,0,0,0,0,0,0,0,0,0,0,0,0,0,0,0,0,0,0,0,0,0,0,0,0,0,0,0,0,0,0,0,0,0,0,0],"id":2,"left_children":[1,3,5,7,9,11,13,15,17,19,21,23,25,27,29,31,33,35,37,39,41,43,45,47,49,51,53,55,57,59,61,-1,63,65,67,69,71,73,75,77,79,81,83,85,87,89,91,93,95,97,99,101,103,-1,-1,105,107,109,111,113,115,117,119,-1,-1,-1,-1,-1,-1,-1,-1,-1,-1,-1,-1,-1,-1,-1,-1,-1,-1,-1,-1,-1,-1,-1,-1,-1,-1,-1,-1,-1,-1,-1,-1,-1,-1,-1,-1,-1,-1,-1,-1,-1,-1,-1,-1,-1,-1,-1,-1,-1,-1,-1,-1,-1,-1,-1,-1,-1,-1],"loss_changes":[1.9094705E3,2.9292438E2,2.7420715E2,6.153473E1,1.2485419E2,6.3206787E1,1.21463165E2,2.880127E1,2.9554321E1,3.0245659E1,2.2694656E1,5.0428467E1,1.30390625E1,4.1664352E1,1.870398E1,1.4266533E1,6.856018E0,2.3500904E1,3.1424011E1,9.847353E0,2.4752724E1,2.4699707E1,1.5131336E1,7.4608154E0,1.558371E1,6.7302246E0,3.666051E0,1.5638292E1,1.9452751E1,2.1940308E1,2.2600138E1,0E0,1.5894966E1,1.9823511E0,6.388977E0,1.7801237E1,1.192234E1,9.739243E0,2.1354858E1,1.1546821E1,5.632778E0,1.43991165E1,7.309234E0,1.4185371E1,9.331646E0,8.500647E0,1.4414776E1,1.0539932E1,4.3143005E0,8.105362E0,7.8308816E0,5.4171143E0,7.1128483E0,0E0,0E0,1.6876759E1,1.615652E1,1.6983646E1,1.946003E1,1.9747772E1,3.0387295E1,5.8199406E-1,2.4158573E-1,0E0,0E0,0E0,0E0,0E0,0E0,0E0,0E0,0E0,0E0,0E0,0E0,0E0,0E0,0E0,0E0,0E0,0E0,0E0,0E0,0E0,0E0,0E0,0E0,0E0,0E0,0E0,0E0,0E0,0E0,0E0,0E0,0E0,0E0,0E0,0E0,0E0,0E0,0E0,0E0,0E0,0E0,0E0,0E0,0E0,0E0,0E0,0E0,0E0,0E0,0E0,0E0,0E0,0E0,0E0,0E0,0E0,0E0],"parents":[2147483647,0,0,1,1,2,2,3,3,4,4,5,5,6,6,7,7,8,8,9,9,10,10,11,11,12,12,13,13,14,14,15,15,16,16,17,17,18,18,19,19,20,20,21,21,22,22,23,23,24,24,25,25,26,26,27,27,28,28,29,29,30,30,32,32,33,33,34,34,35,35,36,36,37,37,38,38,39,39,40,40,41,41,42,42,43,43,44,44,45,45,46,46,47,47,48,48,49,49,50,50,51,51,52,52,55,55,56,56,57,57,58,58,59,59,60,60,61,61,62,62],"right_children":[2,4,6,8,10,12,14,16,18,20,22,24,26,28,30,32,34,36,38,40,42,44,46,48,50,52,54,56,58,60,62,-1,64,66,68,70,72,74,76,78,80,82,84,86,88,90,92,94,96,98,100,102,104,-1,-1,106,108,110,112,114,116,118,120,-1,-1,-1,-1,-1,-1,-1,-1,-1,-1,-1,-1,-1,-1,-1,-1,-1,-1,-1,-1,-1,-1,-1,-1,-1,-1,-1,-1,-1,-1,-1,-1,-1,-1,-1,-1,-1,-1,-1,-1,-1,-1,-1,-1,-1,-1,-1,-1,-1,-1,-1,-1,-1,-1,-1,-1,-1,-1],"split_conditions":[-3.665497E-1,3E0,1.0862005E-1,-2.396474E0,9.777778E-2,1.1506268E0,9.309609E-1,1.1551312E-1,1.1705051E-1,4E0,2E0,2E0,9.65E1,4.419E1,9E1,2E1,3.023E1,2.1E3,2E0,3E0,2E0,4E0,3E0,1E1,6E0,6E0,2.5E-1,6.666667E-1,2.5489226E-1,7.2E1,8E-1,2.770006E-2,1.2142857E-1,4.876E1,2.7368422E0,3E0,2.6897333E1,1.9E3,-1.4922758E0,9.6E-2,1.1886793E-1,6.8E-1,-1.4687381E0,3.12E-1,7.1428575E-2,-8.5714287E-1,1.1255079E-1,1.0917863E0,5.0337076E-1,4.8920316E-1,1.1E1,1.0986999E-1,4.841E1,-1.03682885E-2,2.2123275E-2,1.2E1,7.143429E1,8.1E-1,5.283E1,1.6058601E0,2.301673E0,1.14285715E-1,1.2E1,1.8937521E-3,1.0249257E-2,5.316583E-3,-2.3514614E-2,1.5034627E-2,2.5498974E-3,6.0739915E-4,7.352143E-3,-1.9496994E-2,1.1635112E-2,1.4232409E-2,6.3035144E-3,8.8836085E-3,2.4229987E-3,-7.7930805E-3,1.6586289E-3,2.1599734E-2,-2.55422E-3,-1.1689367E-2,1.9950598E-2,6.2522483E-3,-4.1481894E-3,3.5265177E-3,9.023445E-3,1.8745538E-2,3.8737652E-4,-9.472827E-3,6.4008287E-3,-7.0452485E-3,1.3082147E-3,-1.9285358E-2,1.0138546E-2,-2.4217894E-2,8.774531E-3,-1.0423693E-2,-1.6431281E-2,1.781761E-2,-2.3554748E-2,-2.662766E-2,-1.3943159E-2,1.8397838E-2,-2.4739066E-2,6.89052E-3,-2.2176642E-2,-1.7578369E-2,1.228356E-2,-3.1805015E-3,-1.1224653E-2,-1.1830792E-2,3.8103384E-3,-1.5316638E-2,-2.4712002E-2,-1.55852735E-2,1.5822625E-2,-2.6708446E-2,-8.175408E-3,1.4666936E-2,2.769499E-2],"split_indices":[36,14,25,36,25,36,36,25,25,14,51,19,7,3,44,29,7,20,19,24,19,15,18,14,51,51,26,34,36,5,26,0,52,11,42,19,44,20,36,52,52,28,36,28,38,45,25,36,52,36,14,49,11,0,0,14,44,28,11,36,36,52,32,0,0,0,0,0,0,0,0,0,0,0,0,0,0,0,0,0,0,0,0,0,0,0,0,0,0,0,0,0,0,0,0,0,0,0,0,0,0,0,0,0,0,0,0,0,0,0,0,0,0,0,0,0,0,0,0,0,0],"split_type":[0,0,0,0,0,0,0,0,0,0,0,0,0,0,0,0,0,0,0,0,0,0,0,0,0,0,0,0,0,0,0,0,0,0,0,0,0,0,0,0,0,0,0,0,0,0,0,0,0,0,0,0,0,0,0,0,0,0,0,0,0,0,0,0,0,0,0,0,0,0,0,0,0,0,0,0,0,0,0,0,0,0,0,0,0,0,0,0,0,0,0,0,0,0,0,0,0,0,0,0,0,0,0,0,0,0,0,0,0,0,0,0,0,0,0,0,0,0,0,0,0],"sum_hessian":[2.3409516E4,1.6276415E4,7.1331E3,8.856685E3,7.4197305E3,3.1069883E3,4.026112E3,3.3326177E3,5.5240674E3,1.9899078E3,5.4298228E3,2.0716982E3,1.0352899E3,3.016857E3,1.009255E3,1.159792E3,2.1728257E3,1.9983777E3,3.5256895E3,6.555002E2,1.3344077E3,2.7697102E3,2.6601123E3,1.070103E3,1.0015953E3,1.0246182E3,1.067181E1,4.9499432E2,2.5218625E3,9.7514276E2,3.4112278E1,3.420812E1,1.1255839E3,7.499362E0,2.1653264E3,1.5713407E3,4.2703702E2,1.186378E3,2.3393115E3,6.153236E2,4.017658E1,7.6648376E2,5.679239E2,2.012195E3,7.5751514E2,6.687879E2,1.9913245E3,6.089744E2,4.6112854E2,9.751612E2,2.643409E1,1.0128355E3,1.1782629E1,5.1773415E0,5.494469E0,4.1752094E2,7.747338E1,1.7562079E3,7.6565466E2,8.485195E2,1.2662331E2,1.3898122E1,2.0214157E1,2.7002292E2,8.55561E2,3.0185685E0,4.4807935E0,2.1273262E3,3.8000214E1,1.039571E3,5.3176965E2,1.0499892E1,4.1653714E2,1.0222677E3,1.6411034E2,1.7077031E3,6.3160834E2,1.5450673E2,4.608169E2,2.8059E1,1.21175785E1,7.541843E2,1.22994585E1,6.832457E1,4.9959933E2,6.066008E2,1.4055942E3,2.4799044E1,7.327161E2,3.1017527E1,6.377704E2,2.0652422E2,1.7848002E3,5.983924E2,1.0582023E1,4.579976E2,3.1309528E0,6.8030444E2,2.9485675E2,2.2337587E1,4.0965023E0,9.7800555E2,3.482998E1,5.9808464E0,5.8017826E0,3.9965848E2,1.7862455E1,5.534868E1,2.2124708E1,1.4755656E3,2.8064236E2,6.8620996E2,7.944473E1,5.021199E2,3.4639954E2,8.709769E1,3.9525627E1,1.0834732E1,3.06339E0,5.8537188E0,1.4360439E1],"tree_param":{"num_deleted":"0","num_feature":"53","num_nodes":"121","size_leaf_vector":"1"}},{"base_weights":[3.2057967E-3,1.779073E-1,-4.5316857E-1,3.128117E-1,3.4580052E-2,-3.034563E-1,-7.692536E-1,3.9779213E-1,2.513392E-1,1.3014814E-1,-3.333896E-2,-7.3386654E-2,-3.641942E-1,-5.9930855E-1,-8.3535665E-1,5.728508E-1,3.661391E-1,4.165399E-1,2.3391214E-1,6.067827E-2,2.41933E-1,9.946338E-2,-9.58141E-2,2.676823E-2,-3.6704782E-1,-2.66506E-1,-4.9753064E-1,-7.4483895E-1,-3.0733755E-1,8.741683E-2,-8.4232E-1,5.810991E-1,-1.3547412E-2,2.1131405E-1,3.8981837E-1,2.132002E-1,5.3230816E-1,2.620894E-1,1.065274E-1,-1.23723514E-1,1.2074711E-1,4.4081706E-1,1.6369845E-1,3.1487107E-1,1.2825641E-2,5.4732896E-2,-1.5766536E-1,3.8592005E-1,-6.8848595E-2,2.4486524E-1,-5.3904873E-1,-9.412538E-2,-3.4025443E-1,4.5010638E-1,-5.1930845E-1,2.266074E-1,-7.722789E-1,-6.122179E-1,-6.1211463E-2,-2.3046035E-2,2.2649802E-2,-9.8817244E-2,-8.5108364E-1,1.5358976E-2,2.100817E-2,2.4946642E-3,1.2812784E-2,4.3987567E-3,1.2121822E-2,1.130375E-2,-6.21637E-3,1.6647631E-2,-1.4018888E-2,7.2972863E-3,1.3901934E-2,6.7515E-3,-3.743723E-4,-4.8157508E-3,1.3473364E-2,-1.7045453E-2,3.915971E-3,-5.373699E-3,1.4329871E-2,3.8753538E-3,1.6345054E-2,1.1775428E-2,-4.842481E-3,-1.4207311E-4,2.3264105E-2,2.162684E-3,-1.6380196E-2,-3.4061496E-3,-9.785495E-3,1.6129987E-2,-2.0921495E-2,1.7510546E-2,-4.0068394E-3,-1.8125853E-2,1.4946253E-2,-3.9310795E-3,-2.0695472E-2,3.0386576E-3,-6.8329955E-3,-1.2186077E-2,-5.2787857E-3,-1.706596E-2,2.4950296E-2,-1.141007E-2,-1.743774E-2,2.5634438E-2,-1.9107908E-2,-1.3599753E-2,-2.4571287E-2,-2.1442842E-2,9.804075E-3,-1.8574882E-2,4.7233305E-3,-2.474436E-2,1.6579503E-2,-1.2893951E-2,-2.5707409E-2],"categories":[],"categories_nodes":[],"categories_segments":[],"categories_sizes":[],"default_left":[0,0,0,0,0,0,0,0,0,0,0,0,0,0,0,0,0,0,0,0,0,0,0,0,0,0,0,0,0,0,0,0,0,0,0,0,0,0,0,0,0,0,0,0,0,0,0,0,0,0,0,0,0,0,0,0,0,0,0,0,0,0,0,0,0,0,0,0,0,0,0,0,0,0,0,0,0,0,0,0,0,0,0,0,0,0,0,0,0,0,0,0,0,0,0,0,0,0,0,0,0,0,0,0,0,0,0,0,0,0,0,0,0,0,0,0,0,0,0,0,0],"id":3,"left_children":[1,3,5,7,9,11,13,15,17,19,21,23,25,27,29,31,33,35,37,39,41,43,45,47,49,51,53,55,57,59,61,63,-1,65,67,69,71,73,75,77,79,81,83,85,87,89,91,93,95,97,99,101,103,105,107,109,111,113,115,-1,-1,117,119,-1,-1,-1,-1,-1,-1,-1,-1,-1,-1,-1,-1,-1,-1,-1,-1,-1,-1,-1,-1,-1,-1,-1,-1,-1,-1,-1,-1,-1,-1,-1,-1,-1,-1,-1,-1,-1,-1,-1,-1,-1,-1,-1,-1,-1,-1,-1,-1,-1,-1,-1,-1,-1,-1,-1,-1,-1,-1],"loss_changes":[1.7752417E3,3.113283E2,2.9145276E2,4.323059E1,5.0687675E1,5.844586E1,2.1747925E1,1.9072632E1,1.3766846E1,2.5178078E1,3.7886833E1,2.5750957E1,4.298404E1,2.3487518E1,9.219482E0,4.75E0,1.0731934E1,1.0673927E1,1.5616104E1,2.2191479E1,1.9269104E1,2.7262833E1,2.8922857E1,2.2470264E1,2.3565697E1,2.4283005E1,2.9096344E1,1.0085556E1,1.402239E1,7.1865005E0,9.121216E0,3.9856873E0,0E0,1.0845827E1,8.798309E0,1.16267E1,6.844681E0,1.3425339E1,1.1161821E1,1.0452957E1,1.0257978E1,8.087959E0,1.168795E1,1.5559738E1,1.3972882E1,9.475517E0,1.6331635E1,2.2988667E1,2.1909046E1,1.0957185E1,1.06222725E1,1.50256405E1,1.4438324E1,1.2897146E1,1.155304E1,6.5009756E0,5.025177E0,8.281836E0,1.2881101E1,0E0,0E0,8.775022E0,3.060669E0,0E0,0E0,0E0,0E0,0E0,0E0,0E0,0E0,0E0,0E0,0E0,0E0,0E0,0E0,0E0,0E0,0E0,0E0,0E0,0E0,0E0,0E0,0E0,0E0,0E0,0E0,0E0,0E0,0E0,0E0,0E0,0E0,0E0,0E0,0E0,0E0,0E0,0E0,0E0,0E0,0E0,0E0,0E0,0E0,0E0,0E0,0E0,0E0,0E0,0E0,0E0,0E0,0E0,0E0,0E0,0E0,0E0,0E0],"parents":[2147483647,0,0,1,1,2,2,3,3,4,4,5,5,6,6,7,7,8,8,9,9,10,10,11,11,12,12,13,13,14,14,15,15,16,16,17,17,18,18,19,19,20,20,21,21,22,22,23,23,24,24,25,25,26,26,27,27,28,28,29,29,30,30,31,31,33,33,34,34,35,35,36,36,37,37,38,38,39,39,40,40,41,41,42,42,43,43,44,44,45,45,46,46,47,47,48,48,49,49,50,50,51,51,52,52,53,53,54,54,55,55,56,56,57,57,58,58,61,61,62,62],"right_children":[2,4,6,8,10,12,14,16,18,20,22,24,26,28,30,32,34,36,38,40,42,44,46,48,50,52,54,56,58,60,62,64,-1,66,68,70,72,74,76,78,80,82,84,86,88,90,92,94,96,98,100,102,104,106,108,110,112,114,116,-1,-1,118,120,-1,-1,-1,-1,-1,-1,-1,-1,-1,-1,-1,-1,-1,-1,-1,-1,-1,-1,-1,-1,-1,-1,-1,-1,-1,-1,-1,-1,-1,-1,-1,-1,-1,-1,-1,-1,-1,-1,-1,-1,-1,-1,-1,-1,-1,-1,-1,-1,-1,-1,-1,-1,-1,-1,-1,-1,-1,-1],"split_conditions":[2.867899E0,1.5892352E0,4.3438053E0,1.0647107E0,2.3809524E-2,-6.9238245E-1,4.685828E0,5.3062826E-1,-2E-1,3.3E1,8E0,4E-1,3.5779479E0,1E1,7E0,2.2E0,1E1,4E0,2.2222223E-2,1.4E1,1.856298E0,3.448276E-2,2.3076923E-1,3.007E1,-1.3E0,4E1,-1.2E0,-3.84E-1,1.6E1,4.667E1,-2.1666667E0,5.133E1,-1.3547412E-2,5.5E1,4.756E1,5.019E1,2.7655295E-1,4.9E1,5E1,5.429E1,2E0,1.2033694E-2,2.131476E0,7.86191E1,9E0,1.181013E0,2.6246686E0,1.904762E-1,1.0986123E0,5.5E1,7.7347594E-1,4E0,6.5E1,-1.5E0,7.4074075E-2,1.5E1,2E0,5.7E1,4.473922E0,-2.3046035E-2,2.2649802E-2,5.65E1,-1.8E0,1.5358976E-2,2.100817E-2,2.4946642E-3,1.2812784E-2,4.3987567E-3,1.2121822E-2,1.130375E-2,-6.21637E-3,1.6647631E-2,-1.4018888E-2,7.2972863E-3,1.3901934E-2,6.7515E-3,-3.743723E-4,-4.8157508E-3,1.3473364E-2,-1.7045453E-2,3.915971E-3,-5.373699E-3,1.4329871E-2,3.8753538E-3,1.6345054E-2,1.1775428E-2,-4.842481E-3,-1.4207311E-4,2.3264105E-2,2.162684E-3,-1.6380196E-2,-3.4061496E-3,-9.785495E-3,1.6129987E-2,-2.0921495E-2,1.7510546E-2,-4.0068394E-3,-1.8125853E-2,1.4946253E-2,-3.9310795E-3,-2.0695472E-2,3.0386576E-3,-6.8329955E-3,-1.2186077E-2,-5.2787857E-3,-1.706596E-2,2.4950296E-2,-1.141007E-2,-1.743774E-2,2.5634438E-2,-1.9107908E-2,-1.3599753E-2,-2.4571287E-2,-2.1442842E-2,9.804075E-3,-1.8574882E-2,4.7233305E-3,-2.474436E-2,1.6579503E-2,-1.2893951E-2,-2.5707409E-2],"split_indices":[22,22,22,22,39,41,22,22,45,8,32,26,22,32,29,26,13,30,35,13,22,35,23,3,45,12,26,27,13,3,45,7,0,4,11,11,49,2,44,11,14,49,43,44,14,43,22,35,40,4,43,15,5,26,39,29,18,8,22,0,0,17,26,0,0,0,0,0,0,0,0,0,0,0,0,0,0,0,0,0,0,0,0,0,0,0,0,0,0,0,0,0,0,0,0,0,0,0,0,0,0,0,0,0,0,0,0,0,0,0,0,0,0,0,0,0,0,0,0,0,0],"split_type":[0,0,0,0,0,0,0,0,0,0,0,0,0,0,0,0,0,0,0,0,0,0,0,0,0,0,0,0,0,0,0,0,0,0,0,0,0,0,0,0,0,0,0,0,0,0,0,0,0,0,0,0,0,0,0,0,0,0,0,0,0,0,0,0,0,0,0,0,0,0,0,0,0,0,0,0,0,0,0,0,0,0,0,0,0,0,0,0,0,0,0,0,0,0,0,0,0,0,0,0,0,0,0,0,0,0,0,0,0,0,0,0,0,0,0,0,0,0,0,0,0],"sum_hessian":[2.2263854E4,1.6100965E4,6.162888E3,8.293584E3,7.8073804E3,4.1834E3,1.9794885E3,3.4788716E3,4.8147124E3,3.2431145E3,4.564266E3,8.742035E2,3.3091963E3,5.57156E2,1.4223326E3,5.3008887E2,2.9487827E3,4.5725385E2,4.3574585E3,2.0010708E3,1.2420436E3,1.4600565E3,3.1042097E3,6.525547E2,2.2164882E2,1.9116412E3,1.397555E3,3.7078857E2,1.863674E2,1.0566216E1,1.4117664E3,5.262842E2,3.8046536E0,3.924831E2,2.5562998E3,1.669167E2,2.9033716E2,3.5673174E3,7.901411E2,4.9142245E2,1.5096484E3,3.493383E2,8.9270526E2,4.1804233E2,1.0420143E3,9.039923E2,2.2002173E3,1.3656374E2,5.1599097E2,4.853969E1,1.7310913E2,5.734733E2,1.3381678E3,3.0954067E1,1.366601E3,9.986371E0,3.6080222E2,8.2583046E1,1.03784355E2,4.5648365E0,6.00138E0,1.6589556E1,1.3951768E3,3.3642044E2,1.8986377E2,2.4710446E2,1.4537862E2,1.4204953E2,2.4142502E3,1.2023461E2,4.6682095E1,2.843495E2,5.9876447E0,3.263954E3,3.033632E2,3.954289E2,3.947122E2,4.6243344E2,2.8989004E1,2.0342955E1,1.4893054E3,1.9381067E1,3.299572E2,8.197945E2,7.291079E1,3.5959747E2,5.8444866E1,1.0195313E3,2.248295E1,8.794629E2,2.4529457E1,1.7449652E3,4.552521E2,1.2022642E2,1.6337313E1,4.5831135E1,4.7015982E2,1.0836638E1,3.770305E1,4.721927E1,1.25889854E2,2.330065E2,3.404668E2,9.538278E2,3.843401E2,8.29954E0,2.2654528E1,4.235599E2,9.43041E2,5.7882504E0,4.19812E0,4.7502907E1,3.1329932E2,7.466793E1,7.915112E0,2.8705053E1,7.507931E1,7.720146E0,8.86941E0,2.0063574E1,1.3751133E3],"tree_param":{"num_deleted":"0","num_feature":"53","num_nodes":"121","size_leaf_vector":"1"}},{"base_weights":[-5.110709E-3,1.7426693E-1,-4.0124214E-1,3.1619215E-1,8.528545E-2,-2.6234385E-1,-6.578161E-1,6.174584E-1,2.8887722E-1,1.5070932E-1,-2.207266E-2,-4.1043258E-1,-1.3126999E-1,-7.8184474E-1,-4.658963E-1,5.150983E-1,6.8873835E-1,2.4064167E-1,3.5330904E-1,8.001179E-2,1.8554592E-1,-1.7139122E-1,5.110867E-2,-3.0331668E-1,-5.303922E-1,-1.0088392E-2,-2.2324203E-1,-5.0162476E-1,-8.195892E-1,-7.17756E-1,-3.4532556E-1,5.4392236E-1,-7.181976E-2,5.680085E-1,7.577274E-1,1.9871487E-1,3.9147723E-1,3.851717E-1,2.1276477E-1,2.1017323E-1,2.4122925E-2,3.091607E-1,1.424585E-1,-4.2892203E-1,-1.2667498E-1,2.15104E-1,-1.1251879E-2,-3.1783807E-1,3.3312258E-1,-5.46397E-1,6.340198E-1,6.906942E-2,-2.5031105E-1,-3.869622E-1,-1.2374892E-1,-2.6931442E-2,-3.881122E-1,-8.226646E-1,6.496736E-3,-7.5422156E-1,1.815776E-2,-2.7341992E-1,-2.6649445E-2,1.7150136E-2,-3.92006E-3,1.5393519E-2,-1.4890592E-2,2.0961687E-2,8.751146E-3,-2.471477E-3,2.322143E-2,1.1480956E-2,4.6870834E-3,1.2307162E-2,-3.6804588E-4,1.2184156E-2,4.0138685E-3,7.607162E-3,-1.8458897E-2,8.195729E-3,-1.8263255E-3,-3.6028924E-3,2.7802591E-3,1.2667764E-2,5.583201E-3,7.5254156E-3,3.3438231E-3,-1.5571761E-2,2.701317E-3,-1.1321647E-2,-2.8338248E-3,-8.391747E-3,7.657575E-3,1.7484253E-4,-1.633681E-2,-8.812175E-3,-2.1352971E-2,2.0934481E-2,-2.5165217E-2,-1.9162033E-2,-1.3886489E-2,1.1127437E-2,2.5656665E-2,-1.2870985E-2,3.1460584E-3,1.2112056E-2,-1.054794E-2,1.3493093E-2,-1.3496634E-2,-2.3420558E-3,-1.4538307E-2,4.1343602E-3,-1.6969986E-2,-2.3512904E-2,-2.7294403E-2,-2.356474E-2,-1.0687025E-2,-4.9283826E-5,-1.349E-2],"categories":[],"categories_nodes":[],"categories_segments":[],"categories_sizes":[],"default_left":[0,0,0,0,0,0,0,0,0,0,0,0,0,0,0,0,0,0,0,0,0,0,0,0,0,0,0,0,0,0,0,0,0,0,0,0,0,0,0,0,0,0,0,0,0,0,0,0,0,0,0,0,0,0,0,0,0,0,0,0,0,0,0,0,0,0,0,0,0,0,0,0,0,0,0,0,0,0,0,0,0,0,0,0,0,0,0,0,0,0,0,0,0,0,0,0,0,0,0,0,0,0,0,0,0,0,0,0,0,0,0,0,0,0,0,0,0,0,0],"id":4,"left_children":[1,3,5,7,9,11,13,15,17,19,21,23,25,27,29,31,33,35,37,39,41,43,45,47,49,51,53,55,57,59,61,63,65,67,69,71,73,75,77,79,81,83,85,87,89,91,93,95,97,99,101,103,105,107,109,-1,111,113,-1,115,-1,117,-1,-1,-1,-1,-1,-1,-1,-1,-1,-1,-1,-1,-1,-1,-1,-1,-1,-1,-1,-1,-1,-1,-1,-1,-1,-1,-1,-1,-1,-1,-1,-1,-1,-1,-1,-1,-1,-1,-1,-1,-1,-1,-1,-1,-1,-1,-1,-1,-1,-1,-1,-1,-1,-1,-1,-1,-1],"loss_changes":[1.5151234E3,1.8532077E2,2.3667322E2,4.636023E1,6.337397E1,8.367172E1,5.5182007E1,3.0690002E0,1.6036102E1,1.3792274E1,3.734923E1,2.585675E1,2.551633E1,1.4565552E1,2.7644913E1,3.3649635E0,1.8488922E0,1.8701721E1,9.85321E0,1.3469855E1,1.9954956E1,1.2891182E1,2.3462904E1,1.0013199E1,1.812146E1,1.8823227E1,2.1154625E1,7.324974E0,4.1497803E0,1.4757904E1,2.4084984E1,3.5847206E0,2.759406E0,3.5344887E0,2.4103851E0,1.8116318E1,4.889763E0,9.471405E0,1.4086536E1,9.518866E0,1.28342905E1,1.3416145E1,9.332977E0,7.8069344E0,7.7118063E0,1.2628004E1,1.5150949E1,9.745392E0,1.101487E1,6.963867E0,4.6236563E-1,1.3323276E1,1.6394356E1,2.6083038E1,1.3332572E1,0E0,1.2629429E1,3.5004883E0,0E0,3.315918E0,0E0,2.6424133E1,0E0,0E0,0E0,0E0,0E0,0E0,0E0,0E0,0E0,0E0,0E0,0E0,0E0,0E0,0E0,0E0,0E0,0E0,0E0,0E0,0E0,0E0,0E0,0E0,0E0,0E0,0E0,0E0,0E0,0E0,0E0,0E0,0E0,0E0,0E0,0E0,0E0,0E0,0E0,0E0,0E0,0E0,0E0,0E0,0E0,0E0,0E0,0E0,0E0,0E0,0E0,0E0,0E0,0E0,0E0,0E0,0E0],"parents":[2147483647,0,0,1,1,2,2,3,3,4,4,5,5,6,6,7,7,8,8,9,9,10,10,11,11,12,12,13,13,14,14,15,15,16,16,17,17,18,18,19,19,20,20,21,21,22,22,23,23,24,24,25,25,26,26,27,27,28,28,29,29,30,30,31,31,32,32,33,33,34,34,35,35,36,36,37,37,38,38,39,39,40,40,41,41,42,42,43,43,44,44,45,45,46,46,47,47,48,48,49,49,50,50,51,51,52,52,53,53,54,54,56,56,57,57,59,59,61,61],"right_children":[2,4,6,8,10,12,14,16,18,20,22,24,26,28,30,32,34,36,38,40,42,44,46,48,50,52,54,56,58,60,62,64,66,68,70,72,74,76,78,80,82,84,86,88,90,92,94,96,98,100,102,104,106,108,110,-1,112,114,-1,116,-1,118,-1,-1,-1,-1,-1,-1,-1,-1,-1,-1,-1,-1,-1,-1,-1,-1,-1,-1,-1,-1,-1,-1,-1,-1,-1,-1,-1,-1,-1,-1,-1,-1,-1,-1,-1,-1,-1,-1,-1,-1,-1,-1,-1,-1,-1,-1,-1,-1,-1,-1,-1,-1,-1,-1,-1,-1,-1],"split_conditions":[2.6741486E0,-1.9935381E0,4.104295E0,5.3062826E-1,2.014903E0,4.6E-1,4.0615386E-1,1.5428571E-1,5.5E1,1.2E-1,1E-1,3.3068867E0,8.666667E-1,4.2612705E0,1.5E1,7.6E1,2E-1,1.8900344E-1,2.972973E-1,1E0,2E0,5.45E1,2E0,3.2231405E0,7.5E1,4E-1,1.5E1,1.375989E-2,1.55E2,9E0,9.8E1,2.5E3,2E0,-2.9714396E0,-3.2E0,2.285E1,2.2222222E-1,1.6677068E0,1.5E0,-1.1363527E0,2E0,1.225E-1,1.2809339E0,2E0,4.8E1,1.1E1,6E0,2.5E-1,8.01E1,9.411765E-2,1.7E1,2E0,-4.68E-1,-1.3333334E0,7E1,-2.6931442E-2,2.3443911E-2,5.394082E0,6.496736E-3,2.4E0,1.815776E-2,4.929E1,-2.6649445E-2,1.7150136E-2,-3.92006E-3,1.5393519E-2,-1.4890592E-2,2.0961687E-2,8.751146E-3,-2.471477E-3,2.322143E-2,1.1480956E-2,4.6870834E-3,1.2307162E-2,-3.6804588E-4,1.2184156E-2,4.0138685E-3,7.607162E-3,-1.8458897E-2,8.195729E-3,-1.8263255E-3,-3.6028924E-3,2.7802591E-3,1.2667764E-2,5.583201E-3,7.5254156E-3,3.3438231E-3,-1.5571761E-2,2.701317E-3,-1.1321647E-2,-2.8338248E-3,-8.391747E-3,7.657575E-3,1.7484253E-4,-1.633681E-2,-8.812175E-3,-2.1352971E-2,2.0934481E-2,-2.5165217E-2,-1.9162033E-2,-1.3886489E-2,1.1127437E-2,2.5656665E-2,-1.2870985E-2,3.1460584E-3,1.2112056E-2,-1.054794E-2,1.3493093E-2,-1.3496634E-2,-2.3420558E-3,-1.4538307E-2,4.1343602E-3,-1.6969986E-2,-2.3512904E-2,-2.7294403E-2,-2.356474E-2,-1.0687025E-2,-4.9283826E-5,-1.349E-2],"split_indices":[22,36,22,22,22,28,28,28,4,28,28,22,38,22,13,29,52,49,52,19,19,17,19,42,4,26,13,49,29,15,29,20,32,36,47,0,23,22,26,36,19,52,22,21,11,13,51,26,3,52,13,18,27,26,4,0,49,22,0,47,0,11,0,0,0,0,0,0,0,0,0,0,0,0,0,0,0,0,0,0,0,0,0,0,0,0,0,0,0,0,0,0,0,0,0,0,0,0,0,0,0,0,0,0,0,0,0,0,0,0,0,0,0,0,0,0,0,0,0],"split_type":[0,0,0,0,0,0,0,0,0,0,0,0,0,0,0,0,0,0,0,0,0,0,0,0,0,0,0,0,0,0,0,0,0,0,0,0,0,0,0,0,0,0,0,0,0,0,0,0,0,0,0,0,0,0,0,0,0,0,0,0,0,0,0,0,0,0,0,0,0,0,0,0,0,0,0,0,0,0,0,0,0,0,0,0,0,0,0,0,0,0,0,0,0,0,0,0,0,0,0,0,0,0,0,0,0,0,0,0,0,0,0,0,0,0,0,0,0,0,0],"sum_hessian":[2.1320627E4,1.4675689E4,6.6449375E3,5.6543936E3,9.021296E3,4.312406E3,2.3325317E3,4.6825333E2,5.18614E3,5.605133E3,3.416163E3,2.0237825E3,2.2886235E3,1.4150067E3,9.17525E2,1.9559682E2,2.726565E2,2.9685388E3,2.2176013E3,1.8513314E3,3.7538015E3,1.1231519E3,2.2930112E3,1.0709895E3,9.5279297E2,9.879795E2,1.3006439E3,1.6966693E2,1.2453397E3,2.954364E2,6.220886E2,1.8651038E2,9.086445E0,1.02505905E2,1.701506E2,2.3246797E3,6.4385913E2,1.8063456E3,4.1125577E2,5.5530426E2,1.2960271E3,9.686468E2,2.7851548E3,1.6489462E2,9.582572E2,6.310448E2,1.6619664E3,1.0475876E3,2.3401814E1,9.40398E2,1.2394955E1,7.436466E2,2.4433286E2,4.9054382E2,8.1010016E2,3.6253998E1,1.3341293E2,1.2418597E3,3.480012E0,2.8793027E2,7.5061474E0,5.5066943E2,7.141916E1,1.7928807E2,7.222314E0,3.7335563E0,5.3528886E0,6.854815E1,3.3957756E1,3.1652792E0,1.6698532E2,4.3454996E2,1.8901298E3,6.1525305E2,2.8606071E1,1.6667123E3,1.3963329E2,3.926019E2,1.8653854E1,4.5054684E2,1.04757416E2,4.1732144E2,8.787057E2,5.03475E2,4.6517178E2,6.1780475E2,2.1673499E3,1.404929E2,2.440171E1,1.0788729E2,8.503699E2,4.691027E1,5.841346E2,1.6113497E3,5.0616703E1,9.888401E2,5.874758E1,1.8156437E1,5.2453756E0,4.4344925E2,4.969488E2,6.8838696E0,5.511085E0,4.912651E1,6.9452014E2,3.236357E1,2.1196928E2,3.3880573E1,4.5666324E2,7.2015424E2,8.994591E1,3.3729183E1,9.9683754E1,8.6551013E2,3.7634958E2,2.6605286E2,2.187739E1,2.1702325E2,3.336462E2],"tree_param":{"num_deleted":"0","num_feature":"53","num_nodes":"119","size_leaf_vector":"1"}},{"base_weights":[-5.6145876E-3,1.4774932E-1,-4.0577117E-1,2.8805736E-1,5.5991217E-2,-5.883025E-1,-2.33391E-1,1.8796548E-1,3.5953313E-1,-9.531905E-2,1.13283E-1,-4.2702687E-1,-7.362023E-1,-1.5073341E-1,-5.124448E-1,3.1813508E-1,1.334495E-1,4.361329E-1,2.842615E-1,-2.3401108E-1,3.1032281E-2,1.7003416E-1,1.9716093E-2,-6.2045157E-1,-2.5066724E-1,-7.530998E-1,3.9858956E-2,9.526953E-2,-2.0498891E-1,-5.84172E-1,-5.9482474E-2,2.3309954E-1,5.3670275E-1,7.309191E-2,3.0854017E-1,-1.5587848E-1,4.4212934E-1,4.2480814E-1,2.434108E-1,-2.7001187E-1,3.7947264E-1,7.4397705E-2,-1.8161614E-1,2.6308656E-1,1.128595E-1,-3.8714474E-1,3.1666655E-2,-6.395735E-1,2.4575315E-2,3.2072164E-2,-3.342178E-1,9.023351E-3,-7.5823385E-1,3.6242366E-1,-2.4936765E-2,2.448586E-1,-2.3817386E-1,-2.277666E-1,2.2834936E-1,-4.9173316E-1,-8.1061214E-1,-5.034318E-1,4.868176E-1,4.1797864E-3,1.3138249E-2,-1.5686907E-2,1.7166171E-2,4.1445767E-4,7.933872E-3,1.0221543E-2,-2.3005337E-2,2.0957801E-2,-2.0545777E-2,1.7383128E-2,1.2656425E-2,5.961811E-3,1.4960452E-2,7.4612233E-3,-2.1722805E-2,-5.0400845E-3,-1.1790091E-2,1.699805E-2,-1.4503989E-2,5.6094564E-3,-5.151426E-4,-3.9324854E-3,-2.7600966E-2,2.8598786E-3,9.830611E-3,3.028455E-3,1.20763155E-2,-2.5884919E-2,1.278556E-3,1.3170157E-2,6.31106E-4,-2.1394655E-2,-1.5428508E-2,-2.574688E-2,4.226824E-3,-1.0321226E-2,2.1390697E-2,-2.1033967E-2,-2.5210962E-2,1.8667279E-2,-1.9306453E-2,1.4542599E-2,6.224983E-4,-2.3510478E-2,3.170294E-4,-1.1421648E-2,-4.66637E-3,1.4040965E-2,-1.2586883E-2,-1.6788164E-2,1.7482166E-4,-2.5530325E-2,-1.6278176E-2,-1.9870652E-2,1.0370161E-2,2.4104841E-2,-2.5183547E-2],"categories":[],"categories_nodes":[],"categories_segments":[],"categories_sizes":[],"default_left":[0,0,0,0,0,0,0,0,0,0,0,0,0,0,0,0,0,0,0,0,0,0,0,0,0,0,0,0,0,0,0,0,0,0,0,0,0,0,0,0,0,0,0,0,0,0,0,0,0,0,0,0,0,0,0,0,0,0,0,0,0,0,0,0,0,0,0,0,0,0,0,0,0,0,0,0,0,0,0,0,0,0,0,0,0,0,0,0,0,0,0,0,0,0,0,0,0,0,0,0,0,0,0,0,0,0,0,0,0,0,0,0,0,0,0,0,0,0,0,0,0],"id":5,"left_children":[1,3,5,7,9,11,13,15,17,19,21,23,25,27,29,31,33,35,37,39,41,43,45,47,49,51,53,55,57,59,61,63,65,67,69,71,73,75,77,79,81,83,85,87,89,91,93,95,-1,97,99,-1,101,103,-1,105,107,109,111,113,115,117,119,-1,-1,-1,-1,-1,-1,-1,-1,-1,-1,-1,-1,-1,-1,-1,-1,-1,-1,-1,-1,-1,-1,-1,-1,-1,-1,-1,-1,-1,-1,-1,-1,-1,-1,-1,-1,-1,-1,-1,-1,-1,-1,-1,-1,-1,-1,-1,-1,-1,-1,-1,-1,-1,-1,-1,-1,-1,-1],"loss_changes":[1.2653328E3,1.9188422E2,1.7961127E2,4.209439E1,7.814479E1,6.585272E1,6.7729645E1,1.7395325E1,1.9693481E1,4.3396263E1,3.471479E1,4.5192398E1,1.8987183E1,3.0308468E1,2.1777481E1,1.3342865E1,1.8298937E1,6.109619E0,9.866226E0,2.6174164E1,1.1969475E1,2.1621796E1,1.2019858E1,1.7958649E1,1.6476868E1,7.883423E0,9.2238245E0,2.054601E1,1.8407082E1,1.1730743E1,2.2773827E1,9.993544E0,7.9054604E0,1.46360855E1,1.5629391E1,8.525028E0,4.439911E0,6.4095078E0,7.086586E0,1.39307785E1,1.0907267E1,1.1112595E1,8.0850315E0,1.6745918E1,8.6632E0,1.4458162E1,1.0382707E1,5.4006042E0,0E0,1.5613353E1,5.781147E0,0E0,6.015503E0,6.639393E0,0E0,1.5260355E1,1.7337215E1,1.9462616E1,1.46952915E1,1.3985268E1,1.3402634E0,7.21054E0,1.8378815E1,0E0,0E0,0E0,0E0,0E0,0E0,0E0,0E0,0E0,0E0,0E0,0E0,0E0,0E0,0E0,0E0,0E0,0E0,0E0,0E0,0E0,0E0,0E0,0E0,0E0,0E0,0E0,0E0,0E0,0E0,0E0,0E0,0E0,0E0,0E0,0E0,0E0,0E0,0E0,0E0,0E0,0E0,0E0,0E0,0E0,0E0,0E0,0E0,0E0,0E0,0E0,0E0,0E0,0E0,0E0,0E0,0E0,0E0],"parents":[2147483647,0,0,1,1,2,2,3,3,4,4,5,5,6,6,7,7,8,8,9,9,10,10,11,11,12,12,13,13,14,14,15,15,16,16,17,17,18,18,19,19,20,20,21,21,22,22,23,23,24,24,25,25,26,26,27,27,28,28,29,29,30,30,31,31,32,32,33,33,34,34,35,35,36,36,37,37,38,38,39,39,40,40,41,41,42,42,43,43,44,44,45,45,46,46,47,47,49,49,50,50,52,52,53,53,55,55,56,56,57,57,58,58,59,59,60,60,61,61,62,62],"right_children":[2,4,6,8,10,12,14,16,18,20,22,24,26,28,30,32,34,36,38,40,42,44,46,48,50,52,54,56,58,60,62,64,66,68,70,72,74,76,78,80,82,84,86,88,90,92,94,96,-1,98,100,-1,102,104,-1,106,108,110,112,114,116,118,120,-1,-1,-1,-1,-1,-1,-1,-1,-1,-1,-1,-1,-1,-1,-1,-1,-1,-1,-1,-1,-1,-1,-1,-1,-1,-1,-1,-1,-1,-1,-1,-1,-1,-1,-1,-1,-1,-1,-1,-1,-1,-1,-1,-1,-1,-1,-1,-1,-1,-1,-1,-1,-1,-1,-1,-1,-1,-1],"split_conditions":[-3.1105542E-1,-1.9459101E0,1.1369014E-1,1.1799808E-1,1.0743071E-1,5.3062826E-1,9.499352E-1,-2.8094027E0,-2.4939566E0,2E0,-1.0786116E0,2E0,6E0,4.5E1,7.2E1,1.12164296E-1,3E0,1.1841748E-1,1.2176794E-1,4E1,3E0,2E0,1.9775316E1,4.2E0,5.3E1,-1.8E0,1.3176175E0,2E-1,2.1E2,1.7754695E0,2.1236312E0,2.2686991E-1,-2.4390244E0,3E0,5.3846157E-1,-3.351073E0,-2E-1,-2.2831671E0,4.8E0,-1.1363527E0,-8.700779E-1,-1.2896675E0,9.777778E-2,1.20843895E-1,8.01E1,1.2598048E-1,1.3E1,4.8484847E-2,2.4575315E-2,3.8175877E1,8E0,9.023351E-3,1.5615819E0,1.6E1,-2.4936765E-2,4.908E1,4.826993E1,1.2153783E-1,8.56E1,5.338E1,1.320043E-1,1.409292E-1,0E0,4.1797864E-3,1.3138249E-2,-1.5686907E-2,1.7166171E-2,4.1445767E-4,7.933872E-3,1.0221543E-2,-2.3005337E-2,2.0957801E-2,-2.0545777E-2,1.7383128E-2,1.2656425E-2,5.961811E-3,1.4960452E-2,7.4612233E-3,-2.1722805E-2,-5.0400845E-3,-1.1790091E-2,1.699805E-2,-1.4503989E-2,5.6094564E-3,-5.151426E-4,-3.9324854E-3,-2.7600966E-2,2.8598786E-3,9.830611E-3,3.028455E-3,1.20763155E-2,-2.5884919E-2,1.278556E-3,1.3170157E-2,6.31106E-4,-2.1394655E-2,-1.5428508E-2,-2.574688E-2,4.226824E-3,-1.0321226E-2,2.1390697E-2,-2.1033967E-2,-2.5210962E-2,1.8667279E-2,-1.9306453E-2,1.4542599E-2,6.224983E-4,-2.3510478E-2,3.170294E-4,-1.1421648E-2,-4.66637E-3,1.4040965E-2,-1.2586883E-2,-1.6788164E-2,1.7482166E-4,-2.5530325E-2,-1.6278176E-2,-1.9870652E-2,1.0370161E-2,2.4104841E-2,-2.5183547E-2],"split_indices":[36,36,25,25,25,36,36,36,36,19,36,19,51,3,5,25,19,25,25,29,51,19,44,45,17,26,36,26,48,36,36,49,42,51,39,36,26,36,47,36,36,36,25,25,3,25,29,49,0,44,51,0,36,13,0,11,44,25,12,11,25,25,26,0,0,0,0,0,0,0,0,0,0,0,0,0,0,0,0,0,0,0,0,0,0,0,0,0,0,0,0,0,0,0,0,0,0,0,0,0,0,0,0,0,0,0,0,0,0,0,0,0,0,0,0,0,0,0,0,0,0],"split_type":[0,0,0,0,0,0,0,0,0,0,0,0,0,0,0,0,0,0,0,0,0,0,0,0,0,0,0,0,0,0,0,0,0,0,0,0,0,0,0,0,0,0,0,0,0,0,0,0,0,0,0,0,0,0,0,0,0,0,0,0,0,0,0,0,0,0,0,0,0,0,0,0,0,0,0,0,0,0,0,0,0,0,0,0,0,0,0,0,0,0,0,0,0,0,0,0,0,0,0,0,0,0,0,0,0,0,0,0,0,0,0,0,0,0,0,0,0,0,0,0,0],"sum_hessian":[2.0616266E4,1.4904574E4,5.7116924E3,5.892368E3,9.012206E3,2.7729917E3,2.9387007E3,2.456297E3,3.4360713E3,2.4749868E3,6.537219E3,1.3283715E3,1.4446201E3,2.2683425E3,6.703581E2,7.236289E2,1.7326681E3,1.7006349E3,1.7354363E3,1.1794681E3,1.2955187E3,4.0686455E3,2.4685737E3,6.323335E2,6.96038E2,1.413865E3,3.075505E1,4.0974384E2,1.8585988E3,5.7846735E2,9.189074E1,5.22437E2,2.0119188E2,1.2895496E3,4.4311853E2,1.6802223E1,1.6838328E3,3.8870386E2,1.3467324E3,1.1146193E3,6.484884E1,1.0766146E3,2.1890405E2,1.547108E3,2.5215376E3,6.954359E1,2.3990303E3,6.24593E2,7.7404523E0,1.5890645E2,5.371316E2,6.5752535E0,1.4072898E3,2.2870127E1,7.884924E0,2.8303473E2,1.2670911E2,1.766234E3,9.2364716E1,4.1302945E2,1.6543788E2,5.0737507E1,4.115323E1,3.595302E2,1.629068E2,6.07753E0,1.9511435E2,9.853969E2,3.0415265E2,4.3090796E2,1.2210563E1,6.301943E0,1.0500279E1,2.1284975E2,1.4709829E3,9.663978E1,2.920641E2,1.3401387E3,6.59371E0,6.105741E2,5.0404517E2,5.357456E1,1.1274283E1,4.8242786E2,5.9418677E2,2.0598503E2,1.2919007E1,4.3081772E2,1.1162903E3,2.4232488E3,9.828864E1,3.2529945E1,3.701364E1,5.998732E1,2.339043E3,3.9054004E2,2.3405298E2,1.655762E1,1.4234883E2,5.3280536E2,4.3262177E0,8.3576447E2,5.715253E2,1.847891E1,4.3912163E0,1.36141E2,1.468937E2,3.9008953E1,8.770015E1,5.651162E2,1.2011178E3,6.762556E1,2.473916E1,3.6334134E2,4.968812E1,1.4187639E2,2.3561497E1,4.2923607E1,7.813901E0,3.3539158E1,7.614072E0],"tree_param":{"num_deleted":"0","num_feature":"53","num_nodes":"121","size_leaf_vector":"1"}},{"base_weights":[-1.1290397E-3,1.444545E-1,-4.3109575E-1,2.9234308E-1,4.4872865E-2,-3.0017942E-1,-6.86325E-1,5.541897E-1,2.6237258E-1,-1.1287763E-1,1.0377516E-1,-4.942621E-1,-1.8502507E-1,-8.024023E-1,-3.995227E-1,5.645496E-1,-2.8025073E-1,3.4860802E-1,2.1196972E-1,1.653163E-2,-2.3533975E-1,1.6324797E-1,9.272802E-3,-5.121809E-1,4.7334403E-1,1.0811152E-1,-2.3743455E-1,-8.153113E-1,-2.7441198E-1,6.422626E-1,-4.578071E-1,5.8202785E-1,6.223247E-2,6.2784012E-3,-2.3338867E-2,2.4534266E-1,4.2500648E-1,2.2818254E-1,2.4490398E-3,5.8480394E-1,1.0760706E-3,-2.5387543E-1,3.558209E-1,2.3822314E-1,1.06057726E-1,3.318408E-3,2.4868527E-2,-3.1520444E-1,-6.167146E-1,-1.767658E-2,7.159936E-1,-3.4531674E-1,2.4898937E-1,-1.3425805E-1,-3.5648292E-1,-2.2341728E-1,-8.216699E-1,2.3071412E-2,-5.2593124E-1,2.8175684E-2,-2.2579351E-2,-2.109339E-1,-5.782867E-1,1.43907815E-2,1.9484198E-2,1.6417785E-2,-3.0397794E-3,-1.581593E-2,8.022305E-3,2.0566422E-2,1.2201979E-2,1.5515327E-2,6.5048034E-3,-2.3942154E-2,1.3900612E-3,5.155849E-3,2.7197005E-2,-3.4182812E-3,3.1299086E-3,-5.715503E-3,-1.2735602E-2,1.72252E-2,-1.2625005E-2,4.088729E-3,1.0119404E-2,1.3714363E-2,2.862218E-3,-1.0032795E-3,3.985274E-3,-1.2494674E-2,-3.1914455E-3,-1.916764E-2,-9.289536E-3,2.5357611E-2,7.168574E-3,1.7013932E-2,-1.8341918E-2,1.0861689E-2,-1.142937E-2,-5.507001E-3,5.298427E-3,-5.370718E-3,-1.4230502E-2,2.4846407E-2,-2.4490539E-2,-2.2658663E-2,-2.5704123E-2,-2.1809762E-2,2.083912E-2,3.332688E-3,-1.8708125E-2,-7.53872E-3,-2.1312464E-2],"categories":[],"categories_nodes":[],"categories_segments":[],"categories_sizes":[],"default_left":[0,0,0,0,0,0,0,0,0,0,0,0,0,0,0,0,0,0,0,0,0,0,0,0,0,0,0,0,0,0,0,0,0,0,0,0,0,0,0,0,0,0,0,0,0,0,0,0,0,0,0,0,0,0,0,0,0,0,0,0,0,0,0,0,0,0,0,0,0,0,0,0,0,0,0,0,0,0,0,0,0,0,0,0,0,0,0,0,0,0,0,0,0,0,0,0,0,0,0,0,0,0,0,0,0,0,0,0,0,0,0,0,0],"id":6,"left_children":[1,3,5,7,9,11,13,15,17,19,21,23,25,27,29,31,33,35,37,39,41,43,45,47,49,51,53,55,57,59,61,63,65,-1,-1,67,69,71,73,75,77,79,81,83,85,87,-1,89,91,-1,93,95,97,99,101,103,105,-1,107,-1,-1,109,111,-1,-1,-1,-1,-1,-1,-1,-1,-1,-1,-1,-1,-1,-1,-1,-1,-1,-1,-1,-1,-1,-1,-1,-1,-1,-1,-1,-1,-1,-1,-1,-1,-1,-1,-1,-1,-1,-1,-1,-1,-1,-1,-1,-1,-1,-1,-1,-1,-1,-1],"loss_changes":[1.2586418E3,2.2120499E2,1.6973907E2,4.7288757E1,8.343334E1,7.508124E1,5.7059387E1,5.516876E0,2.3508026E1,3.869364E1,3.6741768E1,2.1948547E1,3.2481804E1,8.132385E0,3.0568153E1,5.342209E0,2.1777258E0,1.5672714E1,1.1639618E1,1.0432983E1,1.3835579E1,1.7179214E1,1.2326813E1,2.5124542E1,6.4246826E0,2.059772E1,2.1969292E1,4.3185425E0,8.479145E0,1.1820527E1,1.3939262E1,3.7736511E0,1.7784009E0,0E0,0E0,1.4678452E1,5.187134E0,1.0325729E1,8.718975E0,4.0231514E0,1.375839E1,1.3075531E1,6.7794886E0,1.7482658E1,8.47422E0,1.1950807E1,0E0,9.015739E0,5.272766E0,0E0,9.945898E-1,1.8928581E1,1.762967E1,1.4776501E1,1.7309906E1,9.460387E0,2.1122437E0,0E0,6.7346253E0,0E0,0E0,2.088272E1,1.3523369E1,0E0,0E0,0E0,0E0,0E0,0E0,0E0,0E0,0E0,0E0,0E0,0E0,0E0,0E0,0E0,0E0,0E0,0E0,0E0,0E0,0E0,0E0,0E0,0E0,0E0,0E0,0E0,0E0,0E0,0E0,0E0,0E0,0E0,0E0,0E0,0E0,0E0,0E0,0E0,0E0,0E0,0E0,0E0,0E0,0E0,0E0,0E0,0E0,0E0,0E0],"parents":[2147483647,0,0,1,1,2,2,3,3,4,4,5,5,6,6,7,7,8,8,9,9,10,10,11,11,12,12,13,13,14,14,15,15,16,16,17,17,18,18,19,19,20,20,21,21,22,22,23,23,24,24,25,25,26,26,27,27,28,28,29,29,30,30,31,31,32,32,35,35,36,36,37,37,38,38,39,39,40,40,41,41,42,42,43,43,44,44,45,45,47,47,48,48,50,50,51,51,52,52,53,53,54,54,55,55,56,56,58,58,61,61,62,62],"right_children":[2,4,6,8,10,12,14,16,18,20,22,24,26,28,30,32,34,36,38,40,42,44,46,48,50,52,54,56,58,60,62,64,66,-1,-1,68,70,72,74,76,78,80,82,84,86,88,-1,90,92,-1,94,96,98,100,102,104,106,-1,108,-1,-1,110,112,-1,-1,-1,-1,-1,-1,-1,-1,-1,-1,-1,-1,-1,-1,-1,-1,-1,-1,-1,-1,-1,-1,-1,-1,-1,-1,-1,-1,-1,-1,-1,-1,-1,-1,-1,-1,-1,-1,-1,-1,-1,-1,-1,-1,-1,-1,-1,-1,-1,-1],"split_conditions":[2.9177706E0,1.410987E0,4.302713E0,5.877867E-1,1.0989253E-1,1.0743071E-1,1.1846395E-1,7.1428573E-1,-2.4939566E0,2.014903E0,-1.0367368E0,6E0,4.11E1,9.207E1,1.1878453E-1,-1.914192E0,4.857E1,1.1841748E-1,-1.2151998E0,4.407E1,2E-1,2E0,6.8E0,3.3068867E0,3.334916E-1,3E0,4E0,-1.8E0,4.756E1,4.878E1,1E0,1.5428571E-1,4.938E1,6.2784012E-3,-2.3338867E-2,1.1E1,1.2047423E-1,3.4E1,2.6543303E-3,5E-1,2E0,2.6246686E0,2.5714287E-1,3E0,-1.9E0,6.6E1,2.4868527E-2,2E0,5.386E1,-1.767658E-2,5.7142857E-2,2.19E1,1.7021276E-1,1.6E2,5.1E1,1.0743071E-1,4.845761E0,2.3071412E-2,1.728E0,2.8175684E-2,-2.2579351E-2,2.3809524E-2,2.9787235E-2,1.43907815E-2,1.9484198E-2,1.6417785E-2,-3.0397794E-3,-1.581593E-2,8.022305E-3,2.0566422E-2,1.2201979E-2,1.5515327E-2,6.5048034E-3,-2.3942154E-2,1.3900612E-3,5.155849E-3,2.7197005E-2,-3.4182812E-3,3.1299086E-3,-5.715503E-3,-1.2735602E-2,1.72252E-2,-1.2625005E-2,4.088729E-3,1.0119404E-2,1.3714363E-2,2.862218E-3,-1.0032795E-3,3.985274E-3,-1.2494674E-2,-3.1914455E-3,-1.916764E-2,-9.289536E-3,2.5357611E-2,7.168574E-3,1.7013932E-2,-1.8341918E-2,1.0861689E-2,-1.142937E-2,-5.507001E-3,5.298427E-3,-5.370718E-3,-1.4230502E-2,2.4846407E-2,-2.4490539E-2,-2.2658663E-2,-2.5704123E-2,-2.1809762E-2,2.083912E-2,3.332688E-3,-1.8708125E-2,-7.53872E-3,-2.1312464E-2],"split_indices":[22,22,22,22,25,25,25,35,36,22,36,51,7,7,25,36,3,25,36,7,47,19,45,22,36,15,15,26,11,11,51,28,11,0,0,13,25,3,49,26,19,22,52,15,45,4,0,51,11,0,52,3,35,48,4,25,22,0,28,0,0,39,52,0,0,0,0,0,0,0,0,0,0,0,0,0,0,0,0,0,0,0,0,0,0,0,0,0,0,0,0,0,0,0,0,0,0,0,0,0,0,0,0,0,0,0,0,0,0,0,0,0,0],"split_type":[0,0,0,0,0,0,0,0,0,0,0,0,0,0,0,0,0,0,0,0,0,0,0,0,0,0,0,0,0,0,0,0,0,0,0,0,0,0,0,0,0,0,0,0,0,0,0,0,0,0,0,0,0,0,0,0,0,0,0,0,0,0,0,0,0,0,0,0,0,0,0,0,0,0,0,0,0,0,0,0,0,0,0,0,0,0,0,0,0,0,0,0,0,0,0,0,0,0,0,0,0,0,0,0,0,0,0,0,0,0,0,0,0],"sum_hessian":[2.0105365E4,1.5020276E4,5.08509E3,6.043357E3,8.976919E3,3.3625117E3,1.7225779E3,6.188746E2,5.424482E3,2.4403433E3,6.536576E3,1.2509136E3,2.1115981E3,1.2249906E3,4.9758725E2,6.116047E2,7.2698717E0,1.9987894E3,3.4256926E3,1.1869374E3,1.253406E3,4.0113813E3,2.5251948E3,1.2286316E3,2.2281977E1,3.2010806E2,1.7914902E3,1.1952241E3,2.9766535E1,2.5832537E1,4.717547E2,5.90886E2,2.0718687E1,3.9572155E0,3.3126564E0,8.517362E2,1.1470532E3,3.1795671E3,2.4612552E2,3.0451574E1,1.1564857E3,1.2158538E3,3.755224E1,1.7344238E3,2.2769575E3,2.50798E3,1.721469E1,4.2735925E2,8.0127234E2,3.8768709E0,1.8405106E1,7.5536316E1,2.4457175E2,9.608614E2,8.3062885E2,1.3087574E1,1.1821365E3,5.381811E0,2.4384724E1,2.1568138E1,4.2643986E0,1.5562218E2,3.161325E2,2.3795244E2,3.5293356E2,4.633183E0,1.6085503E1,2.3018347E1,8.287179E2,7.278593E1,1.0742673E3,1.1853001E2,3.061037E3,1.1898717E1,2.3422679E2,1.4008084E1,1.6443491E1,5.470275E2,6.094582E2,8.88193E2,3.2766074E2,2.9514967E1,8.037272E0,8.5612317E2,8.7830066E2,6.58049E1,2.2111526E3,1.9541127E3,5.5386743E2,2.8710916E2,1.4025009E2,7.462249E2,5.504743E1,1.3873927E1,4.531179E0,1.6798656E1,5.8737656E1,2.0771606E2,3.685567E1,8.296732E2,1.3118817E2,3.325162E2,4.981126E2,4.5755496E0,8.512024E0,4.169213E2,7.652152E2,2.1283186E1,3.1015375E0,8.782194E1,6.780025E1,9.181296E1,2.2431955E2],"tree_param":{"num_deleted":"0","num_feature":"53","num_nodes":"113","size_leaf_vector":"1"}},{"base_weights":[-1.1441321E-3,1.21531725E-1,-4.4935146E-1,2.5136054E-1,-1.0705533E-3,-6.283171E-1,-2.4641599E-1,3.3012366E-1,1.7891605E-1,-1.6456741E-1,5.548953E-2,-4.9238363E-1,-7.75261E-1,-1.606946E-1,-4.6503899E-1,5.3865093E-1,3.0313882E-1,6.360143E-2,2.1529984E-1,-9.04484E-2,-3.5410276E-1,1.5393081E-1,-2.306815E-3,3.8580897E-1,-5.16316E-1,-7.85533E-1,2.9868215E-1,-1.1773454E-1,-4.8861185E-1,-5.5833066E-1,2.5225725E-2,7.989806E-2,5.548113E-1,2.0728184E-1,3.5645902E-1,-8.613191E-3,2.225765E-1,3.0251706E-1,1.5737511E-1,-1.1120848E-1,4.32583E-1,-9.008556E-2,-3.8662982E-1,4.6544217E-2,2.8672177E-1,-4.285264E-2,8.571257E-2,2.450373E-2,-2.1531722E-2,-6.2573874E-1,-3.9968938E-1,1.836229E-3,-7.902278E-1,2.5576515E-2,-2.0022556E-2,-1.7420709E-1,1.6410482E-1,-7.4463576E-2,-6.597535E-1,-5.931772E-1,3.5294855E-1,-5.1114076E-1,3.790308E-1,-1.8553242E-2,2.0742266E-2,1.6924422E-2,-1.1511472E-2,4.4541005E-3,1.50261205E-2,9.734891E-3,1.3524774E-2,-4.8846086E-3,3.5610676E-3,7.5127548E-3,-2.3960125E-2,-8.703464E-3,9.46288E-3,3.5682693E-3,1.0228552E-2,-6.075066E-3,-5.555973E-4,-1.4679308E-2,1.6384387E-2,-2.3126079E-2,-3.45561E-5,-1.2601014E-2,-3.3959837E-3,6.974765E-3,-1.17348E-3,-1.0877604E-2,9.032629E-3,1.0249027E-3,-3.755155E-3,3.7696734E-3,-4.244566E-3,-1.90454E-2,4.920088E-3,-2.4366174E-3,-1.4970744E-2,-2.1356232E-2,-2.4472034E-2,3.0025789E-3,-6.3880403E-3,-1.1168444E-2,9.570376E-3,-2.160583E-2,8.759598E-3,-3.3921895E-3,-2.1168087E-2,-1.208214E-2,-2.2043515E-2,2.3510728E-2,-2.247254E-2,-2.459083E-2,3.361295E-3,1.8742952E-2,-2.4960076E-2],"categories":[],"categories_nodes":[],"categories_segments":[],"categories_sizes":[],"default_left":[0,0,0,0,0,0,0,0,0,0,0,0,0,0,0,0,0,0,0,0,0,0,0,0,0,0,0,0,0,0,0,0,0,0,0,0,0,0,0,0,0,0,0,0,0,0,0,0,0,0,0,0,0,0,0,0,0,0,0,0,0,0,0,0,0,0,0,0,0,0,0,0,0,0,0,0,0,0,0,0,0,0,0,0,0,0,0,0,0,0,0,0,0,0,0,0,0,0,0,0,0,0,0,0,0,0,0,0,0,0,0,0,0,0,0,0,0],"id":7,"left_children":[1,3,5,7,9,11,13,15,17,19,21,23,25,27,29,31,33,35,37,39,41,43,45,47,49,51,53,55,57,59,61,63,65,67,69,71,73,75,77,79,81,83,85,87,89,91,93,-1,-1,95,97,-1,99,-1,-1,101,103,105,107,109,111,113,115,-1,-1,-1,-1,-1,-1,-1,-1,-1,-1,-1,-1,-1,-1,-1,-1,-1,-1,-1,-1,-1,-1,-1,-1,-1,-1,-1,-1,-1,-1,-1,-1,-1,-1,-1,-1,-1,-1,-1,-1,-1,-1,-1,-1,-1,-1,-1,-1,-1,-1,-1,-1,-1,-1],"loss_changes":[1.0798873E3,2.4543835E2,1.5312329E2,4.2673218E1,7.335482E1,4.4401123E1,3.702041E1,2.0020355E1,1.6362495E1,2.8609997E1,3.3532566E1,2.47341E1,1.2100464E1,1.99945E1,2.5489296E1,2.9929962E0,1.6170197E1,1.0765566E1,1.4939865E1,1.5977291E1,4.884369E0,3.107666E1,1.3259775E1,1.5587374E1,1.4257629E1,4.284851E0,6.409633E0,2.0080534E1,1.1614628E1,1.5070221E1,1.7273106E1,6.879933E0,3.6826553E0,1.9581177E1,6.0092163E0,1.2695826E1,8.530145E0,9.143066E0,1.2551559E1,1.1942841E1,6.1520786E0,3.8821259E0,4.60775E0,1.9228447E1,9.2002945E0,1.6130865E1,1.0651502E1,0E0,0E0,4.3102875E0,1.745588E1,0E0,1.5375366E0,0E0,0E0,1.1175495E1,1.763539E1,1.1863197E1,2.8356552E0,1.186969E1,9.066598E0,7.0520487E0,1.6828913E1,0E0,0E0,0E0,0E0,0E0,0E0,0E0,0E0,0E0,0E0,0E0,0E0,0E0,0E0,0E0,0E0,0E0,0E0,0E0,0E0,0E0,0E0,0E0,0E0,0E0,0E0,0E0,0E0,0E0,0E0,0E0,0E0,0E0,0E0,0E0,0E0,0E0,0E0,0E0,0E0,0E0,0E0,0E0,0E0,0E0,0E0,0E0,0E0,0E0,0E0,0E0,0E0,0E0,0E0],"parents":[2147483647,0,0,1,1,2,2,3,3,4,4,5,5,6,6,7,7,8,8,9,9,10,10,11,11,12,12,13,13,14,14,15,15,16,16,17,17,18,18,19,19,20,20,21,21,22,22,23,23,24,24,25,25,26,26,27,27,28,28,29,29,30,30,31,31,32,32,33,33,34,34,35,35,36,36,37,37,38,38,39,39,40,40,41,41,42,42,43,43,44,44,45,45,46,46,49,49,50,50,52,52,55,55,56,56,57,57,58,58,59,59,60,60,61,61,62,62],"right_children":[2,4,6,8,10,12,14,16,18,20,22,24,26,28,30,32,34,36,38,40,42,44,46,48,50,52,54,56,58,60,62,64,66,68,70,72,74,76,78,80,82,84,86,88,90,92,94,-1,-1,96,98,-1,100,-1,-1,102,104,106,108,110,112,114,116,-1,-1,-1,-1,-1,-1,-1,-1,-1,-1,-1,-1,-1,-1,-1,-1,-1,-1,-1,-1,-1,-1,-1,-1,-1,-1,-1,-1,-1,-1,-1,-1,-1,-1,-1,-1,-1,-1,-1,-1,-1,-1,-1,-1,-1,-1,-1,-1,-1,-1,-1,-1,-1,-1],"split_conditions":[3.122365E0,1.5892352E0,1.14858545E-1,1.1314021E0,1.0518519E-1,4.302713E0,4.3438053E0,5.3062826E-1,1.0743071E-1,2.587764E0,2E0,2.778E1,9.9E1,7.5E-1,7.2E1,-1.3333334E0,1.1551312E-1,1.9E3,2E0,6.2E1,1.3953488E-2,3E0,2.2222222E-1,5.3E1,2E0,3.12E1,-1.8E0,4.7E1,2E0,9E1,5.27146E0,1.21672384E-1,2.2E0,4E0,6.203E1,2E0,2.6666667E0,1.2809339E0,7.603E1,2E0,1.1E1,5.4E1,2E0,2.5E-1,-1E0,2.1972246E0,6.4705884E-1,2.450373E-2,-2.1531722E-2,1.4E1,3.3068867E0,1.836229E-3,4.685828E0,2.5576515E-2,-2.0022556E-2,1.1705051E-1,3E0,1.8E3,-3.24E-1,4.750136E0,3E0,1.3150106E-1,5.647565E0,-1.8553242E-2,2.0742266E-2,1.6924422E-2,-1.1511472E-2,4.4541005E-3,1.50261205E-2,9.734891E-3,1.3524774E-2,-4.8846086E-3,3.5610676E-3,7.5127548E-3,-2.3960125E-2,-8.703464E-3,9.46288E-3,3.5682693E-3,1.0228552E-2,-6.075066E-3,-5.555973E-4,-1.4679308E-2,1.6384387E-2,-2.3126079E-2,-3.45561E-5,-1.2601014E-2,-3.3959837E-3,6.974765E-3,-1.17348E-3,-1.0877604E-2,9.032629E-3,1.0249027E-3,-3.755155E-3,3.7696734E-3,-4.244566E-3,-1.90454E-2,4.920088E-3,-2.4366174E-3,-1.4970744E-2,-2.1356232E-2,-2.4472034E-2,3.0025789E-3,-6.3880403E-3,-1.1168444E-2,9.570376E-3,-2.160583E-2,8.759598E-3,-3.3921895E-3,-2.1168087E-2,-1.208214E-2,-2.2043515E-2,2.3510728E-2,-2.247254E-2,-2.459083E-2,3.361295E-3,1.8742952E-2,-2.4960076E-2],"split_indices":[22,22,25,22,25,22,22,22,25,22,19,3,38,26,5,45,25,20,19,4,52,15,45,4,19,12,26,8,19,44,22,25,26,19,7,19,46,40,7,19,13,5,21,23,26,22,38,0,0,14,22,0,22,0,0,25,15,20,27,22,18,25,22,0,0,0,0,0,0,0,0,0,0,0,0,0,0,0,0,0,0,0,0,0,0,0,0,0,0,0,0,0,0,0,0,0,0,0,0,0,0,0,0,0,0,0,0,0,0,0,0,0,0,0,0,0,0],"split_type":[0,0,0,0,0,0,0,0,0,0,0,0,0,0,0,0,0,0,0,0,0,0,0,0,0,0,0,0,0,0,0,0,0,0,0,0,0,0,0,0,0,0,0,0,0,0,0,0,0,0,0,0,0,0,0,0,0,0,0,0,0,0,0,0,0,0,0,0,0,0,0,0,0,0,0,0,0,0,0,0,0,0,0,0,0,0,0,0,0,0,0,0,0,0,0,0,0,0,0,0,0,0,0,0,0,0,0,0,0,0,0,0,0,0,0,0,0],"sum_hessian":[1.9637957E4,1.5418571E4,4.219386E3,7.488076E3,7.9304956E3,2.240993E3,1.9783932E3,3.585879E3,3.902197E3,2.0378429E3,5.892653E3,1.1663691E3,1.0746238E3,1.4224069E3,5.5598627E2,4.0869522E2,3.1771838E3,9.365734E2,2.9656235E3,1.4660226E3,5.718203E2,2.1792295E3,3.713423E3,3.054132E1,1.1358278E3,1.0647086E3,9.915168E0,1.258846E3,1.6356094E2,4.6698553E2,8.900073E1,1.4109367E1,3.9458585E2,1.1373632E3,2.0398206E3,6.4467487E2,2.9189853E2,1.1818661E3,1.7837574E3,1.4108123E3,5.521035E1,6.3134747E1,5.0868558E2,1.2056135E3,9.736161E2,2.542666E3,1.1707572E3,2.2150385E1,8.390936E0,5.837603E2,5.520675E2,5.804364E0,1.0589042E3,6.3768406E0,3.538327E0,1.0490319E3,2.0981412E2,4.824566E1,1.1531528E2,4.5012228E2,1.6863245E1,3.519723E1,5.38035E1,6.5817447E0,7.5276227E0,3.910943E2,3.4915543E0,9.4880414E2,1.8855907E2,1.527041E3,5.1277954E2,2.9142096E2,3.5325394E2,2.8488474E2,7.0138083E0,2.4743626E1,1.1571226E3,1.4763279E3,3.074296E2,7.101572E2,7.0065497E2,5.6922927E0,4.951806E1,6.4086766E0,5.672607E1,4.5282895E2,5.585664E1,3.796877E2,8.2592584E2,2.0550209E1,9.5306586E2,1.3139489E3,1.2287172E3,9.9608466E2,1.7467256E2,5.772985E2,6.461777E0,1.3168947E2,4.2037805E2,2.671526E2,7.9175165E2,1.2959251E2,9.1943933E2,4.670148E1,1.6311263E2,1.7117382E1,3.1128279E1,9.191185E0,1.0612409E2,1.9360168E2,2.565206E2,1.2332006E1,4.5312386E0,2.3330433E1,1.1866798E1,4.5130123E1,8.67338E0],"tree_param":{"num_deleted":"0","num_feature":"53","num_nodes":"117","size_leaf_vector":"1"}},{"base_weights":[2.7244508E-3,1.342753E-1,-4.077854E-1,2.4683115E-1,2.965124E-2,-2.801413E-1,-6.650996E-1,3.349157E-1,1.857386E-1,8.328655E-2,-9.157436E-2,1.752988E-1,-3.1221947E-1,-4.3014723E-1,-7.5806934E-1,5.4329705E-1,3.018426E-1,9.186667E-2,2.0634218E-1,9.997743E-3,1.461147E-1,-1.03542E-1,7.723838E-1,-1.724851E-1,4.6628374E-1,-1.9464472E-1,-4.2070973E-1,-6.1380034E-3,-5.4468465E-1,-7.757815E-1,-2.2997385E-1,-2.2753952E-2,5.5532897E-1,2.8748262E-1,5.871323E-1,5.246435E-2,5.1069576E-1,1.5583506E-1,2.6379365E-1,6.815019E-2,-1.0279261E-1,1.5896603E-1,-3.1897783E-1,-2.0245008E-1,-3.7054162E-2,2.694844E-2,3.6408904E-1,2.3435583E-2,-2.787624E-1,6.031968E-1,-2.7143022E-1,5.928728E-1,-2.0989023E-1,-1.8666853E-1,-4.78248E-1,1.8495484E-1,-6.236821E-1,1.3355231E-1,-6.399211E-1,-7.051231E-1,-8.1222713E-1,-2.3796417E-2,3.5003868E-1,1.2533927E-2,1.9598236E-2,1.6365364E-2,8.195093E-3,-1.5601256E-2,1.8661078E-2,3.7141303E-3,-7.883388E-3,-2.505754E-2,1.9079681E-2,8.493404E-3,3.6318926E-3,8.5501475E-3,-1.0949828E-4,-1.9805757E-2,2.2929255E-3,-4.1628126E-3,1.3288969E-2,1.3449852E-2,4.0731714E-3,-1.2594665E-2,1.197126E-2,1.0639656E-2,-7.1973065E-3,-1.6321138E-3,1.3078658E-2,2.4467072E-2,-1.2574046E-2,1.8195545E-2,-1.3246471E-2,2.2415522E-2,3.0266673E-3,-2.1332959E-2,2.1153187E-2,2.6566485E-2,-1.3392019E-2,-8.298951E-3,-1.5177875E-3,7.225182E-3,-9.330208E-3,-1.577078E-2,-4.023711E-3,-1.1094146E-2,1.1630068E-2,-2.3357004E-2,8.778664E-3,-2.5338924E-2,1.6043385E-2,-1.183362E-2,-2.362783E-2,-2.1540407E-2,-4.7434703E-3,-2.2909366E-2,-2.517545E-2,-7.5322175E-3,2.1323338E-2],"categories":[],"categories_nodes":[],"categories_segments":[],"categories_sizes":[],"default_left":[0,0,0,0,0,0,0,0,0,0,0,0,0,0,0,0,0,0,0,0,0,0,0,0,0,0,0,0,0,0,0,0,0,0,0,0,0,0,0,0,0,0,0,0,0,0,0,0,0,0,0,0,0,0,0,0,0,0,0,0,0,0,0,0,0,0,0,0,0,0,0,0,0,0,0,0,0,0,0,0,0,0,0,0,0,0,0,0,0,0,0,0,0,0,0,0,0,0,0,0,0,0,0,0,0,0,0,0,0,0,0,0,0,0,0,0,0,0,0],"id":8,"left_children":[1,3,5,7,9,11,13,15,17,19,21,23,25,27,29,31,33,35,37,39,41,43,45,47,49,51,53,55,57,59,61,-1,63,65,67,69,71,73,75,77,79,81,83,85,87,-1,89,-1,91,93,95,97,99,101,103,105,107,109,111,113,115,-1,117,-1,-1,-1,-1,-1,-1,-1,-1,-1,-1,-1,-1,-1,-1,-1,-1,-1,-1,-1,-1,-1,-1,-1,-1,-1,-1,-1,-1,-1,-1,-1,-1,-1,-1,-1,-1,-1,-1,-1,-1,-1,-1,-1,-1,-1,-1,-1,-1,-1,-1,-1,-1,-1,-1,-1,-1],"loss_changes":[1.0444635E3,1.7247751E2,1.5397888E2,3.790802E1,4.9371574E1,4.5916656E1,3.3654297E1,1.9742157E1,8.043457E0,2.4236801E1,2.416309E1,2.1048298E1,3.7329987E1,2.1527939E1,1.0234863E1,6.5983276E0,1.0052597E1,1.2384506E1,9.875458E0,1.5950496E1,1.699062E1,1.510644E1,1.3148708E0,9.85797E0,1.1584911E1,1.7045918E1,2.0440765E1,1.1361847E1,2.2631462E1,2.2001343E0,1.2544319E1,0E0,4.9987717E0,8.630981E0,4.906994E0,1.5516917E1,1.141758E1,8.025417E0,9.0627365E0,9.727164E0,1.63014E1,1.8453232E1,5.709625E0,1.9361324E1,1.1312768E1,0E0,3.5984478E0,0E0,1.2706789E1,6.845295E0,8.397517E0,8.616417E0,1.4693718E1,1.6153605E1,1.9898254E1,8.414898E0,3.4565592E0,1.7643991E1,1.0790298E1,2.5234375E0,2.8070068E-1,0E0,4.3403115E0,0E0,0E0,0E0,0E0,0E0,0E0,0E0,0E0,0E0,0E0,0E0,0E0,0E0,0E0,0E0,0E0,0E0,0E0,0E0,0E0,0E0,0E0,0E0,0E0,0E0,0E0,0E0,0E0,0E0,0E0,0E0,0E0,0E0,0E0,0E0,0E0,0E0,0E0,0E0,0E0,0E0,0E0,0E0,0E0,0E0,0E0,0E0,0E0,0E0,0E0,0E0,0E0,0E0,0E0,0E0,0E0],"parents":[2147483647,0,0,1,1,2,2,3,3,4,4,5,5,6,6,7,7,8,8,9,9,10,10,11,11,12,12,13,13,14,14,15,15,16,16,17,17,18,18,19,19,20,20,21,21,22,22,23,23,24,24,25,25,26,26,27,27,28,28,29,29,30,30,32,32,33,33,34,34,35,35,36,36,37,37,38,38,39,39,40,40,41,41,42,42,43,43,44,44,46,46,48,48,49,49,50,50,51,51,52,52,53,53,54,54,55,55,56,56,57,57,58,58,59,59,60,60,62,62],"right_children":[2,4,6,8,10,12,14,16,18,20,22,24,26,28,30,32,34,36,38,40,42,44,46,48,50,52,54,56,58,60,62,-1,64,66,68,70,72,74,76,78,80,82,84,86,88,-1,90,-1,92,94,96,98,100,102,104,106,108,110,112,114,116,-1,118,-1,-1,-1,-1,-1,-1,-1,-1,-1,-1,-1,-1,-1,-1,-1,-1,-1,-1,-1,-1,-1,-1,-1,-1,-1,-1,-1,-1,-1,-1,-1,-1,-1,-1,-1,-1,-1,-1,-1,-1,-1,-1,-1,-1,-1,-1,-1,-1,-1,-1,-1,-1,-1,-1,-1,-1],"split_conditions":[2.9177706E0,1.5475625E0,4.3214803E0,1.0647107E0,-7.9798126E-1,3.505E1,2.3809524E-2,5.3062826E-1,6.666667E-2,4.8818183E-1,4.857143E0,9.724138E-1,3.4499876E0,1E0,9.375E-1,-1.08E0,8.1E1,1.7279052E0,1.8E3,2.091864E0,1.248E0,3.84E-1,2.2222223E-2,-5.7E2,6.4705884E-1,1.016136E0,3.4E1,6E0,4.756E1,4.822698E0,7E0,-2.2753952E-2,1.5428571E-1,4.186E1,6.736E1,5.0111237E1,4.4E1,2.6666668E-1,2.7272728E-1,-6E0,8.163E1,-3.3884296E0,3.5555556E0,1.3987169E0,3.8E2,2.694844E-2,4.9E1,2.3435583E-2,3.709091E-1,-1.8137847E0,1.26E2,4.333E1,6.5E1,2E0,4.976E1,2.9E1,2.1E2,4.71E1,4.750136E0,3.6E-1,4E0,-2.3796417E-2,1E0,1.2533927E-2,1.9598236E-2,1.6365364E-2,8.195093E-3,-1.5601256E-2,1.8661078E-2,3.7141303E-3,-7.883388E-3,-2.505754E-2,1.9079681E-2,8.493404E-3,3.6318926E-3,8.5501475E-3,-1.0949828E-4,-1.9805757E-2,2.2929255E-3,-4.1628126E-3,1.3288969E-2,1.3449852E-2,4.0731714E-3,-1.2594665E-2,1.197126E-2,1.0639656E-2,-7.1973065E-3,-1.6321138E-3,1.3078658E-2,2.4467072E-2,-1.2574046E-2,1.8195545E-2,-1.3246471E-2,2.2415522E-2,3.0266673E-3,-2.1332959E-2,2.1153187E-2,2.6566485E-2,-1.3392019E-2,-8.298951E-3,-1.5177875E-3,7.225182E-3,-9.330208E-3,-1.577078E-2,-4.023711E-3,-1.1094146E-2,1.1630068E-2,-2.3357004E-2,8.778664E-3,-2.5338924E-2,1.6043385E-2,-1.183362E-2,-2.362783E-2,-2.1540407E-2,-4.7434703E-3,-2.2909366E-2,-2.517545E-2,-7.5322175E-3,2.1323338E-2],"split_indices":[22,22,22,22,36,3,39,22,23,28,45,28,22,51,38,27,8,43,20,22,28,28,35,48,23,40,2,30,11,22,30,0,28,6,0,44,2,38,23,46,0,41,45,40,48,0,5,0,28,42,29,3,5,19,0,29,48,11,22,39,30,0,21,0,0,0,0,0,0,0,0,0,0,0,0,0,0,0,0,0,0,0,0,0,0,0,0,0,0,0,0,0,0,0,0,0,0,0,0,0,0,0,0,0,0,0,0,0,0,0,0,0,0,0,0,0,0,0,0],"split_type":[0,0,0,0,0,0,0,0,0,0,0,0,0,0,0,0,0,0,0,0,0,0,0,0,0,0,0,0,0,0,0,0,0,0,0,0,0,0,0,0,0,0,0,0,0,0,0,0,0,0,0,0,0,0,0,0,0,0,0,0,0,0,0,0,0,0,0,0,0,0,0,0,0,0,0,0,0,0,0,0,0,0,0,0,0,0,0,0,0,0,0,0,0,0,0,0,0,0,0,0,0,0,0,0,0,0,0,0,0,0,0,0,0,0,0,0,0,0,0],"sum_hessian":[1.933886E4,1.4646087E4,4.692772E3,7.0549385E3,7.591149E3,3.1381436E3,1.5546283E3,2.887376E3,4.167562E3,5.2629233E3,2.3282258E3,2.0619266E2,2.931951E3,4.4235028E2,1.112278E3,3.933839E2,2.4939922E3,7.5107056E2,3.4164917E3,2.4297676E3,2.8331558E3,2.297284E3,3.0942057E1,9.411458E1,1.1207808E2,1.4084058E3,1.5235452E3,9.43026E1,3.480477E2,1.0757292E3,3.6548756E1,3.0345225E0,3.903494E2,2.376385E3,1.1760704E2,6.875161E2,6.3554413E1,1.8201031E3,1.5963885E3,1.6034543E3,8.263132E2,2.757616E3,7.553959E1,9.226677E2,1.3746161E3,2.2732435E1,8.209622E0,8.7998E0,8.531477E1,9.468731E1,1.7390766E1,2.6027899E1,1.3823779E3,3.0148334E2,1.2220618E3,7.255247E1,2.1750134E1,4.2804974E1,3.052427E2,3.729753E2,7.0275397E2,1.8355991E1,1.8192764E1,1.645542E2,2.2579518E2,1.2293948E2,2.2534456E3,3.1694698E0,1.1443757E2,5.611375E2,1.26378654E2,4.929857E0,5.8624554E1,3.890162E2,1.4310869E3,1.47902E3,1.1736844E2,1.7140036E1,1.5863143E3,7.759223E2,5.039085E1,2.0327258E2,2.5543435E3,6.660093E1,8.938654E0,5.7598473E1,8.650693E2,1.3268339E3,4.778229E1,5.1815076E0,3.028115E0,1.2827777E1,7.2487E1,7.321315E1,2.1474163E1,1.2179138E1,5.211628E0,2.0424059E1,5.6038404E0,9.736901E2,4.086877E2,6.771715E1,2.3376619E2,1.0735262E3,1.4853558E2,1.91958E1,5.3356663E1,1.8733835E1,3.0162988E0,1.2129181E1,3.0675793E1,1.1603569E2,1.8920703E2,3.6408292E2,8.8923855E0,2.6123987E2,4.4151407E2,6.9371495E0,1.1255614E1],"tree_param":{"num_deleted":"0","num_feature":"53","num_nodes":"119","size_leaf_vector":"1"}},{"base_weights":[5.5367067E-3,1.2356405E-1,-3.9756286E-1,2.327066E-1,1.7987695E-2,-5.734629E-1,-2.2101893E-1,5.5221575E-1,2.1564905E-1,-1.6280246E-1,7.68678E-2,-3.9023712E-1,-7.0944387E-1,-1.20764E-1,-4.0566343E-1,-9.719798E-3,5.6376535E-1,9.753553E-2,2.5345075E-1,-3.4747977E-2,-2.4209115E-1,1.4367896E-1,6.58306E-3,-4.4079033E-1,1.9314678E-1,1.5550441E-2,-7.1857715E-1,1.1909955E-1,-1.984019E-1,-4.5739287E-1,-6.2030964E-2,5.819029E-1,-1.421169E-2,5.922503E-2,3.9608753E-1,3.3725327E-1,2.0594516E-1,4.5998466E-1,-5.307278E-2,-2.515172E-1,6.044812E-1,3.2733995E-1,1.1767847E-1,5.940734E-4,2.5447909E-2,-4.514987E-1,2.6076036E-2,3.9092356E-1,-7.3821056E-1,-6.1438143E-1,-7.899761E-1,5.462954E-1,2.3548529E-2,-9.830579E-2,-3.4462443E-1,-2.940596E-1,-6.952811E-1,-5.5960155E-1,6.070489E-1,1.2498009E-2,1.9229593E-2,-1.4136857E-2,1.2473081E-2,-6.79983E-4,5.834127E-3,1.5914004E-2,5.3239358E-3,8.407409E-3,1.2190185E-2,6.6504776E-3,4.1045947E-4,1.681998E-2,-7.000598E-4,4.3775616E-3,-2.8348118E-3,-7.782929E-3,1.7376764E-2,3.3554898E-3,2.4652464E-2,7.4673244E-3,2.1621758E-2,4.2490936E-3,-2.5056778E-3,8.11567E-4,-4.9859774E-3,-1.6570853E-2,-9.342519E-3,1.6376652E-2,-2.0760598E-2,-2.5158366E-2,-9.641285E-3,1.985247E-2,-1.8765619E-2,-2.250017E-2,-2.4958385E-2,2.3274217E-2,-6.054171E-3,4.677654E-3,-9.606963E-3,1.5036383E-2,-4.0751463E-3,-1.14447875E-2,6.1438247E-3,-4.5255986E-3,-1.7172268E-2,-2.0014436E-3,-2.3270452E-2,1.5950669E-2,-1.925226E-2,2.4227945E-2,-2.2601312E-2],"categories":[],"categories_nodes":[],"categories_segments":[],"categories_sizes":[],"default_left":[0,0,0,0,0,0,0,0,0,0,0,0,0,0,0,0,0,0,0,0,0,0,0,0,0,0,0,0,0,0,0,0,0,0,0,0,0,0,0,0,0,0,0,0,0,0,0,0,0,0,0,0,0,0,0,0,0,0,0,0,0,0,0,0,0,0,0,0,0,0,0,0,0,0,0,0,0,0,0,0,0,0,0,0,0,0,0,0,0,0,0,0,0,0,0,0,0,0,0,0,0,0,0,0,0,0,0,0,0,0,0],"id":9,"left_children":[1,3,5,7,9,11,13,15,17,19,21,23,25,27,29,-1,31,33,35,37,39,41,43,45,47,-1,49,51,53,55,57,59,61,63,65,67,69,71,73,75,77,79,81,83,-1,85,-1,87,89,91,93,95,97,99,101,103,105,107,109,-1,-1,-1,-1,-1,-1,-1,-1,-1,-1,-1,-1,-1,-1,-1,-1,-1,-1,-1,-1,-1,-1,-1,-1,-1,-1,-1,-1,-1,-1,-1,-1,-1,-1,-1,-1,-1,-1,-1,-1,-1,-1,-1,-1,-1,-1,-1,-1,-1,-1,-1,-1],"loss_changes":[9.007836E2,1.6874982E2,1.3303644E2,3.9125977E1,7.926696E1,5.3224487E1,3.959825E1,3.8693924E0,3.0504211E1,1.856607E1,2.637473E1,2.7128693E1,1.4180664E1,2.5899746E1,1.3361374E1,0E0,3.7814713E0,1.895615E1,2.0549255E1,6.377231E0,9.166611E0,1.371207E1,1.3802864E1,1.2234253E1,1.3886271E1,0E0,8.610779E0,1.3881842E1,1.533585E1,2.5227722E1,3.353561E1,3.141571E0,2.5397925E0,1.6305801E1,5.44495E0,7.25943E0,1.0006027E1,1.236023E0,5.590673E0,7.499939E0,1.270988E0,1.0820747E1,1.2178463E1,1.2007867E1,0E0,1.166777E1,0E0,1.0705893E1,2.8611708E-1,7.545044E0,5.873413E-1,1.0831907E1,1.2756632E1,1.412644E1,8.714016E0,1.5452259E1,1.3377182E1,5.5139465E0,1.2342066E1,0E0,0E0,0E0,0E0,0E0,0E0,0E0,0E0,0E0,0E0,0E0,0E0,0E0,0E0,0E0,0E0,0E0,0E0,0E0,0E0,0E0,0E0,0E0,0E0,0E0,0E0,0E0,0E0,0E0,0E0,0E0,0E0,0E0,0E0,0E0,0E0,0E0,0E0,0E0,0E0,0E0,0E0,0E0,0E0,0E0,0E0,0E0,0E0,0E0,0E0,0E0,0E0],"parents":[2147483647,0,0,1,1,2,2,3,3,4,4,5,5,6,6,7,7,8,8,9,9,10,10,11,11,12,12,13,13,14,14,16,16,17,17,18,18,19,19,20,20,21,21,22,22,23,23,24,24,26,26,27,27,28,28,29,29,30,30,31,31,32,32,33,33,34,34,35,35,36,36,37,37,38,38,39,39,40,40,41,41,42,42,43,43,45,45,47,47,48,48,49,49,50,50,51,51,52,52,53,53,54,54,55,55,56,56,57,57,58,58],"right_children":[2,4,6,8,10,12,14,16,18,20,22,24,26,28,30,-1,32,34,36,38,40,42,44,46,48,-1,50,52,54,56,58,60,62,64,66,68,70,72,74,76,78,80,82,84,-1,86,-1,88,90,92,94,96,98,100,102,104,106,108,110,-1,-1,-1,-1,-1,-1,-1,-1,-1,-1,-1,-1,-1,-1,-1,-1,-1,-1,-1,-1,-1,-1,-1,-1,-1,-1,-1,-1,-1,-1,-1,-1,-1,-1,-1,-1,-1,-1,-1,-1,-1,-1,-1,-1,-1,-1,-1,-1,-1,-1,-1,-1],"split_conditions":[3.025291E0,1.5892352E0,1.1369014E-1,5.3062826E-1,9.777778E-2,3.953165E0,4.085976E0,-3.2231405E0,1.0674157E-1,2.0281482E0,-1.0786116E0,4.633E1,-1.8E0,-3.3333334E-1,7.2E1,-9.719798E-3,-1.8370161E0,2.556627E-1,-2.396474E0,4.5E1,4.637E1,2E0,6.8E0,2.66E2,6.26E1,1.5550441E-2,4.685828E0,3.505E1,3.5438538E0,4.750136E0,2.1236312E0,1.0743071E-1,1.21015705E-1,4E0,4.30622E-1,1.2610933E-1,8.46E1,5E0,5.45E1,6E0,2.704E-1,-1.1561822E0,7.757E1,3.3333334E-1,2.5447909E-2,4E0,2.6076036E-2,7E0,1.6886586E0,3.12E1,5.3428125E0,4.953E1,3E0,-1.7E0,5.386E1,6E0,-9E-1,-2.1666667E0,5.647565E0,1.2498009E-2,1.9229593E-2,-1.4136857E-2,1.2473081E-2,-6.79983E-4,5.834127E-3,1.5914004E-2,5.3239358E-3,8.407409E-3,1.2190185E-2,6.6504776E-3,4.1045947E-4,1.681998E-2,-7.000598E-4,4.3775616E-3,-2.8348118E-3,-7.782929E-3,1.7376764E-2,3.3554898E-3,2.4652464E-2,7.4673244E-3,2.1621758E-2,4.2490936E-3,-2.5056778E-3,8.11567E-4,-4.9859774E-3,-1.6570853E-2,-9.342519E-3,1.6376652E-2,-2.0760598E-2,-2.5158366E-2,-9.641285E-3,1.985247E-2,-1.8765619E-2,-2.250017E-2,-2.4958385E-2,2.3274217E-2,-6.054171E-3,4.677654E-3,-9.606963E-3,1.5036383E-2,-4.0751463E-3,-1.14447875E-2,6.1438247E-3,-4.5255986E-3,-1.7172268E-2,-2.0014436E-3,-2.3270452E-2,1.5950669E-2,-1.925226E-2,2.4227945E-2,-2.2601312E-2],"split_indices":[22,22,25,22,25,22,22,42,25,22,36,0,26,26,5,0,36,49,36,5,7,18,45,29,0,0,22,3,22,22,36,25,25,15,49,25,0,15,17,51,52,36,7,33,0,15,0,18,43,12,22,11,51,45,11,18,45,45,22,0,0,0,0,0,0,0,0,0,0,0,0,0,0,0,0,0,0,0,0,0,0,0,0,0,0,0,0,0,0,0,0,0,0,0,0,0,0,0,0,0,0,0,0,0,0,0,0,0,0,0,0],"split_type":[0,0,0,0,0,0,0,0,0,0,0,0,0,0,0,0,0,0,0,0,0,0,0,0,0,0,0,0,0,0,0,0,0,0,0,0,0,0,0,0,0,0,0,0,0,0,0,0,0,0,0,0,0,0,0,0,0,0,0,0,0,0,0,0,0,0,0,0,0,0,0,0,0,0,0,0,0,0,0,0,0,0,0,0,0,0,0,0,0,0,0,0,0,0,0,0,0,0,0,0,0,0,0,0,0,0,0,0,0,0,0],"sum_hessian":[1.8931232E4,1.4644133E4,4.287101E3,7.1998643E3,7.444268E3,2.1463403E3,2.1407605E3,3.633066E2,6.8365576E3,1.8284093E3,5.615859E3,9.1598193E2,1.2303585E3,1.3885078E3,7.522527E2,4.374623E0,3.58932E2,1.6583939E3,5.1781636E3,6.997395E2,1.1286698E3,2.8785378E3,2.7373213E3,8.4316205E2,7.28199E1,8.673142E0,1.2216853E3,3.3939804E2,1.0491097E3,6.535397E2,9.8713005E1,3.4800443E2,1.09275675E1,1.4708512E3,1.8754277E2,1.8711869E3,3.3069768E3,2.4131662E1,6.7560785E2,1.1169363E3,1.1733475E1,3.555354E2,2.5230024E3,2.718975E3,1.8346188E1,8.3697565E2,6.186415E0,6.0543545E1,1.2276355E1,5.0065762E2,7.210277E2,6.1175087E1,2.7822296E2,6.2377747E2,4.253323E2,3.8881607E2,2.6472363E2,5.6706245E1,4.2006763E1,9.375361E1,2.5425082E2,5.2507443E0,5.6768227E0,9.166523E2,5.541989E2,1.1526644E2,7.227632E1,1.0279955E3,8.4319147E2,3.0566277E3,2.50349E2,1.9838942E1,4.292721E0,1.1596662E2,5.5964124E2,1.1070778E3,9.85849E0,4.054691E0,7.678784E0,2.977965E2,5.7738876E1,2.2548076E3,2.6819485E2,2.347442E3,3.7153317E2,4.848936E2,3.5208206E2,5.3398373E1,7.1451707E0,9.077923E0,3.1984317E0,3.8269553E0,4.9683066E2,3.7897723E2,3.4205048E2,4.6784813E1,1.4390272E1,2.0127003E2,7.69529E1,3.6022537E1,5.8775494E2,3.9887183E2,2.6460468E1,2.577498E2,1.3106625E2,3.0228596E1,2.3449504E2,3.5863457E0,5.31199E1,3.696402E1,5.0427423E0],"tree_param":{"num_deleted":"0","num_feature":"53","num_nodes":"111","size_leaf_vector":"1"}},{"base_weights":[4.6723005E-3,9.957373E-2,-4.7645423E-1,1.9752555E-1,-5.2841503E-2,-6.475027E-1,-2.5077838E-1,3.2788506E-1,1.4320497E-1,-2.507705E-1,2.0682294E-2,-5.1263076E-1,-7.526226E-1,-1.6175883E-1,-4.1083425E-1,5.3583044E-1,2.9645398E-1,5.634729E-2,1.8302523E-1,-3.5559955E-1,-1.4192899E-1,4.7157135E-2,-1.522696E-1,-5.513207E-1,1.0105271E-1,5.88987E-3,-7.592516E-1,4.9754038E-1,-2.007372E-1,-5.0361603E-1,7.576301E-2,5.4524475E-1,-1.1875688E-2,1.6275193E-1,3.4292752E-1,5.2104136E-3,1.8622604E-1,2.735592E-1,1.20423935E-1,-2.4246441E-1,-4.8098716E-1,-1.5441969E-1,5.3181404E-1,-9.496281E-2,8.186022E-2,-7.5237036E-1,-1.05155684E-1,-6.4865744E-1,-4.1360763E-1,2.5043173E-2,-3.4771734E-1,-6.9576246E-1,-7.9060936E-1,7.715841E-1,-4.137334E-1,1.46449935E-2,-3.2928944E-1,-3.5285452E-1,-7.4572664E-1,-6.3240224E-1,5.714949E-1,1.6774861E-2,-8.2421367E-4,2.297199E-3,1.3771627E-2,1.2015519E-2,7.663424E-3,-2.7357535E-3,2.9265617E-3,-5.6169233E-3,6.7953686E-3,1.2853982E-2,7.442446E-3,3.940023E-3,-6.824578E-3,-8.14868E-3,1.0928669E-2,-1.4767946E-2,1.758766E-2,-3.9127124E-3,-1.4457646E-2,2.4313442E-2,-3.1253044E-3,-4.1261124E-3,1.4938667E-2,6.026911E-3,1.0584054E-3,-5.981175E-4,-2.499586E-2,4.725447E-4,-8.869119E-3,-2.0402579E-2,-1.1398333E-2,1.3719006E-2,-1.3744523E-2,-2.3156239E-2,1.3019156E-2,-2.1456307E-2,-9.18486E-3,-2.394106E-2,-1.3698728E-2,9.708214E-4,2.5972176E-2,-2.4565856E-3,-1.8203823E-2,-8.634056E-3,1.1334331E-2,5.573434E-3,-1.12267425E-2,-2.1394324E-2,-5.3966143E-3,-2.3525441E-2,6.5323303E-4,-3.8690972E-3,-2.3275241E-2,2.1567151E-2,-2.178525E-2],"categories":[],"categories_nodes":[],"categories_segments":[],"categories_sizes":[],"default_left":[0,0,0,0,0,0,0,0,0,0,0,0,0,0,0,0,0,0,0,0,0,0,0,0,0,0,0,0,0,0,0,0,0,0,0,0,0,0,0,0,0,0,0,0,0,0,0,0,0,0,0,0,0,0,0,0,0,0,0,0,0,0,0,0,0,0,0,0,0,0,0,0,0,0,0,0,0,0,0,0,0,0,0,0,0,0,0,0,0,0,0,0,0,0,0,0,0,0,0,0,0,0,0,0,0,0,0,0,0,0,0,0,0,0,0,0,0],"id":10,"left_children":[1,3,5,7,9,11,13,15,17,19,21,23,25,27,29,31,33,35,37,39,41,43,45,47,49,-1,51,53,55,57,59,61,-1,63,65,67,69,71,73,75,77,79,81,83,85,87,89,91,93,-1,95,97,99,101,103,105,107,109,111,113,115,-1,-1,-1,-1,-1,-1,-1,-1,-1,-1,-1,-1,-1,-1,-1,-1,-1,-1,-1,-1,-1,-1,-1,-1,-1,-1,-1,-1,-1,-1,-1,-1,-1,-1,-1,-1,-1,-1,-1,-1,-1,-1,-1,-1,-1,-1,-1,-1,-1,-1,-1,-1,-1,-1,-1,-1],"loss_changes":[8.464992E2,2.3119028E2,1.17741516E2,6.670703E1,8.817873E1,2.4238708E1,1.8720184E1,1.795874E1,2.3010513E1,1.8674942E1,2.024043E1,1.8193298E1,6.275757E0,2.1916319E1,2.1284317E1,3.397461E0,1.49206085E1,1.3904434E1,2.5829422E1,1.17332E1,6.872118E0,1.891198E1,1.6513134E1,9.366257E0,1.5485919E1,0E0,1.3759155E0,1.2225307E1,2.221783E1,1.4168068E1,2.7122875E1,2.8810425E0,0E0,1.5888258E1,8.9039E0,1.3390718E1,8.940681E0,7.252884E0,1.0276859E1,7.9035015E0,5.045166E0,6.168558E0,2.7267914E0,1.9069376E1,1.7077652E1,2.502756E0,1.2563212E1,3.2831116E0,1.18630295E1,0E0,1.0063254E1,2.2675323E0,1.2234802E0,2.5474148E0,6.981988E-1,3.3150303E1,1.1698547E1,1.5173679E1,4.468399E0,2.200924E0,9.200125E0,0E0,0E0,0E0,0E0,0E0,0E0,0E0,0E0,0E0,0E0,0E0,0E0,0E0,0E0,0E0,0E0,0E0,0E0,0E0,0E0,0E0,0E0,0E0,0E0,0E0,0E0,0E0,0E0,0E0,0E0,0E0,0E0,0E0,0E0,0E0,0E0,0E0,0E0,0E0,0E0,0E0,0E0,0E0,0E0,0E0,0E0,0E0,0E0,0E0,0E0,0E0,0E0,0E0,0E0,0E0,0E0],"parents":[2147483647,0,0,1,1,2,2,3,3,4,4,5,5,6,6,7,7,8,8,9,9,10,10,11,11,12,12,13,13,14,14,15,15,16,16,17,17,18,18,19,19,20,20,21,21,22,22,23,23,24,24,26,26,27,27,28,28,29,29,30,30,31,31,33,33,34,34,35,35,36,36,37,37,38,38,39,39,40,40,41,41,42,42,43,43,44,44,45,45,46,46,47,47,48,48,50,50,51,51,52,52,53,53,54,54,55,55,56,56,57,57,58,58,59,59,60,60],"right_children":[2,4,6,8,10,12,14,16,18,20,22,24,26,28,30,32,34,36,38,40,42,44,46,48,50,-1,52,54,56,58,60,62,-1,64,66,68,70,72,74,76,78,80,82,84,86,88,90,92,94,-1,96,98,100,102,104,106,108,110,112,114,116,-1,-1,-1,-1,-1,-1,-1,-1,-1,-1,-1,-1,-1,-1,-1,-1,-1,-1,-1,-1,-1,-1,-1,-1,-1,-1,-1,-1,-1,-1,-1,-1,-1,-1,-1,-1,-1,-1,-1,-1,-1,-1,-1,-1,-1,-1,-1,-1,-1,-1,-1,-1,-1,-1,-1,-1],"split_conditions":[3.430756E0,1.9315214E0,1.1572343E-1,1.0647107E0,1.0518519E-1,4.302713E0,4.3438053E0,5.3062826E-1,1.1410658E-1,2E0,2.9032257E-1,5.163E1,3.12E1,-1.2E0,7.2E1,2.2E0,1.0518519E-1,1.9E3,2E0,2.6100698E0,6E0,1.3E1,1.1298903E-1,4.5454547E-2,5.25E1,5.88987E-3,4.822698E0,3.4E1,2E0,5.0106354E0,2.1236312E0,-1.8370161E0,-1.1875688E-2,2.2686991E-1,-2.396474E0,2E0,3E1,-1.3623978E0,9.103E1,6.2E1,8E0,3.269569E0,7.191011E-2,2.052647E0,1E0,1.3E1,-6.101052E-1,2E0,4.6296295E-2,2.5043173E-2,5.882353E-1,1.1292959E-1,5.55E1,-2.5525877E0,2.1E1,3E0,1.1705051E-1,1.5E1,6.3E1,7.505871E-1,5.647565E0,1.6774861E-2,-8.2421367E-4,2.297199E-3,1.3771627E-2,1.2015519E-2,7.663424E-3,-2.7357535E-3,2.9265617E-3,-5.6169233E-3,6.7953686E-3,1.2853982E-2,7.442446E-3,3.940023E-3,-6.824578E-3,-8.14868E-3,1.0928669E-2,-1.4767946E-2,1.758766E-2,-3.9127124E-3,-1.4457646E-2,2.4313442E-2,-3.1253044E-3,-4.1261124E-3,1.4938667E-2,6.026911E-3,1.0584054E-3,-5.981175E-4,-2.499586E-2,4.725447E-4,-8.869119E-3,-2.0402579E-2,-1.1398333E-2,1.3719006E-2,-1.3744523E-2,-2.3156239E-2,1.3019156E-2,-2.1456307E-2,-9.18486E-3,-2.394106E-2,-1.3698728E-2,9.708214E-4,2.5972176E-2,-2.4565856E-3,-1.8203823E-2,-8.634056E-3,1.1334331E-2,5.573434E-3,-1.12267425E-2,-2.1394324E-2,-5.3966143E-3,-2.3525441E-2,6.5323303E-4,-3.8690972E-3,-2.3275241E-2,2.1567151E-2,-2.178525E-2],"split_indices":[22,22,25,22,25,22,22,22,25,19,39,0,12,26,5,26,25,20,19,22,51,13,25,49,0,0,22,2,19,22,36,36,0,49,36,19,29,42,0,4,15,22,52,43,51,13,36,24,49,0,38,49,11,41,29,15,25,13,8,36,22,0,0,0,0,0,0,0,0,0,0,0,0,0,0,0,0,0,0,0,0,0,0,0,0,0,0,0,0,0,0,0,0,0,0,0,0,0,0,0,0,0,0,0,0,0,0,0,0,0,0,0,0,0,0,0,0],"split_type":[0,0,0,0,0,0,0,0,0,0,0,0,0,0,0,0,0,0,0,0,0,0,0,0,0,0,0,0,0,0,0,0,0,0,0,0,0,0,0,0,0,0,0,0,0,0,0,0,0,0,0,0,0,0,0,0,0,0,0,0,0,0,0,0,0,0,0,0,0,0,0,0,0,0,0,0,0,0,0,0,0,0,0,0,0,0,0,0,0,0,0,0,0,0,0,0,0,0,0,0,0,0,0,0,0,0,0,0,0,0,0,0,0,0,0,0,0],"sum_hessian":[1.853731E4,1.5483924E4,3.0533857E3,9.425924E3,6.058E3,1.7358491E3,1.3175367E3,2.7709973E3,6.6549263E3,1.6401744E3,4.4178257E3,7.629011E2,9.72948E2,8.479411E2,4.6959564E2,3.6173578E2,2.4092617E3,2.092685E3,4.562241E3,8.3433264E2,8.0584174E2,3.8319692E3,5.858565E2,7.177518E2,4.514932E1,6.5509324E0,9.663971E2,4.667601E1,8.012651E2,3.943652E2,7.523043E1,3.585278E2,3.2080007E0,6.225933E2,1.7866683E3,1.5022483E3,5.904368E2,1.8636544E3,2.6985867E3,4.401376E2,3.9419504E2,7.919307E2,1.3911012E1,7.517171E2,3.0802522E3,4.1557674E1,5.442988E2,4.1834906E2,2.994027E2,1.6808313E1,2.8341005E1,3.271712E2,6.392258E2,3.600243E1,1.0673577E1,2.9981976E2,5.0144534E2,2.4454514E2,1.4982008E2,3.086431E1,4.4366123E1,3.5004523E2,8.482565E0,4.832887E2,1.3930461E2,1.0752393E3,7.11429E2,7.349709E2,7.672774E2,5.7135822E1,5.33301E2,2.609902E2,1.6026642E3,2.6171377E3,8.144885E1,4.2048312E2,1.9654493E1,3.906062E2,3.5888371E0,7.391702E2,5.2760468E1,9.482378E0,4.428634E0,7.0207306E2,4.9644035E1,8.6539484E2,2.2148574E3,4.2540746E0,3.73036E1,3.3351764E2,2.107812E2,3.7317215E2,4.517691E1,1.4117176E1,2.8528552E2,1.8380177E1,9.960829E0,3.108202E2,1.6351027E1,6.239628E2,1.5263004E1,4.219366E0,3.1783064E1,4.4495335E0,6.2240443E0,1.6369833E2,1.3612141E2,3.9984856E1,4.6146048E2,7.830775E1,1.6623738E2,1.4265099E2,7.169091E0,7.265059E0,2.3599249E1,4.0240917E1,4.125205E0],"tree_param":{"num_deleted":"0","num_feature":"53","num_nodes":"117","size_leaf_vector":"1"}},{"base_weights":[3.7532307E-3,9.7106226E-2,-4.8165447E-1,2.1322466E-1,-2.112015E-2,-6.401728E-1,-2.836385E-1,3.2009286E-1,1.5506886E-1,-1.9893044E-1,4.2895857E-2,-5.334909E-1,-7.862053E-1,-1.6677946E-1,-4.095466E-1,5.4967356E-1,2.860432E-1,4.23161E-2,1.9216941E-1,-1.1127279E-1,-3.4239468E-1,1.13246314E-1,-1.9730931E-2,3.1330463E-1,-5.6003916E-1,-7.1092314E-1,-2.4328034E-2,2.3457877E-1,-2.6422063E-1,-1.4123365E-1,-5.1301557E-1,-5.8279205E-3,5.600961E-1,3.1960475E-1,1.4179607E-1,-9.698752E-3,2.3860063E-1,2.2816925E-1,7.578297E-2,-1.2952612E-1,3.4859076E-1,-4.5524913E-1,-2.0193844E-1,8.486464E-2,2.914296E-1,8.933626E-3,-2.123735E-1,-2.1093437E-2,2.216041E-2,-5.807121E-1,1.5198454E-1,-7.427467E-1,7.206196E-3,7.950452E-1,1.0634157E-1,3.9040068E-1,-2.9131615E-1,-5.744325E-1,2.042501E-1,-3.6757097E-1,-6.8664175E-1,1.7115656E-2,1.5645704E-3,8.268916E-3,1.2638251E-2,2.451356E-3,1.1597864E-2,-6.768861E-5,-2.6795497E-2,1.3799525E-2,2.42136E-3,7.104593E-3,-5.729771E-3,3.8496163E-3,-7.4735377E-3,-3.0612284E-3,-7.787116E-3,-8.171334E-3,1.5659098E-2,-1.4549468E-2,1.889304E-2,4.1898447E-3,-7.5816982E-3,4.300177E-3,-1.824174E-5,1.2140733E-2,2.1757288E-3,6.6547943E-3,-9.2229946E-4,1.4702689E-3,-9.683569E-3,8.905749E-3,-1.7725928E-2,1.5334671E-2,-2.3366839E-2,-1.7418908E-2,-2.5146484E-2,-4.684924E-3,6.7868326E-3,1.3990398E-2,2.7872032E-2,1.2161403E-2,-6.513204E-3,1.976397E-2,-1.4714878E-2,-1.5389834E-2,-7.048588E-3,-1.9817326E-2,7.115319E-3,1.3773668E-2,-1.017799E-2,-1.7562963E-2,-4.5102807E-3,-7.705975E-4,-2.1898454E-2],"categories":[],"categories_nodes":[],"categories_segments":[],"categories_sizes":[],"default_left":[0,0,0,0,0,0,0,0,0,0,0,0,0,0,0,0,0,0,0,0,0,0,0,0,0,0,0,0,0,0,0,0,0,0,0,0,0,0,0,0,0,0,0,0,0,0,0,0,0,0,0,0,0,0,0,0,0,0,0,0,0,0,0,0,0,0,0,0,0,0,0,0,0,0,0,0,0,0,0,0,0,0,0,0,0,0,0,0,0,0,0,0,0,0,0,0,0,0,0,0,0,0,0,0,0,0,0,0,0,0,0,0,0,0,0],"id":11,"left_children":[1,3,5,7,9,11,13,15,17,19,21,23,25,27,29,31,33,35,37,39,41,43,45,47,49,51,-1,53,55,57,59,-1,61,63,65,67,69,71,73,75,77,79,81,83,85,87,89,-1,-1,91,93,95,97,99,101,103,105,107,109,111,113,-1,-1,-1,-1,-1,-1,-1,-1,-1,-1,-1,-1,-1,-1,-1,-1,-1,-1,-1,-1,-1,-1,-1,-1,-1,-1,-1,-1,-1,-1,-1,-1,-1,-1,-1,-1,-1,-1,-1,-1,-1,-1,-1,-1,-1,-1,-1,-1,-1,-1,-1,-1,-1,-1],"loss_changes":[8.240992E2,2.0939975E2,9.1895996E1,4.7775574E1,8.604744E1,2.4949402E1,1.9147827E1,2.103415E1,2.0846054E1,2.5127441E1,2.4492535E1,2.1399567E1,6.992798E-1,2.6618332E1,1.7361618E1,2.8151932E0,1.1393555E1,1.2616646E1,1.5697784E1,1.0484287E1,1.193087E1,1.3215012E1,1.6245407E1,1.3204882E1,1.3567749E1,4.063225E0,0E0,9.487499E0,9.813492E0,2.6480602E1,1.11829605E1,0E0,1.7945099E0,8.450317E0,6.5547028E0,6.4264026E0,9.011119E0,1.0430542E1,1.5182322E1,4.2515354E0,5.2830687E0,1.3847572E1,5.928706E0,1.1294163E1,8.879017E0,2.1644028E1,1.1012751E1,0E0,0E0,8.105743E0,9.301864E0,2.1449738E0,3.4036738E-1,6.5237045E-1,1.0682785E1,5.563094E0,6.4477615E0,5.63925E0,1.3833161E1,1.1675495E1,5.8567276E0,0E0,0E0,0E0,0E0,0E0,0E0,0E0,0E0,0E0,0E0,0E0,0E0,0E0,0E0,0E0,0E0,0E0,0E0,0E0,0E0,0E0,0E0,0E0,0E0,0E0,0E0,0E0,0E0,0E0,0E0,0E0,0E0,0E0,0E0,0E0,0E0,0E0,0E0,0E0,0E0,0E0,0E0,0E0,0E0,0E0,0E0,0E0,0E0,0E0,0E0,0E0,0E0,0E0,0E0],"parents":[2147483647,0,0,1,1,2,2,3,3,4,4,5,5,6,6,7,7,8,8,9,9,10,10,11,11,12,12,13,13,14,14,15,15,16,16,17,17,18,18,19,19,20,20,21,21,22,22,23,23,24,24,25,25,27,27,28,28,29,29,30,30,32,32,33,33,34,34,35,35,36,36,37,37,38,38,39,39,40,40,41,41,42,42,43,43,44,44,45,45,46,46,49,49,50,50,51,51,52,52,53,53,54,54,55,55,56,56,57,57,58,58,59,59,60,60],"right_children":[2,4,6,8,10,12,14,16,18,20,22,24,26,28,30,32,34,36,38,40,42,44,46,48,50,52,-1,54,56,58,60,-1,62,64,66,68,70,72,74,76,78,80,82,84,86,88,90,-1,-1,92,94,96,98,100,102,104,106,108,110,112,114,-1,-1,-1,-1,-1,-1,-1,-1,-1,-1,-1,-1,-1,-1,-1,-1,-1,-1,-1,-1,-1,-1,-1,-1,-1,-1,-1,-1,-1,-1,-1,-1,-1,-1,-1,-1,-1,-1,-1,-1,-1,-1,-1,-1,-1,-1,-1,-1,-1,-1,-1,-1,-1,-1],"split_conditions":[3.430756E0,1.686399E0,1.1525705E-1,1.0647107E0,1.0518519E-1,4.685828E0,4.104295E0,5.3062826E-1,1.0862005E-1,2.6100698E0,2.2512918E0,3.4E1,4.0816325E-3,4.11E1,4.9E1,-8.8E-1,1.1111111E-1,2.1E3,-1.5359708E0,6.2E1,4E0,1.5567282E0,2.6923078E-1,5E-1,4.95E1,3.4783056E-3,-2.4328034E-2,1.1705051E-1,-1.2E0,6.4E-1,4.685828E0,-5.8279205E-3,-1.8370161E0,1.2629321E-1,1.3139729E-1,1E0,2.032258E-1,9E1,1.1E0,2.1052632E-1,3.5E1,9.711673E-1,1.3953488E-2,4.3E1,5.353E1,4.5E1,-1.9714285E-1,-2.1093437E-2,2.216041E-2,1.4E1,4E1,8.8235295E-1,4.0625E-2,9.5E1,0E0,3.4E1,1.20843895E-1,1.409292E-1,5E0,1.6E1,-1.8E0,1.7115656E-2,1.5645704E-3,8.268916E-3,1.2638251E-2,2.451356E-3,1.1597864E-2,-6.768861E-5,-2.6795497E-2,1.3799525E-2,2.42136E-3,7.104593E-3,-5.729771E-3,3.8496163E-3,-7.4735377E-3,-3.0612284E-3,-7.787116E-3,-8.171334E-3,1.5659098E-2,-1.4549468E-2,1.889304E-2,4.1898447E-3,-7.5816982E-3,4.300177E-3,-1.824174E-5,1.2140733E-2,2.1757288E-3,6.6547943E-3,-9.2229946E-4,1.4702689E-3,-9.683569E-3,8.905749E-3,-1.7725928E-2,1.5334671E-2,-2.3366839E-2,-1.7418908E-2,-2.5146484E-2,-4.684924E-3,6.7868326E-3,1.3990398E-2,2.7872032E-2,1.2161403E-2,-6.513204E-3,1.976397E-2,-1.4714878E-2,-1.5389834E-2,-7.048588E-3,-1.9817326E-2,7.115319E-3,1.3773668E-2,-1.017799E-2,-1.7562963E-2,-4.5102807E-3,-7.705975E-4,-2.1898454E-2],"split_indices":[22,22,25,22,25,22,22,22,25,22,22,3,49,7,4,27,23,20,36,4,15,43,39,31,38,49,0,25,26,28,22,0,36,25,25,34,52,44,45,52,29,36,52,29,7,3,27,0,0,29,2,23,52,12,26,2,25,25,30,13,26,0,0,0,0,0,0,0,0,0,0,0,0,0,0,0,0,0,0,0,0,0,0,0,0,0,0,0,0,0,0,0,0,0,0,0,0,0,0,0,0,0,0,0,0,0,0,0,0,0,0,0,0,0,0],"split_type":[0,0,0,0,0,0,0,0,0,0,0,0,0,0,0,0,0,0,0,0,0,0,0,0,0,0,0,0,0,0,0,0,0,0,0,0,0,0,0,0,0,0,0,0,0,0,0,0,0,0,0,0,0,0,0,0,0,0,0,0,0,0,0,0,0,0,0,0,0,0,0,0,0,0,0,0,0,0,0,0,0,0,0,0,0,0,0,0,0,0,0,0,0,0,0,0,0,0,0,0,0,0,0,0,0,0,0,0,0,0,0,0,0,0,0],"sum_hessian":[1.8184277E4,1.5251859E4,2.9324185E3,7.6941196E3,7.5577393E3,1.6273989E3,1.3050195E3,2.7098833E3,4.9842363E3,2.0001189E3,5.5576206E3,9.43091E2,6.843079E2,6.7803754E2,6.2698193E2,3.480441E2,2.361839E3,1.234523E3,3.7497134E3,1.2426355E3,7.5748346E2,2.6170288E3,2.9405916E3,2.8340137E1,9.1475085E2,1.7656049E2,5.0774747E2,1.3218063E2,5.458569E2,1.7515074E2,4.518312E2,4.5649986E0,3.434791E2,1.9150533E3,4.4678586E2,9.766611E2,2.578619E2,2.863145E3,8.8656836E2,1.1958856E3,4.6749893E1,4.187683E2,3.3871512E2,2.258727E3,3.5830194E2,2.560545E3,3.8004672E2,8.168614E0,2.0171522E1,8.891205E2,2.5630362E1,1.6903548E2,7.5250096E0,2.3643938E1,1.085367E2,2.1162708E1,5.246942E2,7.741638E1,9.773436E1,2.4756549E2,2.0426572E2,3.3645007E2,7.0290174E0,1.3394347E3,5.756186E2,3.5980756E2,8.69783E1,9.694966E2,7.1644773E0,1.06549774E2,1.5131212E2,2.8056772E3,5.7467693E1,7.636832E2,1.22885124E2,9.887052E2,2.0718042E2,1.0079287E1,3.667061E1,4.08137E2,1.0631321E1,4.3612076E1,2.9510306E2,1.3407797E3,9.179473E2,2.3556963E2,1.2273232E2,4.0152243E2,2.1590225E3,1.1302793E2,2.670188E2,9.845233E0,8.7927527E2,1.8819803E1,6.8105583E0,6.527462E1,1.0376085E2,4.4744587E0,3.050551E0,8.145703E0,1.5498236E1,5.626478E1,5.227192E1,1.6413763E1,4.748945E0,1.0472111E2,4.1997308E2,7.015604E1,7.260343E0,6.6640015E1,3.1094349E1,1.2275643E2,1.2480905E2,1.2658741E1,1.9160698E2],"tree_param":{"num_deleted":"0","num_feature":"53","num_nodes":"115","size_leaf_vector":"1"}},{"base_weights":[1.2297248E-3,1.18317366E-1,-3.4225154E-1,2.9843172E-1,6.1244823E-2,-5.4814285E-1,-2.0003647E-1,5.479961E-1,2.689504E-1,-8.07352E-2,1.12199925E-1,-2.7185887E-1,-6.334881E-1,-1.2506646E-1,-4.4277844E-1,5.676702E-1,-1.3647735E-1,1.7737894E-1,3.2035047E-1,-5.1377077E-2,-3.817945E-1,2.0380078E-1,5.7106078E-2,-3.7334007E-1,-1.5162733E-1,-5.4752225E-1,-7.6094586E-1,1.0369791E-1,-1.960625E-1,-1.10896505E-1,-5.627666E-1,5.771934E-1,-7.568077E-3,-1.4008113E-2,1.2055386E-2,9.578192E-2,3.6424536E-1,2.937659E-1,4.8724616E-1,-7.5215206E-2,2.600939E-1,-4.809623E-1,-1.7187692E-1,1.1616249E-1,3.0820224E-1,1.05536714E-1,-2.4318228E-2,-4.2093605E-1,7.3904306E-2,-2.2830561E-1,1.0931556E-1,-5.606144E-1,3.935639E-1,-6.433303E-1,-7.7741957E-1,5.253382E-1,-7.8404514E-4,2.726745E-1,-2.2055823E-1,-7.808149E-1,5.0420184E-2,-3.9592654E-1,-7.192194E-1,1.761052E-2,-7.2594904E-3,3.9237803E-3,-9.343304E-3,-1.9266905E-2,1.1334272E-2,1.1114966E-2,6.2204706E-3,-1.1365587E-2,1.5098075E-2,-4.868815E-3,2.5825875E-4,1.0335205E-2,-1.5912874E-2,-1.5067148E-2,6.2142005E-3,-1.7858429E-2,-1.6114969E-3,6.57493E-3,9.768279E-4,1.0204387E-2,5.088791E-4,4.0542884E-3,-6.305798E-5,2.3075959E-2,-9.594291E-4,-7.025244E-4,-1.4046314E-2,-1.3564002E-2,1.6875267E-2,-8.520503E-3,6.171638E-3,-7.0920973E-3,1.0998085E-2,-1.7049786E-2,1.890876E-2,-1.953302E-2,2.5706152E-2,-2.344601E-2,-8.454331E-3,-2.0098234E-2,-2.3778416E-2,-1.6525652E-2,1.7861122E-2,-3.3275064E-3,6.6146376E-3,1.2772576E-2,-2.189782E-2,-4.182228E-3,-1.0140646E-2,-9.946776E-3,-2.4591666E-2,-7.2947606E-3,1.3130935E-2,1.45707065E-2,-1.3811565E-2,-2.2609852E-2,-9.802598E-3],"categories":[],"categories_nodes":[],"categories_segments":[],"categories_sizes":[],"default_left":[0,0,0,0,0,0,0,0,0,0,0,0,0,0,0,0,0,0,0,0,0,0,0,0,0,0,0,0,0,0,0,0,0,0,0,0,0,0,0,0,0,0,0,0,0,0,0,0,0,0,0,0,0,0,0,0,0,0,0,0,0,0,0,0,0,0,0,0,0,0,0,0,0,0,0,0,0,0,0,0,0,0,0,0,0,0,0,0,0,0,0,0,0,0,0,0,0,0,0,0,0,0,0,0,0,0,0,0,0,0,0,0,0,0,0,0,0,0,0,0,0],"id":12,"left_children":[1,3,5,7,9,11,13,15,17,19,21,23,25,27,29,31,33,35,37,39,41,43,45,47,49,51,53,55,57,59,61,63,-1,-1,-1,65,67,69,71,73,75,77,79,81,83,85,87,89,91,93,95,97,99,101,103,105,107,109,111,113,115,117,119,-1,-1,-1,-1,-1,-1,-1,-1,-1,-1,-1,-1,-1,-1,-1,-1,-1,-1,-1,-1,-1,-1,-1,-1,-1,-1,-1,-1,-1,-1,-1,-1,-1,-1,-1,-1,-1,-1,-1,-1,-1,-1,-1,-1,-1,-1,-1,-1,-1,-1,-1,-1,-1,-1,-1,-1,-1,-1],"loss_changes":[7.196999E2,1.3717131E2,1.3310065E2,2.3477844E1,7.333743E1,4.3639404E1,4.894127E1,4.632965E0,1.346936E1,2.3645477E1,3.763272E1,5.3149986E0,1.5128906E1,3.3452305E1,2.5221306E1,2.7147827E0,2.0124743E0,1.5752556E1,8.017868E0,1.814182E1,4.8664665E0,2.5592865E1,1.8375828E1,5.098652E0,4.0905848E0,1.0704041E1,6.0214233E-1,2.1506674E1,1.8101463E1,1.8393812E1,1.1881119E1,2.7619705E0,0E0,0E0,0E0,1.0335241E1,4.533909E0,1.0460907E1,3.6769104E0,1.655614E1,1.1776756E1,2.4597473E0,3.8620489E0,1.3119638E1,1.1880981E1,9.311081E0,1.0595624E1,4.03524E0,6.3581767E0,3.8636398E0,4.251632E0,8.069183E0,6.4928303E0,3.5615826E0,2.7609253E-1,7.634865E0,9.5829E0,1.23558655E1,1.4191925E1,3.0540276E-1,1.5775943E1,1.3167732E1,2.9885101E0,0E0,0E0,0E0,0E0,0E0,0E0,0E0,0E0,0E0,0E0,0E0,0E0,0E0,0E0,0E0,0E0,0E0,0E0,0E0,0E0,0E0,0E0,0E0,0E0,0E0,0E0,0E0,0E0,0E0,0E0,0E0,0E0,0E0,0E0,0E0,0E0,0E0,0E0,0E0,0E0,0E0,0E0,0E0,0E0,0E0,0E0,0E0,0E0,0E0,0E0,0E0,0E0,0E0,0E0,0E0,0E0,0E0,0E0],"parents":[2147483647,0,0,1,1,2,2,3,3,4,4,5,5,6,6,7,7,8,8,9,9,10,10,11,11,12,12,13,13,14,14,15,15,16,16,17,17,18,18,19,19,20,20,21,21,22,22,23,23,24,24,25,25,26,26,27,27,28,28,29,29,30,30,31,31,35,35,36,36,37,37,38,38,39,39,40,40,41,41,42,42,43,43,44,44,45,45,46,46,47,47,48,48,49,49,50,50,51,51,52,52,53,53,54,54,55,55,56,56,57,57,58,58,59,59,60,60,61,61,62,62],"right_children":[2,4,6,8,10,12,14,16,18,20,22,24,26,28,30,32,34,36,38,40,42,44,46,48,50,52,54,56,58,60,62,64,-1,-1,-1,66,68,70,72,74,76,78,80,82,84,86,88,90,92,94,96,98,100,102,104,106,108,110,112,114,116,118,120,-1,-1,-1,-1,-1,-1,-1,-1,-1,-1,-1,-1,-1,-1,-1,-1,-1,-1,-1,-1,-1,-1,-1,-1,-1,-1,-1,-1,-1,-1,-1,-1,-1,-1,-1,-1,-1,-1,-1,-1,-1,-1,-1,-1,-1,-1,-1,-1,-1,-1,-1,-1,-1,-1,-1,-1,-1,-1],"split_conditions":[2.8332133E0,1.1314021E0,1.0674157E-1,5.3062826E-1,1.0989253E-1,3.3068867E0,9.309609E-1,-1.8634837E0,1.1551312E-1,2.6100698E0,2E0,4E0,4.685828E0,-3.3333334E-1,4.9E1,2.2E0,1E0,1.6817795E-1,5.191E1,6.5E1,3E0,3E0,2.014903E0,3E0,3.2108436E0,6E0,2E0,3.505E1,-1.9E0,1.1846395E-1,6.12E-1,6E0,-7.568077E-3,-1.4008113E-2,1.2055386E-2,4.7E1,3.2E1,-2.4939566E0,-6.666667E-1,2E0,2.0588236E-1,5E0,-7.028654E-1,1.6486586E0,1.0363636E0,5.0111237E1,1.662E1,4.9E1,6.6E1,2E0,6E0,5.4E1,5.75E1,5.206E1,4.845761E0,1.5040774E0,5.639098E-2,5.54E1,4E0,-7.5E-1,7.5789475E-1,3.763E1,1.3576159E-1,1.761052E-2,-7.2594904E-3,3.9237803E-3,-9.343304E-3,-1.9266905E-2,1.1334272E-2,1.1114966E-2,6.2204706E-3,-1.1365587E-2,1.5098075E-2,-4.868815E-3,2.5825875E-4,1.0335205E-2,-1.5912874E-2,-1.5067148E-2,6.2142005E-3,-1.7858429E-2,-1.6114969E-3,6.57493E-3,9.768279E-4,1.0204387E-2,5.088791E-4,4.0542884E-3,-6.305798E-5,2.3075959E-2,-9.594291E-4,-7.025244E-4,-1.4046314E-2,-1.3564002E-2,1.6875267E-2,-8.520503E-3,6.171638E-3,-7.0920973E-3,1.0998085E-2,-1.7049786E-2,1.890876E-2,-1.953302E-2,2.5706152E-2,-2.344601E-2,-8.454331E-3,-2.0098234E-2,-2.3778416E-2,-1.6525652E-2,1.7861122E-2,-3.3275064E-3,6.6146376E-3,1.2772576E-2,-2.189782E-2,-4.182228E-3,-1.0140646E-2,-9.946776E-3,-2.4591666E-2,-7.2947606E-3,1.3130935E-2,1.45707065E-2,-1.3811565E-2,-2.2609852E-2,-9.802598E-3],"split_indices":[22,22,25,22,25,22,36,36,25,22,19,15,22,26,4,26,51,49,11,4,19,15,22,51,22,51,30,3,45,25,28,51,0,0,0,8,2,36,26,19,39,51,36,22,28,44,3,5,5,21,30,8,17,11,22,40,49,0,15,26,28,7,25,0,0,0,0,0,0,0,0,0,0,0,0,0,0,0,0,0,0,0,0,0,0,0,0,0,0,0,0,0,0,0,0,0,0,0,0,0,0,0,0,0,0,0,0,0,0,0,0,0,0,0,0,0,0,0,0,0,0],"split_type":[0,0,0,0,0,0,0,0,0,0,0,0,0,0,0,0,0,0,0,0,0,0,0,0,0,0,0,0,0,0,0,0,0,0,0,0,0,0,0,0,0,0,0,0,0,0,0,0,0,0,0,0,0,0,0,0,0,0,0,0,0,0,0,0,0,0,0,0,0,0,0,0,0,0,0,0,0,0,0,0,0,0,0,0,0,0,0,0,0,0,0,0,0,0,0,0,0,0,0,0,0,0,0,0,0,0,0,0,0,0,0,0,0,0,0,0,0,0,0,0,0],"sum_hessian":[1.7893227E4,1.3344828E4,4.5483975E3,3.2100503E3,1.0134778E4,1.8570322E3,2.691365E3,3.3728522E2,2.8727651E3,2.6764897E3,7.4582886E3,4.3925137E2,1.4177808E3,2.0574456E3,6.3391956E2,3.2802722E2,9.257988E0,1.0343954E3,1.8383696E3,2.4397458E3,2.3674382E2,2.8000815E3,4.658207E3,2.370579E2,2.0219348E2,8.498688E2,5.6791205E2,4.8718176E2,1.5702637E3,1.6884001E2,4.650796E2,3.2455377E2,3.4734488E0,5.8186884E0,3.4392993E0,7.2105316E2,3.1334225E2,1.5881548E3,2.5021483E2,2.2670017E3,1.7274423E2,1.5990935E2,7.6834465E1,1.5233988E3,1.2766826E3,2.9206987E3,1.7375083E3,2.1430978E2,2.2748121E1,1.5636931E2,4.5824173E1,8.3860657E2,1.12622E1,7.4692215E1,4.9321985E2,9.59489E1,3.9123285E2,7.748178E1,1.4927819E3,3.2021282E1,1.3681873E2,2.2677692E2,2.3830266E2,3.2098773E2,3.5660534E0,6.6459424E2,5.6458946E1,3.550281E0,3.0979196E2,8.3946924E2,7.4868555E2,4.133636E0,2.4608119E2,1.1114543E3,1.1555472E3,1.565878E2,1.6156424E1,1.553753E2,4.534052E0,1.5882998E1,6.0951466E1,6.8178253E2,8.4161633E2,1.1503418E3,1.2634081E2,2.2904502E3,6.302486E2,1.5667571E1,1.7218408E3,2.2936672E1,1.9137311E2,1.0990384E1,1.1757738E1,1.3888751E2,1.7481804E1,1.9586636E1,2.6237537E1,8.3373047E2,4.876089E0,3.335653E0,7.9265475E0,5.3194817E1,2.1497398E1,6.6675385E1,4.2654446E2,5.4428434E0,9.050606E1,2.6155087E2,1.2968198E2,6.771791E1,9.763872E0,8.841474E2,6.086345E2,3.3110442E0,2.8710238E1,7.803546E1,5.8783264E1,1.500575E1,2.1177118E2,2.1823067E2,2.0071999E1],"tree_param":{"num_deleted":"0","num_feature":"53","num_nodes":"121","size_leaf_vector":"1"}},{"base_weights":[-5.729619E-3,1.3135415E-1,-2.9905766E-1,2.814711E-1,7.79093E-2,-5.1147515E-1,-1.6862836E-1,5.2837014E-1,2.5214562E-1,-3.934175E-2,1.2493774E-1,-3.8218328E-1,-7.25667E-1,-1.01562984E-1,-3.9096406E-1,4.0977117E-1,6.1853266E-1,1.6218631E-1,3.0061448E-1,7.811831E-3,-1.2866123E-1,1.5768272E-1,2.2454439E-2,-2.725757E-1,-4.8473713E-1,-7.333364E-1,2.1115994E-2,1.0969171E-1,-1.5312943E-1,-5.8482647E-1,-2.953262E-1,4.3684945E-1,-1.1371601E-2,2.3847865E-3,6.285191E-1,1.0005833E-1,4.0167353E-1,3.6137286E-1,2.3159736E-1,-2.5907823E-1,3.4333166E-2,-1.6006587E-1,5.959282E-1,-7.380374E-2,1.6730942E-1,-5.470697E-1,4.6479747E-2,-3.073906E-1,-4.4544313E-2,-5.0290674E-1,4.6321243E-1,-6.9345814E-1,-7.7691174E-1,2.2004274E-1,-2.535224E-1,-5.6423795E-1,-1.3831045E-1,-7.132564E-1,-7.4801065E-2,6.0228604E-1,-3.309014E-1,1.3959739E-2,-2.5856344E-3,1.6638769E-2,2.1333313E-2,7.9549744E-4,1.1070423E-2,1.3034164E-2,-2.0182746E-2,8.410705E-3,1.3536638E-2,1.0352119E-2,4.696447E-3,-2.745712E-2,-5.632173E-3,4.9883747E-3,-3.0814164E-4,-5.2495645E-3,2.5209256E-2,-1.4182182E-2,2.234696E-2,-1.3286552E-2,1.7473308E-3,1.4682008E-2,4.833985E-3,-2.0726498E-2,1.7057953E-2,1.6659205E-3,-1.943402E-2,-3.604018E-3,-1.05989715E-2,2.134604E-2,-3.5953925E-3,-1.538703E-2,3.7560125E-3,-1.5737513E-2,2.5224987E-2,-1.6668113E-2,-2.2326998E-2,-2.4024583E-2,-2.0396467E-2,-1.8373902E-3,1.0599928E-2,2.292507E-2,-1.2263403E-2,-2.1309467E-2,1.5958693E-2,-7.260849E-4,-5.538839E-3,-2.9366363E-3,-2.2510566E-2,-2.0306358E-2,1.4255876E-2,-1.9879578E-2,2.6271794E-2,-2.3010836E-3,-1.4264477E-2],"categories":[],"categories_nodes":[],"categories_segments":[],"categories_sizes":[],"default_left":[0,0,0,0,0,0,0,0,0,0,0,0,0,0,0,0,0,0,0,0,0,0,0,0,0,0,0,0,0,0,0,0,0,0,0,0,0,0,0,0,0,0,0,0,0,0,0,0,0,0,0,0,0,0,0,0,0,0,0,0,0,0,0,0,0,0,0,0,0,0,0,0,0,0,0,0,0,0,0,0,0,0,0,0,0,0,0,0,0,0,0,0,0,0,0,0,0,0,0,0,0,0,0,0,0,0,0,0,0,0,0,0,0,0,0,0,0],"id":13,"left_children":[1,3,5,7,9,11,13,15,17,19,21,23,25,27,29,31,33,35,37,39,41,43,45,47,49,51,-1,53,55,57,59,61,-1,-1,63,65,67,69,71,73,75,77,79,81,83,85,87,89,91,93,95,97,99,101,103,105,107,109,111,113,115,-1,-1,-1,-1,-1,-1,-1,-1,-1,-1,-1,-1,-1,-1,-1,-1,-1,-1,-1,-1,-1,-1,-1,-1,-1,-1,-1,-1,-1,-1,-1,-1,-1,-1,-1,-1,-1,-1,-1,-1,-1,-1,-1,-1,-1,-1,-1,-1,-1,-1,-1,-1,-1,-1,-1,-1],"loss_changes":[7.0646173E2,9.604083E1,1.5494382E2,2.2625168E1,4.8701466E1,5.8661194E1,5.167749E1,3.3051224E0,1.2209763E1,1.0651986E1,2.1149292E1,1.4809738E1,9.287018E0,2.905904E1,1.4722923E1,3.2989368E0,9.571991E-1,1.4638718E1,7.572891E0,1.1730932E1,1.9979713E1,1.0657326E1,2.0926119E1,5.1054764E0,1.2039017E1,8.4484863E-1,0E0,2.1044512E1,1.2979519E1,1.726484E1,1.7443565E1,2.1592922E0,0E0,0E0,7.2579193E-1,1.5510725E1,7.4419136E0,6.928833E0,7.2495804E0,6.8406296E0,8.872464E0,1.2659044E1,6.1647263E0,9.3546715E0,9.045441E0,1.0325737E1,9.25184E0,4.7651863E0,5.0145535E0,4.2891846E0,5.4437847E0,2.5616913E0,3.1886292E-1,1.5099962E1,1.9666058E1,1.2266874E1,1.0936253E1,4.745186E0,1.8302948E1,7.823593E0,1.907756E1,0E0,0E0,0E0,0E0,0E0,0E0,0E0,0E0,0E0,0E0,0E0,0E0,0E0,0E0,0E0,0E0,0E0,0E0,0E0,0E0,0E0,0E0,0E0,0E0,0E0,0E0,0E0,0E0,0E0,0E0,0E0,0E0,0E0,0E0,0E0,0E0,0E0,0E0,0E0,0E0,0E0,0E0,0E0,0E0,0E0,0E0,0E0,0E0,0E0,0E0,0E0,0E0,0E0,0E0,0E0,0E0],"parents":[2147483647,0,0,1,1,2,2,3,3,4,4,5,5,6,6,7,7,8,8,9,9,10,10,11,11,12,12,13,13,14,14,15,15,16,16,17,17,18,18,19,19,20,20,21,21,22,22,23,23,24,24,25,25,27,27,28,28,29,29,30,30,31,31,34,34,35,35,36,36,37,37,38,38,39,39,40,40,41,41,42,42,43,43,44,44,45,45,46,46,47,47,48,48,49,49,50,50,51,51,52,52,53,53,54,54,55,55,56,56,57,57,58,58,59,59,60,60],"right_children":[2,4,6,8,10,12,14,16,18,20,22,24,26,28,30,32,34,36,38,40,42,44,46,48,50,52,-1,54,56,58,60,62,-1,-1,64,66,68,70,72,74,76,78,80,82,84,86,88,90,92,94,96,