{"learner":{"attributes":{"best_iteration":"21","best_score":"0.7168574937516291","scikit_learn":"{\"_estimator_type\": \"ranker\"}"},"feature_names":[],"feature_types":[],"gradient_booster":{"model":{"cats":{"enc":[],"feature_segments":[],"sorted_idx":[]},"gbtree_model_param":{"num_parallel_tree":"1","num_trees":"47"},"iteration_indptr":[0,1,2,3,4,5,6,7,8,9,10,11,12,13,14,15,16,17,18,19,20,21,22,23,24,25,26,27,28,29,30,31,32,33,34,35,36,37,38,39,40,41,42,43,44,45,46,47],"tree_info":[0,0,0,0,0,0,0,0,0,0,0,0,0,0,0,0,0,0,0,0,0,0,0,0,0,0,0,0,0,0,0,0,0,0,0,0,0,0,0,0,0,0,0,0,0,0,0],"trees":[{"base_weights":[4.117191E-3,3.0972606E-1,-5.4797363E-1,4.9801102E-1,7.407767E-2,-3.4711763E-1,-7.8344464E-1,6.164172E-1,4.0973264E-1,-1.0394348E-1,2.0264612E-1,-5.6250507E-1,-1.267767E-1,-8.185026E-1,-1.38433E-1,5.4521334E-1,6.7868507E-1,2.8101933E-1,4.7779918E-1,2.185311E-2,-2.5241348E-1,3.158619E-1,7.7968515E-2,-7.007132E-1,-4.603915E-1,7.558727E-2,-2.3210342E-1,-6.7033553E-1,-9.0397364E-1,-6.4660126E-1,9.9914305E-2,4.7878793E-1,6.047753E-1,6.001366E-1,7.1897495E-1,1.8329154E-1,3.672414E-1,5.967334E-1,3.881983E-1,9.0677276E-2,-2.726668E-1,-6.037093E-1,-1.322042E-1,4.4049224E-1,2.4247245E-1,-7.672936E-2,1.7850952E-1,-4.558409E-1,-7.4032784E-1,-3.8600183E-1,-6.190473E-1,-2.9878783E-1,2.2046424E-1,-1.653014E-1,-6.202478E-1,-3.7427354E-1,-7.4749863E-1,-9.093216E-1,3.911112E-3,-2.5067436E-2,2.3368031E-3,2.9300693E-1,-5.119785E-1,-2.801726E-5,1.4745254E-2,-1.5828292E-3,1.8582888E-2,2.1533817E-2,1.6504616E-2,2.1861507E-2,9.777836E-3,3.1303524E-3,9.767191E-3,1.3247389E-2,7.607674E-3,1.5082304E-2,2.0761048E-2,8.426587E-3,1.3499227E-2,4.7213724E-3,-5.3859723E-4,-1.6592644E-2,-4.0835342E-3,-1.9467553E-2,9.840552E-3,-4.989234E-3,1.2491794E-2,7.7173095E-3,1.7480308E-2,7.890163E-3,-3.8280552E-3,1.1288817E-3,-1.0976041E-2,1.1314357E-2,2.517752E-3,-2.3862584E-2,9.400669E-4,-2.2478342E-2,-2.789669E-3,-1.5562595E-2,-6.7324154E-3,-1.9824088E-2,-2.2250938E-4,1.7417505E-2,-1.308601E-2,4.370294E-3,2.4264643E-2,-3.0655721E-3,-1.5982252E-2,-2.0501465E-2,-3.6856085E-3,-1.54240215E-2,3.2093828E-3,-1.6134707E-2,-2.3904048E-2,-1.5416595E-2,-2.7666213E-2,1.5923268E-3,2.3723038E-2,-2.4562744E-2,2.7437976E-3],"categories":[],"categories_nodes":[],"categories_segments":[],"categories_sizes":[],"default_left":[0,0,0,0,0,0,0,0,0,0,0,0,0,0,0,0,0,0,0,0,0,0,0,0,0,0,0,0,0,0,0,0,0,0,0,0,0,0,0,0,0,0,0,0,0,0,0,0,0,0,0,0,0,0,0,0,0,0,0,0,0,0,0,0,0,0,0,0,0,0,0,0,0,0,0,0,0,0,0,0,0,0,0,0,0,0,0,0,0,0,0,0,0,0,0,0,0,0,0,0,0,0,0,0,0,0,0,0,0,0,0,0,0,0,0,0,0,0,0,0,0],"id":0,"left_children":[1,3,5,7,9,11,13,15,17,19,21,23,25,27,29,31,33,35,37,39,41,43,45,47,49,51,53,55,57,59,61,63,65,67,69,71,73,75,77,79,81,83,85,87,89,91,93,95,97,99,101,103,105,107,109,111,113,115,-1,-1,-1,117,119,-1,-1,-1,-1,-1,-1,-1,-1,-1,-1,-1,-1,-1,-1,-1,-1,-1,-1,-1,-1,-1,-1,-1,-1,-1,-1,-1,-1,-1,-1,-1,-1,-1,-1,-1,-1,-1,-1,-1,-1,-1,-1,-1,-1,-1,-1,-1,-1,-1,-1,-1,-1,-1,-1,-1,-1,-1,-1],"loss_changes":[1.0889974E3,1.8429684E2,1.0849664E2,2.3884705E1,4.2280643E1,5.89149E1,2.3807861E1,3.9940796E0,1.1481842E1,1.4479042E1,1.5113293E1,8.543442E0,1.3140226E1,1.2097595E1,6.8154736E0,1.5473633E0,1.2174072E0,3.8176422E0,8.995117E0,8.546694E0,1.4933313E1,5.0310326E0,7.972563E0,2.2333527E0,4.0595016E0,1.1537712E1,1.0402956E1,8.192047E0,3.621643E0,2.5198984E0,4.7351747E0,1.3692055E0,2.354805E0,6.794815E-1,1.0617981E0,2.4158983E0,1.9490662E0,2.9676971E0,3.1661835E0,2.4775438E0,2.9836178E0,4.0189667E0,5.048855E0,5.242489E0,2.7369175E0,6.701823E0,5.800906E0,6.5605755E0,1.2426987E0,5.259289E0,2.9218674E0,7.435492E0,6.617566E0,7.9937773E0,1.7728596E0,5.3503056E0,2.6020966E0,2.7369995E0,0E0,0E0,0E0,3.5569246E0,1.865526E0,0E0,0E0,0E0,0E0,0E0,0E0,0E0,0E0,0E0,0E0,0E0,0E0,0E0,0E0,0E0,0E0,0E0,0E0,0E0,0E0,0E0,0E0,0E0,0E0,0E0,0E0,0E0,0E0,0E0,0E0,0E0,0E0,0E0,0E0,0E0,0E0,0E0,0E0,0E0,0E0,0E0,0E0,0E0,0E0,0E0,0E0,0E0,0E0,0E0,0E0,0E0,0E0,0E0,0E0,0E0,0E0,0E0,0E0],"parents":[2147483647,0,0,1,1,2,2,3,3,4,4,5,5,6,6,7,7,8,8,9,9,10,10,11,11,12,12,13,13,14,14,15,15,16,16,17,17,18,18,19,19,20,20,21,21,22,22,23,23,24,24,25,25,26,26,27,27,28,28,29,29,30,30,31,31,32,32,33,33,34,34,35,35,36,36,37,37,38,38,39,39,40,40,41,41,42,42,43,43,44,44,45,45,46,46,47,47,48,48,49,49,50,50,51,51,52,52,53,53,54,54,55,55,56,56,57,57,61,61,62,62],"right_children":[2,4,6,8,10,12,14,16,18,20,22,24,26,28,30,32,34,36,38,40,42,44,46,48,50,52,54,56,58,60,62,64,66,68,70,72,74,76,78,80,82,84,86,88,90,92,94,96,98,100,102,104,106,108,110,112,114,116,-1,-1,-1,118,120,-1,-1,-1,-1,-1,-1,-1,-1,-1,-1,-1,-1,-1,-1,-1,-1,-1,-1,-1,-1,-1,-1,-1,-1,-1,-1,-1,-1,-1,-1,-1,-1,-1,-1,-1,-1,-1,-1,-1,-1,-1,-1,-1,-1,-1,-1,-1,-1,-1,-1,-1,-1,-1,-1,-1,-1,-1,-1],"split_conditions":[3.1780539E0,2.00148E0,4.335983E0,1.3083328E0,1.0929808E-1,1.06180176E-1,1.3445379E-1,4E0,9.615385E-2,2.6173959E0,4E-1,3E0,2E0,4.8378677E0,1.8181819E-1,5.2E1,1.1140367E-1,2E0,2E0,4.375E-1,2E0,2E0,3E0,6.257296E-2,3.94739E0,1.2066857E-1,7.5E-1,2.172E-1,6.847E1,6.81E1,4E0,1.059E-2,4.658E1,7.8845733E-1,1.4591837E-1,6E0,1.7404661E0,3E0,3E0,2.5301206E-1,5.7142857E-2,3.6648E-1,1.849315E-1,3E0,1.8181819E-1,8.064516E-2,2E0,5.12164E-2,1.926E1,4E0,9.052E1,3.022E1,8.993E1,4.0976725E0,2.982456E-1,4.6E1,1.6129032E-2,3.265E1,3.911112E-3,-2.5067436E-2,2.3368031E-3,4.9E1,6E0,-2.801726E-5,1.4745254E-2,-1.5828292E-3,1.8582888E-2,2.1533817E-2,1.6504616E-2,2.1861507E-2,9.777836E-3,3.1303524E-3,9.767191E-3,1.3247389E-2,7.607674E-3,1.5082304E-2,2.0761048E-2,8.426587E-3,1.3499227E-2,4.7213724E-3,-5.3859723E-4,-1.6592644E-2,-4.0835342E-3,-1.9467553E-2,9.840552E-3,-4.989234E-3,1.2491794E-2,7.7173095E-3,1.7480308E-2,7.890163E-3,-3.8280552E-3,1.1288817E-3,-1.0976041E-2,1.1314357E-2,2.517752E-3,-2.3862584E-2,9.400669E-4,-2.2478342E-2,-2.789669E-3,-1.5562595E-2,-6.7324154E-3,-1.9824088E-2,-2.2250938E-4,1.7417505E-2,-1.308601E-2,4.370294E-3,2.4264643E-2,-3.0655721E-3,-1.5982252E-2,-2.0501465E-2,-3.6856085E-3,-1.54240215E-2,3.2093828E-3,-1.6134707E-2,-2.3904048E-2,-1.5416595E-2,-2.7666213E-2,1.5923268E-3,2.3723038E-2,-2.4562744E-2,2.7437976E-3],"split_indices":[25,25,25,25,30,30,30,21,30,25,26,21,22,25,29,5,30,22,22,26,21,22,21,47,25,30,37,49,10,10,22,47,13,25,30,21,25,18,21,29,28,47,43,18,32,32,22,47,46,18,11,4,8,25,29,9,31,11,0,0,0,2,18,0,0,0,0,0,0,0,0,0,0,0,0,0,0,0,0,0,0,0,0,0,0,0,0,0,0,0,0,0,0,0,0,0,0,0,0,0,0,0,0,0,0,0,0,0,0,0,0,0,0,0,0,0,0,0,0,0,0],"split_type":[0,0,0,0,0,0,0,0,0,0,0,0,0,0,0,0,0,0,0,0,0,0,0,0,0,0,0,0,0,0,0,0,0,0,0,0,0,0,0,0,0,0,0,0,0,0,0,0,0,0,0,0,0,0,0,0,0,0,0,0,0,0,0,0,0,0,0,0,0,0,0,0,0,0,0,0,0,0,0,0,0,0,0,0,0,0,0,0,0,0,0,0,0,0,0,0,0,0,0,0,0,0,0,0,0,0,0,0,0,0,0,0,0,0,0,0,0,0,0,0,0],"sum_hessian":[6.452312E3,4.153557E3,2.298755E3,2.308185E3,1.845372E3,1.241896E3,1.056859E3,9.8330853E2,1.3248766E3,7.739377E2,1.0714343E3,6.272218E2,6.1467413E2,1.0021222E3,5.4736782E1,4.6328885E2,5.200197E2,4.6005148E2,8.648251E2,4.194209E2,3.5451678E2,5.607246E2,5.107097E2,2.6401804E2,3.6320377E2,2.10508E2,4.0416614E2,3.6983786E2,6.3228436E2,1.6929466E1,3.7807312E1,2.2329799E2,2.3999086E2,1.8169193E2,3.383278E2,2.1710323E2,2.4294826E2,3.6915598E2,4.9566907E2,3.4053577E2,7.888515E1,8.9357895E1,2.6515887E2,2.0596007E2,3.5476456E2,2.0126666E2,3.0944302E2,3.8505928E1,2.2551212E2,2.496038E2,1.1359995E2,5.8437607E1,1.5207039E2,3.4603693E2,5.8129208E1,7.767237E1,2.921655E2,6.291523E2,3.1320782E0,1.3305484E1,3.6239831E0,2.9134577E1,8.672737E0,5.792075E0,2.175059E2,5.175311E0,2.3481555E2,5.0188736E1,1.3150319E2,3.2931155E2,9.016227E0,1.407435E2,7.6359726E1,1.4513333E2,9.7814926E1,1.890164E2,1.8013959E2,1.8311833E2,3.1255075E2,2.1070743E2,1.2982832E2,2.4834257E1,5.4050888E1,8.551222E1,3.845677E0,2.5029605E2,1.4862825E1,9.121316E1,1.1474692E2,3.3638983E2,1.8374727E1,1.4484723E2,5.641943E1,9.885383E1,2.1058919E2,2.2317299E1,1.618863E1,2.2228134E2,3.230772E0,1.3581538E2,1.1378843E2,1.06264915E2,7.3350396E0,7.461653E0,5.0975956E1,1.3602718E2,1.604321E1,2.9640176E2,4.963518E1,5.125009E1,6.8791146E0,6.0129395E1,1.7542978E1,5.7888126E1,2.3427736E2,2.1144506E1,6.0800775E2,2.0405437E1,8.729139E0,5.513122E0,3.1596153E0],"tree_param":{"num_deleted":"0","num_feature":"55","num_nodes":"121","size_leaf_vector":"1"}},{"base_weights":[1.5415859E-3,2.3475675E-1,-4.5406032E-1,3.4239554E-1,7.90494E-2,-6.550654E-1,-2.3547865E-1,4.420698E-1,2.5854683E-1,-1.0068581E-1,1.6623622E-1,-4.4057706E-1,-8.0685294E-1,-1.7472087E-1,-6.6984725E-1,3.3660254E-1,4.862094E-1,1.5841968E-1,3.0747226E-1,9.653365E-3,-1.717179E-1,-4.6366096E-2,1.927293E-1,-5.9355986E-1,-2.691569E-1,-6.5851706E-1,-8.575192E-1,-9.817364E-2,-3.1323236E-1,-7.527135E-1,3.6750016E-1,3.551638E-1,-1.07714E-2,7.332703E-1,4.6769306E-1,8.4804125E-2,2.6730323E-1,1.22315355E-1,3.500802E-1,2.658038E-1,-5.3600203E-2,-3.091716E-1,-1.1176361E-1,-2.7056065E-1,4.635526E-2,1.6784279E-1,3.3554035E-1,-6.7287374E-1,-4.7846743E-1,-4.962755E-1,-1.8816125E-1,-7.5477916E-1,-5.246517E-1,1.629705E-2,-8.622235E-1,-4.3187657E-1,-6.873935E-2,-2.0288968E-1,-4.949833E-1,2.142078E-2,-7.668142E-1,2.6247118E-2,-6.6627234E-1,2.0853681E-2,1.0173602E-2,1.4161702E-2,-6.3756797E-3,2.2712609E-2,-1.4021377E-3,1.4923333E-2,1.0175926E-2,8.819065E-3,1.0769573E-3,9.208428E-3,-1.9578019E-3,-1.897876E-2,4.990755E-3,-1.8867357E-2,1.0701197E-2,-8.086768E-3,1.1614474E-2,-5.0440202E-3,4.0613296E-3,-1.993728E-3,-1.2122139E-2,-3.8505192E-3,1.1280703E-2,-4.4240638E-5,-1.5137733E-2,1.1578129E-2,-2.4857E-3,9.857944E-4,6.0217157E-3,1.2195137E-2,3.3450692E-3,-2.0379389E-2,1.10320095E-2,-9.906554E-3,-2.0623056E-2,-1.883203E-2,-3.0529818E-3,-1.7531678E-3,-9.292611E-3,-2.300949E-2,1.3674066E-2,-1.7236859E-2,7.7018896E-3,-2.4298742E-2,-2.76644E-2,-1.5611186E-2,1.5534949E-2,4.1826486E-4,-6.3277516E-3,-7.518956E-3,1.3645598E-2,-1.1765665E-2,-2.0688677E-2,-2.3476513E-2,1.3602138E-2,-1.0995109E-3,-2.5950273E-2],"categories":[],"categories_nodes":[],"categories_segments":[],"categories_sizes":[],"default_left":[0,0,0,0,0,0,0,0,0,0,0,0,0,0,0,0,0,0,0,0,0,0,0,0,0,0,0,0,0,0,0,0,0,0,0,0,0,0,0,0,0,0,0,0,0,0,0,0,0,0,0,0,0,0,0,0,0,0,0,0,0,0,0,0,0,0,0,0,0,0,0,0,0,0,0,0,0,0,0,0,0,0,0,0,0,0,0,0,0,0,0,0,0,0,0,0,0,0,0,0,0,0,0,0,0,0,0,0,0,0,0,0,0,0,0,0,0,0,0,0,0],"id":1,"left_children":[1,3,5,7,9,11,13,15,17,19,21,23,25,27,29,31,33,35,37,39,41,43,45,47,49,51,53,55,57,59,61,63,65,67,69,71,73,75,77,79,81,83,85,87,89,91,93,95,97,99,101,103,105,-1,107,109,111,113,115,-1,117,-1,119,-1,-1,-1,-1,-1,-1,-1,-1,-1,-1,-1,-1,-1,-1,-1,-1,-1,-1,-1,-1,-1,-1,-1,-1,-1,-1,-1,-1,-1,-1,-1,-1,-1,-1,-1,-1,-1,-1,-1,-1,-1,-1,-1,-1,-1,-1,-1,-1,-1,-1,-1,-1,-1,-1,-1,-1,-1,-1],"loss_changes":[2.6421362E3,2.7563196E2,3.697478E2,8.115808E1,1.0538365E2,1.4241602E2,1.06365814E2,2.0512878E1,2.5835785E1,1.7220114E1,2.551278E1,4.7555878E1,1.8726562E1,3.7513443E1,4.280684E1,8.473938E0,1.3970459E1,1.3895981E1,2.7951263E1,1.3970017E1,1.0979954E1,1.0458981E1,1.4253967E1,8.447144E0,1.5724693E1,8.080841E0,1.3054321E1,2.2385746E1,2.5167099E1,1.0029999E1,2.013316E1,6.5659943E0,6.6856403E0,4.0552444E0,1.0969177E1,1.0602169E1,9.248753E0,2.2227804E1,1.893396E1,1.1196525E1,1.499187E1,9.309937E0,7.590662E0,9.267434E0,1.5668274E1,1.5221176E1,9.438713E0,4.0440674E0,1.2021606E1,1.1627384E1,1.0005032E1,5.969208E0,1.100663E1,0E0,5.2161865E0,1.5800018E1,2.4670914E1,2.4785374E1,9.238434E0,0E0,9.084076E0,0E0,1.5747709E0,0E0,0E0,0E0,0E0,0E0,0E0,0E0,0E0,0E0,0E0,0E0,0E0,0E0,0E0,0E0,0E0,0E0,0E0,0E0,0E0,0E0,0E0,0E0,0E0,0E0,0E0,0E0,0E0,0E0,0E0,0E0,0E0,0E0,0E0,0E0,0E0,0E0,0E0,0E0,0E0,0E0,0E0,0E0,0E0,0E0,0E0,0E0,0E0,0E0,0E0,0E0,0E0,0E0,0E0,0E0,0E0,0E0,0E0],"parents":[2147483647,0,0,1,1,2,2,3,3,4,4,5,5,6,6,7,7,8,8,9,9,10,10,11,11,12,12,13,13,14,14,15,15,16,16,17,17,18,18,19,19,20,20,21,21,22,22,23,23,24,24,25,25,26,26,27,27,28,28,29,29,30,30,31,31,32,32,33,33,34,34,35,35,36,36,37,37,38,38,39,39,40,40,41,41,42,42,43,43,44,44,45,45,46,46,47,47,48,48,49,49,50,50,51,51,52,52,54,54,55,55,56,56,57,57,58,58,60,60,62,62],"right_children":[2,4,6,8,10,12,14,16,18,20,22,24,26,28,30,32,34,36,38,40,42,44,46,48,50,52,54,56,58,60,62,64,66,68,70,72,74,76,78,80,82,84,86,88,90,92,94,96,98,100,102,104,106,-1,108,110,112,114,116,-1,118,-1,120,-1,-1,-1,-1,-1,-1,-1,-1,-1,-1,-1,-1,-1,-1,-1,-1,-1,-1,-1,-1,-1,-1,-1,-1,-1,-1,-1,-1,-1,-1,-1,-1,-1,-1,-1,-1,-1,-1,-1,-1,-1,-1,-1,-1,-1,-1,-1,-1,-1,-1,-1,-1,-1,-1,-1,-1,-1,-1],"split_conditions":[2.6741486E0,1.686399E0,1.06578946E-1,1.1314021E0,9.615385E-2,3.7400477E0,4.7388268E0,9.615385E-2,1.13175675E-1,2.0281482E0,3.966E1,4E0,4.215086E0,6.666667E-1,7.97E1,2.3076923E-1,4.054651E-1,4E0,-7.2E-2,2.475E1,4E0,5.5900622E-2,1.401099E-1,6.172E1,4.793E1,8E-2,3.12E1,1.2E1,6E0,5.294118E-1,4.6E1,3.729E1,3.589109E-1,9.787E1,4E0,4.761905E-2,1.6923077E-1,1.1775128E-1,9.154929E-2,5.3E1,9.6969694E-2,1.0827E-1,9.009E1,5E0,7.03125E-2,1.3E1,5.043E1,4.9E1,3.1780539E0,2.5E3,6.239E1,3.6585367E-1,9.3333334E-1,1.629705E-2,5.1161957E0,6.889E1,4E0,1.0762E0,6.137E1,2.142078E-2,9E0,2.6247118E-2,5.625E-2,2.0853681E-2,1.0173602E-2,1.4161702E-2,-6.3756797E-3,2.2712609E-2,-1.4021377E-3,1.4923333E-2,1.0175926E-2,8.819065E-3,1.0769573E-3,9.208428E-3,-1.9578019E-3,-1.897876E-2,4.990755E-3,-1.8867357E-2,1.0701197E-2,-8.086768E-3,1.1614474E-2,-5.0440202E-3,4.0613296E-3,-1.993728E-3,-1.2122139E-2,-3.8505192E-3,1.1280703E-2,-4.4240638E-5,-1.5137733E-2,1.1578129E-2,-2.4857E-3,9.857944E-4,6.0217157E-3,1.2195137E-2,3.3450692E-3,-2.0379389E-2,1.10320095E-2,-9.906554E-3,-2.0623056E-2,-1.883203E-2,-3.0529818E-3,-1.7531678E-3,-9.292611E-3,-2.300949E-2,1.3674066E-2,-1.7236859E-2,7.7018896E-3,-2.4298742E-2,-2.76644E-2,-1.5611186E-2,1.5534949E-2,4.1826486E-4,-6.3277516E-3,-7.518956E-3,1.3645598E-2,-1.1765665E-2,-2.0688677E-2,-2.3476513E-2,1.3602138E-2,-1.0995109E-3,-2.5950273E-2],"split_indices":[25,25,30,25,30,25,25,30,30,25,12,18,25,26,11,42,25,18,38,45,41,42,30,11,11,43,14,16,21,26,5,11,29,8,18,32,32,30,29,20,43,47,3,21,42,16,13,40,25,23,11,29,26,0,25,4,18,50,10,0,18,0,49,0,0,0,0,0,0,0,0,0,0,0,0,0,0,0,0,0,0,0,0,0,0,0,0,0,0,0,0,0,0,0,0,0,0,0,0,0,0,0,0,0,0,0,0,0,0,0,0,0,0,0,0,0,0,0,0,0,0],"split_type":[0,0,0,0,0,0,0,0,0,0,0,0,0,0,0,0,0,0,0,0,0,0,0,0,0,0,0,0,0,0,0,0,0,0,0,0,0,0,0,0,0,0,0,0,0,0,0,0,0,0,0,0,0,0,0,0,0,0,0,0,0,0,0,0,0,0,0,0,0,0,0,0,0,0,0,0,0,0,0,0,0,0,0,0,0,0,0,0,0,0,0,0,0,0,0,0,0,0,0,0,0,0,0,0,0,0,0,0,0,0,0,0,0,0,0,0,0,0,0,0,0],"sum_hessian":[2.4864396E4,1.6446293E4,8.4181045E3,9.723408E3,6.722885E3,4.3843296E3,4.0337744E3,4.4405186E3,5.2828896E3,2.1958977E3,4.5269873E3,1.8185172E3,2.5658125E3,3.5400134E3,4.9376105E2,1.3126633E3,3.127855E3,1.7354619E3,3.5474277E3,8.60338E2,1.3355597E3,5.0153165E2,4.0254556E3,9.596348E2,8.588824E2,6.568238E2,1.9089886E3,2.2810942E3,1.2589191E3,4.5748984E2,3.62712E1,1.24606E3,6.66033E1,2.1538623E2,2.9124688E3,1.0364814E3,6.9898047E2,6.6434094E2,2.883087E3,1.6974394E2,6.9059406E2,4.0435715E2,9.312026E2,1.4617397E2,3.553577E2,3.429926E3,5.955296E2,5.652538E2,3.9438104E2,2.2443124E2,6.344511E2,3.793769E2,2.7744687E2,6.006515E0,1.9029822E3,1.8378711E2,2.0973071E3,7.8466064E2,4.7425848E2,3.883591E0,4.5360626E2,2.4432661E1,1.1838538E1,5.424779E1,1.1918123E3,1.92337E1,4.7369602E1,2.09033E2,6.353219E0,2.3625754E3,5.498935E2,1.954686E2,8.410128E2,6.245999E2,7.438054E1,3.5884438E1,6.284565E2,1.8751862E1,2.864335E3,3.1139278E1,1.3860466E2,4.3005865E2,2.6053537E2,1.1413858E2,2.9021857E2,9.012913E2,2.991125E1,6.8462616E1,7.771135E1,9.739822E1,2.5795947E2,6.722427E2,2.757683E3,4.5165353E2,1.4387608E2,5.621226E2,3.1311915E0,2.3221786E2,1.6216316E2,1.6789418E2,5.6537056E1,3.076799E2,3.2677124E2,3.7595334E2,3.4235656E0,2.6103793E2,1.6408945E1,1.0241921E3,8.787899E2,1.6853468E2,1.5252429E1,1.3267179E3,7.705893E2,7.321375E2,5.2523144E1,3.1232562E2,1.6193286E2,4.48185E2,5.42125E0,3.1244195E0,8.714119E0],"tree_param":{"num_deleted":"0","num_feature":"55","num_nodes":"121","size_leaf_vector":"1"}},{"base_weights":[-2.3786568E-3,2.092502E-1,-4.3864474E-1,3.5634238E-1,9.448436E-2,-2.8358233E-1,-7.3230666E-1,4.4679418E-1,2.9355267E-1,-1.9609403E-2,1.7852792E-1,-3.9133936E-1,-1.5649313E-1,-7.917726E-1,-3.792641E-1,6.0155153E-1,4.0658107E-1,3.9650637E-1,2.6437414E-1,7.127252E-2,-1.4871879E-1,3.275688E-1,1.0426938E-1,-2.7721518E-1,-5.1167333E-1,1.764224E-2,-2.309234E-1,-5.44184E-1,-8.1457293E-1,-5.823376E-1,3.462244E-2,6.1090404E-1,-1.923999E-2,5.2285206E-1,3.620957E-1,4.8237547E-1,2.7919295E-1,4.6492168E-1,2.4631596E-1,1.9376469E-1,3.417777E-2,2.7602234E-1,-1.700892E-1,1.5411302E-1,4.0478107E-1,1.5535201E-1,3.317402E-2,-2.9992956E-1,2.327385E-1,-5.4711384E-1,-2.6552147E-1,-1.6595642E-1,2.261491E-1,-4.3652788E-2,-2.8487065E-1,-6.192873E-1,3.009395E-1,-7.715887E-1,-9.3373954E-1,-6.3784415E-1,2.0801157E-2,-2.5772046E-2,2.4614589E-1,1.4278251E-2,2.092687E-2,1.7772932E-2,1.1642719E-2,5.5977846E-3,1.1850418E-2,-2.4268439E-2,1.4928902E-2,1.8135745E-2,6.3993135E-3,1.5251064E-2,-1.1506773E-2,-9.705219E-4,7.7762655E-3,-7.608864E-4,7.935292E-3,-2.2123468E-3,3.0465454E-3,-2.269152E-2,1.4066166E-2,-5.788755E-3,6.4868005E-3,1.3398024E-3,1.0651513E-2,1.316847E-2,3.9789784E-3,6.3390527E-3,2.0133448E-3,-3.910423E-3,2.2680082E-3,-1.2306561E-2,-6.562849E-3,1.4424557E-2,-1.2461083E-2,-1.9619877E-2,-1.2642292E-2,-2.3114331E-2,-4.5885807E-3,-6.800798E-3,1.2551656E-2,-1.6370675E-2,8.158501E-3,-1.8231252E-2,1.0281868E-3,-6.5574427E-3,-1.3827522E-2,-2.0115523E-2,1.3240444E-2,-2.102521E-2,2.548993E-2,-2.3833966E-2,-1.6018303E-2,-1.8019544E-2,-2.8500102E-2,-7.879892E-3,-2.5607847E-2,-9.075118E-3,1.6563041E-2],"categories":[],"categories_nodes":[],"categories_segments":[],"categories_sizes":[],"default_left":[0,0,0,0,0,0,0,0,0,0,0,0,0,0,0,0,0,0,0,0,0,0,0,0,0,0,0,0,0,0,0,0,0,0,0,0,0,0,0,0,0,0,0,0,0,0,0,0,0,0,0,0,0,0,0,0,0,0,0,0,0,0,0,0,0,0,0,0,0,0,0,0,0,0,0,0,0,0,0,0,0,0,0,0,0,0,0,0,0,0,0,0,0,0,0,0,0,0,0,0,0,0,0,0,0,0,0,0,0,0,0,0,0,0,0,0,0,0,0,0,0],"id":2,"left_children":[1,3,5,7,9,11,13,15,17,19,21,23,25,27,29,31,33,35,37,39,41,43,45,47,49,51,53,55,57,59,61,63,-1,65,67,69,71,73,75,77,79,81,83,85,87,89,91,93,95,97,99,101,103,105,107,109,111,113,115,117,-1,-1,119,-1,-1,-1,-1,-1,-1,-1,-1,-1,-1,-1,-1,-1,-1,-1,-1,-1,-1,-1,-1,-1,-1,-1,-1,-1,-1,-1,-1,-1,-1,-1,-1,-1,-1,-1,-1,-1,-1,-1,-1,-1,-1,-1,-1,-1,-1,-1,-1,-1,-1,-1,-1,-1,-1,-1,-1,-1,-1],"loss_changes":[2.1185818E3,2.608028E2,3.410979E2,3.8327576E1,8.324197E1,6.713666E1,5.4062866E1,1.7010681E1,1.191098E1,4.32259E1,5.52899E1,3.631543E1,2.920668E1,1.2062012E1,3.1556221E1,7.0150757E0,1.12100525E1,8.743057E0,1.1183197E1,9.817893E0,1.3860451E1,2.2194977E1,1.2117149E1,1.5877441E1,1.1117218E1,2.5900652E1,1.5934944E1,1.2234055E1,9.659668E0,1.8269714E1,2.3736008E1,6.288254E0,0E0,5.467499E0,9.15416E0,1.0398872E1,7.9049053E0,9.653244E0,1.0298325E1,7.794485E0,1.2083467E1,1.4945191E1,1.2848156E1,1.1278002E1,1.062941E1,9.573746E0,9.700572E0,1.1609886E1,9.646872E0,1.4874176E1,9.228572E0,1.2865891E1,1.1346365E1,1.5589918E1,1.4198647E1,9.78569E0,9.481013E0,7.7036133E0,2.3136902E0,1.9347412E1,0E0,0E0,1.718906E1,0E0,0E0,0E0,0E0,0E0,0E0,0E0,0E0,0E0,0E0,0E0,0E0,0E0,0E0,0E0,0E0,0E0,0E0,0E0,0E0,0E0,0E0,0E0,0E0,0E0,0E0,0E0,0E0,0E0,0E0,0E0,0E0,0E0,0E0,0E0,0E0,0E0,0E0,0E0,0E0,0E0,0E0,0E0,0E0,0E0,0E0,0E0,0E0,0E0,0E0,0E0,0E0,0E0,0E0,0E0,0E0,0E0,0E0],"parents":[2147483647,0,0,1,1,2,2,3,3,4,4,5,5,6,6,7,7,8,8,9,9,10,10,11,11,12,12,13,13,14,14,15,15,16,16,17,17,18,18,19,19,20,20,21,21,22,22,23,23,24,24,25,25,26,26,27,27,28,28,29,29,30,30,31,31,33,33,34,34,35,35,36,36,37,37,38,38,39,39,40,40,41,41,42,42,43,43,44,44,45,45,46,46,47,47,48,48,49,49,50,50,51,51,52,52,53,53,54,54,55,55,56,56,57,57,58,58,59,59,62,62],"right_children":[2,4,6,8,10,12,14,16,18,20,22,24,26,28,30,32,34,36,38,40,42,44,46,48,50,52,54,56,58,60,62,64,-1,66,68,70,72,74,76,78,80,82,84,86,88,90,92,94,96,98,100,102,104,106,108,110,112,114,116,118,-1,-1,120,-1,-1,-1,-1,-1,-1,-1,-1,-1,-1,-1,-1,-1,-1,-1,-1,-1,-1,-1,-1,-1,-1,-1,-1,-1,-1,-1,-1,-1,-1,-1,-1,-1,-1,-1,-1,-1,-1,-1,-1,-1,-1,-1,-1,-1,-1,-1,-1,-1,-1,-1,-1,-1,-1,-1,-1,-1,-1],"split_conditions":[2.6532419E0,1.410987E0,4.158883E0,9.5551145E-1,2.8285715E-1,4E-1,5.448E1,5.3062826E-1,4.935E1,2.014903E0,2E0,3.3068867E0,2E0,0E0,4.6E1,2.8E0,1.10925E-1,1.98E-1,4.231E1,1E0,4.849E1,3E0,2.00148E0,2E-1,5.009E1,2.2110553E-1,-3.3333334E-1,8.076E1,5.4089637E0,6.7E1,4.231E1,1.2E-1,-1.923999E-2,5.6E0,1E1,2.3E0,4.3010753E-2,1.092E0,-1.9E-1,2.0158103E-1,2E0,2.475E1,6.613E1,6.574E1,1.0695652E0,1E0,1.3E1,7E0,3.846154E-1,5.7E0,1.3E1,7E1,3.2467533E-2,1.2E1,3.5779479E0,1.548E0,5.160778E0,2.1627E-1,8E-1,3.6363635E-2,2.0801157E-2,-2.5772046E-2,4.6E0,1.4278251E-2,2.092687E-2,1.7772932E-2,1.1642719E-2,5.5977846E-3,1.1850418E-2,-2.4268439E-2,1.4928902E-2,1.8135745E-2,6.3993135E-3,1.5251064E-2,-1.1506773E-2,-9.705219E-4,7.7762655E-3,-7.608864E-4,7.935292E-3,-2.2123468E-3,3.0465454E-3,-2.269152E-2,1.4066166E-2,-5.788755E-3,6.4868005E-3,1.3398024E-3,1.0651513E-2,1.316847E-2,3.9789784E-3,6.3390527E-3,2.0133448E-3,-3.910423E-3,2.2680082E-3,-1.2306561E-2,-6.562849E-3,1.4424557E-2,-1.2461083E-2,-1.9619877E-2,-1.2642292E-2,-2.3114331E-2,-4.5885807E-3,-6.800798E-3,1.2551656E-2,-1.6370675E-2,8.158501E-3,-1.8231252E-2,1.0281868E-3,-6.5574427E-3,-1.3827522E-2,-2.0115523E-2,1.3240444E-2,-2.102521E-2,2.548993E-2,-2.3833966E-2,-1.6018303E-2,-1.8019544E-2,-2.8500102E-2,-7.879892E-3,-2.5607847E-2,-9.075118E-3,1.6563041E-2],"split_indices":[25,25,25,25,39,39,10,25,10,25,22,25,22,37,9,37,47,47,4,22,10,18,25,43,10,29,37,11,25,1,4,39,0,46,16,46,42,50,38,29,22,45,10,11,39,27,16,17,29,46,16,5,42,16,25,50,25,47,26,43,0,0,46,0,0,0,0,0,0,0,0,0,0,0,0,0,0,0,0,0,0,0,0,0,0,0,0,0,0,0,0,0,0,0,0,0,0,0,0,0,0,0,0,0,0,0,0,0,0,0,0,0,0,0,0,0,0,0,0,0,0],"split_type":[0,0,0,0,0,0,0,0,0,0,0,0,0,0,0,0,0,0,0,0,0,0,0,0,0,0,0,0,0,0,0,0,0,0,0,0,0,0,0,0,0,0,0,0,0,0,0,0,0,0,0,0,0,0,0,0,0,0,0,0,0,0,0,0,0,0,0,0,0,0,0,0,0,0,0,0,0,0,0,0,0,0,0,0,0,0,0,0,0,0,0,0,0,0,0,0,0,0,0,0,0,0,0,0,0,0,0,0,0,0,0,0,0,0,0,0,0,0,0,0,0],"sum_hessian":[2.2944637E4,1.5450335E4,7.494302E3,6.770574E3,8.679761E3,4.9058364E3,2.588465E3,2.7716917E3,3.9988828E3,3.6820042E3,4.997757E3,2.6537134E3,2.2521233E3,2.2142566E3,3.742086E2,5.6878894E2,2.2029026E3,8.802868E2,3.118596E3,2.1611724E3,1.5208318E3,1.6608768E3,3.33688E3,1.3636951E3,1.2900182E3,6.7460223E2,1.577521E3,1.8881226E2,2.0254443E3,2.5076411E2,1.2344449E2,5.6504553E2,3.7434037E0,6.066231E2,1.5962795E3,5.064628E2,3.73824E2,2.5557114E2,2.8630247E3,5.0136618E2,1.659806E3,7.22827E1,1.4485491E3,5.125162E2,1.1483607E3,1.9410404E3,1.3958395E3,1.3059379E3,5.7757298E1,1.1265911E3,1.6342717E2,3.588364E2,3.157658E2,3.532099E2,1.2243112E3,1.7364796E2,1.516429E1,1.4940172E3,5.314271E2,2.4078738E2,9.976718E0,2.3039753E1,1.0040473E2,2.2348318E2,3.4156235E2,3.978251E2,2.0879803E2,2.5317097E2,1.3431085E3,5.3056073E0,5.011572E2,6.157702E1,3.1224698E2,2.435032E2,1.2067923E1,1.265377E2,2.736487E3,1.2251783E2,3.7884836E2,6.378966E2,1.0219095E3,1.0917043E1,6.1365654E1,1.3680625E3,8.048664E1,3.3257883E2,1.7993732E2,1.0197227E3,1.2863803E2,1.1870104E3,7.5402997E2,2.87123E2,1.1087166E3,5.5193164E2,7.540062E2,4.1955765E1,1.5801534E1,6.0660895E2,5.199821E2,2.8725773E1,1.347014E2,3.2560507E2,3.3231342E1,1.7076586E1,2.986892E2,4.204849E1,3.1116144E2,8.9103815E2,3.3327298E2,1.6599785E2,7.65011E0,5.2685475E0,9.895742E0,1.360688E3,1.3332922E2,2.6506248E1,5.0492087E2,8.872171E1,1.5206567E2,3.594973E1,6.4455E1],"tree_param":{"num_deleted":"0","num_feature":"55","num_nodes":"121","size_leaf_vector":"1"}},{"base_weights":[3.774347E-3,1.981455E-1,-4.1430065E-1,2.8770423E-1,6.3429095E-2,-2.7358642E-1,-6.9336474E-1,3.9451864E-1,2.2215189E-1,-3.384152E-2,1.3459982E-1,-3.8603243E-1,-1.3608296E-1,-8.1130415E-1,-4.3334475E-1,5.9081244E-1,3.5841483E-1,3.2741642E-1,1.9381326E-1,3.3611244E-1,-5.8597516E-2,9.561926E-2,2.4203329E-1,-2.7188483E-1,-5.053254E-1,4.0024105E-2,-1.9657959E-1,-7.100124E-1,-8.6073244E-1,-4.8988664E-1,1.8023968E-1,-1.1045439E-3,6.150912E-1,4.8152095E-1,3.1871864E-1,3.2038176E-3,3.487184E-1,2.0232598E-1,-8.663965E-2,-2.9115003E-1,4.0330124E-1,-1.5480542E-1,-4.4201137E-3,-2.3120573E-2,1.3753924E-1,3.1740054E-1,9.698599E-2,-3.2267988E-1,-1.13276064E-1,-5.549764E-1,-2.2060971E-1,-2.1338333E-1,2.0149061E-1,-2.543851E-1,-3.6904406E-2,-7.2950745E-1,-3.176104E-1,-8.658773E-1,9.618158E-3,-2.6972845E-1,-7.4459106E-1,5.8657974E-1,-4.525468E-1,-2.3273585E-2,7.0906314E-3,1.589735E-2,2.1844545E-2,1.4787732E-2,-1.384105E-2,8.0199195E-3,1.250725E-2,-1.1040159E-2,1.1085716E-2,7.7505404E-4,1.10743325E-2,4.092963E-3,7.324081E-3,1.4347018E-3,-1.9044608E-2,-2.0452091E-2,1.879241E-3,1.824199E-2,6.7052855E-3,-6.2430836E-3,2.5986678E-3,2.9087062E-3,-1.8108904E-3,-2.9627355E-3,5.3495406E-3,-2.8582E-5,5.3633135E-3,-2.096857E-2,1.0138806E-2,-2.5043724E-2,4.0178057E-3,-1.11974785E-2,-3.6196355E-3,1.7880306E-3,-1.067164E-2,-1.921087E-2,-1.3473921E-2,-2.437772E-3,-2.112999E-2,-9.61007E-3,6.7860507E-3,7.716378E-3,-2.2904629E-2,-4.00491E-3,-1.159164E-2,1.1095434E-2,-3.3964654E-3,-2.3314366E-2,-1.7544834E-2,1.1324986E-2,-2.4034973E-2,-1.6343512E-2,-2.662694E-2,-1.2727208E-2,1.3712592E-3,-2.3524363E-2,-9.246442E-4,2.3003913E-2,-2.0782713E-2,-2.4162427E-2,2.3377756E-2],"categories":[],"categories_nodes":[],"categories_segments":[],"categories_sizes":[],"default_left":[0,0,0,0,0,0,0,0,0,0,0,0,0,0,0,0,0,0,0,0,0,0,0,0,0,0,0,0,0,0,0,0,0,0,0,0,0,0,0,0,0,0,0,0,0,0,0,0,0,0,0,0,0,0,0,0,0,0,0,0,0,0,0,0,0,0,0,0,0,0,0,0,0,0,0,0,0,0,0,0,0,0,0,0,0,0,0,0,0,0,0,0,0,0,0,0,0,0,0,0,0,0,0,0,0,0,0,0,0,0,0,0,0,0,0,0,0,0,0,0,0,0,0,0,0],"id":3,"left_children":[1,3,5,7,9,11,13,15,17,19,21,23,25,27,29,31,33,35,37,39,41,43,45,47,49,51,53,55,57,59,61,63,65,67,69,71,73,75,77,79,81,83,85,87,89,91,93,95,97,99,101,103,105,107,109,111,113,115,-1,117,119,121,123,-1,-1,-1,-1,-1,-1,-1,-1,-1,-1,-1,-1,-1,-1,-1,-1,-1,-1,-1,-1,-1,-1,-1,-1,-1,-1,-1,-1,-1,-1,-1,-1,-1,-1,-1,-1,-1,-1,-1,-1,-1,-1,-1,-1,-1,-1,-1,-1,-1,-1,-1,-1,-1,-1,-1,-1,-1,-1,-1,-1,-1,-1],"loss_changes":[1.7835594E3,1.8074744E2,2.7334216E2,6.2925476E1,4.1432228E1,7.157205E1,7.1234375E1,2.4034424E1,1.6579437E1,2.318433E1,1.444968E1,3.455658E1,2.2226948E1,7.42334E0,2.543367E1,7.616791E0,1.3980713E1,8.161842E0,1.0517883E1,6.8093643E0,1.2360268E1,1.2633751E1,1.0020351E1,1.0470512E1,1.747287E1,2.1895725E1,1.4319992E1,3.8380127E0,6.803833E0,3.73239E1,1.6302887E1,4.208161E0,4.5168E0,7.789093E0,1.0938858E1,1.0182244E1,7.3049774E0,1.1727722E1,9.632432E0,2.2458363E0,5.1595917E0,1.1010962E1,8.615934E0,1.0118488E1,1.0711643E1,1.2870098E1,1.0982788E1,1.004126E1,1.33450985E1,9.285126E0,1.2513232E1,9.867739E0,1.7764915E1,1.8134521E1,1.2886343E1,3.0332947E0,9.36107E0,6.963318E0,0E0,1.7589825E1,8.71904E0,9.388673E0,1.1474381E1,0E0,0E0,0E0,0E0,0E0,0E0,0E0,0E0,0E0,0E0,0E0,0E0,0E0,0E0,0E0,0E0,0E0,0E0,0E0,0E0,0E0,0E0,0E0,0E0,0E0,0E0,0E0,0E0,0E0,0E0,0E0,0E0,0E0,0E0,0E0,0E0,0E0,0E0,0E0,0E0,0E0,0E0,0E0,0E0,0E0,0E0,0E0,0E0,0E0,0E0,0E0,0E0,0E0,0E0,0E0,0E0,0E0,0E0,0E0,0E0,0E0,0E0],"parents":[2147483647,0,0,1,1,2,2,3,3,4,4,5,5,6,6,7,7,8,8,9,9,10,10,11,11,12,12,13,13,14,14,15,15,16,16,17,17,18,18,19,19,20,20,21,21,22,22,23,23,24,24,25,25,26,26,27,27,28,28,29,29,30,30,31,31,32,32,33,33,34,34,35,35,36,36,37,37,38,38,39,39,40,40,41,41,42,42,43,43,44,44,45,45,46,46,47,47,48,48,49,49,50,50,51,51,52,52,53,53,54,54,55,55,56,56,57,57,59,59,60,60,61,61,62,62],"right_children":[2,4,6,8,10,12,14,16,18,20,22,24,26,28,30,32,34,36,38,40,42,44,46,48,50,52,54,56,58,60,62,64,66,68,70,72,74,76,78,80,82,84,86,88,90,92,94,96,98,100,102,104,106,108,110,112,114,116,-1,118,120,122,124,-1,-1,-1,-1,-1,-1,-1,-1,-1,-1,-1,-1,-1,-1,-1,-1,-1,-1,-1,-1,-1,-1,-1,-1,-1,-1,-1,-1,-1,-1,-1,-1,-1,-1,-1,-1,-1,-1,-1,-1,-1,-1,-1,-1,-1,-1,-1,-1,-1,-1,-1,-1,-1,-1,-1,-1,-1,-1,-1,-1,-1,-1],"split_conditions":[2.6390574E0,1.686399E0,4.158883E0,1.0647107E0,2.9454544E-1,4.5E-1,4.05E-1,5.3062826E-1,4.908E1,4.849E1,4.6E1,3.2884018E0,-3.3333334E-1,4.6756287E0,7.97E1,-1.439E1,1.5E-1,4.237E1,5.383E1,1.3E1,6.9148935E-2,1.4E1,2.1860514E0,1.02564104E-1,5.009E1,1.5E1,2.9655516E-1,6.297E1,2.1428572E-1,4.7388268E0,5.2E1,3E0,1.0662824E-1,1.555E1,4.683E1,1E0,-2.88E-1,5.009E1,3.018868E-1,1E0,5.970149E-2,5.027E1,4E0,4.596E1,-2E-2,4.5944443E-1,1.739E1,8E0,4.014E1,4E0,2.56685E1,3.929863E0,7.918E1,5.6E0,3.16E-1,6.531E1,3E0,9.708738E-3,9.618158E-3,4.6E1,6.3E1,4.91E1,5.469E1,-2.3273585E-2,7.0906314E-3,1.589735E-2,2.1844545E-2,1.4787732E-2,-1.384105E-2,8.0199195E-3,1.250725E-2,-1.1040159E-2,1.1085716E-2,7.7505404E-4,1.10743325E-2,4.092963E-3,7.324081E-3,1.4347018E-3,-1.9044608E-2,-2.0452091E-2,1.879241E-3,1.824199E-2,6.7052855E-3,-6.2430836E-3,2.5986678E-3,2.9087062E-3,-1.8108904E-3,-2.9627355E-3,5.3495406E-3,-2.8582E-5,5.3633135E-3,-2.096857E-2,1.0138806E-2,-2.5043724E-2,4.0178057E-3,-1.11974785E-2,-3.6196355E-3,1.7880306E-3,-1.067164E-2,-1.921087E-2,-1.3473921E-2,-2.437772E-3,-2.112999E-2,-9.61007E-3,6.7860507E-3,7.716378E-3,-2.2904629E-2,-4.00491E-3,-1.159164E-2,1.1095434E-2,-3.3964654E-3,-2.3314366E-2,-1.7544834E-2,1.1324986E-2,-2.4034973E-2,-1.6343512E-2,-2.662694E-2,-1.2727208E-2,1.3712592E-3,-2.3524363E-2,-9.246442E-4,2.3003913E-2,-2.0782713E-2,-2.4162427E-2,2.3377756E-2],"split_indices":[25,25,25,25,39,39,39,25,10,10,9,25,37,25,11,36,49,8,13,16,28,16,25,28,10,16,49,3,32,25,5,21,28,46,1,27,38,10,29,19,42,10,17,4,38,54,12,46,3,18,45,25,11,46,49,11,21,28,0,9,9,13,13,0,0,0,0,0,0,0,0,0,0,0,0,0,0,0,0,0,0,0,0,0,0,0,0,0,0,0,0,0,0,0,0,0,0,0,0,0,0,0,0,0,0,0,0,0,0,0,0,0,0,0,0,0,0,0,0,0,0,0,0,0,0],"split_type":[0,0,0,0,0,0,0,0,0,0,0,0,0,0,0,0,0,0,0,0,0,0,0,0,0,0,0,0,0,0,0,0,0,0,0,0,0,0,0,0,0,0,0,0,0,0,0,0,0,0,0,0,0,0,0,0,0,0,0,0,0,0,0,0,0,0,0,0,0,0,0,0,0,0,0,0,0,0,0,0,0,0,0,0,0,0,0,0,0,0,0,0,0,0,0,0,0,0,0,0,0,0,0,0,0,0,0,0,0,0,0,0,0,0,0,0,0,0,0,0,0,0,0,0,0],"sum_hessian":[2.1946326E4,1.4981611E4,6.964715E3,8.998393E3,5.983219E3,4.631384E3,2.333331E3,3.4202463E3,5.578146E3,2.528283E3,3.4549363E3,2.5468457E3,2.084538E3,1.603774E3,7.2955707E2,5.2896106E2,2.8912854E3,1.1809448E3,4.397201E3,1.5778372E2,2.3704993E3,2.5364976E3,9.1843866E2,1.3031666E3,1.2436792E3,5.33077E2,1.551461E3,5.309928E2,1.0727812E3,6.681853E2,6.1371758E1,2.0879255E1,5.080818E2,7.0226996E2,2.1890154E3,7.287966E1,1.1080652E3,4.267933E3,1.2926819E2,1.4943219E1,1.428405E2,8.533205E2,1.5171787E3,6.6194965E2,1.8745479E3,6.0361115E2,3.1482748E2,9.862743E2,3.1689233E2,1.0581936E3,1.8548563E2,2.073453E2,3.2573172E2,1.1386533E3,4.1280768E2,5.0504254E2,2.5950247E1,1.0683953E3,4.385908E0,3.5950226E2,3.0868304E2,3.741741E1,2.3954348E1,4.366625E0,1.651263E1,2.93013E2,2.1506879E2,6.943496E2,7.920351E0,1.4394143E3,7.496011E2,3.6195988E1,3.6683674E1,6.6061844E1,1.0420034E3,1.6584417E3,2.6094915E3,1.0453869E2,2.4729502E1,6.6617217E0,8.281498E0,6.566848E1,7.717202E1,6.9912115E2,1.5419936E2,5.392475E2,9.779312E2,4.816186E2,1.8033107E2,4.3032736E2,1.4442206E3,1.1314026E1,5.922971E2,1.1181949E1,3.0364554E2,7.8814453E2,1.9812971E2,1.8542679E2,1.3146555E2,5.8290924E2,4.752843E2,1.449085E2,4.0577137E1,1.6698793E2,4.0357376E1,3.086428E2,1.7088915E1,5.95399E2,5.432544E2,6.4604935E1,3.4820276E2,3.7665213E2,1.2839041E2,1.0736243E1,1.5214004E1,6.924896E1,9.9914636E2,2.4107205E2,1.1843022E2,2.9238174E2,1.6301273E1,3.3148487E1,4.2689247E0,1.888938E1,5.0649686E0],"tree_param":{"num_deleted":"0","num_feature":"55","num_nodes":"125","size_leaf_vector":"1"}},{"base_weights":[-1.360975E-3,1.8560234E-1,-3.8221925E-1,3.6121818E-1,1.18057996E-1,-2.4129625E-1,-6.651685E-1,5.84581E-1,3.2972854E-1,3.038635E-3,1.7023297E-1,-3.8274103E-1,-8.251272E-2,-7.8362906E-1,-3.9830384E-1,-2.3638743E-1,5.9968245E-1,2.1580203E-1,3.822496E-1,6.858597E-2,-1.4266473E-1,2.6774895E-1,1.0691984E-1,-5.1761866E-1,-2.712537E-1,1.07363865E-1,-1.8955135E-1,1.8152667E-2,-7.900871E-1,-4.774297E-1,6.622091E-2,-2.3805495E-2,7.339488E-3,5.2245593E-1,7.336584E-1,1.1006095E-1,3.325657E-1,-1.4541233E-1,3.8829365E-1,-1.0687227E-2,1.376321E-1,-2.7096346E-1,-1.5187315E-2,3.2718924E-1,1.7312706E-1,1.6764E-1,6.543496E-2,-4.4036987E-1,-6.7337644E-1,-1.7758721E-1,-4.4450074E-1,-4.198755E-2,2.4385902E-1,5.447745E-3,-2.4714893E-1,-5.9412795E-1,-8.242047E-1,-3.156711E-1,-7.308424E-1,-5.8158445E-1,4.262737E-1,1.6780144E-2,4.4361833E-3,1.7084822E-2,2.322778E-2,1.862204E-2,2.1638232E-3,3.5612187E-3,1.1737262E-2,-2.3949709E-2,1.4708985E-2,1.2424789E-2,8.06202E-3,1.9662906E-3,-5.430898E-3,-2.0012448E-2,4.289947E-3,-1.0229743E-2,-7.213157E-4,-9.922163E-3,9.4089675E-4,1.0161348E-2,-4.655897E-3,2.430465E-3,8.556965E-3,5.718455E-3,-1.448755E-3,1.1956161E-3,6.067965E-3,-1.3554419E-2,2.131203E-2,-1.726399E-2,-2.5346594E-2,-1.8081026E-2,-4.0985695E-3,-1.4699042E-2,5.4386323E-3,-1.1058069E-2,1.2916976E-3,4.2978446E-3,1.7922698E-2,1.6828505E-3,-1.3884496E-2,-2.2810227E-3,-8.972992E-3,-2.2251172E-2,-1.0337675E-2,-2.6544068E-2,-2.2789145E-2,4.2768936E-3,-1.2524178E-2,2.0472132E-2,-2.2678092E-2,-2.0897485E-2,1.4715128E-2,-1.9482002E-2,1.690008E-2],"categories":[],"categories_nodes":[],"categories_segments":[],"categories_sizes":[],"default_left":[0,0,0,0,0,0,0,0,0,0,0,0,0,0,0,0,0,0,0,0,0,0,0,0,0,0,0,0,0,0,0,0,0,0,0,0,0,0,0,0,0,0,0,0,0,0,0,0,0,0,0,0,0,0,0,0,0,0,0,0,0,0,0,0,0,0,0,0,0,0,0,0,0,0,0,0,0,0,0,0,0,0,0,0,0,0,0,0,0,0,0,0,0,0,0,0,0,0,0,0,0,0,0,0,0,0,0,0,0,0,0,0,0,0,0,0,0],"id":4,"left_children":[1,3,5,7,9,11,13,15,17,19,21,23,25,27,29,31,33,35,37,39,41,43,45,47,49,51,53,-1,55,57,59,-1,-1,61,63,65,67,69,71,73,75,77,79,81,83,85,87,89,91,93,95,97,99,101,103,105,107,109,111,113,115,-1,-1,-1,-1,-1,-1,-1,-1,-1,-1,-1,-1,-1,-1,-1,-1,-1,-1,-1,-1,-1,-1,-1,-1,-1,-1,-1,-1,-1,-1,-1,-1,-1,-1,-1,-1,-1,-1,-1,-1,-1,-1,-1,-1,-1,-1,-1,-1,-1,-1,-1,-1,-1,-1,-1,-1],"loss_changes":[1.4967886E3,1.6719919E2,2.758181E2,2.7350403E1,6.111621E1,1.0376868E2,7.241394E1,6.1244354E0,2.0467194E1,3.037185E1,4.3227203E1,3.6611176E1,4.4300346E1,1.47578125E1,2.610186E1,2.7222936E0,4.522232E0,1.3371704E1,7.5491943E0,1.2006898E1,1.6134348E1,1.5451935E1,1.0693848E1,1.2997803E1,2.1668274E1,1.603469E1,1.5653866E1,0E0,1.010907E1,2.4617188E1,2.4531115E1,0E0,0E0,4.12043E0,6.9810486E-1,1.102389E1,6.4234886E0,1.1736652E1,7.072815E0,1.3282719E1,5.1579456E0,8.49445E0,7.2964234E0,9.459396E0,1.0984421E1,8.56358E0,8.83497E0,1.0085999E1,5.6333466E0,1.5096251E1,1.3451065E1,1.0465648E1,1.4527563E1,7.585689E0,9.54129E0,8.533485E0,4.600586E0,1.7401478E1,8.864601E0,4.9792976E0,1.031686E1,0E0,0E0,0E0,0E0,0E0,0E0,0E0,0E0,0E0,0E0,0E0,0E0,0E0,0E0,0E0,0E0,0E0,0E0,0E0,0E0,0E0,0E0,0E0,0E0,0E0,0E0,0E0,0E0,0E0,0E0,0E0,0E0,0E0,0E0,0E0,0E0,0E0,0E0,0E0,0E0,0E0,0E0,0E0,0E0,0E0,0E0,0E0,0E0,0E0,0E0,0E0,0E0,0E0,0E0,0E0,0E0],"parents":[2147483647,0,0,1,1,2,2,3,3,4,4,5,5,6,6,7,7,8,8,9,9,10,10,11,11,12,12,13,13,14,14,15,15,16,16,17,17,18,18,19,19,20,20,21,21,22,22,23,23,24,24,25,25,26,26,28,28,29,29,30,30,33,33,34,34,35,35,36,36,37,37,38,38,39,39,40,40,41,41,42,42,43,43,44,44,45,45,46,46,47,47,48,48,49,49,50,50,51,51,52,52,53,53,54,54,55,55,56,56,57,57,58,58,59,59,60,60],"right_children":[2,4,6,8,10,12,14,16,18,20,22,24,26,28,30,32,34,36,38,40,42,44,46,48,50,52,54,-1,56,58,60,-1,-1,62,64,66,68,70,72,74,76,78,80,82,84,86,88,90,92,94,96,98,100,102,104,106,108,110,112,114,116,-1,-1,-1,-1,-1,-1,-1,-1,-1,-1,-1,-1,-1,-1,-1,-1,-1,-1,-1,-1,-1,-1,-1,-1,-1,-1,-1,-1,-1,-1,-1,-1,-1,-1,-1,-1,-1,-1,-1,-1,-1,-1,-1,-1,-1,-1,-1,-1,-1,-1,-1,-1,-1,-1,-1,-1],"split_conditions":[2.5649493E0,1.1314021E0,4.0976725E0,5.3062826E-1,1.0803845E-1,1.1957584E-1,1.1580584E-1,-2.246E1,9.91453E-2,2.014903E0,2E0,2E0,2E0,1.84E1,1.0714286E-1,3E0,1.2048193E-1,2E0,3.644E1,2E0,2E0,2.5E-1,1.5892352E0,3.487375E0,3.430756E0,3E0,-3.3333334E-1,1.8152667E-2,4.314818E0,4.7638817E0,1.3E1,-2.3805495E-2,7.339488E-3,6.478E1,9.166667E-2,2.4193548E-2,6.741573E-2,2E-1,1.0647107E0,5.895522E-1,7.75E-2,8E0,5.4E1,1.1178E0,3E0,6.552E-1,1.3963863E-1,8E0,6.2441313E-1,3.436426E-2,5.394E1,1.22789785E-1,1.0526316E-1,1.2676056E-1,2.7850113E0,3.394E1,1.7E3,1.8181818E-2,5.294118E-1,1.6179E0,4.5716133E0,1.6780144E-2,4.4361833E-3,1.7084822E-2,2.322778E-2,1.862204E-2,2.1638232E-3,3.5612187E-3,1.1737262E-2,-2.3949709E-2,1.4708985E-2,1.2424789E-2,8.06202E-3,1.9662906E-3,-5.430898E-3,-2.0012448E-2,4.289947E-3,-1.0229743E-2,-7.213157E-4,-9.922163E-3,9.4089675E-4,1.0161348E-2,-4.655897E-3,2.430465E-3,8.556965E-3,5.718455E-3,-1.448755E-3,1.1956161E-3,6.067965E-3,-1.3554419E-2,2.131203E-2,-1.726399E-2,-2.5346594E-2,-1.8081026E-2,-4.0985695E-3,-1.4699042E-2,5.4386323E-3,-1.1058069E-2,1.2916976E-3,4.2978446E-3,1.7922698E-2,1.6828505E-3,-1.3884496E-2,-2.2810227E-3,-8.972992E-3,-2.2251172E-2,-1.0337675E-2,-2.6544068E-2,-2.2789145E-2,4.2768936E-3,-1.2524178E-2,2.0472132E-2,-2.2678092E-2,-2.0897485E-2,1.4715128E-2,-1.9482002E-2,1.690008E-2],"split_indices":[25,25,25,25,30,30,30,36,30,25,22,22,22,4,43,48,28,22,10,22,22,26,25,25,25,18,37,0,25,25,17,0,0,10,32,28,42,37,25,53,49,41,6,50,18,50,30,18,53,28,13,30,32,42,25,3,23,43,26,50,25,0,0,0,0,0,0,0,0,0,0,0,0,0,0,0,0,0,0,0,0,0,0,0,0,0,0,0,0,0,0,0,0,0,0,0,0,0,0,0,0,0,0,0,0,0,0,0,0,0,0,0,0,0,0,0,0],"split_type":[0,0,0,0,0,0,0,0,0,0,0,0,0,0,0,0,0,0,0,0,0,0,0,0,0,0,0,0,0,0,0,0,0,0,0,0,0,0,0,0,0,0,0,0,0,0,0,0,0,0,0,0,0,0,0,0,0,0,0,0,0,0,0,0,0,0,0,0,0,0,0,0,0,0,0,0,0,0,0,0,0,0,0,0,0,0,0,0,0,0,0,0,0,0,0,0,0,0,0,0,0,0,0,0,0,0,0,0,0,0,0,0,0,0,0,0,0],"sum_hessian":[2.1018389E4,1.4098129E4,6.9202583E3,3.9149304E3,1.0183199E4,4.620746E3,2.2995122E3,4.8155933E2,3.433371E3,3.1781182E3,7.005081E3,2.4430554E3,2.177691E3,1.591232E3,7.0827997E2,8.433443E0,4.731259E2,1.0849816E3,2.3483896E3,2.1923696E3,9.857485E2,2.7563987E3,4.248682E3,1.1039053E3,1.3391501E3,7.850616E2,1.3926293E3,6.936502E0,1.5842957E3,6.051693E2,1.0311066E2,3.6066663E0,4.8267765E0,3.0323465E2,1.6989124E2,5.7038446E2,5.145971E2,2.6333736E1,2.322056E3,1.020993E3,1.1713766E3,4.9073062E2,4.9501782E2,1.6914152E3,1.0649835E3,1.7232998E3,2.5253823E3,7.404853E2,3.6341995E2,8.705239E2,4.686262E2,3.7520694E2,4.0985468E2,3.177565E2,1.0748728E3,2.3766228E2,1.3466333E3,3.7075464E2,2.344147E2,3.6616013E1,6.6494644E1,2.756048E2,2.7629858E1,3.666561E1,1.3322562E2,3.837697E1,5.3200745E2,1.1144294E2,4.0315417E2,1.2864938E1,1.34688E1,1.9070199E3,4.1503595E2,7.057688E2,3.1522412E2,6.942581E0,1.1644341E3,3.8200937E2,1.08721275E2,6.2852898E1,4.3216492E2,1.6522471E3,3.916805E1,5.855703E2,4.794132E2,1.5576797E3,1.6562012E2,2.128703E3,3.9667938E2,7.337953E2,6.690035E0,2.3412183E2,1.2929813E2,7.531315E1,7.952108E2,4.3708627E2,3.153992E1,7.682475E1,2.983822E2,3.2016516E2,8.968951E1,2.8753683E2,3.021966E1,2.509059E2,8.239669E2,1.4810207E2,8.95602E1,6.8811383E2,6.585195E2,6.732184E1,3.034328E2,3.632721E0,2.3078198E2,3.338518E1,3.2308295E0,7.0927005E0,5.9401943E1],"tree_param":{"num_deleted":"0","num_feature":"55","num_nodes":"117","size_leaf_vector":"1"}},{"base_weights":[-9.5427786E-5,1.6977522E-1,-3.8666356E-1,3.648203E-1,1.1376424E-1,-2.567523E-1,-6.745434E-1,5.8283794E-1,3.2822993E-1,1.594011E-1,1.9388291E-3,-3.751482E-1,-1.23010665E-1,-7.866569E-1,-4.276831E-1,4.97447E-1,7.0971376E-1,4.7509804E-1,2.8149965E-1,1.03060886E-1,2.0071982E-1,-1.2362244E-1,9.164389E-2,-3.9348364E-1,1.8218486E-1,4.5284797E-2,-1.8308581E-1,-8.070953E-1,-5.4216284E-1,-1.6004202E-1,-5.770322E-1,5.4562694E-1,4.3788582E-2,7.2924185E-1,4.5927048E-1,4.8871347E-1,-3.638119E-1,2.5791144E-1,5.4576004E-1,1.654154E-1,4.3219198E-2,2.9159775E-1,1.5136409E-1,3.0032736E-1,-1.4929421E-1,2.14983E-1,3.207181E-2,-2.9126245E-1,-4.922321E-1,3.4953427E-1,-2.2457406E-2,8.224813E-2,-4.387197E-1,-1.3302107E-1,-4.1408923E-1,-8.1042486E-1,-3.495315E-3,1.3743679E-1,-7.1759444E-1,-5.5329424E-1,2.523923E-1,-4.119923E-1,-7.4286705E-1,-5.4291664E-3,1.6860293E-2,7.915115E-3,-2.265225E-2,2.227126E-2,1.1748424E-2,1.9031283E-2,-1.5865425E-3,-2.3379302E-2,1.4882299E-2,5.370008E-3,-2.5239768E-2,5.179268E-3,9.571931E-3,1.901243E-2,2.904334E-3,1.5058915E-2,4.5313956E-3,-1.3049639E-2,1.6214355E-3,9.155755E-3,-5.1489538E-3,4.677065E-3,-1.6564585E-2,-2.2976322E-2,1.1303527E-2,-5.0246455E-3,9.457991E-3,7.180503E-3,-1.8941332E-2,2.149094E-3,-4.2534415E-3,-1.0485765E-2,-3.32691E-3,-1.7228724E-2,-1.18025215E-2,-2.097704E-2,1.309392E-2,7.575397E-3,-1.8095953E-4,1.7204735E-2,-1.824932E-2,6.750565E-4,-5.868222E-3,-1.5170625E-2,5.8474275E-3,-2.270036E-2,-2.6026607E-2,1.709924E-2,-1.128545E-2,3.1353924E-3,-2.4617461E-2,-2.1960665E-2,1.1401871E-2,-9.841282E-3,1.536407E-2,-1.8709354E-2,-3.2288944E-3,-3.925459E-3,-2.5187694E-2],"categories":[],"categories_nodes":[],"categories_segments":[],"categories_sizes":[],"default_left":[0,0,0,0,0,0,0,0,0,0,0,0,0,0,0,0,0,0,0,0,0,0,0,0,0,0,0,0,0,0,0,0,0,0,0,0,0,0,0,0,0,0,0,0,0,0,0,0,0,0,0,0,0,0,0,0,0,0,0,0,0,0,0,0,0,0,0,0,0,0,0,0,0,0,0,0,0,0,0,0,0,0,0,0,0,0,0,0,0,0,0,0,0,0,0,0,0,0,0,0,0,0,0,0,0,0,0,0,0,0,0,0,0,0,0,0,0,0,0,0,0,0,0],"id":5,"left_children":[1,3,5,7,9,11,13,15,17,19,21,23,25,27,29,31,33,35,37,39,41,43,45,47,49,51,53,55,57,59,61,63,65,67,69,71,73,75,77,79,81,83,85,87,89,91,93,95,97,99,-1,101,103,105,107,109,-1,111,113,115,117,119,121,-1,-1,-1,-1,-1,-1,-1,-1,-1,-1,-1,-1,-1,-1,-1,-1,-1,-1,-1,-1,-1,-1,-1,-1,-1,-1,-1,-1,-1,-1,-1,-1,-1,-1,-1,-1,-1,-1,-1,-1,-1,-1,-1,-1,-1,-1,-1,-1,-1,-1,-1,-1,-1,-1,-1,-1,-1,-1,-1,-1],"loss_changes":[1.3388988E3,1.5470477E2,2.3261578E2,2.5015106E1,5.6167816E1,6.789346E1,5.321405E1,4.5526733E0,1.8451385E1,1.8174744E1,3.595177E1,2.3323761E1,2.039311E1,6.2054443E0,2.41501E1,5.964859E0,5.44487E-1,7.6271057E0,1.2679871E1,1.2340195E1,2.0176636E1,1.452125E1,1.3672528E1,2.2096497E1,1.16567E1,9.539301E0,1.7131119E1,2.7217407E0,1.2688993E1,3.5595013E1,1.0337448E1,3.0491104E0,5.0145245E0,4.4138336E-1,1.4422364E0,6.3825226E0,2.99896E0,9.800827E0,6.561081E0,7.7589035E0,8.774367E0,1.003717E1,9.420021E0,6.5065813E0,1.0658983E1,1.2652571E1,8.653492E0,1.1363441E1,8.849274E0,6.0205164E0,0E0,7.4320173E0,6.8456626E0,1.1906792E1,1.4837975E1,3.0856934E0,0E0,5.214443E0,7.205982E0,1.8997906E1,1.6357952E1,1.2633392E1,1.1298988E1,0E0,0E0,0E0,0E0,0E0,0E0,0E0,0E0,0E0,0E0,0E0,0E0,0E0,0E0,0E0,0E0,0E0,0E0,0E0,0E0,0E0,0E0,0E0,0E0,0E0,0E0,0E0,0E0,0E0,0E0,0E0,0E0,0E0,0E0,0E0,0E0,0E0,0E0,0E0,0E0,0E0,0E0,0E0,0E0,0E0,0E0,0E0,0E0,0E0,0E0,0E0,0E0,0E0,0E0,0E0,0E0,0E0,0E0,0E0,0E0],"parents":[2147483647,0,0,1,1,2,2,3,3,4,4,5,5,6,6,7,7,8,8,9,9,10,10,11,11,12,12,13,13,14,14,15,15,16,16,17,17,18,18,19,19,20,20,21,21,22,22,23,23,24,24,25,25,26,26,27,27,28,28,29,29,30,30,31,31,32,32,33,33,34,34,35,35,36,36,37,37,38,38,39,39,40,40,41,41,42,42,43,43,44,44,45,45,46,46,47,47,48,48,49,49,51,51,52,52,53,53,54,54,55,55,57,57,58,58,59,59,60,60,61,61,62,62],"right_children":[2,4,6,8,10,12,14,16,18,20,22,24,26,28,30,32,34,36,38,40,42,44,46,48,50,52,54,56,58,60,62,64,66,68,70,72,74,76,78,80,82,84,86,88,90,92,94,96,98,100,-1,102,104,106,108,110,-1,112,114,116,118,120,122,-1,-1,-1,-1,-1,-1,-1,-1,-1,-1,-1,-1,-1,-1,-1,-1,-1,-1,-1,-1,-1,-1,-1,-1,-1,-1,-1,-1,-1,-1,-1,-1,-1,-1,-1,-1,-1,-1,-1,-1,-1,-1,-1,-1,-1,-1,-1,-1,-1,-1,-1,-1,-1,-1,-1,-1,-1,-1,-1,-1],"split_conditions":[2.6390574E0,1.0647107E0,4.215086E0,5.3062826E-1,2.014903E0,4E-1,4.05E-1,1.1057692E-1,1.5E-1,2.8285715E-1,3E-1,6.702E1,2.9177706E0,4.812E1,2E0,6.488E1,5E0,1.555E1,7.6E1,1.5040774E0,2E0,4.849E1,2E0,3.2884018E0,6.4705884E-1,6.675E-1,2E3,8E0,4.314818E0,4.2E0,6.4615387E-1,1.784E1,5.25E-1,2.4698795E-1,6E0,3.644E1,4.5E-2,2.54717E-1,1.1764706E-1,3.694E1,-1.56E-1,1.1092E0,1.6086E0,2.2222223E-2,9.009E1,5.555556E-1,7.411E1,5.833333E-1,8E-2,-1.017E1,-2.2457406E-2,2E0,4.6285716E-1,2E0,6.436E-1,8.8235295E-1,-3.495315E-3,1E1,4.863E1,6.544E-1,5.448E1,2.228261E-1,-3.84E-1,-5.4291664E-3,1.6860293E-2,7.915115E-3,-2.265225E-2,2.227126E-2,1.1748424E-2,1.9031283E-2,-1.5865425E-3,-2.3379302E-2,1.4882299E-2,5.370008E-3,-2.5239768E-2,5.179268E-3,9.571931E-3,1.901243E-2,2.904334E-3,1.5058915E-2,4.5313956E-3,-1.3049639E-2,1.6214355E-3,9.155755E-3,-5.1489538E-3,4.677065E-3,-1.6564585E-2,-2.2976322E-2,1.1303527E-2,-5.0246455E-3,9.457991E-3,7.180503E-3,-1.8941332E-2,2.149094E-3,-4.2534415E-3,-1.0485765E-2,-3.32691E-3,-1.7228724E-2,-1.18025215E-2,-2.097704E-2,1.309392E-2,7.575397E-3,-1.8095953E-4,1.7204735E-2,-1.824932E-2,6.750565E-4,-5.868222E-3,-1.5170625E-2,5.8474275E-3,-2.270036E-2,-2.6026607E-2,1.709924E-2,-1.128545E-2,3.1353924E-3,-2.4617461E-2,-2.1960665E-2,1.1401871E-2,-9.841282E-3,1.536407E-2,-1.8709354E-2,-3.2288944E-3,-3.925459E-3,-2.5187694E-2],"split_indices":[25,25,25,25,25,39,39,43,49,39,39,10,25,3,22,10,22,46,1,25,22,10,22,25,26,50,23,22,25,46,39,3,53,28,21,10,49,29,28,10,38,50,50,32,3,26,11,26,32,36,0,22,39,22,50,26,0,17,3,50,10,29,38,0,0,0,0,0,0,0,0,0,0,0,0,0,0,0,0,0,0,0,0,0,0,0,0,0,0,0,0,0,0,0,0,0,0,0,0,0,0,0,0,0,0,0,0,0,0,0,0,0,0,0,0,0,0,0,0,0,0,0,0],"split_type":[0,0,0,0,0,0,0,0,0,0,0,0,0,0,0,0,0,0,0,0,0,0,0,0,0,0,0,0,0,0,0,0,0,0,0,0,0,0,0,0,0,0,0,0,0,0,0,0,0,0,0,0,0,0,0,0,0,0,0,0,0,0,0,0,0,0,0,0,0,0,0,0,0,0,0,0,0,0,0,0,0,0,0,0,0,0,0,0,0,0,0,0,0,0,0,0,0,0,0,0,0,0,0,0,0,0,0,0,0,0,0,0,0,0,0,0,0,0,0,0,0,0,0],"sum_hessian":[2.0387352E4,1.4163854E4,6.2234985E3,3.1587463E3,1.1005106E4,4.2896187E3,1.9338798E3,4.5180627E2,2.70694E3,7.815225E3,3.1898818E3,2.2743909E3,2.0152278E3,1.3283931E3,6.054867E2,2.729943E2,1.78812E2,6.5118134E2,2.0557585E3,3.3080378E3,4.507187E3,1.3291193E3,1.8607626E3,2.2022346E3,7.215631E1,5.3019037E2,1.4850375E3,1.2237898E3,1.04603294E2,2.1760295E2,3.8788376E2,2.4660172E2,2.6392572E1,1.6410428E2,1.4707712E1,6.4119226E2,9.989042E0,1.8891104E3,1.6664832E2,1.6191418E3,1.688896E3,1.5845929E3,2.9225942E3,7.527708E1,1.2538422E3,6.051794E2,1.2555833E3,1.0840308E3,1.1182037E3,6.1689198E1,1.0467111E1,4.9334387E2,3.6846508E1,1.2218131E3,2.6322437E2,1.2177451E3,6.0447536E0,2.1506487E1,8.30968E1,1.11217026E2,1.0638592E2,1.9615422E2,1.9172954E2,5.2160954E0,2.4138562E2,2.1217817E1,5.174755E0,1.5680585E2,7.298435E0,1.078253E1,3.9251828E0,3.0965168E0,6.3809576E2,4.96745E0,5.0215917E0,7.9058014E2,1.0985302E3,1.3899553E2,2.7652792E1,6.4908875E1,1.5542329E3,3.6529663E1,1.6523663E3,1.539748E3,4.4844814E1,2.9046362E3,1.7958193E1,4.433537E0,7.0843544E1,1.207203E3,4.663922E1,5.8894073E2,1.623866E1,1.0232948E3,2.3228845E2,8.186472E2,2.6538358E2,6.0826794E2,5.099358E2,4.1827292E0,5.750647E1,1.6781674E2,3.2552713E2,4.9457836E0,3.1900724E1,3.5078235E2,8.710307E2,2.2895726E2,3.4267105E1,6.347878E2,5.829573E2,1.1615176E1,9.891312E0,9.249232E0,7.384757E1,9.3523895E1,1.7693129E1,3.28082E1,7.357772E1,1.15079346E2,8.107487E1,2.6486662E1,1.6524287E2],"tree_param":{"num_deleted":"0","num_feature":"55","num_nodes":"123","size_leaf_vector":"1"}},{"base_weights":[1.3146123E-3,1.711485E-1,-3.4103197E-1,3.665521E-1,1.1295746E-1,-2.1035124E-1,-6.287481E-1,5.728571E-1,3.3268908E-1,2.9744962E-2,1.698097E-1,-3.7081575E-1,-7.5305805E-2,-7.5133973E-1,-3.525085E-1,4.953101E-1,7.3715854E-1,2.0413463E-1,3.941592E-1,1.1185865E-1,-4.9647335E-2,1.8485397E-1,-2.9232746E-3,-2.935787E-1,-5.4255277E-1,7.1205266E-2,-1.1649583E-1,1.5494741E-2,-7.595268E-1,-4.206091E-1,2.4504448E-1,5.328643E-1,-3.520448E-2,4.988346E-3,7.51357E-1,1.36519E-1,3.600563E-1,4.1589826E-1,1.0209858E-1,1.5419854E-1,8.91115E-3,-8.578821E-2,9.54568E-2,1.909591E-1,-2.559812E-1,-2.0684063E-1,8.463967E-2,-4.0068907E-1,-1.717134E-1,-6.119711E-1,-3.7463477E-1,-4.0451056E-1,1.3097247E-1,-4.425485E-2,-2.1641745E-1,-6.6556066E-1,-8.321547E-1,5.4037448E-2,-4.8597693E-1,-7.427233E-1,4.6324682E-1,-4.1735484E-3,1.6378501E-2,6.8976786E-3,-2.345223E-2,1.837671E-2,2.3922723E-2,1.2214517E-3,8.188001E-3,1.6815607E-2,7.427011E-3,1.4872436E-2,1.1243592E-2,7.2442386E-3,-1.1399254E-2,3.687761E-3,9.3627E-3,2.000472E-3,-1.2389777E-2,-1.1190529E-2,-2.0537998E-3,1.2728858E-2,1.4280108E-3,7.751895E-3,4.582278E-3,-2.36375E-2,-2.2239594E-3,-9.113782E-3,7.159215E-3,1.0588966E-2,-6.1401626E-4,-1.4098714E-2,-7.5167287E-3,1.8445669E-2,-5.7282983E-3,-1.624223E-2,-2.3138827E-2,-6.8452656E-3,-1.9655969E-2,5.306796E-3,-1.6199987E-2,5.441024E-4,1.173458E-2,-9.132911E-3,-3.382371E-4,-8.126127E-3,2.0509584E-4,1.8377481E-2,-2.026979E-2,-2.6497541E-2,-2.3895925E-2,9.398977E-3,-2.4934785E-2,-1.5926464E-2,3.8621274E-3,-1.0668631E-2,-2.5032496E-2,1.9464513E-2,-2.3253629E-2],"categories":[],"categories_nodes":[],"categories_segments":[],"categories_sizes":[],"default_left":[0,0,0,0,0,0,0,0,0,0,0,0,0,0,0,0,0,0,0,0,0,0,0,0,0,0,0,0,0,0,0,0,0,0,0,0,0,0,0,0,0,0,0,0,0,0,0,0,0,0,0,0,0,0,0,0,0,0,0,0,0,0,0,0,0,0,0,0,0,0,0,0,0,0,0,0,0,0,0,0,0,0,0,0,0,0,0,0,0,0,0,0,0,0,0,0,0,0,0,0,0,0,0,0,0,0,0,0,0,0,0,0,0,0,0,0,0,0,0],"id":6,"left_children":[1,3,5,7,9,11,13,15,17,19,21,23,25,27,29,31,33,35,37,39,41,43,45,47,49,51,53,-1,55,57,59,61,63,-1,65,67,69,71,73,75,77,79,81,83,85,87,89,91,93,95,97,99,101,103,105,107,109,111,113,115,117,-1,-1,-1,-1,-1,-1,-1,-1,-1,-1,-1,-1,-1,-1,-1,-1,-1,-1,-1,-1,-1,-1,-1,-1,-1,-1,-1,-1,-1,-1,-1,-1,-1,-1,-1,-1,-1,-1,-1,-1,-1,-1,-1,-1,-1,-1,-1,-1,-1,-1,-1,-1,-1,-1,-1,-1,-1,-1],"loss_changes":[1.1497744E3,1.502568E2,2.4641467E2,2.0995636E1,4.81848E1,9.7719025E1,6.907568E1,5.0651855E0,2.0523987E1,2.6967997E1,1.5726242E1,2.7180023E1,1.4797205E1,1.510376E1,2.5791481E1,5.848114E0,9.6617126E-1,8.865078E0,1.1150238E1,8.861736E0,1.1039162E1,1.50308075E1,8.692067E0,1.8517166E1,7.2101593E0,1.5360697E1,1.3800825E1,0E0,9.059326E0,1.761985E1,1.4399853E1,2.479309E0,4.193889E0,0E0,3.4955597E-1,7.717738E0,5.6147957E0,5.199341E0,8.3864355E0,7.0757523E0,1.4496751E1,8.358781E0,6.5879664E0,1.411264E1,7.338424E0,6.388378E0,9.612668E0,7.755226E0,1.0218498E1,4.6411133E0,7.6270123E0,4.8484707E0,1.4056873E1,9.535421E0,9.758339E0,8.405212E0,7.354126E-1,1.6219719E1,1.3829102E1,1.3571835E-1,1.291933E1,0E0,0E0,0E0,0E0,0E0,0E0,0E0,0E0,0E0,0E0,0E0,0E0,0E0,0E0,0E0,0E0,0E0,0E0,0E0,0E0,0E0,0E0,0E0,0E0,0E0,0E0,0E0,0E0,0E0,0E0,0E0,0E0,0E0,0E0,0E0,0E0,0E0,0E0,0E0,0E0,0E0,0E0,0E0,0E0,0E0,0E0,0E0,0E0,0E0,0E0,0E0,0E0,0E0,0E0,0E0,0E0,0E0,0E0],"parents":[2147483647,0,0,1,1,2,2,3,3,4,4,5,5,6,6,7,7,8,8,9,9,10,10,11,11,12,12,13,13,14,14,15,15,16,16,17,17,18,18,19,19,20,20,21,21,22,22,23,23,24,24,25,25,26,26,28,28,29,29,30,30,31,31,32,32,34,34,35,35,36,36,37,37,38,38,39,39,40,40,41,41,42,42,43,43,44,44,45,45,46,46,47,47,48,48,49,49,50,50,51,51,52,52,53,53,54,54,55,55,56,56,57,57,58,58,59,59,60,60],"right_children":[2,4,6,8,10,12,14,16,18,20,22,24,26,28,30,32,34,36,38,40,42,44,46,48,50,52,54,-1,56,58,60,62,64,-1,66,68,70,72,74,76,78,80,82,84,86,88,90,92,94,96,98,100,102,104,106,108,110,112,114,116,118,-1,-1,-1,-1,-1,-1,-1,-1,-1,-1,-1,-1,-1,-1,-1,-1,-1,-1,-1,-1,-1,-1,-1,-1,-1,-1,-1,-1,-1,-1,-1,-1,-1,-1,-1,-1,-1,-1,-1,-1,-1,-1,-1,-1,-1,-1,-1,-1,-1,-1,-1,-1,-1,-1,-1,-1,-1,-1],"split_conditions":[2.5176964E0,1.0647107E0,4.0976725E0,5.3062826E-1,1.1896745E-1,1.1399212E-1,1.1679415E-1,1.2048193E-1,1.0429448E-1,1.686399E0,4E-1,3.487375E0,-3.3333334E-1,2.72E1,7.97E1,6.734E1,4.752E1,4E0,1.6666667E-1,2.8944E-1,5.1E1,9.371E1,5.479452E-2,4E0,9.52381E-2,1.2E1,4E0,1.5494741E-2,4.8378677E0,6.4705884E-1,2.533E1,-5.7E-1,5.972222E-1,4.988346E-3,9.5454544E-2,9.615385E-2,5.8E1,2.7E1,4.3E1,1.1279103E-1,8.7E-1,1.464E1,9.91453E-2,1.4586151E0,6E-2,2.4925816E-1,6.7567565E-2,6.566265E-1,3.8E1,6.4285713E-1,7.596E1,3.0769232E-1,8.82353E-2,1.1E1,6.614E1,3.12E1,4.96E1,6E0,1.092E0,4.4236484E0,8.080808E-2,-4.1735484E-3,1.6378501E-2,6.8976786E-3,-2.345223E-2,1.837671E-2,2.3922723E-2,1.2214517E-3,8.188001E-3,1.6815607E-2,7.427011E-3,1.4872436E-2,1.1243592E-2,7.2442386E-3,-1.1399254E-2,3.687761E-3,9.3627E-3,2.000472E-3,-1.2389777E-2,-1.1190529E-2,-2.0537998E-3,1.2728858E-2,1.4280108E-3,7.751895E-3,4.582278E-3,-2.36375E-2,-2.2239594E-3,-9.113782E-3,7.159215E-3,1.0588966E-2,-6.1401626E-4,-1.4098714E-2,-7.5167287E-3,1.8445669E-2,-5.7282983E-3,-1.624223E-2,-2.3138827E-2,-6.8452656E-3,-1.9655969E-2,5.306796E-3,-1.6199987E-2,5.441024E-4,1.173458E-2,-9.132911E-3,-3.382371E-4,-8.126127E-3,2.0509584E-4,1.8377481E-2,-2.026979E-2,-2.6497541E-2,-2.3895925E-2,9.398977E-3,-2.4934785E-2,-1.5926464E-2,3.8621274E-3,-1.0668631E-2,-2.5032496E-2,1.9464513E-2,-2.3253629E-2],"split_indices":[25,25,25,25,30,30,30,28,30,25,26,25,37,8,11,10,13,18,26,47,5,0,42,18,42,16,18,0,25,26,3,38,53,0,32,28,20,0,40,30,53,3,30,25,31,29,28,53,5,53,11,53,32,16,4,14,13,21,50,25,31,0,0,0,0,0,0,0,0,0,0,0,0,0,0,0,0,0,0,0,0,0,0,0,0,0,0,0,0,0,0,0,0,0,0,0,0,0,0,0,0,0,0,0,0,0,0,0,0,0,0,0,0,0,0,0,0,0,0],"split_type":[0,0,0,0,0,0,0,0,0,0,0,0,0,0,0,0,0,0,0,0,0,0,0,0,0,0,0,0,0,0,0,0,0,0,0,0,0,0,0,0,0,0,0,0,0,0,0,0,0,0,0,0,0,0,0,0,0,0,0,0,0,0,0,0,0,0,0,0,0,0,0,0,0,0,0,0,0,0,0,0,0,0,0,0,0,0,0,0,0,0,0,0,0,0,0,0,0,0,0,0,0,0,0,0,0,0,0,0,0,0,0,0,0,0,0,0,0,0,0],"sum_hessian":[1.977326E4,1.321698E4,6.55628E3,3.0316155E3,1.0185365E4,4.509703E3,2.0465769E3,4.2520526E2,2.6064102E3,4.134855E3,6.0505103E3,2.0600964E3,2.4496064E3,1.4163146E3,6.302623E2,2.9159357E2,1.336117E2,8.4453265E2,1.7618776E3,2.0323901E3,2.1024648E3,5.565693E3,4.8481723E2,1.4228798E3,6.3721674E2,5.373935E2,1.912213E3,8.688856E0,1.4076257E3,5.660483E2,6.421403E1,2.7231262E2,1.9280952E1,3.5509045E0,1.3006079E2,5.903864E2,2.5414626E2,1.6394255E3,1.22452E2,1.4397549E3,5.9263525E2,1.6835535E3,4.1891147E2,5.4902256E3,7.546726E1,1.4523364E2,3.395836E2,7.5606665E2,6.668131E2,4.4896677E2,1.8824998E2,5.9336643E1,4.7805685E2,1.1106686E3,8.0154443E2,6.180958E2,7.895299E2,6.854019E1,4.975081E2,1.1183635E1,5.303039E1,5.0175858E0,2.67295E2,1.4738643E1,4.5423093E0,3.5972595E1,9.40882E1,3.475795E2,2.428069E2,8.991983E1,1.6422643E2,5.5344214E2,1.0859834E3,9.537616E1,2.7075844E1,1.2032155E3,2.3653941E2,5.219998E2,7.063546E1,9.462016E1,1.5889332E3,5.2220448E1,3.6669104E2,1.9838064E3,3.5064192E3,1.8377527E1,5.7089737E1,1.1953643E2,2.569721E1,9.491591E1,2.4466766E2,5.159061E2,2.4016048E2,1.5173901E1,6.5163916E2,3.1420517E2,1.347616E2,1.24875916E2,6.3374073E1,1.1156565E1,4.818008E1,3.341928E2,1.4386404E2,1.24025215E2,9.8664343E2,6.442045E2,1.573399E2,4.3778415E0,6.13718E2,3.1455627E2,4.7497363E2,5.351304E1,1.5027151E1,4.637661E2,3.3741966E1,3.0760064E0,8.107628E0,4.6533398E1,6.496993E0],"tree_param":{"num_deleted":"0","num_feature":"55","num_nodes":"119","size_leaf_vector":"1"}},{"base_weights":[-2.1639769E-4,1.3897772E-1,-4.2334294E-1,2.9802924E-1,5.9953656E-2,-2.9739124E-1,-6.820384E-1,5.116975E-1,2.682018E-1,-8.8748E-2,1.2507209E-1,-4.021458E-1,-1.5170255E-1,-7.8463054E-1,-4.18535E-1,2.378883E-1,5.4044515E-1,1.9161952E-1,3.4103826E-1,-2.0380135E-1,1.2056317E-2,2.1999912E-1,6.2736675E-2,-2.7356645E-1,-5.123209E-1,7.6839484E-2,-2.9035395E-1,1.0877367E-2,-7.9039985E-1,-5.236728E-1,2.2107369E-1,-3.8924087E-2,6.133559E-1,6.7908543E-1,4.8362398E-1,1.4317608E-1,3.1710207E-1,4.3410712E-1,2.3647052E-1,-2.1577652E-1,6.105532E-1,1.0931993E-1,-1.3328344E-1,1.4311548E-1,2.9003528E-1,-3.2481104E-1,7.121378E-2,-3.896693E-1,-1.4384176E-1,1.7738836E-2,-5.216572E-1,1.891619E-2,5.2182966E-1,-4.1654003E-1,-1.63573E-1,-7.944921E-1,1.6793903E-4,-3.1908837E-1,-6.9826436E-1,4.811658E-1,-6.8341583E-1,-4.2782375E-3,2.1444099E-2,2.0502346E-2,4.759369E-3,2.1159654E-2,7.16568E-3,9.822781E-3,1.6180452E-2,1.1082017E-2,3.2829782E-3,9.962293E-3,-1.3845994E-2,1.4305663E-2,9.443E-3,1.280669E-2,4.4610444E-3,-3.1182552E-3,-8.798755E-3,2.4279054E-2,-5.0437427E-3,-1.789043E-3,4.506655E-3,-9.1891745E-3,-2.2373935E-3,1.884096E-3,7.3376405E-3,8.915837E-3,-2.4165107E-2,-5.7967915E-4,-1.5155856E-2,3.5576406E-3,1.4716027E-4,-1.2800689E-2,9.574963E-3,-1.1895097E-2,-1.500406E-3,-1.6436769E-2,-5.228927E-3,-3.6885065E-3,5.102506E-3,-2.0704526E-2,1.8527957E-2,-1.0565467E-2,-1.9948225E-2,7.4563525E-3,-7.55451E-3,-2.3952702E-2,-6.041705E-3,-1.2928277E-2,6.899171E-3,1.8266706E-2,-2.1795018E-2,-2.1945132E-2,1.8324044E-2,-6.3201836E-3,-2.527207E-2],"categories":[],"categories_nodes":[],"categories_segments":[],"categories_sizes":[],"default_left":[0,0,0,0,0,0,0,0,0,0,0,0,0,0,0,0,0,0,0,0,0,0,0,0,0,0,0,0,0,0,0,0,0,0,0,0,0,0,0,0,0,0,0,0,0,0,0,0,0,0,0,0,0,0,0,0,0,0,0,0,0,0,0,0,0,0,0,0,0,0,0,0,0,0,0,0,0,0,0,0,0,0,0,0,0,0,0,0,0,0,0,0,0,0,0,0,0,0,0,0,0,0,0,0,0,0,0,0,0,0,0,0,0,0,0,0,0],"id":7,"left_children":[1,3,5,7,9,11,13,15,17,19,21,23,25,27,29,31,33,35,37,39,41,43,45,47,49,51,53,-1,55,57,59,61,63,65,67,69,71,73,75,77,79,81,83,85,87,89,91,93,95,-1,97,99,101,103,105,107,-1,109,111,113,115,-1,-1,-1,-1,-1,-1,-1,-1,-1,-1,-1,-1,-1,-1,-1,-1,-1,-1,-1,-1,-1,-1,-1,-1,-1,-1,-1,-1,-1,-1,-1,-1,-1,-1,-1,-1,-1,-1,-1,-1,-1,-1,-1,-1,-1,-1,-1,-1,-1,-1,-1,-1,-1,-1,-1,-1],"loss_changes":[1.1363185E3,1.8245248E2,1.554076E2,3.0572296E1,9.3938866E1,4.898578E1,4.1926147E1,4.508896E0,2.3531738E1,3.427087E1,3.9906418E1,2.6335205E1,4.2668884E1,7.7250977E0,2.971534E1,6.027669E0,3.8656158E0,1.2504036E1,2.0986038E1,1.3588493E1,2.2290844E1,1.4355408E1,1.3406181E1,1.2965546E1,1.0667145E1,1.3109171E1,1.3335999E1,0E0,3.6480713E0,1.3290276E1,1.5112429E1,2.7739763E0,6.743851E-1,1.5905151E0,3.140503E0,1.1343323E1,6.848053E0,5.6928253E0,1.7027641E1,1.1764702E1,3.2712955E0,6.536682E0,6.3986816E0,1.0387621E1,1.1205765E1,4.8052273E0,1.2524643E1,1.2093079E1,9.697928E0,0E0,8.994171E0,9.701296E0,7.2260923E0,6.468506E0,1.5321923E1,2.434021E0,0E0,1.0910479E1,7.9452896E0,8.211793E0,9.0843487E-1,0E0,0E0,0E0,0E0,0E0,0E0,0E0,0E0,0E0,0E0,0E0,0E0,0E0,0E0,0E0,0E0,0E0,0E0,0E0,0E0,0E0,0E0,0E0,0E0,0E0,0E0,0E0,0E0,0E0,0E0,0E0,0E0,0E0,0E0,0E0,0E0,0E0,0E0,0E0,0E0,0E0,0E0,0E0,0E0,0E0,0E0,0E0,0E0,0E0,0E0,0E0,0E0,0E0,0E0,0E0,0E0],"parents":[2147483647,0,0,1,1,2,2,3,3,4,4,5,5,6,6,7,7,8,8,9,9,10,10,11,11,12,12,13,13,14,14,15,15,16,16,17,17,18,18,19,19,20,20,21,21,22,22,23,23,24,24,25,25,26,26,28,28,29,29,30,30,31,31,32,32,33,33,34,34,35,35,36,36,37,37,38,38,39,39,40,40,41,41,42,42,43,43,44,44,45,45,46,46,47,47,48,48,50,50,51,51,52,52,53,53,54,54,55,55,57,57,58,58,59,59,60,60],"right_children":[2,4,6,8,10,12,14,16,18,20,22,24,26,28,30,32,34,36,38,40,42,44,46,48,50,52,54,-1,56,58,60,62,64,66,68,70,72,74,76,78,80,82,84,86,88,90,92,94,96,-1,98,100,102,104,106,108,-1,110,112,114,116,-1,-1,-1,-1,-1,-1,-1,-1,-1,-1,-1,-1,-1,-1,-1,-1,-1,-1,-1,-1,-1,-1,-1,-1,-1,-1,-1,-1,-1,-1,-1,-1,-1,-1,-1,-1,-1,-1,-1,-1,-1,-1,-1,-1,-1,-1,-1,-1,-1,-1,-1,-1,-1,-1,-1,-1],"split_conditions":[2.9177706E0,1.3083328E0,4.335983E0,5.877867E-1,9.615385E-2,1.2066857E-1,1.1679415E-1,6.122449E-2,1.212886E-1,2E0,2E0,3.4499876E0,2E0,3.12E1,1.12840466E-1,1E0,4.054651E-1,6.4E0,1.0647107E0,3.4E1,2.0668628E0,3E0,4.5E1,4E0,1.84E1,6.6E1,8.442E-2,1.0877367E-2,2.1428572E-1,4.7388268E0,8E-2,5.75E0,5.1948052E-2,5E0,1.1E1,2.7E1,2.6923078E-1,5.6E0,5.027E1,1.8405496E0,9.130435E-1,4.9586777E-2,1.3E1,6.373E1,5.56E1,4.47E-1,2.014903E0,9.654545E-1,4E0,1.7738836E-2,5.394E1,3E0,3.53E-2,4.8168E-2,-5E-1,8E0,1.6793903E-4,5.311E1,5.294118E-1,1.5E1,1.1956522E-1,-4.2782375E-3,2.1444099E-2,2.0502346E-2,4.759369E-3,2.1159654E-2,7.16568E-3,9.822781E-3,1.6180452E-2,1.1082017E-2,3.2829782E-3,9.962293E-3,-1.3845994E-2,1.4305663E-2,9.443E-3,1.280669E-2,4.4610444E-3,-3.1182552E-3,-8.798755E-3,2.4279054E-2,-5.0437427E-3,-1.789043E-3,4.506655E-3,-9.1891745E-3,-2.2373935E-3,1.884096E-3,7.3376405E-3,8.915837E-3,-2.4165107E-2,-5.7967915E-4,-1.5155856E-2,3.5576406E-3,1.4716027E-4,-1.2800689E-2,9.574963E-3,-1.1895097E-2,-1.500406E-3,-1.6436769E-2,-5.228927E-3,-3.6885065E-3,5.102506E-3,-2.0704526E-2,1.8527957E-2,-1.0565467E-2,-1.9948225E-2,7.4563525E-3,-7.55451E-3,-2.3952702E-2,-6.041705E-3,-1.2928277E-2,6.899171E-3,1.8266706E-2,-2.1795018E-2,-2.1945132E-2,1.8324044E-2,-6.3201836E-3,-2.527207E-2],"split_indices":[25,25,25,25,30,30,30,31,30,22,22,25,22,14,43,27,25,46,25,40,25,18,6,18,4,5,47,0,32,25,31,46,31,22,16,0,42,46,10,25,39,43,16,11,13,39,25,39,21,0,13,18,47,47,37,22,0,13,26,16,43,0,0,0,0,0,0,0,0,0,0,0,0,0,0,0,0,0,0,0,0,0,0,0,0,0,0,0,0,0,0,0,0,0,0,0,0,0,0,0,0,0,0,0,0,0,0,0,0,0,0,0,0,0,0,0,0],"split_type":[0,0,0,0,0,0,0,0,0,0,0,0,0,0,0,0,0,0,0,0,0,0,0,0,0,0,0,0,0,0,0,0,0,0,0,0,0,0,0,0,0,0,0,0,0,0,0,0,0,0,0,0,0,0,0,0,0,0,0,0,0,0,0,0,0,0,0,0,0,0,0,0,0,0,0,0,0,0,0,0,0,0,0,0,0,0,0,0,0,0,0,0,0,0,0,0,0,0,0,0,0,0,0,0,0,0,0,0,0,0,0,0,0,0,0,0,0],"sum_hessian":[1.9291408E4,1.4516613E4,4.774796E3,4.817557E3,9.699056E3,3.2127473E3,1.5620486E3,5.881563E2,4.2294004E3,2.9537153E3,6.7453403E3,1.867906E3,1.3448412E3,1.1228872E3,4.3916132E2,5.6765423E1,5.313909E2,2.0634565E3,2.165944E3,1.3788914E3,1.5748241E3,2.6727036E3,4.072637E3,8.6356696E2,1.0043391E3,5.0797726E2,8.3686395E2,5.3092675E0,1.117578E3,3.773194E2,6.1841896E1,3.3191452E1,2.3573973E1,1.5129317E2,3.8009775E2,1.4902686E3,5.7318787E2,1.1443141E3,1.02163E3,1.3596328E3,1.9258516E1,9.436001E2,6.3122394E2,1.2755193E3,1.3971843E3,8.6378006E1,3.986259E3,4.546521E2,4.0891486E2,7.9022813E0,9.964368E2,4.503932E2,5.7584076E1,4.182705E2,4.1859344E2,1.1118638E3,5.7142773E0,1.7503864E2,2.0228078E2,4.839392E1,1.3447975E1,2.989047E1,3.3009799E0,1.9991056E1,3.5829163E0,1.4221536E2,9.077805E0,1.01753685E2,2.7834406E2,1.9214362E2,1.298125E3,5.6293524E2,1.0252623E1,8.4031384E2,3.040003E2,3.2110764E2,7.005224E2,5.5755914E2,8.0207367E2,1.5311184E1,3.9473329E0,1.8382224E2,7.5977783E2,1.5884079E2,4.7238318E2,7.129003E2,5.6261896E2,1.388837E3,8.347259E0,3.247957E1,5.3898438E1,2.3246316E3,1.6616274E3,4.3246384E2,2.2188246E1,1.098592E2,2.9905566E2,9.259268E2,7.051001E1,2.3244066E2,2.1795251E2,3.76248E0,5.3821598E1,3.3412128E2,8.4149216E1,7.35029E1,3.4509055E2,1.1041986E3,7.665108E0,1.4559355E2,2.944508E1,3.8423202E0,1.9843845E2,4.2253485E0,4.416857E1,3.9695873E0,9.478388E0],"tree_param":{"num_deleted":"0","num_feature":"55","num_nodes":"117","size_leaf_vector":"1"}},{"base_weights":[-3.897986E-4,1.1701669E-1,-4.541298E-1,2.5029877E-1,7.01396E-3,-6.324394E-1,-2.5697106E-1,3.4786916E-1,1.8310305E-1,-1.2477942E-1,7.798786E-2,-4.9299616E-1,-7.6826763E-1,-1.9768164E-1,-5.562005E-1,2.1015005E-1,4.1181314E-1,1.9152158E-1,-5.011867E-2,-5.6003835E-2,-2.7457082E-1,1.578869E-1,2.6920011E-2,-5.8388245E-1,-3.771696E-1,-7.887958E-1,-5.064993E-1,-4.2238973E-2,-2.9575604E-1,-6.90982E-1,2.899114E-1,5.301027E-1,1.6839787E-1,5.8202595E-1,3.8216162E-1,1.3743971E-1,2.4192564E-1,4.0667918E-2,-7.9405767E-1,-1.3769197E-1,1.4929589E-2,-3.7766206E-1,-1.1103738E-1,6.5350935E-2,2.4091575E-1,7.535152E-2,-8.477093E-2,-5.9482527E-1,1.4001414E-2,-4.0335664E-1,2.2529244E-1,-7.9350746E-1,4.330401E-3,5.2651E-1,-7.29119E-1,-2.5092828E-1,1.8280919E-1,-5.1652896E-1,-2.2900441E-1,1.8410759E-2,-7.148848E-1,5.755935E-1,-2.1188114E-2,1.3172126E-3,1.6834253E-2,6.7349463E-3,-2.0112281E-3,1.4009651E-2,2.1801215E-2,6.351244E-3,1.2141218E-2,1.5269184E-3,5.21207E-3,8.743349E-3,3.578606E-3,2.6358997E-3,-2.3500958E-2,-9.4093615E-3,-2.6606804E-2,-1.5304917E-4,-6.4638453E-3,1.222974E-3,-6.883402E-3,-1.2941738E-2,-4.7632186E-3,-5.295467E-3,9.70499E-3,-2.3153208E-2,2.2460285E-3,5.2265385E-3,1.1453422E-2,3.916217E-3,1.6709589E-4,-1.0829039E-3,-9.783163E-3,-1.8837221E-2,-8.455175E-3,-8.783297E-3,-1.694952E-2,-6.4494065E-3,2.3315288E-2,-2.228844E-2,-2.5328157E-2,2.2333056E-2,2.7076362E-3,-2.5030576E-2,-3.370265E-3,-1.4950569E-2,-1.1502577E-3,-5.0654486E-3,9.192226E-3,-4.563815E-3,-1.8984254E-2,-5.818999E-3,-1.7211378E-2,-2.2013597E-2,1.1243467E-2,-1.2363769E-2,2.2753883E-2],"categories":[],"categories_nodes":[],"categories_segments":[],"categories_sizes":[],"default_left":[0,0,0,0,0,0,0,0,0,0,0,0,0,0,0,0,0,0,0,0,0,0,0,0,0,0,0,0,0,0,0,0,0,0,0,0,0,0,0,0,0,0,0,0,0,0,0,0,0,0,0,0,0,0,0,0,0,0,0,0,0,0,0,0,0,0,0,0,0,0,0,0,0,0,0,0,0,0,0,0,0,0,0,0,0,0,0,0,0,0,0,0,0,0,0,0,0,0,0,0,0,0,0,0,0,0,0,0,0,0,0,0,0,0,0,0,0,0,0],"id":8,"left_children":[1,3,5,7,9,11,13,15,17,19,21,23,25,27,29,31,33,35,37,39,41,43,45,47,49,51,53,55,57,59,61,63,65,67,69,71,73,75,77,79,81,83,85,87,89,91,93,95,-1,97,99,101,-1,103,105,107,109,111,113,-1,115,117,-1,-1,-1,-1,-1,-1,-1,-1,-1,-1,-1,-1,-1,-1,-1,-1,-1,-1,-1,-1,-1,-1,-1,-1,-1,-1,-1,-1,-1,-1,-1,-1,-1,-1,-1,-1,-1,-1,-1,-1,-1,-1,-1,-1,-1,-1,-1,-1,-1,-1,-1,-1,-1,-1,-1,-1,-1],"loss_changes":[1.0066821E3,2.2010231E2,1.3639905E2,4.4440277E1,7.695044E1,3.8242065E1,3.2648033E1,2.4282166E1,7.905884E0,2.9649597E1,2.1812935E1,1.0400955E1,5.1414795E0,2.3504982E1,3.4959854E1,1.1659344E1,9.310059E0,1.0548508E1,9.549136E0,1.14443035E1,1.5229431E1,1.6001667E1,1.765848E1,6.756012E0,7.134083E0,4.310608E0,1.8270159E1,2.8128458E1,1.3818375E1,8.647186E0,1.2526169E1,1.5003624E0,1.0309759E1,4.292511E0,6.1069946E0,5.8805695E0,1.2159424E1,4.9897842E0,4.0750694E-1,9.463539E0,6.6882253E0,6.460747E0,1.0062799E1,7.923248E0,1.0253807E1,8.767485E0,1.1588032E1,5.6021576E0,0E0,7.487564E0,4.8415546E0,1.8102417E0,0E0,1.299017E0,4.086624E0,1.6321825E1,1.258141E1,9.172962E0,8.680637E0,0E0,5.6082916E0,6.3898745E0,0E0,0E0,0E0,0E0,0E0,0E0,0E0,0E0,0E0,0E0,0E0,0E0,0E0,0E0,0E0,0E0,0E0,0E0,0E0,0E0,0E0,0E0,0E0,0E0,0E0,0E0,0E0,0E0,0E0,0E0,0E0,0E0,0E0,0E0,0E0,0E0,0E0,0E0,0E0,0E0,0E0,0E0,0E0,0E0,0E0,0E0,0E0,0E0,0E0,0E0,0E0,0E0,0E0,0E0,0E0,0E0,0E0],"parents":[2147483647,0,0,1,1,2,2,3,3,4,4,5,5,6,6,7,7,8,8,9,9,10,10,11,11,12,12,13,13,14,14,15,15,16,16,17,17,18,18,19,19,20,20,21,21,22,22,23,23,24,24,25,25,26,26,27,27,28,28,29,29,30,30,31,31,32,32,33,33,34,34,35,35,36,36,37,37,38,38,39,39,40,40,41,41,42,42,43,43,44,44,45,45,46,46,47,47,49,49,50,50,51,51,53,53,54,54,55,55,56,56,57,57,58,58,60,60,61,61],"right_children":[2,4,6,8,10,12,14,16,18,20,22,24,26,28,30,32,34,36,38,40,42,44,46,48,50,52,54,56,58,60,62,64,66,68,70,72,74,76,78,80,82,84,86,88,90,92,94,96,-1,98,100,102,-1,104,106,108,110,112,114,-1,116,118,-1,-1,-1,-1,-1,-1,-1,-1,-1,-1,-1,-1,-1,-1,-1,-1,-1,-1,-1,-1,-1,-1,-1,-1,-1,-1,-1,-1,-1,-1,-1,-1,-1,-1,-1,-1,-1,-1,-1,-1,-1,-1,-1,-1,-1,-1,-1,-1,-1,-1,-1,-1,-1,-1,-1,-1,-1],"split_conditions":[3.1780539E0,1.5475625E0,9.615385E-2,1.0647107E0,1.1131417E-1,4.2738843E0,4.7388268E0,9.91453E-2,1.092E0,2.533697E0,2E0,4E0,4.812E1,2E0,1.0897436E-1,5.3062826E-1,5.3062826E-1,1.2208171E-1,1.9642857E-1,2E0,6.5E0,3E0,2.442347E0,4.7058824E-1,9.836066E-1,8E0,4.863E1,3E0,1.598513E-1,5.294118E-1,5E1,3.3783782E-2,1.1111111E-1,7.499E1,4.81E1,6.382979E-2,3E0,6.3E1,2E1,2.2222222E-1,4.375E-1,1.0662824E-1,9E0,1.3574661E-2,1.8571071E-1,6.25E1,5.774E1,1.8E1,1.4001414E-2,3.7400477E0,1.0714286E-1,8.8235295E-1,4.330401E-3,4.515E1,3.1578946E-1,1.22789785E-1,3.5779479E0,3.75E1,1.02E1,1.8410759E-2,9E0,5.1161957E0,-2.1188114E-2,1.3172126E-3,1.6834253E-2,6.7349463E-3,-2.0112281E-3,1.4009651E-2,2.1801215E-2,6.351244E-3,1.2141218E-2,1.5269184E-3,5.21207E-3,8.743349E-3,3.578606E-3,2.6358997E-3,-2.3500958E-2,-9.4093615E-3,-2.6606804E-2,-1.5304917E-4,-6.4638453E-3,1.222974E-3,-6.883402E-3,-1.2941738E-2,-4.7632186E-3,-5.295467E-3,9.70499E-3,-2.3153208E-2,2.2460285E-3,5.2265385E-3,1.1453422E-2,3.916217E-3,1.6709589E-4,-1.0829039E-3,-9.783163E-3,-1.8837221E-2,-8.455175E-3,-8.783297E-3,-1.694952E-2,-6.4494065E-3,2.3315288E-2,-2.228844E-2,-2.5328157E-2,2.2333056E-2,2.7076362E-3,-2.5030576E-2,-3.370265E-3,-1.4950569E-2,-1.1502577E-3,-5.0654486E-3,9.192226E-3,-4.563815E-3,-1.8984254E-2,-5.818999E-3,-1.7211378E-2,-2.2013597E-2,1.1243467E-2,-1.2363769E-2,2.2753883E-2],"split_indices":[25,25,30,25,30,25,25,30,50,25,22,18,3,22,28,25,25,30,32,22,46,18,25,29,53,22,3,18,29,26,13,31,26,11,13,42,22,9,40,26,26,28,17,28,47,7,3,16,0,25,43,26,0,11,29,30,25,11,46,0,18,25,0,0,0,0,0,0,0,0,0,0,0,0,0,0,0,0,0,0,0,0,0,0,0,0,0,0,0,0,0,0,0,0,0,0,0,0,0,0,0,0,0,0,0,0,0,0,0,0,0,0,0,0,0,0,0,0,0],"split_type":[0,0,0,0,0,0,0,0,0,0,0,0,0,0,0,0,0,0,0,0,0,0,0,0,0,0,0,0,0,0,0,0,0,0,0,0,0,0,0,0,0,0,0,0,0,0,0,0,0,0,0,0,0,0,0,0,0,0,0,0,0,0,0,0,0,0,0,0,0,0,0,0,0,0,0,0,0,0,0,0,0,0,0,0,0,0,0,0,0,0,0,0,0,0,0,0,0,0,0,0,0,0,0,0,0,0,0,0,0,0,0,0,0,0,0,0,0,0,0],"sum_hessian":[1.8895018E4,1.5011493E4,3.8835234E3,6.7869624E3,8.224531E3,2.038082E3,1.8454414E3,2.766189E3,4.0207732E3,2.8785376E3,5.3459937E3,1.00794293E3,1.0301392E3,1.5416407E3,3.0380066E2,8.7847125E2,1.8877178E3,3.8808657E3,1.3990744E2,1.9737014E3,9.048361E2,2.0837449E3,3.2622488E3,5.6251215E2,4.454308E2,9.53362E2,7.677714E1,5.9694525E2,9.446955E2,2.622145E2,4.1586143E1,1.0005323E2,7.78418E2,2.7729477E2,1.610423E3,1.8739292E3,2.0069366E3,1.2553332E2,1.4374124E1,9.1687335E2,1.056828E3,5.541754E2,3.5066074E2,9.8629865E2,1.0974463E3,2.2757583E3,9.864906E2,5.571429E2,5.369271E0,4.271926E2,1.8238165E1,9.487213E2,4.6406655E0,1.337036E1,6.3406773E1,3.096702E2,2.872751E2,2.1775594E2,7.269396E2,4.273656E0,2.5794086E2,3.264617E1,8.939971E0,6.149052E0,9.3904175E1,6.28666E2,1.4975204E2,1.5682736E2,1.204674E2,1.8933928E2,1.4210837E3,5.5441327E2,1.319516E3,1.4286832E3,5.782534E2,1.1957802E2,5.9552984E0,3.0369298E0,1.13371935E1,3.393598E2,5.7751355E2,9.5653357E2,1.0029448E2,4.4417538E2,1.1000001E2,3.052569E2,4.5403835E1,1.0186181E1,9.761124E2,7.463132E2,3.511331E2,1.2702612E3,1.005497E3,8.218778E2,1.6461284E2,5.029733E2,5.416961E1,2.553215E2,1.7187111E2,1.0484488E1,7.7536783E0,4.831538E2,4.6556754E2,8.44524E0,4.9251204E0,5.3863842E1,9.542931E0,1.4248785E2,1.6718233E2,7.461557E1,2.1265953E2,5.3234764E1,1.6452116E2,6.61286E2,6.565357E1,2.5386385E2,4.0770154E0,4.9041386E0,2.7742033E1],"tree_param":{"num_deleted":"0","num_feature":"55","num_nodes":"119","size_leaf_vector":"1"}},{"base_weights":[-2.719344E-3,1.0901415E-1,-4.372367E-1,2.1355362E-1,-8.460381E-3,-5.8669406E-1,-2.1944962E-1,3.0699113E-1,1.456466E-1,-1.0481576E-1,6.1142933E-2,-4.444711E-1,-7.548891E-1,2.0678758E-3,-3.3471832E-1,5.3150785E-1,2.7891678E-1,2.438332E-1,1.1715976E-1,-4.993746E-2,-2.3854594E-1,1.6656315E-1,7.490764E-3,-4.8397386E-1,-1.7760167E-1,-5.16433E-1,-7.6924324E-1,6.914935E-2,-7.714836E-1,-3.8712913E-1,5.643985E-3,5.602274E-1,1.1311722E-1,3.8886726E-1,2.362773E-1,3.5964528E-1,1.6355558E-1,6.754144E-2,1.6533528E-1,3.024913E-1,-7.568581E-2,-2.652826E-1,3.1636217E-1,2.3461496E-2,2.4601446E-1,7.441882E-2,-5.8902808E-2,-5.6834096E-1,-3.7215978E-1,-2.1775132E-2,-5.0660044E-1,-7.449417E-1,-3.8157843E-2,-6.6567326E-1,-8.0181605E-1,-1.9093208E-1,2.1848768E-1,-6.953937E-3,-2.4501646E-2,-3.0977836E-1,-7.354541E-1,-7.099162E-1,1.4447714E-1,7.4726655E-3,1.7901618E-2,-5.1867254E-3,2.0270722E-2,-6.0350276E-3,1.2017886E-2,5.7852627E-3,1.0584807E-2,8.00257E-3,1.8500134E-2,6.9950265E-3,-1.5075384E-3,2.5750834E-3,-5.0888243E-3,7.7268896E-3,3.076959E-3,1.6894866E-2,-1.07015105E-4,-6.506028E-3,-1.2243147E-3,-8.294725E-3,1.6480757E-2,1.3268525E-2,-1.6788768E-2,1.7242441E-2,-2.3005657E-4,3.12284E-3,9.362055E-3,5.1600155E-3,8.829206E-4,1.2709116E-2,-2.1057855E-3,5.703567E-3,-1.742604E-2,-1.1967905E-2,1.4333692E-3,-1.3235507E-2,4.33873E-3,1.5459103E-2,-1.95352E-2,-2.3362268E-2,-7.12783E-3,-2.0884916E-2,8.438342E-3,-1.4145483E-2,-2.3074117E-2,-2.4247337E-2,-2.2578086E-3,-1.1179597E-2,9.327967E-3,8.099882E-3,-2.197914E-2,8.098042E-3,-1.003744E-2,-2.302863E-2,1.1946521E-2,-2.3369428E-2,-1.0195262E-2,1.8949455E-2,-1.119475E-3],"categories":[],"categories_nodes":[],"categories_segments":[],"categories_sizes":[],"default_left":[0,0,0,0,0,0,0,0,0,0,0,0,0,0,0,0,0,0,0,0,0,0,0,0,0,0,0,0,0,0,0,0,0,0,0,0,0,0,0,0,0,0,0,0,0,0,0,0,0,0,0,0,0,0,0,0,0,0,0,0,0,0,0,0,0,0,0,0,0,0,0,0,0,0,0,0,0,0,0,0,0,0,0,0,0,0,0,0,0,0,0,0,0,0,0,0,0,0,0,0,0,0,0,0,0,0,0,0,0,0,0,0,0,0,0,0,0,0,0,0,0,0,0],"id":9,"left_children":[1,3,5,7,9,11,13,15,17,19,21,23,25,27,29,31,33,35,37,39,41,43,45,47,49,51,53,55,57,59,61,63,65,67,69,71,73,75,77,79,81,83,85,87,89,91,93,95,97,99,101,103,105,107,109,111,113,-1,-1,115,117,119,121,-1,-1,-1,-1,-1,-1,-1,-1,-1,-1,-1,-1,-1,-1,-1,-1,-1,-1,-1,-1,-1,-1,-1,-1,-1,-1,-1,-1,-1,-1,-1,-1,-1,-1,-1,-1,-1,-1,-1,-1,-1,-1,-1,-1,-1,-1,-1,-1,-1,-1,-1,-1,-1,-1,-1,-1,-1,-1,-1,-1],"loss_changes":[8.9752185E2,1.8059204E2,1.2295343E2,4.9326202E1,4.6451115E1,5.3292297E1,3.9335564E1,2.048819E1,1.25804825E1,2.1306038E1,2.2743744E1,1.274527E1,3.1135864E0,2.7464367E1,1.8077126E1,4.295845E0,1.35611725E1,9.35783E0,8.346024E0,1.8724157E1,1.26195755E1,1.5414696E1,1.1851386E1,9.784409E0,8.115502E0,6.6689663E0,2.7232056E0,1.8957134E1,8.418293E-1,2.342978E1,1.3632255E1,3.7031174E0,4.0678883E0,5.7016144E0,1.0567802E1,9.715866E0,8.942354E0,7.4947963E0,1.0238762E1,1.1212389E1,9.451429E0,7.516979E0,4.582003E0,8.332914E0,8.141865E0,5.8255024E0,7.3241773E0,5.8305817E0,5.1744614E0,7.643752E0,7.8559303E0,5.251751E-1,4.581777E0,4.3956985E0,3.3467102E0,1.6365084E1,1.5376912E1,0E0,0E0,1.04461975E1,6.097557E0,3.052168E-1,1.0198885E1,0E0,0E0,0E0,0E0,0E0,0E0,0E0,0E0,0E0,0E0,0E0,0E0,0E0,0E0,0E0,0E0,0E0,0E0,0E0,0E0,0E0,0E0,0E0,0E0,0E0,0E0,0E0,0E0,0E0,0E0,0E0,0E0,0E0,0E0,0E0,0E0,0E0,0E0,0E0,0E0,0E0,0E0,0E0,0E0,0E0,0E0,0E0,0E0,0E0,0E0,0E0,0E0,0E0,0E0,0E0,0E0,0E0,0E0,0E0,0E0],"parents":[2147483647,0,0,1,1,2,2,3,3,4,4,5,5,6,6,7,7,8,8,9,9,10,10,11,11,12,12,13,13,14,14,15,15,16,16,17,17,18,18,19,19,20,20,21,21,22,22,23,23,24,24,25,25,26,26,27,27,28,28,29,29,30,30,31,31,32,32,33,33,34,34,35,35,36,36,37,37,38,38,39,39,40,40,41,41,42,42,43,43,44,44,45,45,46,46,47,47,48,48,49,49,50,50,51,51,52,52,53,53,54,54,55,55,56,56,59,59,60,60,61,61,62,62],"right_children":[2,4,6,8,10,12,14,16,18,20,22,24,26,28,30,32,34,36,38,40,42,44,46,48,50,52,54,56,58,60,62,64,66,68,70,72,74,76,78,80,82,84,86,88,90,92,94,96,98,100,102,104,106,108,110,112,114,-1,-1,116,118,120,122,-1,-1,-1,-1,-1,-1,-1,-1,-1,-1,-1,-1,-1,-1,-1,-1,-1,-1,-1,-1,-1,-1,-1,-1,-1,-1,-1,-1,-1,-1,-1,-1,-1,-1,-1,-1,-1,-1,-1,-1,-1,-1,-1,-1,-1,-1,-1,-1,-1,-1,-1,-1,-1,-1,-1,-1,-1,-1,-1,-1],"split_conditions":[3.1780539E0,1.686399E0,4.05E-1,1.1314021E0,2.8285715E-1,4.314818E0,2E0,5.3062826E-1,4.921E1,2.6173959E0,2E0,5.091E1,9.708738E-3,5.207298E0,1.1333334E-1,6.734E1,2.025E-1,2E0,5.255E1,4.849E1,2E-1,5.263158E-2,2.2300143E0,4E0,2.49789E1,1E0,4.6756287E0,3E0,-1.8E0,4.6756287E0,2.221E1,3.433E1,8.773E1,8E0,5.544E1,2.804878E-1,4.251E-1,9E0,5.2E0,5.970149E-2,1.3E3,2.24E1,7E0,3.017E1,3E0,5.7971016E-2,3.644E1,3.677E1,5.338E1,3.45E0,4.6648E-2,5.506E1,8.9918256E-2,3.797468E-2,8E0,6.41E1,1.156E1,-6.953937E-3,-2.4501646E-2,-1.2E0,9E0,5.169E1,1.1666667E-1,7.4726655E-3,1.7901618E-2,-5.1867254E-3,2.0270722E-2,-6.0350276E-3,1.2017886E-2,5.7852627E-3,1.0584807E-2,8.00257E-3,1.8500134E-2,6.9950265E-3,-1.5075384E-3,2.5750834E-3,-5.0888243E-3,7.7268896E-3,3.076959E-3,1.6894866E-2,-1.07015105E-4,-6.506028E-3,-1.2243147E-3,-8.294725E-3,1.6480757E-2,1.3268525E-2,-1.6788768E-2,1.7242441E-2,-2.3005657E-4,3.12284E-3,9.362055E-3,5.1600155E-3,8.829206E-4,1.2709116E-2,-2.1057855E-3,5.703567E-3,-1.742604E-2,-1.1967905E-2,1.4333692E-3,-1.3235507E-2,4.33873E-3,1.5459103E-2,-1.95352E-2,-2.3362268E-2,-7.12783E-3,-2.0884916E-2,8.438342E-3,-1.4145483E-2,-2.3074117E-2,-2.4247337E-2,-2.2578086E-3,-1.1179597E-2,9.327967E-3,8.099882E-3,-2.197914E-2,8.098042E-3,-1.003744E-2,-2.302863E-2,1.1946521E-2,-2.3369428E-2,-1.0195262E-2,1.8949455E-2,-1.119475E-3],"split_indices":[25,25,39,25,39,25,22,25,10,25,22,10,28,25,28,10,49,22,10,10,43,42,25,18,45,24,25,18,37,25,3,3,11,16,1,29,49,41,46,42,23,46,21,1,18,28,10,10,13,46,47,13,29,31,22,11,46,0,0,37,18,13,28,0,0,0,0,0,0,0,0,0,0,0,0,0,0,0,0,0,0,0,0,0,0,0,0,0,0,0,0,0,0,0,0,0,0,0,0,0,0,0,0,0,0,0,0,0,0,0,0,0,0,0,0,0,0,0,0,0,0,0,0],"split_type":[0,0,0,0,0,0,0,0,0,0,0,0,0,0,0,0,0,0,0,0,0,0,0,0,0,0,0,0,0,0,0,0,0,0,0,0,0,0,0,0,0,0,0,0,0,0,0,0,0,0,0,0,0,0,0,0,0,0,0,0,0,0,0,0,0,0,0,0,0,0,0,0,0,0,0,0,0,0,0,0,0,0,0,0,0,0,0,0,0,0,0,0,0,0,0,0,0,0,0,0,0,0,0,0,0,0,0,0,0,0,0,0,0,0,0,0,0,0,0,0,0,0,0],"sum_hessian":[1.8484512E4,1.4704172E4,3.7803394E3,7.780003E3,6.924169E3,2.240851E3,1.5394882E3,3.2729822E3,4.507021E3,2.9037942E3,4.0203748E3,1.2161427E3,1.0247084E3,5.272425E2,1.01224567E3,3.617842E2,2.911198E3,1.0118571E3,3.4951638E3,2.0598682E3,8.439261E2,1.355288E3,2.6650867E3,1.0586279E3,1.5751472E2,6.0280888E1,9.644275E2,4.8600714E2,4.123536E1,8.770547E2,1.3519101E2,3.3822824E2,2.355596E1,8.112313E2,2.0999666E3,4.1282187E2,5.990352E2,1.7229823E3,1.7721815E3,1.3951523E2,1.9203529E3,8.05631E2,3.8295086E1,4.842996E2,8.709884E2,1.327141E3,1.3379457E3,6.0104126E2,4.575867E2,1.076118E2,4.9902924E1,4.041431E1,1.9866577E1,2.3587253E2,7.28555E2,1.7717244E2,3.088347E2,3.6627681E0,3.7572594E1,7.192285E2,1.5782613E2,2.1299221E1,1.13891785E2,3.6327606E1,3.0190063E2,1.6075817E1,7.4801435E0,1.54968605E1,7.9573444E2,1.5317684E3,5.6819824E2,3.047269E2,1.0809495E2,4.5183475E2,1.472005E2,1.6001857E3,1.2279662E2,7.1643005E2,1.0557515E3,7.489062E1,6.46246E1,3.793708E2,1.5409822E3,7.953488E2,1.0282198E1,3.391496E1,4.3801246E0,2.4952332E1,4.5934726E2,2.7745062E2,5.935378E2,4.1789053E2,9.092504E2,2.9753395E1,1.3081923E3,9.535386E0,5.9150586E2,4.3021146E2,2.7375246E1,3.00982E1,7.75136E1,5.8671384E0,4.4035786E1,3.738848E1,3.0258288E0,6.107135E0,1.3759442E1,8.392983E1,1.5194269E2,7.2205383E2,6.501151E0,1.3026277E2,4.6909676E1,2.9364822E2,1.5186452E1,2.9104073E1,6.9012445E2,1.5378549E2,4.0406456E0,1.7018269E1,4.2809534E0,3.0277956E1,8.361383E1],"tree_param":{"num_deleted":"0","num_feature":"55","num_nodes":"123","size_leaf_vector":"1"}},{"base_weights":[5.906446E-3,1.4368445E-1,-3.3895603E-1,3.258511E-1,9.636928E-2,-2.1345548E-1,-5.872018E-1,1.7354468E-1,3.9948708E-1,4.8924065E-3,1.4765553E-1,-3.7439683E-1,-8.97889E-2,-7.0756274E-1,-3.9343828E-1,5.24537E-1,1.2536237E-1,4.0576485E-1,-2.4819213E-1,7.038717E-2,-1.3935836E-1,1.8737109E-1,9.3494564E-2,-2.7285758E-1,-4.898012E-1,6.513656E-2,-1.3467069E-1,-6.407045E-1,-7.937024E-1,-4.5116043E-1,2.3492476E-1,5.5245703E-1,9.077771E-5,-1.7238812E-1,1.5599968E-1,4.230429E-1,1.6374607E-1,2.0261045E-1,-2.4502905E-2,9.10901E-3,1.5653653E-1,-4.372143E-1,-1.0644217E-1,2.4285801E-1,1.2008149E-1,-1.1580848E-1,1.10626325E-1,-2.9432198E-1,1.8559411E-1,-5.6147826E-1,-2.553977E-1,-1.0814911E-1,1.964845E-1,-1.07397534E-1,-3.8727027E-1,-2.2276576E-1,-6.661668E-1,-8.1541514E-1,-5.2746326E-1,-3.1210518E-1,-6.5371644E-1,6.458565E-1,-5.147118E-1,1.7929552E-2,1.1345106E-2,6.139417E-4,-1.986392E-2,6.3184295E-3,-1.7779488E-3,1.6710991E-2,1.2000139E-2,-2.5340237E-2,6.4107273E-3,-1.1109086E-2,2.1424985E-2,-1.1397869E-4,1.4985429E-2,1.9270208E-2,4.029133E-3,-3.9484305E-3,-1.6062178E-2,-3.9709313E-3,4.700917E-3,7.5877653E-3,-1.5919304E-2,7.4154674E-3,1.932036E-3,6.1625796E-3,-7.017698E-3,2.4675867E-3,7.4894927E-3,-9.252469E-3,1.1689916E-2,1.7375343E-2,-8.3415825E-3,-1.7315127E-2,4.887561E-3,-1.1199707E-2,4.1074017E-3,-9.42441E-3,3.5525835E-3,1.5302458E-2,2.7702586E-3,-2.5187049E-3,-1.1255819E-2,-1.8076155E-2,-1.8812363E-3,-1.4704706E-2,1.1785307E-2,-1.7305179E-2,-2.2070535E-2,-2.5412207E-2,-2.2813916E-2,-2.1610701E-2,3.0656403E-3,-1.0983353E-2,8.361676E-3,-2.09301E-2,4.045742E-3,-1.98389E-2,2.4594843E-2,-2.3249133E-2,8.988261E-3],"categories":[],"categories_nodes":[],"categories_segments":[],"categories_sizes":[],"default_left":[0,0,0,0,0,0,0,0,0,0,0,0,0,0,0,0,0,0,0,0,0,0,0,0,0,0,0,0,0,0,0,0,0,0,0,0,0,0,0,0,0,0,0,0,0,0,0,0,0,0,0,0,0,0,0,0,0,0,0,0,0,0,0,0,0,0,0,0,0,0,0,0,0,0,0,0,0,0,0,0,0,0,0,0,0,0,0,0,0,0,0,0,0,0,0,0,0,0,0,0,0,0,0,0,0,0,0,0,0,0,0,0,0,0,0,0,0,0,0,0,0,0,0],"id":10,"left_children":[1,3,5,7,9,11,13,15,17,19,21,23,25,27,29,31,33,35,37,39,41,43,45,47,49,51,53,55,57,59,61,63,-1,65,67,69,71,73,-1,75,77,79,81,83,85,87,89,91,93,95,97,99,101,103,105,107,109,111,113,115,117,119,121,-1,-1,-1,-1,-1,-1,-1,-1,-1,-1,-1,-1,-1,-1,-1,-1,-1,-1,-1,-1,-1,-1,-1,-1,-1,-1,-1,-1,-1,-1,-1,-1,-1,-1,-1,-1,-1,-1,-1,-1,-1,-1,-1,-1,-1,-1,-1,-1,-1,-1,-1,-1,-1,-1,-1,-1,-1,-1,-1,-1],"loss_changes":[8.673581E2,1.1239365E2,1.6222626E2,3.0087524E1,4.8582474E1,6.88873E1,4.0517212E1,1.4784393E1,7.46756E0,3.5166195E1,1.4255463E1,1.7494293E1,1.3633772E1,5.6984863E0,2.449813E1,1.5370522E0,7.0822964E0,7.4358826E0,4.7825384E0,1.3512313E1,1.1348991E1,1.4260483E1,1.0085764E1,7.9515266E0,1.1665253E1,1.005476E1,1.042767E1,6.3640594E0,2.268219E0,1.7154129E1,1.7964376E1,5.6404686E-1,0E0,6.8735824E0,8.2631855E0,4.9464417E0,6.28615E0,3.4438868E0,0E0,9.477865E0,1.140481E1,3.3906574E0,7.169033E0,1.6460846E1,1.2238836E1,8.130682E0,1.0224119E1,7.513893E0,6.822669E0,6.2032166E0,7.7504587E0,8.938349E0,8.153897E0,8.587035E0,1.0282089E1,6.224684E0,3.1545868E0,1.0345459E-1,4.6924353E0,1.182291E1,8.757286E0,9.050462E0,4.6453E0,0E0,0E0,0E0,0E0,0E0,0E0,0E0,0E0,0E0,0E0,0E0,0E0,0E0,0E0,0E0,0E0,0E0,0E0,0E0,0E0,0E0,0E0,0E0,0E0,0E0,0E0,0E0,0E0,0E0,0E0,0E0,0E0,0E0,0E0,0E0,0E0,0E0,0E0,0E0,0E0,0E0,0E0,0E0,0E0,0E0,0E0,0E0,0E0,0E0,0E0,0E0,0E0,0E0,0E0,0E0,0E0,0E0,0E0,0E0,0E0],"parents":[2147483647,0,0,1,1,2,2,3,3,4,4,5,5,6,6,7,7,8,8,9,9,10,10,11,11,12,12,13,13,14,14,15,15,16,16,17,17,18,18,19,19,20,20,21,21,22,22,23,23,24,24,25,25,26,26,27,27,28,28,29,29,30,30,31,31,33,33,34,34,35,35,36,36,37,37,39,39,40,40,41,41,42,42,43,43,44,44,45,45,46,46,47,47,48,48,49,49,50,50,51,51,52,52,53,53,54,54,55,55,56,56,57,57,58,58,59,59,60,60,61,61,62,62],"right_children":[2,4,6,8,10,12,14,16,18,20,22,24,26,28,30,32,34,36,38,40,42,44,46,48,50,52,54,56,58,60,62,64,-1,66,68,70,72,74,-1,76,78,80,82,84,86,88,90,92,94,96,98,100,102,104,106,108,110,112,114,116,118,120,122,-1,-1,-1,-1,-1,-1,-1,-1,-1,-1,-1,-1,-1,-1,-1,-1,-1,-1,-1,-1,-1,-1,-1,-1,-1,-1,-1,-1,-1,-1,-1,-1,-1,-1,-1,-1,-1,-1,-1,-1,-1,-1,-1,-1,-1,-1,-1,-1,-1,-1,-1,-1,-1,-1,-1,-1,-1,-1,-1,-1],"split_conditions":[2.6741486E0,1.0647107E0,4.0976725E0,1.0429448E-1,1.154859E-1,1.1131417E-1,9.615385E-2,5.3062826E-1,2.25E0,2.014903E0,2.3076923E-1,3.3068867E0,-3.3333334E-1,8.8235295E-1,8.076E1,1.746E1,4.783E1,1.6666667E-1,4.567E1,6E0,1.1E1,5.2E0,2.632E1,2E-1,8.4E0,6.2015504E-2,8.55E0,3.45E1,2.9545453E-1,4.7388268E0,4.923077E-1,1.9205298E-1,9.077771E-5,3.2876712E-1,1.1111111E-1,5.3062826E-1,9.803922E-3,6.005E1,-2.4502905E-2,6.722E1,1.0986123E0,1.5542522E-1,4.2E1,1.81E2,6.306306E-2,3E0,1.4030363E-1,2.275E1,3.2178217E-1,2.3076923E-1,5.972222E-1,2.63E1,3.993E1,1.05E2,5E1,8.666667E-1,1.6E1,6.896552E-2,8.791209E-2,1.092E0,6.3E1,4.6549125E0,1.6666667E-1,1.7929552E-2,1.1345106E-2,6.139417E-4,-1.986392E-2,6.3184295E-3,-1.7779488E-3,1.6710991E-2,1.2000139E-2,-2.5340237E-2,6.4107273E-3,-1.1109086E-2,2.1424985E-2,-1.1397869E-4,1.4985429E-2,1.9270208E-2,4.029133E-3,-3.9484305E-3,-1.6062178E-2,-3.9709313E-3,4.700917E-3,7.5877653E-3,-1.5919304E-2,7.4154674E-3,1.932036E-3,6.1625796E-3,-7.017698E-3,2.4675867E-3,7.4894927E-3,-9.252469E-3,1.1689916E-2,1.7375343E-2,-8.3415825E-3,-1.7315127E-2,4.887561E-3,-1.1199707E-2,4.1074017E-3,-9.42441E-3,3.5525835E-3,1.5302458E-2,2.7702586E-3,-2.5187049E-3,-1.1255819E-2,-1.8076155E-2,-1.8812363E-3,-1.4704706E-2,1.1785307E-2,-1.7305179E-2,-2.2070535E-2,-2.5412207E-2,-2.2813916E-2,-2.1610701E-2,3.0656403E-3,-1.0983353E-2,8.361676E-3,-2.09301E-2,4.045742E-3,-1.98389E-2,2.4594843E-2,-2.3249133E-2,8.988261E-3],"split_indices":[25,25,25,30,30,30,30,25,37,25,26,25,37,26,11,46,13,26,8,46,16,46,12,43,46,31,46,11,29,25,54,31,0,29,26,25,32,3,0,1,25,29,40,40,28,48,30,46,29,42,53,3,8,40,13,26,16,32,31,50,9,25,28,0,0,0,0,0,0,0,0,0,0,0,0,0,0,0,0,0,0,0,0,0,0,0,0,0,0,0,0,0,0,0,0,0,0,0,0,0,0,0,0,0,0,0,0,0,0,0,0,0,0,0,0,0,0,0,0,0,0,0,0],"split_type":[0,0,0,0,0,0,0,0,0,0,0,0,0,0,0,0,0,0,0,0,0,0,0,0,0,0,0,0,0,0,0,0,0,0,0,0,0,0,0,0,0,0,0,0,0,0,0,0,0,0,0,0,0,0,0,0,0,0,0,0,0,0,0,0,0,0,0,0,0,0,0,0,0,0,0,0,0,0,0,0,0,0,0,0,0,0,0,0,0,0,0,0,0,0,0,0,0,0,0,0,0,0,0,0,0,0,0,0,0,0,0,0,0,0,0,0,0,0,0,0,0,0,0],"sum_hessian":[1.8252586E4,1.3042489E4,5.2100967E3,2.687921E3,1.0354568E4,3.4618298E3,1.748267E3,8.7710333E2,1.8108175E3,3.7201704E3,6.634398E3,1.503338E3,1.9584917E3,1.0767596E3,6.7150726E2,1.0467725E2,7.724261E2,1.7938042E3,1.7013311E1,2.558869E3,1.1613016E3,3.8262192E3,2.8081785E3,8.014988E2,7.0183923E2,4.398257E2,1.518666E3,6.109794E2,4.657803E2,6.152699E2,5.6237385E1,9.930163E1,5.375622E0,7.1632706E1,7.007934E2,1.6735771E3,1.2022709E2,9.84844E0,7.164872E0,1.4959227E3,1.0629462E3,1.14342514E2,1.0469591E3,2.0955896E3,1.7306298E3,2.120273E2,2.5961511E3,7.6599347E2,3.550527E1,5.3641595E2,1.6542326E2,1.8971446E2,2.5011125E2,1.3719607E3,1.4670534E2,3.564531E1,5.753341E2,4.287514E2,3.70289E1,3.6632657E2,2.4894331E2,3.6414383E1,1.9823E1,7.6924904E1,2.2376722E1,5.2081894E1,1.955081E1,5.589932E2,1.4180016E2,2.4213675E2,1.4314404E3,4.9226766E0,1.1530441E2,4.7758656E0,5.072574E0,1.458524E3,3.739858E1,4.5294846E1,1.0176513E3,2.837426E1,8.5968254E1,9.5352325E2,9.343586E1,2.0693293E3,2.6260342E1,5.261512E2,1.2044785E3,5.680363E1,1.5522368E2,2.1574307E3,4.3872064E2,7.510667E2,1.4926802E1,1.9068813E1,1.6436455E1,5.2524084E2,1.11750765E1,1.2722788E2,3.819539E1,9.91657E1,9.054876E1,6.1380966E1,1.8873029E2,1.262744E3,1.09216736E2,8.768872E1,5.9016617E1,2.4993235E1,1.0652075E1,2.5586089E2,3.194732E2,2.6288376E2,1.6586765E2,2.8235046E1,8.793855E0,3.3599423E2,3.0332336E1,2.3590947E2,1.3033855E1,3.948178E0,3.2466206E1,1.505856E1,4.7644396E0],"tree_param":{"num_deleted":"0","num_feature":"55","num_nodes":"123","size_leaf_vector":"1"}},{"base_weights":[1.6272352E-3,1.4502993E-1,-3.1887528E-1,3.1166923E-1,8.885443E-2,-5.076097E-1,-1.4505926E-1,5.3485465E-1,2.837796E-1,-7.478874E-3,1.4472826E-1,-3.1809208E-1,-6.638652E-1,-8.174653E-2,-3.6859515E-1,-8.5262574E-2,5.622853E-1,2.1644878E-1,3.929E-1,6.0522463E-2,-6.4010456E-2,2.373171E-1,8.406638E-2,-4.4731015E-1,-1.8191503E-1,-5.299775E-1,-7.2768545E-1,5.2359477E-2,-1.6496058E-1,-4.325437E-1,1.3007264E-1,1.4782244E-2,-3.952156E-1,5.874608E-1,1.7671072E-1,1.3418397E-1,3.0548427E-1,4.1412726E-1,1.3100652E-1,9.3395084E-2,-5.455123E-2,-9.8793246E-2,1.1541249E-1,2.9123276E-1,1.5847972E-1,4.8849896E-1,7.8175694E-2,-5.0512904E-1,-2.6955423E-1,-4.0363735E-1,-1.1155536E-1,-6.035822E-1,-2.684567E-1,1.6447524E-2,-7.3536265E-1,-9.919404E-2,2.1063174E-1,-1.0704012E-3,-2.1468002E-1,7.692234E-3,-4.907731E-1,7.0587504E-1,-1.6042784E-1,5.875838E-3,-2.3517376E-2,1.5157261E-2,2.0834208E-2,-1.4632469E-3,1.895063E-2,1.9026047E-2,3.5114177E-3,8.509112E-3,1.8529594E-2,1.4710022E-2,9.834206E-3,-2.4221849E-2,6.2076147E-3,2.458474E-3,1.7559728E-2,-3.1803933E-3,1.5944289E-2,-3.2531503E-3,1.4395714E-2,5.696179E-3,-5.6151827E-3,5.1743975E-3,9.9682715E-3,2.5002677E-3,8.945657E-3,1.7888507E-2,-1.3059038E-2,-3.568209E-3,2.6270826E-3,-1.6014248E-2,-3.6165928E-3,-2.5082966E-3,-1.4785247E-2,-1.3574452E-2,1.6435174E-2,-2.5039706E-3,-2.0915471E-2,-1.8661628E-2,-3.045972E-4,1.3559993E-2,-1.159151E-2,-2.2372022E-2,-6.915795E-3,-1.0332034E-2,1.3688556E-3,1.3940849E-2,2.7739238E-3,1.3811227E-3,-1.6034134E-2,-4.8364843E-3,-1.2034187E-2,1.432824E-2,-1.2759802E-2,-1.571219E-2,4.3196934E-3,1.27751315E-2,2.5140788E-2,4.7529717E-3,-2.399994E-2],"categories":[],"categories_nodes":[],"categories_segments":[],"categories_sizes":[],"default_left":[0,0,0,0,0,0,0,0,0,0,0,0,0,0,0,0,0,0,0,0,0,0,0,0,0,0,0,0,0,0,0,0,0,0,0,0,0,0,0,0,0,0,0,0,0,0,0,0,0,0,0,0,0,0,0,0,0,0,0,0,0,0,0,0,0,0,0,0,0,0,0,0,0,0,0,0,0,0,0,0,0,0,0,0,0,0,0,0,0,0,0,0,0,0,0,0,0,0,0,0,0,0,0,0,0,0,0,0,0,0,0,0,0,0,0,0,0,0,0,0,0,0,0],"id":11,"left_children":[1,3,5,7,9,11,13,15,17,19,21,23,25,27,29,31,33,35,37,39,41,43,45,47,49,51,53,55,57,59,61,-1,63,65,67,69,71,73,75,77,79,81,83,85,87,89,91,93,95,97,99,101,103,-1,105,107,109,111,113,115,117,119,121,-1,-1,-1,-1,-1,-1,-1,-1,-1,-1,-1,-1,-1,-1,-1,-1,-1,-1,-1,-1,-1,-1,-1,-1,-1,-1,-1,-1,-1,-1,-1,-1,-1,-1,-1,-1,-1,-1,-1,-1,-1,-1,-1,-1,-1,-1,-1,-1,-1,-1,-1,-1,-1,-1,-1,-1,-1,-1,-1,-1],"loss_changes":[8.22386E2,1.1569357E2,1.8137598E2,1.9245667E1,4.9771667E1,7.830444E1,4.074048E1,5.9169464E0,2.0283157E1,1.3056307E1,3.285063E1,2.1035873E1,1.2023804E1,2.5075317E1,2.0323486E1,2.9687617E0,3.1047974E0,1.2532448E1,5.819763E0,5.8374634E0,1.1585109E1,9.798279E0,8.389168E0,6.1854935E0,9.096622E0,8.932846E0,1.0010803E1,2.0670067E1,1.1296558E1,1.4450096E1,1.2325294E1,0E0,2.5967026E0,2.3753738E0,2.255984E0,7.586361E0,5.4418335E0,6.265747E0,5.9147944E0,6.706558E0,1.0407005E1,8.724653E0,6.830698E0,6.6405563E0,9.872206E0,5.2971354E0,6.4685555E0,5.041992E0,6.3157682E0,6.790434E0,7.28206E0,4.026657E0,9.144325E0,0E0,4.9349976E0,1.5656525E1,1.2608784E1,8.158124E0,1.0538872E1,1.3799138E1,1.0490906E1,5.559988E-1,1.0188934E1,0E0,0E0,0E0,0E0,0E0,0E0,0E0,0E0,0E0,0E0,0E0,0E0,0E0,0E0,0E0,0E0,0E0,0E0,0E0,0E0,0E0,0E0,0E0,0E0,0E0,0E0,0E0,0E0,0E0,0E0,0E0,0E0,0E0,0E0,0E0,0E0,0E0,0E0,0E0,0E0,0E0,0E0,0E0,0E0,0E0,0E0,0E0,0E0,0E0,0E0,0E0,0E0,0E0,0E0,0E0,0E0,0E0,0E0,0E0,0E0],"parents":[2147483647,0,0,1,1,2,2,3,3,4,4,5,5,6,6,7,7,8,8,9,9,10,10,11,11,12,12,13,13,14,14,15,15,16,16,17,17,18,18,19,19,20,20,21,21,22,22,23,23,24,24,25,25,26,26,27,27,28,28,29,29,30,30,32,32,33,33,34,34,35,35,36,36,37,37,38,38,39,39,40,40,41,41,42,42,43,43,44,44,45,45,46,46,47,47,48,48,49,49,50,50,51,51,52,52,54,54,55,55,56,56,57,57,58,58,59,59,60,60,61,61,62,62],"right_children":[2,4,6,8,10,12,14,16,18,20,22,24,26,28,30,32,34,36,38,40,42,44,46,48,50,52,54,56,58,60,62,-1,64,66,68,70,72,74,76,78,80,82,84,86,88,90,92,94,96,98,100,102,104,-1,106,108,110,112,114,116,118,120,122,-1,-1,-1,-1,-1,-1,-1,-1,-1,-1,-1,-1,-1,-1,-1,-1,-1,-1,-1,-1,-1,-1,-1,-1,-1,-1,-1,-1,-1,-1,-1,-1,-1,-1,-1,-1,-1,-1,-1,-1,-1,-1,-1,-1,-1,-1,-1,-1,-1,-1,-1,-1,-1,-1,-1,-1,-1,-1,-1,-1],"split_conditions":[2.5494452E0,1.1314021E0,1.0803845E-1,5.3062826E-1,1.1666451E-1,3.6296601E0,4.0976725E0,-1.439E1,1.2561756E-1,1.6677068E0,2E0,4E0,4.215086E0,2E0,7.596E1,4.869E1,6.748E1,2E0,1.4523685E-1,1.3793103E-1,5.1E1,2.3076923E-1,5.882353E-2,7.057E1,4.745E1,8.943089E-2,3.12E1,3E0,-3.3333334E-1,6.363636E-1,2E0,1.4782244E-2,3.69E1,1.0662824E-1,1.1057692E-1,3.639E1,3.3333334E-1,2.26665E-1,4.135E1,6.778E1,8.13E1,7E0,1.1485574E-1,1.632E-1,1.3188405E-1,5.234E1,3.926E1,7.8E1,1.1949685E-1,2.373E1,1.6374269E-1,1E0,9.210526E-2,1.6447524E-2,1.513158E-1,1.22789785E-1,-3.3333334E-1,7.869E1,3.5610461E0,4.333E1,6.3E1,1.7E1,1.2765957E-1,5.875838E-3,-2.3517376E-2,1.5157261E-2,2.0834208E-2,-1.4632469E-3,1.895063E-2,1.9026047E-2,3.5114177E-3,8.509112E-3,1.8529594E-2,1.4710022E-2,9.834206E-3,-2.4221849E-2,6.2076147E-3,2.458474E-3,1.7559728E-2,-3.1803933E-3,1.5944289E-2,-3.2531503E-3,1.4395714E-2,5.696179E-3,-5.6151827E-3,5.1743975E-3,9.9682715E-3,2.5002677E-3,8.945657E-3,1.7888507E-2,-1.3059038E-2,-3.568209E-3,2.6270826E-3,-1.6014248E-2,-3.6165928E-3,-2.5082966E-3,-1.4785247E-2,-1.3574452E-2,1.6435174E-2,-2.5039706E-3,-2.0915471E-2,-1.8661628E-2,-3.045972E-4,1.3559993E-2,-1.159151E-2,-2.2372022E-2,-6.915795E-3,-1.0332034E-2,1.3688556E-3,1.3940849E-2,2.7739238E-3,1.3811227E-3,-1.6034134E-2,-4.8364843E-3,-1.2034187E-2,1.432824E-2,-1.2759802E-2,-1.571219E-2,4.3196934E-3,1.27751315E-2,2.5140788E-2,4.7529717E-3,-2.399994E-2],"split_indices":[25,25,30,25,30,25,25,36,30,25,22,18,25,22,11,13,10,22,30,31,5,26,26,11,11,31,14,18,37,26,48,0,10,28,43,11,31,47,4,1,8,22,30,49,30,13,4,6,28,46,32,53,31,0,32,30,37,11,25,1,9,16,43,0,0,0,0,0,0,0,0,0,0,0,0,0,0,0,0,0,0,0,0,0,0,0,0,0,0,0,0,0,0,0,0,0,0,0,0,0,0,0,0,0,0,0,0,0,0,0,0,0,0,0,0,0,0,0,0,0,0,0,0],"split_type":[0,0,0,0,0,0,0,0,0,0,0,0,0,0,0,0,0,0,0,0,0,0,0,0,0,0,0,0,0,0,0,0,0,0,0,0,0,0,0,0,0,0,0,0,0,0,0,0,0,0,0,0,0,0,0,0,0,0,0,0,0,0,0,0,0,0,0,0,0,0,0,0,0,0,0,0,0,0,0,0,0,0,0,0,0,0,0,0,0,0,0,0,0,0,0,0,0,0,0,0,0,0,0,0,0,0,0,0,0,0,0,0,0,0,0,0,0,0,0,0,0,0,0],"sum_hessian":[1.7891146E4,1.2361001E4,5.530145E3,3.1152776E3,9.245724E3,2.6503733E3,2.879772E3,3.4402866E2,2.771249E3,3.394337E3,5.8513867E3,1.19908E3,1.4512933E3,2.245218E3,6.345539E2,1.4484002E1,3.2954465E2,1.715632E3,1.055617E3,1.5408235E3,1.8535135E3,2.3150261E3,3.5363606E3,6.140883E2,5.849917E2,4.7148172E2,9.7981165E2,8.5985864E2,1.3853594E3,5.6254626E2,7.200764E1,4.8499775E0,9.634025E0,3.0885486E2,2.0689806E1,8.930244E2,8.2260754E2,9.759333E2,7.96837E1,1.19861E3,3.422135E2,1.5529158E3,3.005977E2,1.3732129E3,9.4181323E2,4.9592567E1,3.486768E3,4.6197836E2,1.5210995E2,1.3977768E2,4.4521402E2,3.6690793E2,1.0457379E2,5.4390516E0,9.7437256E2,4.3944327E2,4.2041537E2,3.2269183E2,1.0626675E3,6.581657E1,4.967297E2,2.3667103E1,4.8340538E1,4.0188375E0,5.6151876E0,1.7789677E2,1.3095807E2,1.4430753E1,6.2590537E0,2.8398573E1,8.6462585E2,7.705864E2,5.202111E1,5.1584546E2,4.600878E2,5.2425747E0,7.4441124E1,1.1724955E3,2.6114437E1,3.15341E2,2.6872503E1,1.5282551E3,2.4660753E1,2.4153362E2,5.9064064E1,3.5404092E2,1.019172E3,6.134743E2,3.283389E2,4.4728405E1,4.8641634E0,1.5807587E2,3.3286921E3,4.295567E2,3.2421665E1,8.374504E1,6.8364914E1,1.3345134E2,6.326331E0,4.259269E2,1.928711E1,3.557849E2,1.1123004E1,1.4310871E1,9.0262924E1,9.5429034E2,2.0082241E1,1.626587E2,2.7678458E2,1.3253323E2,2.8788214E2,2.9734518E2,2.534665E1,8.2731476E2,2.3535274E2,3.1514162E1,3.4302402E1,4.7237183E2,2.4357885E1,8.941599E0,1.4725503E1,3.276013E1,1.5580408E1],"tree_param":{"num_deleted":"0","num_feature":"55","num_nodes":"123","size_leaf_vector":"1"}},{"base_weights":[-4.3385255E-4,1.3353482E-1,-2.8484994E-1,2.0000389E-1,4.3104164E-2,-4.6963337E-1,-1.3220064E-1,1.16726086E-1,2.5228584E-1,-6.6106975E-2,1.0689684E-1,-3.594827E-1,-6.632872E-1,-3.18885E-2,-3.0182973E-1,8.6013496E-2,2.609846E-1,3.238349E-1,1.9684677E-1,-1.4064649E-1,9.1396095E-3,1.9754502E-1,3.7903816E-2,-4.6798187E-1,-2.295633E-1,-5.8858913E-1,-7.656024E-1,3.0919382E-1,-4.8558004E-2,-3.9483196E-1,-5.8201328E-2,-6.1497957E-1,9.0751454E-2,3.7718838E-1,1.4146437E-1,3.3629617E-1,-9.3944175E-3,2.0132285E-2,2.1960905E-1,-1.804271E-1,1.2929225E-1,2.5708152E-2,-3.0008462E-1,1.8735807E-1,2.2841662E-2,4.307526E-1,2.6127068E-2,-3.719069E-1,-5.4244936E-1,-1.8115735E-1,-5.3770953E-1,-3.455458E-1,-6.2155104E-1,-7.7655786E-1,6.080387E-3,4.3184358E-1,-2.1803606E-2,-2.0457718E-1,-1.7960688E-2,1.1979643E-1,-4.2320386E-1,-2.8091165E-1,1.3764538E-1,-2.676975E-2,1.07428795E-2,1.6209682E-3,5.5472963E-3,-1.125621E-2,1.18415E-2,-2.467881E-3,7.53247E-3,7.1144323E-3,1.11557515E-2,-2.231674E-2,5.120213E-3,-1.9916801E-3,8.98044E-3,5.3496417E-3,9.121788E-3,-1.6585182E-3,-8.101716E-3,-3.9290874E-3,8.670764E-3,1.0774636E-3,-1.714889E-2,-1.5794767E-2,-7.2334684E-4,-2.125306E-2,5.8041215E-3,-1.0373888E-2,1.6782233E-2,-9.169517E-3,1.1519801E-3,-1.8455992E-2,-9.510444E-3,-1.532236E-2,-2.2143854E-2,-7.5887917E-3,3.0971733E-3,-1.7486675E-2,5.5919434E-3,-1.7573277E-2,7.2394926E-3,-1.9768253E-2,-1.0412203E-2,-2.4096219E-2,-1.4214879E-2,1.6058167E-2,-4.9018897E-3,1.2104291E-2,-7.12324E-3,-3.2893391E-3,1.9574228E-3,1.6400604E-2,-7.774473E-3,-1.7476257E-2,-1.0569496E-2,-2.112929E-2,-4.1341283E-3,1.9148325E-3,2.2861257E-2],"categories":[],"categories_nodes":[],"categories_segments":[],"categories_sizes":[],"default_left":[0,0,0,0,0,0,0,0,0,0,0,0,0,0,0,0,0,0,0,0,0,0,0,0,0,0,0,0,0,0,0,0,0,0,0,0,0,0,0,0,0,0,0,0,0,0,0,0,0,0,0,0,0,0,0,0,0,0,0,0,0,0,0,0,0,0,0,0,0,0,0,0,0,0,0,0,0,0,0,0,0,0,0,0,0,0,0,0,0,0,0,0,0,0,0,0,0,0,0,0,0,0,0,0,0,0,0,0,0,0,0,0,0,0,0,0,0,0,0,0,0],"id":12,"left_children":[1,3,5,7,9,11,13,15,17,19,21,23,25,27,29,31,33,35,37,39,41,43,45,47,49,51,53,55,57,59,61,63,65,67,69,71,73,75,77,79,81,83,85,87,-1,89,91,93,95,97,99,101,103,105,-1,107,-1,109,111,113,115,117,119,-1,-1,-1,-1,-1,-1,-1,-1,-1,-1,-1,-1,-1,-1,-1,-1,-1,-1,-1,-1,-1,-1,-1,-1,-1,-1,-1,-1,-1,-1,-1,-1,-1,-1,-1,-1,-1,-1,-1,-1,-1,-1,-1,-1,-1,-1,-1,-1,-1,-1,-1,-1,-1,-1,-1,-1,-1,-1],"loss_changes":[6.737067E2,7.223959E1,1.5963553E2,3.0131775E1,3.5491318E1,5.4387085E1,5.2769886E1,1.1822945E1,1.6813385E1,1.0538585E1,2.0103115E1,2.2933228E1,6.6364746E0,1.1103535E1,2.609098E1,7.3817806E0,6.457651E0,7.7099915E0,9.648727E0,1.0158613E1,4.8024516E0,7.8382034E0,8.441919E0,6.163788E0,1.10271E1,4.1137695E0,4.2731476E0,1.1877617E1,8.8767185E0,1.2227081E1,1.3978082E1,4.35074E0,7.5681E0,3.2749863E0,5.727552E0,6.2200165E0,9.104161E0,6.6620708E0,7.3582535E0,9.216679E0,5.101813E0,5.4420376E0,2.9660063E0,7.6175537E0,0E0,5.499959E0,7.238999E0,5.0358315E0,2.7190094E0,1.3218908E1,3.404457E0,9.555967E0,4.6414185E0,2.7161713E0,0E0,5.1358795E0,0E0,6.1888075E0,1.1880249E1,7.316591E0,8.724487E0,8.983539E0,7.820094E0,0E0,0E0,0E0,0E0,0E0,0E0,0E0,0E0,0E0,0E0,0E0,0E0,0E0,0E0,0E0,0E0,0E0,0E0,0E0,0E0,0E0,0E0,0E0,0E0,0E0,0E0,0E0,0E0,0E0,0E0,0E0,0E0,0E0,0E0,0E0,0E0,0E0,0E0,0E0,0E0,0E0,0E0,0E0,0E0,0E0,0E0,0E0,0E0,0E0,0E0,0E0,0E0,0E0,0E0,0E0,0E0,0E0,0E0],"parents":[2147483647,0,0,1,1,2,2,3,3,4,4,5,5,6,6,7,7,8,8,9,9,10,10,11,11,12,12,13,13,14,14,15,15,16,16,17,17,18,18,19,19,20,20,21,21,22,22,23,23,24,24,25,25,26,26,27,27,28,28,29,29,30,30,31,31,32,32,33,33,34,34,35,35,36,36,37,37,38,38,39,39,40,40,41,41,42,42,43,43,45,45,46,46,47,47,48,48,49,49,50,50,51,51,52,52,53,53,55,55,57,57,58,58,59,59,60,60,61,61,62,62],"right_children":[2,4,6,8,10,12,14,16,18,20,22,24,26,28,30,32,34,36,38,40,42,44,46,48,50,52,54,56,58,60,62,64,66,68,70,72,74,76,78,80,82,84,86,88,-1,90,92,94,96,98,100,102,104,106,-1,108,-1,110,112,114,116,118,120,-1,-1,-1,-1,-1,-1,-1,-1,-1,-1,-1,-1,-1,-1,-1,-1,-1,-1,-1,-1,-1,-1,-1,-1,-1,-1,-1,-1,-1,-1,-1,-1,-1,-1,-1,-1,-1,-1,-1,-1,-1,-1,-1,-1,-1,-1,-1,-1,-1,-1,-1,-1,-1,-1,-1,-1,-1,-1],"split_conditions":[3.888889E-1,3E0,9.615385E-2,1.1775128E-1,1.15527324E-1,1.1E1,6.363636E-1,2.1E3,2E0,2E0,2E0,4E0,8.8235295E-1,3.022E1,8.4745765E-2,1.341E1,5E0,1.4578111E-1,-1.308E1,5.133333E-1,2E-1,2E0,3.477E1,5.294118E-1,7.647059E-1,5.3E1,8E0,5.544E1,3E-2,-1.3333334E0,1.5E1,7.583E1,3E0,4.037E1,4.9E1,1.2362637E-1,1.2555E-1,6.6E1,5.084E1,4E0,5.9322033E-2,9.818182E-1,8.6419754E-2,1.84E1,2.2841662E-2,3.025E1,3.833E1,3.6144577E-2,8.235294E-1,5.159E1,1.5686275E-1,9.009009E-2,2.1627E-1,2.9545453E-1,6.080387E-3,5.082E1,-2.1803606E-2,4.61E1,7.258064E-2,3.2E1,1.2079993E-1,2.616279E-1,5.394E1,-2.676975E-2,1.07428795E-2,1.6209682E-3,5.5472963E-3,-1.125621E-2,1.18415E-2,-2.467881E-3,7.53247E-3,7.1144323E-3,1.11557515E-2,-2.231674E-2,5.120213E-3,-1.9916801E-3,8.98044E-3,5.3496417E-3,9.121788E-3,-1.6585182E-3,-8.101716E-3,-3.9290874E-3,8.670764E-3,1.0774636E-3,-1.714889E-2,-1.5794767E-2,-7.2334684E-4,-2.125306E-2,5.8041215E-3,-1.0373888E-2,1.6782233E-2,-9.169517E-3,1.1519801E-3,-1.8455992E-2,-9.510444E-3,-1.532236E-2,-2.2143854E-2,-7.5887917E-3,3.0971733E-3,-1.7486675E-2,5.5919434E-3,-1.7573277E-2,7.2394926E-3,-1.9768253E-2,-1.0412203E-2,-2.4096219E-2,-1.4214879E-2,1.6058167E-2,-4.9018897E-3,1.2104291E-2,-7.12324E-3,-3.2893391E-3,1.9574228E-3,1.6400604E-2,-7.774473E-3,-1.7476257E-2,-1.0569496E-2,-2.112929E-2,-4.1341283E-3,1.9148325E-3,2.2861257E-2],"split_indices":[26,17,30,30,30,17,26,23,22,22,22,18,26,4,28,12,18,30,36,39,42,19,8,26,26,20,22,1,49,37,16,4,22,8,6,30,47,6,13,17,43,53,32,4,0,0,4,31,26,13,31,42,47,29,0,13,0,13,32,2,30,29,13,0,0,0,0,0,0,0,0,0,0,0,0,0,0,0,0,0,0,0,0,0,0,0,0,0,0,0,0,0,0,0,0,0,0,0,0,0,0,0,0,0,0,0,0,0,0,0,0,0,0,0,0,0,0,0,0,0,0],"split_type":[0,0,0,0,0,0,0,0,0,0,0,0,0,0,0,0,0,0,0,0,0,0,0,0,0,0,0,0,0,0,0,0,0,0,0,0,0,0,0,0,0,0,0,0,0,0,0,0,0,0,0,0,0,0,0,0,0,0,0,0,0,0,0,0,0,0,0,0,0,0,0,0,0,0,0,0,0,0,0,0,0,0,0,0,0,0,0,0,0,0,0,0,0,0,0,0,0,0,0,0,0,0,0,0,0,0,0,0,0,0,0,0,0,0,0,0,0,0,0,0,0],"sum_hessian":[1.7679271E4,1.2018649E4,5.660621E3,6.9263657E3,5.092284E3,2.5598372E3,3.1007842E3,2.6725706E3,4.2537954E3,1.8776934E3,3.2145908E3,1.6335354E3,9.263017E2,1.9492565E3,1.1515277E3,2.2047717E3,4.677989E2,1.854962E3,2.3988333E3,9.428419E2,9.348515E2,1.3884622E3,1.8261285E3,8.887306E2,7.448048E2,5.3931354E2,3.869882E2,9.000823E1,1.8592483E3,8.329416E2,3.1858612E2,1.3937125E1,2.1908345E3,2.360971E2,2.3170178E2,1.7880863E3,6.6875626E1,2.7394586E2,2.1248875E3,8.220315E2,1.2081042E2,8.8817883E2,4.667264E1,1.3651307E3,2.3331497E1,5.211455E1,1.7740139E3,3.906823E2,4.9804825E2,6.450615E2,9.974328E1,6.577883E1,4.735347E2,3.8285446E2,4.13374E0,8.100161E1,9.006625E0,3.0390683E2,1.5553414E3,4.3353073E1,7.895885E2,1.4886617E2,1.6971997E2,1.0910427E1,3.0266984E0,1.5773037E3,6.135309E2,4.9104867E0,2.3118661E2,7.627542E1,1.5542636E2,4.7406088E2,1.3140255E3,1.255061E1,5.432502E1,2.0972104E2,6.4224815E1,1.4292446E3,6.956427E2,3.4372842E2,4.783031E2,4.601531E1,7.479511E1,8.741807E2,1.39981165E1,2.5140047E1,2.1532597E1,8.473442E0,1.3566572E3,7.1670766E0,4.494747E1,6.2426414E1,1.7115875E3,7.0040665E1,3.2064166E2,4.3171213E2,6.6336105E1,5.1511865E2,1.299429E2,9.4069E1,5.6742773E0,4.6674595E1,1.910424E1,4.1552856E2,5.800612E1,3.503589E2,3.2495583E1,6.909622E1,1.1905389E1,1.5005094E1,2.8890173E2,7.398311E2,8.155103E2,2.0178688E1,2.3174385E1,2.408951E2,5.486934E2,3.661509E1,1.12251076E2,1.5276227E2,1.6957693E1],"tree_param":{"num_deleted":"0","num_feature":"55","num_nodes":"121","size_leaf_vector":"1"}},{"base_weights":[-1.9942145E-3,1.00397475E-1,-4.246387E-1,2.9652014E-1,4.627153E-2,-5.5528104E-1,-1.9204879E-1,1.9447748E-1,3.577203E-1,-6.858701E-2,1.0125764E-1,-4.271041E-1,-7.0201445E-1,1.3741596E-2,-3.210738E-1,9.7618766E-2,3.0034527E-1,3.8901865E-1,1.9951081E-1,3.6551647E-2,-2.027437E-1,1.8932109E-1,4.328194E-2,-5.309741E-1,-3.324921E-1,1.4354393E-2,-7.073731E-1,-1.7787579E-1,2.608578E-1,-3.8109484E-1,3.761832E-2,4.572081E-1,4.820877E-2,3.2178953E-1,-1.2071902E-1,3.4627986E-1,4.723543E-1,-8.071777E-2,2.7728987E-1,-1.0052678E-3,1.3522375E-1,-3.018637E-1,-1.1266149E-1,1.002892E-1,2.7465266E-1,7.427377E-2,-7.615469E-2,-5.4559016E-1,1.6207313E-2,-2.0292051E-1,-4.285606E-1,-1.8442849E-2,1.8622357E-2,-6.5275735E-1,-7.6588345E-1,-2.4001017E-1,4.8475525E-1,1.5113829E-1,6.7854476E-1,4.874631E-1,-3.9634195E-1,-2.6579252E-1,3.3627763E-1,1.8389273E-2,9.85125E-3,2.2177571E-2,5.509198E-4,1.0038629E-2,-7.6892567E-3,1.5809001E-2,-1.4578706E-2,8.813543E-3,1.573096E-2,1.5628621E-2,6.6886926E-3,2.1855547E-3,-2.4077414E-2,2.742003E-3,1.3249629E-2,-2.9134466E-3,2.3329472E-3,4.629059E-3,-2.313349E-2,-1.2256205E-2,-5.6541287E-3,2.9723335E-3,-4.3821563E-3,8.030152E-3,2.155365E-3,2.8558346E-3,9.215499E-3,2.4505223E-3,-5.333064E-3,-1.0534414E-3,-9.170353E-3,-1.9741047E-2,-1.2770615E-2,2.0014383E-2,-6.9382284E-3,-1.5736045E-2,-3.820589E-3,-1.3962482E-2,-2.075965E-2,-2.3247898E-2,3.8484798E-3,1.3854436E-2,-8.546544E-3,1.928056E-2,-1.1357063E-2,1.5423089E-2,-1.4436829E-3,-1.0516501E-2,2.2989081E-2,-9.644976E-4,2.306243E-2,-9.949746E-3,-2.0747805E-2,2.6424094E-3,-1.8396739E-2,-2.2026358E-2,1.3273502E-2],"categories":[],"categories_nodes":[],"categories_segments":[],"categories_sizes":[],