{"learner":{"attributes":{"best_iteration":"13","best_score":"0.7136363636363636","scikit_learn":"{\"_estimator_type\": \"classifier\"}"},"feature_names":[],"feature_types":[],"gradient_booster":{"model":{"cats":{"enc":[],"feature_segments":[],"sorted_idx":[]},"gbtree_model_param":{"num_parallel_tree":"1","num_trees":"44"},"iteration_indptr":[0,1,2,3,4,5,6,7,8,9,10,11,12,13,14,15,16,17,18,19,20,21,22,23,24,25,26,27,28,29,30,31,32,33,34,35,36,37,38,39,40,41,42,43,44],"tree_info":[0,0,0,0,0,0,0,0,0,0,0,0,0,0,0,0,0,0,0,0,0,0,0,0,0,0,0,0,0,0,0,0,0,0,0,0,0,0,0,0,0,0,0,0],"trees":[{"base_weights":[-1.6786571E-1,6.951456E-1,-1.5229357E0,1.4356847E0,4.255319E-2,-1.6655518E0,-0E0,4.390244E-1,1.5769231E0,-8.5714287E-1,6.0674155E-1,4.761905E-3,-1.7482518E0,-6.363636E-2,6.363636E-2,-5.555556E-2,6.1290324E-2,1.6717949E0,4.761905E-3,4.390244E-1,-1.443038E0,-6.0000002E-2,7.9518074E-1,-6.666667E-1,-1.8314177E0,1.5789473E-2,8.695652E-2,-1.8518519E-2,6.363636E-2,-8.82353E-2,1.5789473E-2,-9.09091E-3,5.966387E-2,2.9411767E-2,-6.666667E-2,-9.63964E-2,-5.319149E-2],"categories":[],"categories_nodes":[],"categories_segments":[],"categories_sizes":[],"default_left":[0,0,0,0,0,0,0,0,0,0,0,0,0,0,0,0,0,0,0,0,0,0,0,0,0,0,0,0,0,0,0,0,0,0,0,0,0],"id":0,"left_children":[1,3,5,7,9,11,13,15,17,19,21,-1,23,-1,-1,-1,-1,25,-1,27,29,-1,31,33,35,-1,-1,-1,-1,-1,-1,-1,-1,-1,-1,-1,-1],"loss_changes":[1.2297286E2,3.1049425E1,8.877853E0,3.548294E0,1.8412897E1,5.60894E0,8.909091E0,7.612554E0,3.4956055E0,1.1265382E1,8.52947E0,0E0,1.9948044E0,0E0,0E0,0E0,0E0,1.6764145E0,0E0,3.9297037E0,6.1441383E0,0E0,8.287462E0,4.235294E0,3.6587524E-1,0E0,0E0,0E0,0E0,0E0,0E0,0E0,0E0,0E0,0E0,0E0,0E0],"parents":[2147483647,0,0,1,1,2,2,3,3,4,4,5,5,6,6,7,7,8,8,9,9,10,10,12,12,17,17,19,19,20,20,22,22,23,23,24,24],"right_children":[2,4,6,8,10,12,14,16,18,20,22,-1,24,-1,-1,-1,-1,26,-1,28,30,-1,32,34,36,-1,-1,-1,-1,-1,-1,-1,-1,-1,-1,-1,-1],"split_conditions":[3.2809112E0,4E0,7.5E1,4.265E1,4.9E1,3.8E1,4.863E1,1.9021075E0,1.8E1,3.885E1,3.125E-1,4.761905E-3,1.786E1,-6.363636E-2,6.363636E-2,-5.555556E-2,6.1290324E-2,1.399E1,4.761905E-3,6.2E1,8E0,-6.0000002E-2,4.6E1,2.4E1,8E0,1.5789473E-2,8.695652E-2,-1.8518519E-2,6.363636E-2,-8.82353E-2,1.5789473E-2,-9.09091E-3,5.966387E-2,2.9411767E-2,-6.666667E-2,-9.63964E-2,-5.319149E-2],"split_indices":[27,18,11,0,2,7,5,27,16,12,28,0,15,0,0,0,0,5,0,7,22,0,11,2,22,0,0,0,0,0,0,0,0,0,0,0,0],"split_type":[0,0,0,0,0,0,0,0,0,0,0,0,0,0,0,0,0,0,0,0,0,0,0,0,0,0,0,0,0,0,0,0,0,0,0,0,0],"sum_hessian":[1.0325E2,6.3375E1,3.9875E1,2.9125E1,3.425E1,3.6375E1,3.5E0,4.125E0,2.5E1,1.3E1,2.125E1,1.625E0,3.475E1,1.75E0,1.75E0,1.25E0,2.875E0,2.3375E1,1.625E0,4.125E0,8.875E0,1.5E0,1.975E1,3.125E0,3.1625E1,1.375E0,2.2E1,2.375E0,1.75E0,7.5E0,1.375E0,5.875E0,1.3875E1,1.125E0,2E0,2.675E1,4.875E0],"tree_param":{"num_deleted":"0","num_feature":"29","num_nodes":"37","size_leaf_vector":"1"}},{"base_weights":[4.255737E-2,7.437409E-1,-1.4634445E0,1.4724666E0,1.1333289E-1,-1.6396457E0,4.1727358E-1,1.53849E0,4.6145273E-3,-3.7833545E-1,1.0541484E0,-2.0528063E-3,-1.7386525E0,3.1112352E-2,4.613332E-3,7.348986E-1,1.6490498E0,-1.0093992E0,1.8489704E-1,1.4158227E0,-4.398332E-2,-6.427601E-1,-9.213788E-2,6.936218E-2,-1.2827163E-2,8.5186556E-2,3.5499796E-2,-6.01707E-4,-8.497534E-2,-6.8739496E-2,2.97157E-2,6.931541E-3,8.1389494E-2,-6.536693E-2,6.1773498E-2,2.863655E-2,-6.449301E-2],"categories":[],"categories_nodes":[],"categories_segments":[],"categories_sizes":[],"default_left":[0,0,0,0,0,0,0,0,0,0,0,0,0,0,0,0,0,0,0,0,0,0,0,0,0,0,0,0,0,0,0,0,0,0,0,0,0],"id":1,"left_children":[1,3,5,7,9,11,13,15,-1,17,19,-1,21,-1,-1,23,25,27,29,31,33,35,-1,-1,-1,-1,-1,-1,-1,-1,-1,-1,-1,-1,-1,-1,-1],"loss_changes":[1.14442245E2,3.378511E1,1.2096519E1,2.9741287E0,1.9229773E1,4.944412E0,1.9221878E-1,1.6819305E0,0E0,9.951425E0,5.7166214E0,0E0,2.2174988E0,0E0,0E0,4.070364E0,2.1930695E-1,9.003722E0,1.0626474E1,2.6818027E0,8.884298E0,3.9813004E0,0E0,0E0,0E0,0E0,0E0,0E0,0E0,0E0,0E0,0E0,0E0,0E0,0E0,0E0,0E0],"parents":[2147483647,0,0,1,1,2,2,3,3,4,4,5,5,6,6,7,7,9,9,10,10,12,12,15,15,16,16,17,17,18,18,19,19,20,20,21,21],"right_children":[2,4,6,8,10,12,14,16,-1,18,20,-1,22,-1,-1,24,26,28,30,32,34,36,-1,-1,-1,-1,-1,-1,-1,-1,-1,-1,-1,-1,-1,-1,-1],"split_conditions":[3.78E1,6.5E0,8.1E1,8.4E1,5.7E1,5.5E1,3.524E1,2.381E1,4.6145273E-3,7.098E1,5.6E1,-2.0528063E-3,1.786E1,3.1112352E-2,4.613332E-3,2.5E0,8.1E1,5.3E1,4.5E1,4E0,6.133E1,2.4E1,-9.213788E-2,6.936218E-2,-1.2827163E-2,8.5186556E-2,3.5499796E-2,-6.01707E-4,-8.497534E-2,-6.8739496E-2,2.97157E-2,6.931541E-3,8.1389494E-2,-6.536693E-2,6.1773498E-2,2.863655E-2,-6.449301E-2],"split_indices":[17,17,11,8,11,8,5,5,0,9,2,0,15,0,0,17,11,7,11,22,5,2,0,0,0,0,0,0,0,0,0,0,0,0,0,0,0],"split_type":[0,0,0,0,0,0,0,0,0,0,0,0,0,0,0,0,0,0,0,0,0,0,0,0,0,0,0,0,0,0,0,0,0,0,0,0,0],"sum_hessian":[1.0634428E2,7.2905945E1,3.343833E1,3.3196465E1,3.970948E1,3.0691116E1,2.7472177E0,3.1571476E1,1.6249908E0,2.6472742E1,1.3236738E1,1.872465E0,2.8818651E1,1.1238618E0,1.6233559E0,4.743188E0,2.6828287E1,1.2111017E1,1.4361725E1,9.739644E0,3.4970937E0,3.1225362E0,2.5696114E1,2.620044E0,2.123144E0,2.4582535E1,2.245752E0,5.3690042E0,6.742013E0,2.4958365E0,1.1865889E1,1.6217761E0,8.117868E0,1.7486503E0,1.7484435E0,1.1247568E0,1.9977794E0],"tree_param":{"num_deleted":"0","num_feature":"29","num_nodes":"37","size_leaf_vector":"1"}},{"base_weights":[1.5472302E-2,7.751928E-1,-1.418036E0,1.3333293E0,1.2494641E-1,6.8876888E-3,-1.4965931E0,4.907346E-1,1.5061996E0,-2.9118976E-1,9.375585E-1,-7.579673E-1,-1.659123E0,6.36269E-2,-5.9168637E-1,3.7247774E-3,1.5874069E0,-1.0675734E0,3.5549542E-1,-1.2986078E-2,1.2494954E0,-7.561387E-2,3.2134335E-2,-8.875356E-2,-4.1761684E-1,2.8771563E-2,-6.388291E-2,1.4028114E-2,8.224404E-2,-3.4993347E-3,-8.16155E-2,-5.888182E-2,3.5263177E-2,1.3915568E-2,6.9394305E-2,2.8796807E-2,-5.4846298E-2],"categories":[],"categories_nodes":[],"categories_segments":[],"categories_sizes":[],"default_left":[0,0,0,0,0,0,0,0,0,0,0,0,0,0,0,0,0,0,0,0,0,0,0,0,0,0,0,0,0,0,0,0,0,0,0,0,0],"id":2,"left_children":[1,3,5,7,9,-1,11,13,15,17,19,21,23,-1,25,-1,27,29,31,-1,33,-1,-1,-1,35,-1,-1,-1,-1,-1,-1,-1,-1,-1,-1,-1,-1],"loss_changes":[1.11656944E2,2.4148796E1,4.5471115E0,4.497181E0,1.1110598E1,0E0,2.811493E0,7.1870375E0,3.2936554E0,1.1404131E1,4.4667053E0,9.375875E0,3.1368256E0,0E0,3.8344917E0,0E0,1.6206665E0,5.6480665E0,7.656807E0,0E0,8.1941414E-1,0E0,0E0,0E0,3.0674531E0,0E0,0E0,0E0,0E0,0E0,0E0,0E0,0E0,0E0,0E0,0E0,0E0],"parents":[2147483647,0,0,1,1,2,2,3,3,4,4,6,6,7,7,8,8,9,9,10,10,11,11,12,12,14,14,16,16,17,17,18,18,20,20,24,24],"right_children":[2,4,6,8,10,-1,12,14,16,18,20,22,24,-1,26,-1,28,30,32,-1,34,-1,-1,-1,36,-1,-1,-1,-1,-1,-1,-1,-1,-1,-1,-1,-1],"split_conditions":[2.56E1,7.1E0,5.5E1,4.37E1,5.4E1,6.8876888E-3,2.48E1,2.5E0,3.6E1,7.5E1,4E0,2.208E1,8.4E1,6.36269E-2,3.6E1,3.7247774E-3,2.026E1,4.25E1,3.3E1,-1.2986078E-2,3.952E1,-7.561387E-2,3.2134335E-2,-8.875356E-2,4.067E1,2.8771563E-2,-6.388291E-2,1.4028114E-2,8.224404E-2,-3.4993347E-3,-8.16155E-2,-5.888182E-2,3.5263177E-2,1.3915568E-2,6.9394305E-2,2.8796807E-2,-5.4846298E-2],"split_indices":[17,17,8,10,11,0,0,17,11,9,22,0,8,0,11,0,5,2,11,0,5,0,0,0,5,0,0,0,0,0,0,0,0,0,0,0,0],"split_type":[0,0,0,0,0,0,0,0,0,0,0,0,0,0,0,0,0,0,0,0,0,0,0,0,0,0,0,0,0,0,0,0,0,0,0,0,0],"sum_hessian":[1.0051609E2,6.5998116E1,3.4517975E1,3.4949146E1,3.1048967E1,1.6229324E0,3.2895042E1,6.6031528E0,2.8345995E1,2.0958067E1,1.00909E1,6.9543195E0,2.5940723E1,3.7319942E0,2.8711588E0,1.6244206E0,2.6721575E1,9.228214E0,1.1729853E1,2.120265E0,7.970635E0,4.468275E0,2.4860446E0,2.3331911E1,2.608812E0,1.12249E0,1.7486688E0,1.3734553E0,2.5348118E1,3.742012E0,5.486202E0,1.7392638E0,9.990589E0,1.3696804E0,6.6009545E0,1.1211699E0,1.4876423E0],"tree_param":{"num_deleted":"0","num_feature":"29","num_nodes":"37","size_leaf_vector":"1"}},{"base_weights":[6.4980134E-2,1.3234813E0,-6.394261E-1,-4.1567073E-3,1.3956797E0,-2.810483E-2,-1.3259244E0,1.5799718E0,1.0948722E0,-3.2415158E-1,1.037981E0,-2.070645E-1,-1.4915965E0,1.6634123E0,1.0668102E-2,1.4301498E0,1.2147553E-1,-5.3704754E-2,-9.534834E-1,-1.1876813E-2,7.460108E-2,-6.405358E-2,5.543614E-2,-5.3809035E-1,-1.5853184E0,8.744699E-2,3.4289964E-2,3.1725544E-2,7.679136E-2,-2.6389778E-2,4.350035E-2,-6.416553E-2,7.192481E-3,-7.8503385E-2,1.2275032E-2,3.210729E-2,-5.9923183E-2,-3.5497345E-2,-8.476018E-2],"categories":[],"categories_nodes":[],"categories_segments":[],"categories_sizes":[],"default_left":[0,0,0,0,0,0,0,0,0,0,0,0,0,0,0,0,0,0,0,0,0,0,0,0,0,0,0,0,0,0,0,0,0,0,0,0,0,0,0],"id":3,"left_children":[1,3,5,-1,7,9,11,13,15,17,19,21,23,25,-1,27,29,31,33,-1,-1,-1,-1,35,37,-1,-1,-1,-1,-1,-1,-1,-1,-1,-1,-1,-1,-1,-1],"loss_changes":[9.765714E1,4.1290207E0,2.9629631E1,0E0,3.5688782E-1,1.2460508E1,5.8593864E0,2.049408E0,5.5563183E0,5.195656E0,5.3274546E0,9.126349E0,1.7227402E0,4.4978333E-1,0E0,1.1574173E-1,3.176412E0,5.679645E0,7.1913214E0,0E0,0E0,0E0,0E0,3.959952E0,1.2714691E0,0E0,0E0,0E0,0E0,0E0,0E0,0E0,0E0,0E0,0E0,0E0,0E0,0E0,0E0],"parents":[2147483647,0,0,1,1,2,2,4,4,5,5,6,6,7,7,8,8,9,9,10,10,11,11,12,12,13,13,15,15,16,16,17,17,18,18,23,23,24,24],"right_children":[2,4,6,-1,8,10,12,14,16,18,20,22,24,26,-1,28,30,32,34,-1,-1,-1,-1,36,38,-1,-1,-1,-1,-1,-1,-1,-1,-1,-1,-1,-1,-1,-1],"split_conditions":[4E0,1.481E1,3.78E1,-4.1567073E-3,5.65E1,5.492E1,2.817E1,1E2,3.5E0,4.73E1,7E0,6.6E1,5.36E1,2.2222222E-1,1.0668102E-2,6.666667E-2,6.149E1,1.964E1,6.5E1,-1.1876813E-2,7.460108E-2,-6.405358E-2,5.543614E-2,1.3E1,2.2E1,8.744699E-2,3.4289964E-2,3.1725544E-2,7.679136E-2,-2.6389778E-2,4.350035E-2,-6.416553E-2,7.192481E-3,-7.8503385E-2,1.2275032E-2,3.210729E-2,-5.9923183E-2,-3.5497345E-2,-8.476018E-2],"split_indices":[18,5,17,0,3,4,5,4,17,12,18,7,17,28,0,28,12,4,7,0,0,0,0,16,2,0,0,0,0,0,0,0,0,0,0,0,0,0,0],"split_type":[0,0,0,0,0,0,0,0,0,0,0,0,0,0,0,0,0,0,0,0,0,0,0,0,0,0,0,0,0,0,0,0,0,0,0,0,0,0,0],"sum_hessian":[1.0820619E2,3.8515335E1,6.969085E1,1.8729922E0,3.6642345E1,3.7414486E1,3.2276367E1,2.0084795E1,1.6557549E1,2.9827484E1,7.5870023E0,4.4530063E0,2.7823359E1,1.8724367E1,1.3604279E0,1.1966546E1,4.5910034E0,2.1621342E1,8.206143E0,2.1169052E0,5.470097E0,2.4662898E0,1.9867167E0,3.093377E0,2.4729982E1,1.6492516E1,2.231853E0,2.2242815E0,9.742264E0,2.6164255E0,1.9745777E0,2.232149E0,1.9389193E1,5.214869E0,2.991274E0,1.1197441E0,1.9736332E0,3.5902238E0,2.113976E1],"tree_param":{"num_deleted":"0","num_feature":"29","num_nodes":"39","size_leaf_vector":"1"}},{"base_weights":[1.1615687E-1,1.2514217E0,-5.284127E-1,1.314262E0,2.5879687E-1,-9.023767E-1,4.9089062E-1,5.187824E-3,1.3643805E0,-1.6712993E-3,2.4803275E-2,-1.2399341E0,1.3298403E-1,-1.7879415E-1,7.2669014E-2,9.811046E-1,1.5268667E0,-6.5840006E-1,-1.4567038E0,3.763545E-1,-5.796979E-2,-4.9945801E-1,5.935352E-2,6.658804E-2,8.343499E-3,3.2056868E-2,7.9360954E-2,-7.52506E-2,4.8072156E-4,-3.0640338E-2,-7.7139094E-2,-5.668344E-2,3.397514E-2,4.9768644E-3,-7.1038485E-2],"categories":[],"categories_nodes":[],"categories_segments":[],"categories_sizes":[],"default_left":[0,0,0,0,0,0,0,0,0,0,0,0,0,0,0,0,0,0,0,0,0,0,0,0,0,0,0,0,0,0,0,0,0,0,0],"id":4,"left_children":[1,3,5,7,9,11,13,-1,15,-1,-1,17,19,21,-1,23,25,27,29,31,-1,33,-1,-1,-1,-1,-1,-1,-1,-1,-1,-1,-1,-1,-1],"loss_changes":[8.384732E1,2.2464066E0,2.8350754E1,2.2094803E0,2.7409387E-1,1.900779E1,1.3343744E1,0E0,8.1427765E-1,0E0,0E0,4.1785393E0,4.889766E0,6.2256265E0,0E0,3.7327204E0,2.801361E-1,7.305235E0,1.1512947E0,6.570277E0,0E0,6.2777023E0,0E0,0E0,0E0,0E0,0E0,0E0,0E0,0E0,0E0,0E0,0E0,0E0,0E0],"parents":[2147483647,0,0,1,1,2,2,3,3,4,4,5,5,6,6,8,8,11,11,12,12,13,13,15,15,16,16,17,17,18,18,19,19,21,21],"right_children":[2,4,6,8,10,12,14,-1,16,-1,-1,18,20,22,-1,24,26,28,30,32,-1,34,-1,-1,-1,-1,-1,-1,-1,-1,-1,-1,-1,-1,-1],"split_conditions":[4E0,8.1E1,5.7E1,1.481E1,7.8E1,5.167E1,4.911E1,5.187824E-3,4.632E1,-1.6712993E-3,2.4803275E-2,7E0,5.553E1,6.453E1,7.2669014E-2,5E1,3.6E1,4.5E1,2.2E1,5E0,-5.796979E-2,4E1,5.935352E-2,6.658804E-2,8.343499E-3,3.2056868E-2,7.9360954E-2,-7.52506E-2,4.8072156E-4,-3.0640338E-2,-7.7139094E-2,-5.668344E-2,3.397514E-2,4.9768644E-3,-7.1038485E-2],"split_indices":[18,11,11,5,2,2,5,0,0,0,0,18,10,4,0,3,11,10,2,18,0,4,0,0,0,0,0,0,0,0,0,0,0,0,0],"split_type":[0,0,0,0,0,0,0,0,0,0,0,0,0,0,0,0,0,0,0,0,0,0,0,0,0,0,0,0,0,0,0,0,0,0,0],"sum_hessian":[1.1267987E2,4.0466217E1,7.221365E1,3.77522E1,2.7140157E0,5.291486E1,1.9298796E1,1.6229712E0,3.612923E1,1.6011466E0,1.1128691E0,3.9755753E1,1.3159106E1,1.1860612E1,7.4381847E0,1.2851924E1,2.3277306E1,1.18914795E1,2.7864273E1,1.1670249E1,1.4888568E0,1.01192465E1,1.7413659E0,8.53896E0,4.3129644E0,2.226372E0,2.1050934E1,4.6920366E0,7.1994433E0,3.3306112E0,2.4533663E1,1.4931273E0,1.0177122E1,6.6728325E0,3.4464135E0],"tree_param":{"num_deleted":"0","num_feature":"29","num_nodes":"35","size_leaf_vector":"1"}},{"base_weights":[-2.7563533E-2,8.905031E-1,-9.514618E-1,1.21836E0,1.6110392E-1,-3.3971074E-1,-1.3395668E0,1.2728218E0,-1.2571324E-4,-3.6721703E-1,1.0245594E0,-7.735893E-1,8.2997906E-1,-1.4276345E0,2.0381963E-2,4.776237E-3,1.3254632E0,4.260267E-1,-7.450463E-2,-4.291016E-3,7.161457E-2,-1.2553769E0,-1.9954832E-1,7.467503E-2,-5.5501767E-2,-6.7205974E-3,-1.5154502E0,2.1651808E-2,7.113805E-2,-1.5045503E-2,6.786474E-2,2.791892E-2,-7.9145715E-2,1.4241919E-2,-6.3062705E-2,-2.1631401E-2,-8.068841E-2],"categories":[],"categories_nodes":[],"categories_segments":[],"categories_sizes":[],"default_left":[0,0,0,0,0,0,0,0,0,0,0,0,0,0,0,0,0,0,0,0,0,0,0,0,0,0,0,0,0,0,0,0,0,0,0,0,0],"id":5,"left_children":[1,3,5,7,9,11,13,15,-1,17,19,21,23,25,-1,-1,27,29,-1,-1,-1,31,33,-1,-1,-1,35,-1,-1,-1,-1,-1,-1,-1,-1,-1,-1],"loss_changes":[9.279563E1,1.293008E1,1.248782E1,2.510994E0,8.6668415E0,1.2060845E1,5.6618958E0,2.1111412E0,0E0,1.1333376E1,3.3657413E0,4.4316626E0,1.0115316E1,3.3908615E0,0E0,0E0,2.3782158E0,5.699929E0,0E0,0E0,0E0,6.239704E0,4.943624E0,0E0,0E0,0E0,2.4468918E0,0E0,0E0,0E0,0E0,0E0,0E0,0E0,0E0,0E0,0E0],"parents":[2147483647,0,0,1,1,2,2,3,3,4,4,5,5,6,6,7,7,9,9,10,10,11,11,12,12,13,13,16,16,17,17,21,21,22,22,26,26],"right_children":[2,4,6,8,10,12,14,16,-1,18,20,22,24,26,-1,-1,28,30,-1,-1,-1,32,34,-1,-1,-1,36,-1,-1,-1,-1,-1,-1,-1,-1,-1,-1],"split_conditions":[1.1E1,6.5E0,3.78E1,8.4E1,5.3E1,6.3E1,7.5E1,1.481E1,-1.2571324E-4,3.3333334E-1,4.6E1,4.195E1,4.191E1,5.5E1,2.0381963E-2,4.776237E-3,4.265E1,9.7E0,-7.450463E-2,-4.291016E-3,7.161457E-2,2.8E1,4.967E1,7.467503E-2,-5.5501767E-2,-6.7205974E-3,1.786E1,2.1651808E-2,7.113805E-2,-1.5045503E-2,6.786474E-2,2.791892E-2,-7.9145715E-2,1.4241919E-2,-6.3062705E-2,-2.1631401E-2,-8.068841E-2],"split_indices":[17,17,17,8,0,11,7,5,0,28,11,0,0,8,0,0,0,17,0,0,0,2,10,0,0,0,15,0,0,0,0,0,0,0,0,0,0],"split_type":[0,0,0,0,0,0,0,0,0,0,0,0,0,0,0,0,0,0,0,0,0,0,0,0,0,0,0,0,0,0,0,0,0,0,0,0,0],"sum_hessian":[1.0740407E2,5.3890186E1,5.3513885E1,3.671627E1,1.7173914E1,2.1499916E1,3.201397E1,3.510761E1,1.6086613E0,1.1011215E1,6.1626997E0,1.5929681E1,5.570235E0,3.065187E1,1.3620988E0,1.6230725E0,3.3484535E1,6.8164196E0,4.1947956E0,1.8672154E0,4.2954845E0,8.015462E0,7.914219E0,4.3221407E0,1.2480938E0,2.1099672E0,2.8541903E1,3.827631E0,2.9656906E1,4.208329E0,2.6080902E0,1.11826E0,6.897202E0,5.9371867E0,1.9770325E0,2.825345E0,2.5716558E1],"tree_param":{"num_deleted":"0","num_feature":"29","num_nodes":"37","size_leaf_vector":"1"}},{"base_weights":[4.4669386E-2,1.1615129E0,-6.7046815E-1,4.7176564E-1,1.2977955E0,-8.673145E-2,-1.3611348E0,1.1783116E0,-6.4774287E-1,7.715898E-3,1.3408707E0,-6.967888E-1,8.724232E-1,-2.106783E-1,-1.4531862E0,1.80413E-2,6.478401E-2,2.4658639E-2,-6.430202E-2,1.9393096E-2,6.8068035E-2,7.977905E-2,-1.3790992E0,1.1802945E0,-7.204114E-2,3.1693455E-2,-4.624367E-2,-2.536637E-1,-7.793137E-2,-3.0113263E-2,4.661724E-2,1.4208868E-2,-8.105313E-2,6.8661325E-2,2.6394948E-3,4.234848E-2,-5.6732416E-2,3.309225E-2,-5.035904E-2],"categories":[],"categories_nodes":[],"categories_segments":[],"categories_sizes":[],"default_left":[0,0,0,0,0,0,0,0,0,0,0,0,0,0,0,0,0,0,0,0,0,0,0,0,0,0,0,0,0,0,0,0,0,0,0,0,0,0,0],"id":6,"left_children":[1,3,5,7,9,11,13,15,17,-1,19,21,23,25,27,-1,-1,-1,-1,-1,-1,29,31,33,35,-1,-1,37,-1,-1,-1,-1,-1,-1,-1,-1,-1,-1,-1],"loss_changes":[8.331069E1,3.2138977E0,2.5535416E1,7.31781E0,1.4390488E0,2.141101E1,2.7731743E0,5.39608E-2,3.4391198E0,0E0,9.828186E-2,1.1918905E1,4.233097E0,2.591048E0,2.9884033E0,0E0,0E0,0E0,0E0,0E0,0E0,7.172299E0,5.2571125E0,2.2803555E0,5.306165E0,0E0,0E0,2.981794E0,0E0,0E0,0E0,0E0,0E0,0E0,0E0,0E0,0E0,0E0,0E0],"parents":[2147483647,0,0,1,1,2,2,3,3,4,4,5,5,6,6,7,7,8,8,10,10,11,11,12,12,13,13,14,14,21,21,22,22,23,23,24,24,27,27],"right_children":[2,4,6,8,10,12,14,16,18,-1,20,22,24,26,28,-1,-1,-1,-1,-1,-1,30,32,34,36,-1,-1,38,-1,-1,-1,-1,-1,-1,-1,-1,-1,-1,-1],"split_conditions":[4E0,4.21E1,3.78E1,2.5E0,3.3E1,5.7E1,1.786E1,5.3E1,2E0,7.715898E-3,2.5E1,1.4E1,1E0,6E1,5.5E1,1.80413E-2,6.478401E-2,2.4658639E-2,-6.430202E-2,1.9393096E-2,6.8068035E-2,6E0,2.8E1,1.6E1,6E0,3.1693455E-2,-4.624367E-2,3.6E1,-7.793137E-2,-3.0113263E-2,4.661724E-2,1.4208868E-2,-8.105313E-2,6.8661325E-2,2.6394948E-3,4.234848E-2,-5.6732416E-2,3.309225E-2,-5.035904E-2],"split_indices":[18,10,17,17,11,11,15,7,22,0,15,16,26,8,8,0,0,0,0,0,0,18,2,16,18,0,0,10,0,0,0,0,0,0,0,0,0,0,0],"split_type":[0,0,0,0,0,0,0,0,0,0,0,0,0,0,0,0,0,0,0,0,0,0,0,0,0,0,0,0,0,0,0,0,0,0,0,0,0,0,0],"sum_hessian":[1.0233327E2,3.9703465E1,6.2629807E1,7.2865963E0,3.2416866E1,3.4552414E1,2.807739E1,4.4350286E0,2.8515677E0,1.3431817E0,3.1073685E1,2.1286783E1,1.3265632E1,2.3237624E0,2.5753628E1,1.0683249E0,3.3667035E0,1.1045744E0,1.7469933E0,1.0734965E0,3.0000189E1,1.0368738E1,1.0918045E1,9.816127E0,3.449505E0,1.1162496E0,1.2075129E0,2.3560798E0,2.3397549E1,5.923545E0,4.4451933E0,1.3644228E0,9.553622E0,8.19578E0,1.6203474E0,1.9585544E0,1.4909507E0,1.1186278E0,1.2374521E0],"tree_param":{"num_deleted":"0","num_feature":"29","num_nodes":"39","size_leaf_vector":"1"}},{"base_weights":[2.8759593E-2,1.0589898E0,-5.10671E-1,2.6904413E-1,1.1845646E0,1.0361361E-3,-1.0711933E0,-5.692039E-2,8.326433E-1,7.4995914E-3,1.2256224E0,-4.2535967E-1,8.406415E-1,-1.2403123E0,3.8177453E-2,6.177481E-2,-2.3799245E-3,1.2676424E0,2.27214E-2,-1.1079192E-1,-7.341643E-2,-5.465117E-1,1.2346443E0,-1.3316512E0,2.2103643E-2,6.5905206E-2,2.1846859E-2,-4.1684017E-2,1.9097887E-2,2.2161938E-2,-5.779819E-2,1.2411816E-2,6.768116E-2,-6.1643105E-3,-7.095152E-2],"categories":[],"categories_nodes":[],"categories_segments":[],"categories_sizes":[],"default_left":[0,0,0,0,0,0,0,0,0,0,0,0,0,0,0,0,0,0,0,0,0,0,0,0,0,0,0,0,0,0,0,0,0,0,0],"id":7,"left_children":[1,3,5,7,9,11,13,-1,15,-1,17,19,21,23,-1,-1,-1,25,-1,27,-1,29,31,33,-1,-1,-1,-1,-1,-1,-1,-1,-1,-1,-1],"loss_changes":[5.9596043E1,3.3361511E0,2.0199299E1,5.9829817E0,1.154068E0,1.3894501E1,1.1375294E1,0E0,1.870883E0,0E0,4.0114212E-1,8.2824955E0,7.818782E0,5.375839E0,0E0,0E0,0E0,5.9939957E-1,0E0,7.7480474E0,0E0,2.6746373E0,8.947191E-1,2.9712753E0,0E0,0E0,0E0,0E0,0E0,0E0,0E0,0E0,0E0,0E0,0E0],"parents":[2147483647,0,0,1,1,2,2,3,3,4,4,5,5,6,6,8,8,10,10,11,11,12,12,13,13,17,17,19,19,21,21,22,22,23,23],"right_children":[2,4,6,8,10,12,14,-1,16,-1,18,20,22,24,-1,-1,-1,26,-1,28,-1,30,32,34,-1,-1,-1,-1,-1,-1,-1,-1,-1,-1,-1],"split_conditions":[4E0,4.203E1,3.78E1,6.5E1,3.3E1,5.7E1,8.1E1,-5.692039E-2,5.65E1,7.4995914E-3,6.347E1,5.553E1,4.1666666E-1,7.5E1,3.8177453E-2,6.177481E-2,-2.3799245E-3,5.7E1,2.27214E-2,4.5E1,-7.341643E-2,4.65E1,3.667E1,5.5E1,2.2103643E-2,6.5905206E-2,2.1846859E-2,-4.1684017E-2,1.9097887E-2,2.2161938E-2,-5.779819E-2,1.2411816E-2,6.768116E-2,-6.1643105E-3,-7.095152E-2],"split_indices":[18,10,17,8,11,11,11,0,3,0,10,10,28,7,0,0,0,5,0,10,0,3,5,8,0,0,0,0,0,0,0,0,0,0,0],"split_type":[0,0,0,0,0,0,0,0,0,0,0,0,0,0,0,0,0,0,0,0,0,0,0,0,0,0,0,0,0,0,0,0,0,0,0],"sum_hessian":[1.0526461E2,3.58443E1,6.942031E1,5.3475156E0,3.0496784E1,3.68122E1,3.2608112E1,1.2374344E0,4.110081E0,1.3417072E0,2.9155077E1,2.4740866E1,1.2071332E1,3.0152742E1,2.45537E0,2.5427668E0,1.5673143E0,2.7038115E1,2.1169615E0,1.9857817E1,4.883049E0,2.5846305E0,9.486702E0,2.879775E1,1.3549918E0,2.4936594E1,2.1015208E0,7.768761E0,1.2089055E1,1.0889313E0,1.4956992E0,1.3533119E0,8.13339E0,2.104575E0,2.6693176E1],"tree_param":{"num_deleted":"0","num_feature":"29","num_nodes":"35","size_leaf_vector":"1"}},{"base_weights":[2.0604728E-2,1.0745093E0,-4.3986338E-1,-7.73476E-3,1.1423521E0,-7.832616E-1,3.9712006E-1,1.2127553E0,-4.513061E-3,-9.884999E-1,5.839657E-1,6.554602E-1,-6.0005385E-2,-1.1615966E-3,1.2857466E0,-1.2042168E0,-2.575293E-1,1.0832756E0,-3.6450875E-1,9.7296697E-1,-5.6481117E-1,6.699483E-2,6.886115E-3,-2.9179562E-2,-6.620532E-2,3.4826618E-2,-4.0247563E-2,7.245841E-3,7.236006E-2,-5.0013956E-2,2.4297358E-2,-1.6755864E-2,6.11187E-2,3.5748657E-2,-5.8022726E-2],"categories":[],"categories_nodes":[],"categories_segments":[],"categories_sizes":[],"default_left":[0,0,0,0,0,0,0,0,0,0,0,0,0,0,0,0,0,0,0,0,0,0,0,0,0,0,0,0,0,0,0,0,0,0,0],"id":8,"left_children":[1,3,5,-1,7,9,11,13,-1,15,17,19,-1,-1,21,23,25,27,29,31,33,-1,-1,-1,-1,-1,-1,-1,-1,-1,-1,-1,-1,-1,-1],"loss_changes":[5.083142E1,2.8322334E0,2.127166E1,0E0,2.738655E0,1.5182163E1,9.814766E0,2.6217346E0,0E0,6.8842506E0,3.9097328E0,8.097043E0,0E0,0E0,1.5029602E0,1.8283043E0,6.654838E0,1.5366697E0,2.274633E0,5.5726013E0,4.378033E0,0E0,0E0,0E0,0E0,0E0,0E0,0E0,0E0,0E0,0E0,0E0,0E0,0E0,0E0],"parents":[2147483647,0,0,1,1,2,2,4,4,5,5,6,6,7,7,9,9,10,10,11,11,14,14,15,15,16,16,17,17,18,18,19,19,20,20],"right_children":[2,4,6,-1,8,10,12,14,-1,16,18,20,-1,-1,22,24,26,28,30,32,34,-1,-1,-1,-1,-1,-1,-1,-1,-1,-1,-1,-1,-1,-1],"split_conditions":[6.5E0,1.875E1,4.323E1,-7.73476E-3,8.1E1,6.9E1,6.067E1,3.957E1,-4.513061E-3,5.167E1,4.65E1,3.78E1,-6.0005385E-2,-1.1615966E-3,8.4E1,2.8E1,4.9E1,6.5E1,4.687E1,9.7E0,2.802E1,6.699483E-2,6.886115E-3,-2.9179562E-2,-6.620532E-2,3.4826618E-2,-4.0247563E-2,7.245841E-3,7.236006E-2,-5.0013956E-2,2.4297358E-2,-1.6755864E-2,6.11187E-2,3.5748657E-2,-5.8022726E-2],"split_indices":[17,5,4,0,11,11,10,0,0,2,3,17,0,0,8,2,3,7,10,17,0,0,0,0,0,0,0,0,0,0,0,0,0,0,0],"split_type":[0,0,0,0,0,0,0,0,0,0,0,0,0,0,0,0,0,0,0,0,0,0,0,0,0,0,0,0,0,0,0,0,0,0,0],"sum_hessian":[1.02770615E2,3.0843498E1,7.192712E1,1.5463262E0,2.9297173E1,5.1047497E1,2.0879622E1,2.7729458E1,1.5677147E0,4.462562E1,6.4218717E0,1.8480207E1,2.3994143E0,1.5842649E0,2.6145193E1,3.395711E1,1.0668513E1,4.113997E0,2.3078747E0,1.48253975E1,3.6548104E0,2.4807922E1,1.3372703E0,6.4476533E0,2.7509457E1,3.7902966E0,6.8782167E0,1.5403949E0,2.5736022E0,1.2198159E0,1.0880588E0,2.3190157E0,1.2506381E1,1.0971545E0,2.557656E0],"tree_param":{"num_deleted":"0","num_feature":"29","num_nodes":"35","size_leaf_vector":"1"}},{"base_weights":[7.80186E-2,1.0792161E0,-5.016998E-1,-7.19195E-3,1.1442403E0,-2.6926136E-2,-1.009402E0,1.1991538E0,-2.8810424E-3,-2.584347E-1,7.179248E-1,-1.2204623E0,-2.3865668E-1,1.2421205E0,8.995651E-4,-3.7689313E-1,4.3890577E-2,-4.9131762E-2,1.1220133E0,5.3780745E-3,-1.3267609E0,5.444873E-2,-8.308282E-1,6.29225E-2,1.8225031E-2,-6.0036457E-3,-4.2120956E-2,6.521067E-2,6.9200173E-3,-4.303719E-3,-7.2167866E-2,-6.109568E-2,4.0336135E-3],"categories":[],"categories_nodes":[],"categories_segments":[],"categories_sizes":[],"default_left":[0,0,0,0,0,0,0,0,0,0,0,0,0,0,0,0,0,0,0,0,0,0,0,0,0,0,0,0,0,0,0,0,0],"id":9,"left_children":[1,3,5,-1,7,9,11,13,-1,15,17,19,21,23,-1,25,-1,-1,27,-1,29,-1,31,-1,-1,-1,-1,-1,-1,-1,-1,-1,-1],"loss_changes":[6.204643E1,3.2801323E0,1.6313702E1,0E0,2.5314636E0,6.4036274E0,5.033474E0,1.7907295E0,0E0,4.132513E0,7.159942E0,3.7358246E0,7.4141045E0,3.50914E-2,0E0,3.040512E0,0E0,0E0,1.1796198E0,0E0,3.2957573E0,0E0,2.3418684E0,0E0,0E0,0E0,0E0,0E0,0E0,0E0,0E0,0E0,0E0],"parents":[2147483647,0,0,1,1,2,2,4,4,5,5,6,6,7,7,9,9,10,10,11,11,12,12,13,13,15,15,18,18,20,20,22,22],"right_children":[2,4,6,-1,8,10,12,14,-1,16,18,20,22,24,-1,26,-1,-1,28,-1,30,-1,32,-1,-1,-1,-1,-1,-1,-1,-1,-1,-1],"split_conditions":[4E0,1.481E1,3.34E1,-7.19195E-3,8.4E1,5.492E1,6.6E1,7.85E1,-2.8810424E-3,3.18E1,3.846154E-1,1.786E1,2.817E1,2.777778E-1,8.995651E-4,1.97E1,4.3890577E-2,-4.9131762E-2,1E2,5.3780745E-3,5.5E1,5.444873E-2,7.75E1,6.29225E-2,1.8225031E-2,-6.0036457E-3,-4.2120956E-2,6.521067E-2,6.9200173E-3,-4.303719E-3,-7.2167866E-2,-6.109568E-2,4.0336135E-3],"split_indices":[18,5,17,0,8,4,7,2,0,17,28,15,5,28,0,17,0,0,4,0,8,0,9,0,0,0,0,0,0,0,0,0,0],"split_type":[0,0,0,0,0,0,0,0,0,0,0,0,0,0,0,0,0,0,0,0,0,0,0,0,0,0,0,0,0,0,0,0,0],"sum_hessian":[1.0496768E2,3.817546E1,6.679222E1,1.8659639E0,3.6309498E1,3.5059578E1,3.1732645E1,3.4725143E1,1.5843554E0,2.7244652E1,7.8149257E0,2.4452976E1,7.2796674E0,3.34565E1,1.2686424E0,2.527765E1,1.9670008E0,1.2255609E0,6.589365E0,1.8113455E0,2.2641632E1,1.9866668E0,5.293E0,3.2419353E1,1.0371487E0,1.7101221E1,8.17643E0,5.2845383E0,1.3048264E0,2.0943346E0,2.0547297E1,3.465537E0,1.8274634E0],"tree_param":{"num_deleted":"0","num_feature":"29","num_nodes":"33","size_leaf_vector":"1"}},{"base_weights":[3.4795523E-2,5.7082355E-1,-9.428479E-1,9.953416E-1,9.187163E-2,-1.1992579E0,6.87529E-1,-6.9564404E-3,1.0602802E0,-6.680811E-2,3.328511E-1,-1.2766795E0,1.021714E-2,-1.5001106E-1,6.3634984E-2,3.9048174E-1,1.1535577E0,-5.2049303E-1,6.667175E-1,9.770339E-3,-1.3595288E0,-4.4982355E-2,3.5286512E-2,4.39766E-2,-1.5794432E-2,4.684161E-3,5.9943777E-2,-6.68548E-2,1.4739707E-2,1.7596513E-3,4.9351092E-2,-2.3634786E-2,-7.269833E-2],"categories":[],"categories_nodes":[],"categories_segments":[],"categories_sizes":[],"default_left":[0,0,0,0,0,0,0,0,0,0,0,0,0,0,0,0,0,0,0,0,0,0,0,0,0,0,0,0,0,0,0,0,0],"id":10,"left_children":[1,3,5,7,9,11,13,-1,15,-1,17,19,-1,21,-1,23,25,27,29,-1,31,-1,-1,-1,-1,-1,-1,-1,-1,-1,-1,-1,-1],"loss_changes":[5.6231567E1,1.3991579E1,1.6715282E1,2.8451157E0,1.2023622E1,3.8698502E0,3.034189E0,0E0,1.7206612E0,0E0,8.777179E0,4.121174E0,0E0,2.7394588E0,0E0,2.2674785E0,1.3281784E0,6.307993E0,4.356123E0,0E0,1.8297462E0,0E0,0E0,0E0,0E0,0E0,0E0,0E0,0E0,0E0,0E0,0E0,0E0],"parents":[2147483647,0,0,1,1,2,2,3,3,4,4,5,5,6,6,8,8,10,10,11,11,13,13,15,15,16,16,17,17,18,18,20,20],"right_children":[2,4,6,8,10,12,14,-1,16,-1,18,20,-1,22,-1,24,26,28,30,-1,32,-1,-1,-1,-1,-1,-1,-1,-1,-1,-1,-1,-1],"split_conditions":[2.56E1,4E0,7.5E1,1.481E1,4.5E1,7.5E1,4.863E1,-6.9564404E-3,4.067E1,-6.680811E-2,4E0,3.8E1,1.021714E-2,2E3,6.3634984E-2,1.5384616E-1,3.3E1,6E0,4.6E1,9.770339E-3,2.2E1,-4.4982355E-2,3.5286512E-2,4.39766E-2,-1.5794432E-2,4.684161E-3,5.9943777E-2,-6.68548E-2,1.4739707E-2,1.7596513E-3,4.9351092E-2,-2.3634786E-2,-7.269833E-2],"split_indices":[17,18,11,5,11,7,5,0,10,0,22,7,0,25,0,28,11,18,11,0,2,0,0,0,0,0,0,0,0,0,0,0,0],"split_type":[0,0,0,0,0,0,0,0,0,0,0,0,0,0,0,0,0,0,0,0,0,0,0,0,0,0,0,0,0,0,0,0,0],"sum_hessian":[1.0527608E2,6.8264015E1,3.701207E1,3.561689E1,3.264712E1,3.221071E1,4.8013616E0,1.8665195E0,3.375037E1,4.05755E0,2.8589573E1,3.0612566E1,1.5981412E0,2.2806995E0,2.520662E0,4.7595615E0,2.8990808E1,7.88274E0,2.0706833E1,1.5586956E0,2.905387E1,1.1883705E0,1.092329E0,2.667556E0,2.0920055E0,1.314526E0,2.7676283E1,3.6184351E0,4.2643046E0,7.341641E0,1.3365192E1,3.3741114E0,2.5679758E1],"tree_param":{"num_deleted":"0","num_feature":"29","num_nodes":"33","size_leaf_vector":"1"}},{"base_weights":[2.063125E-2,9.373933E-1,-4.93438E-1,2.449441E-1,1.0816945E0,-6.690095E-1,9.357172E-1,-5.62174E-2,7.1133983E-1,1.3970088E-3,1.1446077E0,-9.650412E-1,1.11956045E-1,-2.337054E-3,6.696862E-2,6.0783308E-2,-1.582429E-2,4.5535453E-3,1.1955878E0,-1.0667737E0,9.169009E-2,-5.5254277E-2,3.5256463E-1,6.0877156E-2,1.762581E-2,-5.6177586E-2,-2.3326876E-3,4.4375386E-2,-4.4030283E-2,2.7315233E-2,-4.7762636E-2],"categories":[],"categories_nodes":[],"categories_segments":[],"categories_sizes":[],"default_left":[0,0,0,0,0,0,0,0,0,0,0,0,0,0,0,0,0,0,0,0,0,0,0,0,0,0,0,0,0,0,0],"id":11,"left_children":[1,3,5,7,9,11,13,-1,15,-1,17,19,21,-1,-1,-1,-1,-1,23,25,27,-1,29,-1,-1,-1,-1,-1,-1,-1,-1],"loss_changes":[4.531096E1,3.185835E0,1.6089653E1,5.4288893E0,1.8432808E0,1.2931833E1,2.9019027E0,0E0,3.5049152E0,0E0,1.3234367E0,4.4330063E0,5.1166453E0,0E0,0E0,0E0,0E0,0E0,4.011154E-2,2.0827484E0,4.2342176E0,0E0,4.128949E0,0E0,0E0,0E0,0E0,0E0,0E0,0E0,0E0],"parents":[2147483647,0,0,1,1,2,2,3,3,4,4,5,5,6,6,8,8,10,10,11,11,12,12,18,18,19,19,20,20,22,22],"right_children":[2,4,6,8,10,12,14,-1,16,-1,18,20,22,-1,-1,-1,-1,-1,24,26,28,-1,30,-1,-1,-1,-1,-1,-1,-1,-1],"split_conditions":[4E0,4.21E1,7.5E1,1E0,1.481E1,5.167E1,4.863E1,-5.62174E-2,5.65E1,1.3970088E-3,3.3E1,6.3E1,3E0,-2.337054E-3,6.696862E-2,6.0783308E-2,-1.582429E-2,4.5535453E-3,7.3E0,1.8E1,3.78E1,-5.5254277E-2,5.553E1,6.0877156E-2,1.762581E-2,-5.6177586E-2,-2.3326876E-3,4.4375386E-2,-4.4030283E-2,2.7315233E-2,-4.7762636E-2],"split_indices":[18,10,11,26,5,2,5,0,3,0,11,11,22,0,0,0,0,0,17,16,17,0,10,0,0,0,0,0,0,0,0],"split_type":[0,0,0,0,0,0,0,0,0,0,0,0,0,0,0,0,0,0,0,0,0,0,0,0,0,0,0,0,0,0,0],"sum_hessian":[9.416315E1,3.3535088E1,6.062806E1,6.248456E0,2.7286633E1,5.44685E1,6.1595626E0,1.2291312E0,5.019325E0,1.6186926E0,2.566794E1,3.9325954E1,1.5142543E1,2.0512414E0,4.108321E0,3.2445543E0,1.7747705E0,1.3133389E0,2.43546E1,3.586381E1,3.4621437E0,1.9064583E0,1.3236085E1,2.330355E1,1.0510505E0,3.3876892E1,1.986919E0,1.9518065E0,1.5103371E0,1.2035434E1,1.2006513E0],"tree_param":{"num_deleted":"0","num_feature":"29","num_nodes":"31","size_leaf_vector":"1"}},{"base_weights":[5.9724312E-2,5.2613324E-1,-8.986E-1,9.623312E-1,7.790596E-2,9.0705104E-2,-1.0278567E0,1.974699E-1,1.082244E0,-1.5830347E-1,7.2469825E-1,-4.958828E-2,5.4093685E-2,-3.0502477E-1,-6.8788804E-2,4.8055302E-2,-3.1501362E-1,1.3538923E-3,1.1425381E0,-6.139199E-2,2.4462758E-2,9.761486E-1,-1.2199973E-2,4.2323014E-1,-6.149583E-2,-6.4733565E-2,2.471329E-2,5.9594393E-2,3.9949194E-3,-6.3733324E-2,1.0875678E-2,1.1896383E-2,6.522656E-2,4.4415917E-2,-4.2697348E-2],"categories":[],"categories_nodes":[],"categories_segments":[],"categories_sizes":[],"default_left":[0,0,0,0,0,0,0,0,0,0,0,0,0,0,0,0,0,0,0,0,0,0,0,0,0,0,0,0,0,0,0,0,0,0,0],"id":12,"left_children":[1,3,5,7,9,11,13,15,17,19,21,-1,-1,23,-1,-1,25,-1,27,-1,29,31,-1,33,-1,-1,-1,-1,-1,-1,-1,-1,-1,-1,-1],"loss_changes":[4.5244125E1,1.3221249E1,4.333576E0,2.9392662E0,5.4052157E0,6.17013E0,6.976454E0,2.604815E0,1.8455391E0,5.1487226E0,2.5382185E0,0E0,0E0,7.8224936E0,0E0,0E0,4.0277443E0,0E0,1.3666382E0,0E0,6.132049E0,1.5554366E0,0E0,4.8032265E0,0E0,0E0,0E0,0E0,0E0,0E0,0E0,0E0,0E0,0E0,0E0],"parents":[2147483647,0,0,1,1,2,2,3,3,4,4,5,5,6,6,7,7,8,8,9,9,10,10,13,13,16,16,18,18,20,20,21,21,23,23],"right_children":[2,4,6,8,10,12,14,16,18,20,22,-1,-1,24,-1,-1,26,-1,28,-1,30,32,-1,34,-1,-1,-1,-1,-1,-1,-1,-1,-1,-1,-1],"split_conditions":[2.56E1,6.5E0,2.817E1,4.265E1,5.492E1,1.3E1,5.36E1,2.109E1,1.481E1,3E0,7E0,-4.958828E-2,5.4093685E-2,5.8E1,-6.8788804E-2,4.8055302E-2,4.4E0,1.3538923E-3,8.4E1,-6.139199E-2,2.857143E-1,3.846154E-1,-1.2199973E-2,4.611E1,-6.149583E-2,-6.4733565E-2,2.471329E-2,5.9594393E-2,3.9949194E-3,-6.3733324E-2,1.0875678E-2,1.1896383E-2,6.522656E-2,4.4415917E-2,-4.2697348E-2],"split_indices":[17,17,5,0,4,18,17,4,5,22,22,0,0,7,0,0,17,0,8,0,28,28,0,2,0,0,0,0,0,0,0,0,0,0,0],"split_type":[0,0,0,0,0,0,0,0,0,0,0,0,0,0,0,0,0,0,0,0,0,0,0,0,0,0,0,0,0,0,0,0,0,0,0],"sum_hessian":[9.916611E1,6.700586E1,3.216024E1,3.3377327E1,3.3628536E1,3.7507808E0,2.840946E1,4.882325E0,2.8495E1,2.518587E1,8.442666E0,1.7925292E0,1.9582516E0,9.840888E0,1.8568573E1,1.6091664E0,3.273159E0,1.6185691E0,2.6876432E1,2.8412085E0,2.2344662E1,6.696679E0,1.7459869E0,5.809175E0,4.031713E0,1.209382E0,2.063777E0,2.5567434E1,1.3089985E0,2.1659846E0,2.0178677E1,2.5927002E0,4.103979E0,4.481639E0,1.3275361E0],"tree_param":{"num_deleted":"0","num_feature":"29","num_nodes":"35","size_leaf_vector":"1"}},{"base_weights":[5.4228947E-2,8.882832E-1,-4.4063658E-1,1.1193774E0,5.40785E-1,-7.292168E-1,3.0260092E-1,1.2352449E0,-1.2504424E-2,8.6387473E-1,-7.839479E-1,-9.681764E-1,-4.272017E-3,-2.320973E-1,1.0972649E0,1.7020514E-2,1.2677587E0,-4.3683606E-3,9.623006E-1,-6.597249E-2,1.5971063E-2,-6.871208E-2,-6.002615E-1,-6.369957E-2,7.104371E-1,1.7464612E-1,-7.702876E-1,6.936406E-2,-1.9129353E-3,6.521199E-2,1.7159937E-2,5.352972E-2,-1.7299682E-3,1.9280441E-2,-4.8278596E-2,1.2226261E-3,5.893745E-2,-4.228896E-2,2.4567805E-2,-5.850921E-2,1.9546658E-2],"categories":[],"categories_nodes":[],"categories_segments":[],"categories_sizes":[],"default_left":[0,0,0,0,0,0,0,0,0,0,0,0,0,0,0,0,0,0,0,0,0,0,0,0,0,0,0,0,0,0,0,0,0,0,0,0,0,0,0,0,0],"id":13,"left_children":[1,3,5,7,9,11,13,15,-1,17,19,21,23,25,27,-1,29,-1,31,-1,-1,-1,33,-1,35,37,39,-1,-1,-1,-1,-1,-1,-1,-1,-1,-1,-1,-1,-1,-1],"loss_changes":[4.0510994E1,2.32802E0,1.3448751E1,3.6417084E0,7.7496924E0,7.742529E0,7.884206E0,1.3676262E-1,0E0,1.3723783E0,2.645533E0,4.199009E0,1.1876941E1,2.6648588E0,2.4889994E0,0E0,1.7574883E-1,0E0,1.3922358E0,0E0,0E0,0E0,7.365787E0,0E0,2.6626387E0,2.8066678E0,2.8537724E0,0E0,0E0,0E0,0E0,0E0,0E0,0E0,0E0,0E0,0E0,0E0,0E0,0E0,0E0],"parents":[2147483647,0,0,1,1,2,2,3,3,4,4,5,5,6,6,7,7,9,9,10,10,11,11,12,12,13,13,14,14,16,16,18,18,22,22,24,24,25,25,26,26],"right_children":[2,4,6,8,10,12,14,16,-1,18,20,22,24,26,28,-1,30,-1,32,-1,-1,-1,34,-1,36,38,40,-1,-1,-1,-1,-1,-1,-1,-1,-1,-1,-1,-1,-1,-1],"split_conditions":[4E0,5.65E1,5.7E1,1E2,1.6677068E0,5.167E1,4.911E1,2.2E1,-1.2504424E-2,7.15E1,6.601E1,2.765E1,7.098E1,4E1,5.516E1,1.7020514E-2,8.4E1,-4.3683606E-3,1.5040774E0,-6.597249E-2,1.5971063E-2,-6.871208E-2,3.245E1,-6.369957E-2,5.3846157E-1,3.38E1,7E1,6.936406E-2,-1.9129353E-3,6.521199E-2,1.7159937E-2,5.352972E-2,-1.7299682E-3,1.9280441E-2,-4.8278596E-2,1.2226261E-3,5.893745E-2,-4.228896E-2,2.4567805E-2,-5.850921E-2,1.9546658E-2],"split_indices":[18,3,11,4,27,2,5,2,0,3,0,4,9,4,0,0,8,0,27,0,0,0,4,0,28,10,2,0,0,0,0,0,0,0,0,0,0,0,0,0,0],"split_type":[0,0,0,0,0,0,0,0,0,0,0,0,0,0,0,0,0,0,0,0,0,0,0,0,0,0,0,0,0,0,0,0,0,0,0,0,0,0,0,0,0],"sum_hessian":[9.620195E1,3.5527813E1,6.0674137E1,2.0003666E1,1.5524144E1,4.37183E1,1.695584E1,1.853359E1,1.4700756E0,1.2759992E1,2.7641528E0,3.2627842E1,1.1090458E1,1.055902E1,6.3968196E0,1.05195E0,1.7481642E1,1.2070215E0,1.155297E1,1.7291173E0,1.0350355E0,1.4209598E1,1.8418243E1,3.7124887E0,7.377969E0,6.398656E0,4.1603637E0,4.918825E0,1.4779942E0,1.642297E1,1.0586722E0,1.0354258E1,1.1987128E0,4.9646034E0,1.345364E1,3.4202259E0,3.957743E0,1.1198933E0,5.278763E0,3.088901E0,1.0714625E0],"tree_param":{"num_deleted":"0","num_feature":"29","num_nodes":"41","size_leaf_vector":"1"}},{"base_weights":[5.2909482E-2,1.0272923E0,-4.0112755E-1,-6.1271423E-3,1.078574E0,-1.1520343E-1,-1.0298623E0,1.1479367E0,1.8699794E-1,-1.0210708E0,7.311892E-2,-1.1506763E0,1.1138402E-2,4.950935E-1,1.2460631E0,-2.5414058E-3,1.7797133E-2,-6.930218E-2,3.3223636E-2,-4.6620014E-1,5.274245E-1,5.008E-3,-6.543762E-2,-1.2264391E-2,4.364319E-2,1.1607799E-2,6.508279E-2,8.258092E-3,-5.209746E-2,5.0855603E-2,-1.1831746E-2],"categories":[],"categories_nodes":[],"categories_segments":[],"categories_sizes":[],"default_left":[0,0,0,0,0,0,0,0,0,0,0,0,0,0,0,0,0,0,0,0,0,0,0,0,0,0,0,0,0,0,0],"id":14,"left_children":[1,3,5,-1,7,9,11,13,15,17,19,21,-1,23,25,-1,-1,-1,-1,27,29,-1,-1,-1,-1,-1,-1,-1,-1,-1,-1],"loss_changes":[4.1223156E1,1.8777103E0,1.1322896E1,0E0,1.5441856E0,7.7302175E0,3.248188E0,1.061058E0,1.4857578E-1,5.713479E0,9.5773535E0,3.7283096E0,0E0,1.6354685E0,9.441414E-1,0E0,0E0,0E0,0E0,6.694892E0,8.150616E0,0E0,0E0,0E0,0E0,0E0,0E0,0E0,0E0,0E0,0E0],"parents":[2147483647,0,0,1,1,2,2,4,4,5,5,6,6,7,7,8,8,9,9,10,10,11,11,13,13,14,14,19,19,20,20],"right_children":[2,4,6,-1,8,10,12,14,16,18,20,22,-1,24,26,-1,-1,-1,-1,28,30,-1,-1,-1,-1,-1,-1,-1,-1,-1,-1],"split_conditions":[6.5E0,3.5E1,8.2E1,-6.1271423E-3,8.1E1,3.667E1,8.1E1,4.265E1,4E0,6.84E1,4.6E1,1.786E1,1.1138402E-2,1.5E1,1.481E1,-2.5414058E-3,1.7797133E-2,-6.930218E-2,3.3223636E-2,7E0,1.6E1,5.008E-3,-6.543762E-2,-1.2264391E-2,4.364319E-2,1.1607799E-2,6.508279E-2,8.258092E-3,-5.209746E-2,5.0855603E-2,-1.1831746E-2],"split_indices":[17,9,17,0,11,5,11,0,22,17,11,15,0,16,5,0,0,0,0,18,16,0,0,0,0,0,0,0,0,0,0],"split_type":[0,0,0,0,0,0,0,0,0,0,0,0,0,0,0,0,0,0,0,0,0,0,0,0,0,0,0,0,0,0,0],"sum_hessian":[9.1248055E1,2.8602753E1,6.2645298E1,1.1618663E0,2.7440887E1,4.3875607E1,1.8769691E1,2.519336E1,2.2475283E0,6.7904215E0,3.7085186E1,1.719286E1,1.5768304E0,4.0818577E0,2.11115E1,1.2238456E0,1.0236827E0,5.7278504E0,1.0625707E0,1.6944138E1,2.0141048E1,1.9700991E0,1.5222761E1,1.4975494E0,2.5843084E0,1.3664281E0,1.9745073E1,8.421891E0,8.522246E0,1.2072536E1,8.068513E0],"tree_param":{"num_deleted":"0","num_feature":"29","num_nodes":"31","size_leaf_vector":"1"}},{"base_weights":[2.7420979E-2,4.4226226E-1,-9.97796E-1,9.019145E-1,3.651708E-2,-6.55063E-2,-3.8022602E-1,9.6216565E-1,-7.594913E-3,-4.4303834E-1,7.8850806E-1,1.7625298E-1,-5.5471975E-2,2.4322075E-4,1.0178529E0,-4.82755E-2,-6.691576E-2,-4.532686E-1,1.0558249E0,-4.308511E-2,7.079383E-1,2.204596E-2,5.6125928E-2,-5.060924E-2,3.1066502E-2,1.9160457E-2,-5.0471243E-2,6.2999554E-2,-3.3792653E-3,5.6349397E-2,3.9731096E-3],"categories":[],"categories_nodes":[],"categories_segments":[],"categories_sizes":[],"default_left":[0,0,0,0,0,0,0,0,0,0,0,0,0,0,0,0,0,0,0,0,0,0,0,0,0,0,0,0,0,0,0],"id":15,"left_children":[1,3,5,7,9,-1,11,13,-1,15,17,19,-1,-1,21,23,-1,25,27,-1,29,-1,-1,-1,-1,-1,-1,-1,-1,-1,-1],"loss_changes":[3.9347157E1,1.2242358E1,4.644083E0,2.1028385E0,1.3332253E1,0E0,4.400817E0,1.5563164E0,0E0,7.930871E0,5.2514763E0,4.3299522E0,0E0,0E0,1.1760406E0,1.1432015E1,0E0,1.8971823E0,2.8677502E0,0E0,1.2289326E0,0E0,0E0,0E0,0E0,0E0,0E0,0E0,0E0,0E0,0E0],"parents":[2147483647,0,0,1,1,2,2,3,3,4,4,6,6,7,7,9,9,10,10,11,11,14,14,15,15,17,17,18,18,20,20],"right_children":[2,4,6,8,10,-1,12,14,-1,16,18,20,-1,-1,22,24,-1,26,28,-1,30,-1,-1,-1,-1,-1,-1,-1,-1,-1,-1],"split_conditions":[3.78E1,4E0,4.556E1,1.8E1,5.7E1,-6.55063E-2,1E0,1.481E1,-7.594913E-3,5.32E1,3.5714287E-1,2.765E1,-5.5471975E-2,2.4322075E-4,4.21E1,4.48E1,-6.691576E-2,4.191E1,1E0,-4.308511E-2,3.87E1,2.204596E-2,5.6125928E-2,-5.060924E-2,3.1066502E-2,1.9160457E-2,-5.0471243E-2,6.2999554E-2,-3.3792653E-3,5.6349397E-2,3.9731096E-3],"split_indices":[17,18,5,16,11,0,20,5,0,10,28,4,0,0,10,10,0,0,26,0,10,0,0,0,0,0,0,0,0,0,0],"split_type":[0,0,0,0,0,0,0,0,0,0,0,0,0,0,0,0,0,0,0,0,0,0,0,0,0,0,0,0,0,0,0],"sum_hessian":[9.047814E1,6.481868E1,2.5659456E1,2.9817167E1,3.5001514E1,1.6296328E1,9.36313E0,2.828685E1,1.5303181E0,2.162304E1,1.3378476E1,5.740627E0,3.6225026E0,1.6147958E0,2.6672054E1,1.5737622E1,5.8854165E0,2.246607E0,1.1131869E1,1.7342762E0,4.006351E0,4.896177E0,2.1775877E1,6.2414002E0,9.496222E0,1.0213823E0,1.2252249E0,9.317034E0,1.8148351E0,1.9277655E0,2.0785854E0],"tree_param":{"num_deleted":"0","num_feature":"29","num_nodes":"31","size_leaf_vector":"1"}},{"base_weights":[1.7983359E-4,3.6875108E-1,-8.7017334E-1,1.0888656E0,1.2589179E-1,-6.301891E-2,-4.5628402E-1,5.964573E-2,-5.2036582E-3,-5.9422757E-2,2.2569093E-1,-5.8068186E-2,6.182081E-2,4.1476426E-1,-3.4250012E-1,5.207685E-1,-4.8159223E-2,2.235052E-3,4.4292234E-2,-4.9616903E-2,1.1116284E-2,4.4668E-2,-3.6506586E-2],"categories":[],"categories_nodes":[],"categories_segments":[],"categories_sizes":[],"default_left":[0,0,0,0,0,0,0,0,0,0,0,0,0,0,0,0,0,0,0,0,0,0,0],"id":16,"left_children":[1,3,5,7,9,-1,11,-1,-1,-1,13,-1,15,17,19,21,-1,-1,-1,-1,-1,-1,-1],"loss_changes":[2.8260561E1,1.0686437E1,3.6576195E0,2.0452728E0,6.4872026E0,0E0,5.290435E0,0E0,0E0,0E0,4.9662814E0,0E0,4.8220425E0,5.9130697E0,4.536993E0,3.9114408E0,0E0,0E0,0E0,0E0,0E0,0E0,0E0],"parents":[2147483647,0,0,1,1,2,2,3,3,4,4,6,6,10,10,12,12,13,13,14,14,15,15],"right_children":[2,4,6,8,10,-1,12,-1,-1,-1,14,-1,16,18,20,22,-1,-1,-1,-1,-1,-1,-1],"split_conditions":[3.6584203E0,1.3333334E-1,3.221E1,5E0,1.971E1,-6.301891E-2,5.5E1,5.964573E-2,-5.2036582E-3,-5.9422757E-2,5.527E1,-5.8068186E-2,4.567E1,4.323E1,6.2E1,1.6E1,-4.8159223E-2,2.235052E-3,4.4292234E-2,-4.9616903E-2,1.1116284E-2,4.4668E-2,-3.6506586E-2],"split_indices":[27,28,4,19,4,0,7,0,0,0,10,0,10,4,7,16,0,0,0,0,0,0,0],"split_type":[0,0,0,0,0,0,0,0,0,0,0,0,0,0,0,0,0,0,0,0,0,0,0],"sum_hessian":[8.609726E1,6.0888805E1,2.5208458E1,1.447745E1,4.6411354E1,1.192276E1,1.3285697E1,1.3316037E1,1.1614134E0,2.5055099E0,4.3905846E1,5.1015406E0,8.184157E0,3.3146065E1,1.0759779E1,5.992805E0,2.191352E0,1.9176563E1,1.3969502E1,4.651401E0,6.1083775E0,4.8376846E0,1.1551203E0],"tree_param":{"num_deleted":"0","num_feature":"29","num_nodes":"23","size_leaf_vector":"1"}},{"base_weights":[4.0660214E-2,5.6772643E-1,-7.057338E-1,8.542692E-1,7.601795E-2,-4.1383278E-1,-6.439518E-2,1.0741236E0,5.538793E-1,-5.8275398E-2,3.400466E-1,-5.746899E-1,5.203407E-1,1.2012393E0,5.1157033E-1,-3.3420283E-2,7.9667383E-1,-5.330404E-1,5.725735E-1,-8.6614645E-1,2.695423E-1,1.1878087E-3,3.9282706E-2,6.2164593E-2,1.7669043E-2,-2.1742677E-2,4.8888694E-2,-2.4644341E-2,5.100379E-2,2.726999E-2,-5.4509807E-2,3.801199E-2,-4.175308E-2,2.7240042E-2,-4.980638E-2,5.184809E-2,-1.6589608E-2],"categories":[],"categories_nodes":[],"categories_segments":[],"categories_sizes":[],"default_left":[0,0,0,0,0,0,0,0,0,0,0,0,0,0,0,0,0,0,0,0,0,0,0,0,0,0,0,0,0,0,0,0,0,0,0,0,0],"id":17,"left_children":[1,3,5,7,9,11,-1,13,15,-1,17,19,21,23,25,-1,27,29,31,33,35,-1,-1,-1,-1,-1,-1,-1,-1,-1,-1,-1,-1,-1,-1,-1,-1],"loss_changes":[3.4731064E1,7.21966E0,5.6805534E0,1.5559464E0,6.9961495E0,4.179969E0,0E0,6.5408516E-1,5.22968E0,0E0,3.83303E0,5.771708E0,5.5032504E-1,5.0138474E-2,2.6364222E0,0E0,4.4384365E0,3.101696E0,4.387198E0,3.654745E0,3.3616352E0,0E0,0E0,0E0,0E0,0E0,0E0,0E0,0E0,0E0,0E0,0E0,0E0,0E0,0E0,0E0,0E0],"parents":[2147483647,0,0,1,1,2,2,3,3,4,4,5,5,7,7,8,8,10,10,11,11,12,12,13,13,14,14,16,16,17,17,18,18,19,19,20,20],"right_children":[2,4,6,8,10,12,-1,14,16,-1,18,20,22,24,26,-1,28,30,32,34,36,-1,-1,-1,-1,-1,-1,-1,-1,-1,-1,-1,-1,-1,-1,-1,-1],"split_conditions":[1.97E1,4E0,4.567E1,5.65E1,6E1,4.926E1,-6.439518E-2,5.333E1,4.21E1,-5.8275398E-2,4.5E1,4.407E1,3.355E1,2.2222222E-1,5.405E1,-3.3420283E-2,6.5E1,5.2E1,6E0,4.1E1,3.016E1,1.1878087E-3,3.9282706E-2,6.2164593E-2,1.7669043E-2,-2.1742677E-2,4.8888694E-2,-2.4644341E-2,5.100379E-2,2.726999E-2,-5.4509807E-2,3.801199E-2,-4.175308E-2,2.7240042E-2,-4.980638E-2,5.184809E-2,-1.6589608E-2],"split_indices":[17,18,10,3,9,5,0,5,10,0,10,10,0,28,0,0,3,7,19,7,0,0,0,0,0,0,0,0,0,0,0,0,0,0,0,0,0],"split_type":[0,0,0,0,0,0,0,0,0,0,0,0,0,0,0,0,0,0,0,0,0,0,0,0,0,0,0,0,0,0,0,0,0,0,0,0,0],"sum_hessian":[8.626609E1,5.070214E1,3.556395E1,3.1568356E1,1.9133783E1,2.4826664E1,1.07372875E1,1.674037E1,1.4827986E1,2.756717E0,1.6377066E1,2.1507977E1,3.318686E0,1.2728806E1,4.0115647E0,2.166806E0,1.266118E1,3.1725307E0,1.32045355E1,1.5969001E1,5.5389767E0,1.5350631E0,1.7836227E0,1.1682959E1,1.0458472E0,1.3461127E0,2.665452E0,1.6914146E0,1.0969765E1,1.0878907E0,2.0846398E0,1.2057009E1,1.1475271E0,1.0778234E0,1.4891177E1,2.1151724E0,3.4238045E0],"tree_param":{"num_deleted":"0","num_feature":"29","num_nodes":"37","size_leaf_vector":"1"}},{"base_weights":[8.7771736E-2,4.5727572E-1,-8.556332E-1,7.9807234E-1,1.280898E-1,-1.0407914E0,4.080787E-2,-9.883343E-3,8.6376625E-1,-5.838529E-2,3.0801156E-1,-1.1447625E0,2.1894498E-2,6.1933167E-2,6.219223E-1,7.7488296E-2,9.6387863E-1,-4.3632653E-1,-6.2840454E-2,1.1867242E-2,4.841722E-2,-4.8008066E-2,9.566545E-3,6.0398042E-2,9.497678E-3,-5.0650865E-2,3.9937157E-2],"categories":[],"categories_nodes":[],"categories_segments":[],"categories_sizes":[],"default_left":[0,0,0,0,0,0,0,0,0,0,0,0,0,0,0,0,0,0,0,0,0,0,0,0,0,0,0],"id":18,"left_children":[1,3,5,7,9,11,-1,-1,13,-1,15,17,-1,-1,19,21,23,25,-1,-1,-1,-1,-1,-1,-1,-1,-1],"loss_changes":[3.2611996E1,7.4219465E0,9.009697E0,2.3138466E0,8.591176E0,4.21764E0,0E0,0E0,2.033123E0,0E0,4.7322507E0,1.2663231E0,0E0,0E0,2.5418215E0,3.0911376E0,1.3159657E0,4.1238327E0,0E0,0E0,0E0,0E0,0E0,0E0,0E0,0E0,0E0],"parents":[2147483647,0,0,1,1,2,2,3,3,4,4,5,5,8,8,10,10,11,11,14,14,15,15,16,16,17,17],"right_children":[2,4,6,8,10,12,-1,-1,14,-1,16,18,-1,-1,20,22,24,26,-1,-1,-1,-1,-1,-1,-1,-1,-1],"split_conditions":[3.78E1,4E0,8.1E1,1.481E1,4.5E1,7.5E1,4.080787E-2,-9.883343E-3,2.5E0,-5.838529E-2,5.439E1,5.36E1,2.1894498E-2,6.1933167E-2,4.8E0,2.857143E-1,1E2,5.27E1,-6.2840454E-2,1.1867242E-2,4.841722E-2,-4.8008066E-2,9.566545E-3,6.0398042E-2,9.497678E-3,-5.0650865E-2,3.9937157E-2],"split_indices":[17,18,11,5,11,7,0,0,17,0,4,17,0,0,17,28,4,17,0,0,0,0,0,0,0,0,0],"split_type":[0,0,0,0,0,0,0,0,0,0,0,0,0,0,0,0,0,0,0,0,0,0,0,0,0,0,0],"sum_hessian":[9.143111E1,6.606908E1,2.5362024E1,3.1762207E1,3.4306873E1,2.3172956E1,2.1890674E0,1.8414826E0,2.9920725E1,3.5133889E0,3.0793484E1,2.1861612E1,1.3113437E0,1.0116607E1,1.980412E1,2.3612381E1,7.181102E0,3.653811E0,1.8207802E1,1.0183797E1,9.620321E0,1.5994691E0,2.2012913E1,5.032969E0,2.1481326E0,2.6133497E0,1.0404614E0],"tree_param":{"num_deleted":"0","num_feature":"29","num_nodes":"27","size_leaf_vector":"1"}},{"base_weights":[1.8656388E-2,3.7236127E-1,-8.460241E-1,7.294944E-1,5.7174745E-3,-1.0193944E0,5.0097454E-1,-4.683832E-2,8.385912E-1,2.295851E-1,-6.2592044E-2,-5.8897372E-2,-6.263116E-2,8.371083E-3,3.337182E-2,6.2061656E-1,-5.743404E-2,-2.467503E-3,8.936449E-1,-3.3912575E-1,7.517161E-1,-4.8781525E-2,6.2846094E-2,4.4428598E-2,1.6260169E-3,-1.4768566E-3,4.697666E-2,-5.227111E-2,2.2517119E-2,-4.4329878E-2,4.9994934E-2],"categories":[],"categories_nodes":[],"categories_segments":[],"categories_sizes":[],"default_left":[0,0,0,0,0,0,0,0,0,0,0,0,0,0,0,0,0,0,0,0,0,0,0,0,0,0,0,0,0,0,0],"id":19,"left_children":[1,3,5,7,9,11,13,15,17,19,-1,21,-1,-1,-1,23,-1,-1,25,27,29,-1,-1,-1,-1,-1,-1,-1,-1,-1,-1],"loss_changes":[2.7434484E1,8.326798E0,6.5935516E0,2.7683449E0,9.409396E0,5.16971E0,9.040433E-2,4.329221E0,1.4277687E0,8.673356E0,0E0,8.008498E0,0E0,0E0,0E0,5.5597675E-1,0E0,0E0,1.1590481E0,8.421624E0,7.022687E0,0E0,0E0,0E0,0E0,0E0,0E0,0E0,0E0,0E0,0E0],"parents":[2147483647,0,0,1,1,2,2,3,3,4,4,5,5,6,6,7,7,8,8,9,9,11,11,15,15,18,18,19,19,20,20],"right_children":[2,4,6,8,10,12,14,16,18,20,-1,22,-1,-1,-1,24,-1,-1,26,28,30,-1,-1,-1,-1,-1,-1,-1,-1,-1,-1],"split_conditions":[3.34E1,4E0,8.1E1,4.067E1,5.603E1,3.413E1,1.8E3,4.7E1,1.481E1,4.5454547E-1,-6.2592044E-2,3.343E1,-6.263116E-2,8.371083E-3,3.337182E-2,5E1,-5.743404E-2,-2.467503E-3,3.3E1,4.517E1,3.3E1,-4.8781525E-2,6.2846094E-2,4.4428598E-2,1.6260169E-3,-1.4768566E-3,4.697666E-2,-5.227111E-2,2.2517119E-2,-4.4329878E-2,4.9994934E-2],"split_indices":[17,18,11,10,10,10,25,11,5,28,0,10,0,0,0,3,0,0,11,10,11,0,0,0,0,0,0,0,0,0,0],"split_type":[0,0,0,0,0,0,0,0,0,0,0,0,0,0,0,0,0,0,0,0,0,0,0,0,0,0,0,0,0,0,0],"sum_hessian":[8.767154E1,6.262402E1,2.504752E1,3.122213E1,3.140189E1,2.2406786E1,2.6407347E0,3.9172993E0,2.730483E1,2.735046E1,4.0514297E0,4.6225314E0,1.7784254E1,1.546885E0,1.0938498E0,2.7115128E0,1.2057863E0,1.6001532E0,2.5704678E1,1.3259051E1,1.4091408E1,2.876799E0,1.7457323E0,1.5117717E0,1.1997411E0,1.2340634E0,2.4470613E1,6.8270397E0,6.432012E0,1.5154163E0,1.2575992E1],"tree_param":{"num_deleted":"0","num_feature":"29","num_nodes":"31","size_leaf_vector":"1"}},{"base_weights":[-3.3097174E-2,-4.4484642E-1,6.5222555E-1,4.4377053E-1,-7.003892E-1,8.0001926E-1,-4.8677918E-2,5.9707124E-2,-8.339907E-2,-4.2515585E-1,-5.9831757E-2,-4.422486E-2,9.125704E-1,3.6390316E-2,-6.107941E-1,-6.936797E-1,9.624351E-1,1.0364207E0,-2.9674063E-2,-7.908266E-2,9.295697E-3,-6.4668216E-2,-1.990354E-2,1.0983685E-2,6.2183887E-2,1.8029638E-2,5.6807827E-2],"categories":[],"categories_nodes":[],"categories_segments":[],"categories_sizes":[],"default_left":[0,0,0,0,0,0,0,0,0,0,0,0,0,0,0,0,0,0,0,0,0,0,0,0,0,0,0],"id":20,"left_children":[1,3,5,7,9,11,-1,-1,13,15,-1,-1,17,-1,19,21,23,25,-1,-1,-1,-1,-1,-1,-1,-1,-1],"loss_changes":[2.4615671E1,1.2674297E1,8.650404E0,5.1519756E0,5.319706E0,6.6047344E0,0E0,0E0,4.0539412E0,1.1473143E1,0E0,0E0,6.0533886E0,0E0,4.6692133E0,3.895544E0,7.965498E-1,1.4307499E0,0E0,0E0,0E0,0E0,0E0,0E0,0E0,0E0,0E0],"parents":[2147483647,0,0,1,1,2,2,3,3,4,4,5,5,8,8,9,9,12,12,14,14,15,15,16,16,17,17],"right_children":[2,4,6,8,10,12,-1,-1,14,16,-1,-1,18,-1,20,22,24,26,-1,-1,-1,-1,-1,-1,-1,-1,-1],"split_conditions":[5.7E1,6.5E0,8.181818E-1,2.536E1,7.74E1,3.167E1,-4.8677918E-2,5.9707124E-2,2.3E0,7.3333335E-1,-5.9831757E-2,-4.422486E-2,6.347E1,3.6390316E-2,4.4E0,4.48E1,4.6E1,2.381E1,-2.9674063E-2,-7.908266E-2,9.295697E-3,-6.4668216E-2,-1.990354E-2,1.0983685E-2,6.2183887E-2,1.8029638E-2,5.6807827E-2],"split_indices":[11,17,28,4,17,10,0,0,17,28,0,0,10,0,17,10,11,5,0,0,0,0,0,0,0,0,0],"split_type":[0,0,0,0,0,0,0,0,0,0,0,0,0,0,0,0,0,0,0,0,0,0,0,0,0,0,0],"sum_hessian":[8.5205376E1,5.3445587E1,3.1759785E1,1.1772314E1,4.1673275E1,2.957881E1,2.1809764E0,4.335697E0,7.436617E0,2.8000225E1,1.367305E1,1.4229755E0,2.8155834E1,2.7802348E0,4.6563816E0,2.3879244E1,4.1209803E0,2.6304508E1,1.8513243E0,1.6547217E0,3.00166E0,6.7700276E0,1.7109217E1,1.6210008E0,2.4999795E0,3.9762452E0,2.2328264E1],"tree_param":{"num_deleted":"0","num_feature":"29","num_nodes":"27","size_leaf_vector":"1"}},{"base_weights":[1.6634028E-2,7.8744847E-1,-4.2182946E-1,-1.0534494E-2,8.57833E-1,-1.0264995E0,-1.1955458E-1,9.2724454E-1,-2.6248365E-3,3.2805704E-2,-1.1734489E0,-5.9147805E-2,8.478799E-2,6.158426E-1,5.5407137E-2,-6.3459136E-2,-9.2611825E-3,3.0726546E-1,-8.807378E-1,5.1923107E-2,-8.744068E-3,2.5957514E-2,-2.6892692E-2,-5.866572E-2,9.916943E-3],"categories":[],"categories_nodes":[],"categories_segments":[],"categories_sizes":[],"default_left":[0,0,0,0,0,0,0,0,0,0,0,0,0,0,0,0,0,0,0,0,0,0,0,0,0],"id":21,"left_children":[1,3,5,-1,7,9,11,13,-1,-1,15,-1,17,19,-1,-1,-1,21,23,-1,-1,-1,-1,-1,-1],"loss_changes":[2.8727697E1,2.3453865E0,9.784681E0,0E0,1.8798141E0,5.2042866E0,8.199195E0,8.373947E-1,0E0,0E0,1.359251E0,0E0,7.1866665E0,4.246811E0,0E0,0E0,0E0,5.0976543E0,2.217937E0,0E0,0E0,0E0,0E0,0E0,0E0],"parents":[2147483647,0,0,1,1,2,2,4,4,5,5,6,6,7,7,10,10,12,12,13,13,17,17,18,18],"right_children":[2,4,6,-1,8,10,12,14,-1,-1,16,-1,18,20,-1,-1,-1,22,24,-1,-1,-1,-1,-1,-1],"split_conditions":[4E0,1.481E1,3.007E1,-1.0534494E-2,8.1E1,4.5E1,6E1,4.632E1,-2.6248365E-3,3.2805704E-2,7.5E1,-5.9147805E-2,5.603E1,4.15E1,5.5407137E-2,-6.3459136E-2,-9.2611825E-3,8.2E1,5.515E1,5.1923107E-2,-8.744068E-3,2.5957514E-2,-2.6892692E-2,-5.866572E-2,9.916943E-3],"split_indices":[18,5,4,0,11,8,9,0,0,0,11,0,10,0,0,0,0,17,0,0,0,0,0,0,0],"split_type":[0,0,0,0,0,0,0,0,0,0,0,0,0,0,0,0,0,0,0,0,0,0,0,0,0],"sum_hessian":[8.301691E1,2.9811922E1,5.3204987E1,1.83243E0,2.797949E1,1.693411E1,3.6270874E1,2.597997E1,1.9995209E0,1.0818391E0,1.5852272E1,5.074424E0,3.1196451E1,1.1164876E1,1.4815094E1,1.4193026E1,1.6592463E0,2.5908379E1,5.2880726E0,7.0718603E0,4.0930157E0,2.102323E1,4.88515E0,4.0914116E0,1.196661E0],"tree_param":{"num_deleted":"0","num_feature":"29","num_nodes":"25","size_leaf_vector":"1"}},{"base_weights":[4.934379E-2,4.208249E-1,-7.778508E-1,8.561769E-1,1.3704641E-1,-1.001044E0,4.925353E-1,9.951519E-1,4.5800948E-1,-1.9735004E-1,6.838049E-1,-1.5889941E-1,-6.133144E-2,-1.2969317E-2,5.658291E-2,6.6705793E-1,6.009785E-2,8.1036824E-1,-3.1186461E-2,-9.182419E-1,3.7971938E-1,-4.0498358E-1,9.1880435E-1,-4.8705842E-2,5.903619E-2,4.719141E-2,3.6106629E-3,1.737596E-2,4.9244855E-2,-5.959285E-2,4.2990908E-2,-1.4204899E-2,4.1947935E-2,-5.058039E-2,2.2846965E-2,6.1066896E-2,1.005009E-2],"categories":[],"categories_nodes":[],"categories_segments":[],"categories_sizes":[],"default_left":[0,0,0,0,0,0,0,0,0,0,0,0,0,0,0,0,0,0,0,0,0,0,0,0,0,0,0,0,0,0,0,0,0,0,0,0,0],"id":22,"left_children":[1,3,5,7,9,11,13,15,17,19,21,23,-1,-1,-1,25,-1,27,-1,29,31,33,35,-1,-1,-1,-1,-1,-1,-1,-1,-1,-1,-1,-1,-1,-1],"loss_changes":[2.6591293E1,7.2497168E0,8.103071E0,8.357754E-1,6.9529276E0,4.204571E0,2.543061E0,3.1432152E-1,3.5134223E0,1.0297376E1,4.0503187E0,7.748076E0,0E0,0E0,0E0,1.3488085E0,0E0,1.7372084E-1,0E0,6.3398504E0,4.503167E0,2.1594799E0,2.388565E0,0E0,0E0,0E0,0E0,0E0,0E0,0E0,0E0,0E0,0E0,0E0,0E0,0E0,0E0],"parents":[2147483647,0,0,1,1,2,2,3,3,4,4,5,5,6,6,7,7,8,8,9,9,10,10,11,11,15,15,17,17,19,19,20,20,21,21,22,22],"right_children":[2,4,6,8,10,12,14,16,18,20,22,24,-1,-1,-1,26,-1,28,-1,30,32,34,36,-1,-1,-1,-1,-1,-1,-1,-1,-1,-1,-1,-1,-1,-1],"split_conditions":[2.92E1,2.2222222E-1,7.5E1,7.2E1,5.7E1,3.413E1,7.75E1,6.5E1,1.3333334E-1,7.5E1,3.952E1,3.343E1,-6.133144E-2,-1.2969317E-2,5.658291E-2,7.098E1,6.009785E-2,5.4E1,-3.1186461E-2,2.75E1,5.167E1,1.96E1,1.6E1,-4.8705842E-2,5.903619E-2,4.719141E-2,3.6106629E-3,1.737596E-2,4.9244855E-2,-5.959285E-2,4.2990908E-2,-1.4204899E-2,4.1947935E-2,-5.058039E-2,2.2846965E-2,6.1066896E-2,1.005009E-2],"split_indices":[17,28,11,3,11,10,9,7,28,9,5,10,0,0,0,9,0,11,0,17,2,17,16,0,0,0,0,0,0,0,0,0,0,0,0,0,0],"split_type":[0,0,0,0,0,0,0,0,0,0,0,0,0,0,0,0,0,0,0,0,0,0,0,0,0,0,0,0,0,0,0,0,0,0,0,0,0],"sum_hessian":[8.44704E1,5.8631226E1,2.583917E1,2.2340704E1,3.629052E1,2.2158224E1,3.6809466E0,1.5449081E1,6.8916225E0,2.2914879E1,1.3375641E1,5.0415792E0,1.7116646E1,1.9642175E0,1.7167292E0,7.6066914E0,7.84239E0,5.3875737E0,1.5040491E0,9.925029E0,1.298985E1,2.2460425E0,1.1129599E1,3.3038745E0,1.7377048E0,4.7908955E0,2.8157957E0,2.2942984E0,3.093275E0,8.887129E0,1.0379004E0,5.4677486E0,7.522102E0,1.216325E0,1.0297174E0,7.3361306E0,3.7934678E0],"tree_param":{"num_deleted":"0","num_feature":"29","num_nodes":"37","size_leaf_vector":"1"}},{"base_weights":[8.957608E-2,4.026325E-1,-7.3995584E-1,7.9249066E-1,5.4369338E-2,1.762777E-1,-9.08396E-1,8.5684055E-1,-1.4233299E-2,1.836777E-1,-5.195443E-2,-3.876721E-2,4.811406E-2,-1.6530444E-1,-5.858366E-2,5.05902E-1,6.1362732E-2,-4.924589E-2,2.9463604E-1,-5.4415417E-1,4.7578793E-2,4.2469274E-2,9.167202E-4,-2.40155E-3,3.9146587E-2,3.5432067E-2,-4.9622774E-2],"categories":[],"categories_nodes":[],"categories_segments":[],"categories_sizes":[],"default_left":[0,0,0,0,0,0,0,0,0,0,0,0,0,0,0,0,0,0,0,0,0,0,0,0,0,0,0],"id":23,"left_children":[1,3,5,7,9,11,13,15,-1,17,-1,-1,-1,19,-1,21,-1,-1,23,25,-1,-1,-1,-1,-1,-1,-1],"loss_changes":[2.254457E1,8.489191E0,3.8368893E0,2.2940235E0,5.0357513E0,4.13977E0,3.7752075E0,3.039566E0,0E0,4.3735604E0,0E0,0E0,0E0,3.2560928E0,0E0,2.690907E0,0E0,0E0,4.9787283E0,3.7745972E0,0E0,0E0,0E0,0E0,0E0,0E0,0E0],"parents":[2147483647,0,0,1,1,2,2,3,3,4,4,5,5,6,6,7,7,9,9,13,13,15,15,18,18,19,19],"right_children":[2,4,6,8,10,12,14,16,-1,18,-1,-1,-1,20,-1,22,-1,-1,24,26,-1,-1,-1,-1,-1,-1,-1],"split_conditions":[3.78E1,4E0,2.817E1,8.4E1,6.067E1,6.6E1,6E1,6.5E1,-1.4233299E-2,2.857143E-1,-5.195443E-2,-3.876721E-2,4.811406E-2,1.4E1,-5.858366E-2,3.5E0,6.1362732E-2,-4.924589E-2,3.961E1,3.413E1,4.7578793E-2,4.2469274E-2,9.167202E-4,-2.40155E-3,3.9146587E-2,3.5432067E-2,-4.9622774E-2],"split_indices":[17,18,5,8,10,7,8,7,0,28,0,0,0,18,0,17,0,0,4,10,0,0,0,0,0,0,0],"split_type":[0,0,0,0,0,0,0,0,0,0,0,0,0,0,0,0,0,0,0,0,0,0,0,0,0,0,0],"sum_hessian":[8.466605E1,6.184213E1,2.2823927E1,2.857675E1,3.326538E1,3.5371263E0,1.92868E1,2.7158802E1,1.4179463E0,3.0491577E1,2.773802E0,1.6061304E0,1.9309958E0,5.47151E0,1.381529E1,1.5160851E1,1.1997952E1,1.9611017E0,2.8530476E1,4.468552E0,1.0029577E0,8.459314E0,6.701536E0,1.7295088E1,1.1235388E1,1.0245847E0,3.4439673E0],"tree_param":{"num_deleted":"0","num_feature":"29","num_nodes":"27","size_leaf_vector":"1"}},{"base_weights":[-1.1954626E-1,-5.9351164E-1,4.0725592E-1,-8.0296344E-1,6.972367E-1,1.0727838E0,-1.5174813E-2,-2.8447822E-1,-1.1446923E0,-3.440377E-3,9.7448266E-1,1.1277653E0,1.3750321E-2,6.8178904E-1,-3.162838E-1,9.591796E-2,-6.3197784E-2,-3.1186946E-4,-6.307167E-2,5.6112487E-2,1.785344E-2,2.0328552E-2,5.9179824E-2,9.351473E-3,1.0939153E0,-6.7515236E-1,5.8353865E-1,-3.7319575E-2,4.382718E-2,4.4952903E-2,-4.2606495E-2,1.217951E-2,6.5089926E-2,-7.005953E-2,-6.989125E-3,-3.7917004E-3,4.8283994E-2],"categories":[],"categories_nodes":[],"categories_segments":[],"categories_sizes":[],"default_left":[0,0,0,0,0,0,0,0,0,0,0,0,0,0,0,0,0,0,0,0,0,0,0,0,0,0,0,0,0,0,0,0,0,0,0,0,0],"id":24,"left_children":[1,3,5,7,9,11,13,15,17,-1,19,21,-1,23,25,27,-1,-1,-1,-1,-1,-1,-1,29,31,33,35,-1,-1,-1,-1,-1,-1,-1,-1,-1,-1],"loss_changes":[2.009123E1,1.1983339E1,1.076801E1,6.1981525E0,1.4336572E0,3.4179688E-1,5.332156E0,6.0669355E0,2.8977032E0,0E0,3.6346436E-2,6.5675735E-2,0E0,2.115967E0,6.11226E0,8.822973E0,0E0,0E0,0E0,0E0,0E0,0E0,0E0,3.7737324E0,5.222273E-1,4.9050164E0,1.4805565E0,0E0,0E0,0E0,0E0,0E0,0E0,0E0,0E0,0E0,0E0],"parents":[2147483647,0,0,1,1,2,2,3,3,4,4,5,5,6,6,7,7,8,8,10,10,11,11,13,13,14,14,15,15,23,23,24,24,25,25,26,26],"right_children":[2,4,6,8,10,12,14,16,18,-1,20,22,-1,24,26,28,-1,-1,-1,-1,-1,-1,-1,30,32,34,36,-1,-1,-1,-1,-1,-1,-1,-1,-1,-1],"split_conditions":[5.167E1,7.2E1,4.3E0,6.5E1,3.54E1,6.037E1,4.9E1,4.907E1,2.1428572E-1,-3.440377E-3,8.2E1,4.157E1,1.3750321E-2,4.583E1,6.133E1,4.457E1,-6.3197784E-2,-3.1186946E-4,-6.307167E-2,5.6112487E-2,1.785344E-2,2.0328552E-2,5.9179824E-2,2.817E1,7.5E1,1.8E3,4.6E1,-3.7319575E-2,4.382718E-2,4.4952903E-2,-4.2606495E-2,1.217951E-2,6.5089926E-2,-7.005953E-2,-6.989125E-3,-3.7917004E-3,4.8283994E-2],"split_indices":[2,11,17,8,10,10,3,10,28,0,17,10,0,10,5,10,0,0,0,0,0,0,0,5,9,25,11,0,0,0,0,0,0,0,0,0,0],"split_type":[0,0,0,0,0,0,0,0,0,0,0,0,0,0,0,0,0,0,0,0,0,0,0,0,0,0,0,0,0,0,0,0,0,0,0,0,0],"sum_hessian":[7.8497925E1,4.12545E1,3.724342E1,3.5819866E1,5.4346385E0,1.3863039E1,2.338038E1,1.4957774E1,2.0862091E1,1.6440008E0,3.7906377E0,1.2582256E1,1.2807821E0,6.6722207E0,1.670816E1,1.1423387E1,3.5343876E0,2.0382807E0,1.8823809E1,2.398853E0,1.3917848E0,1.4991596E0,1.1083097E1,2.9240098E0,3.7482107E0,1.212295E1,4.585211E0,5.5156994E0,5.9076867E0,1.4169829E0,1.507027E0,1.1629685E0,2.5852423E0,4.4588585E0,7.6640906E0,1.976455E0,2.6087556E0],"tree_param":{"num_deleted":"0","num_feature":"29","num_nodes":"37","size_leaf_vector":"1"}},{"base_weights":[-7.5731896E-2,5.145101E-1,-3.5602388E-1,1.0038164E0,2.6370955E-1,-5.9149284E-2,-1.7880951E-1,5.4561455E-2,1.6092552E-2,-8.477665E-2,6.8657905E-1,-4.280662E-1,4.6581024E-1,-7.7842996E-2,4.083224E-1,8.688545E-1,-1.5393033E-2,-5.575592E-1,5.6752425E-1,8.344827E-1,-5.934453E-1,4.067211E-2,-5.780502E-2,5.450652E-3,5.2888133E-2,2.3088379E-2,-3.400635E-2,1.4564394E-3,4.626965E-2,5.0236803E-2,2.961506E-3,6.752606E-3,-4.7018267E-2],"categories":[],"categories_nodes":[],"categories_segments":[],"categories_sizes":[],"default_left":[0,0,0,0,0,0,0,0,0,0,0,0,0,0,0,0,0,0,0,0,0,0,0,0,0,0,0,0,0,0,0,0,0],"id":25,"left_children":[1,3,5,7,9,-1,11,-1,-1,13,15,17,19,-1,21,23,-1,25,27,29,31,-1,-1,-1,-1,-1,-1,-1,-1,-1,-1,-1,-1],"loss_changes":[1.2971045E1,2.839631E0,7.555525E0,1.3855839E-1,2.7226367E0,0E0,7.401589E0,0E0,0E0,8.476803E0,1.76805E0,4.5510316E0,5.5634165E0,0E0,6.5708647E0,9.264631E-1,0E0,4.00846E0,7.969327E-1,1.2660508E0,1.121539E0,0E0,0E0,0E0,0E0,0E0,0E0,0E0,0E0,0E0,0E0,0E0,0E0],"parents":[2147483647,0,0,1,1,2,2,3,3,4,4,6,6,9,9,10,10,11,11,12,12,14,14,15,15,17,17,18,18,19,19,20,20],"right_children":[2,4,6,8,10,-1,12,-1,-1,14,16,18,20,-1,22,24,-1,26,28,30,32,-1,-1,-1,-1,-1,-1,-1,-1,-1,-1,-1,-1],"split_conditions":[4E0,1.2527629E0,5E1,7.8E1,6.15E1,-5.9149284E-2,4.4E1,5.4561455E-2,1.6092552E-2,1.686399E0,5.527E1,6.9E1,5.603E1,-7.7842996E-2,6.3E1,5.289E1,-1.5393033E-2,5.5E1,4.545E1,3.6584203E0,1.25E1,4.067211E-2,-5.780502E-2,5.450652E-3,5.2888133E-2,2.3088379E-2,-3.400635E-2,1.4564394E-3,4.626965E-2,5.0236803E-2,2.961506E-3,6.752606E-3,-4.7018267E-2],"split_indices":[18,27,9,3,2,0,4,0,0,27,10,11,10,0,3,0,0,8,5,27,15,0,0,0,0,0,0,0,0,0,0,0,0],"split_type":[0,0,0,0,0,0,0,0,0,0,0,0,0,0,0,0,0,0,0,0,0,0,0,0,0,0,0,0,0,0,0,0,0],"sum_hessian":[7.629605E1,2.4296526E1,5.199952E1,7.2159405E0,1.7080585E1,8.175151E0,4.382437E1,5.8641624E0,1.351778E0,9.80216E0,7.2784266E0,3.1846245E1,1.1978126E1,1.9182316E0,7.8839283E0,6.257709E0,1.0207174E0,2.857019E1,3.2760541E0,9.042941E0,2.9351845E0,6.643562E0,1.2403665E0,1.5600036E0,4.6977053E0,2.7695951E0,2.5800596E1,1.7398831E0,1.536171E0,7.171906E0,1.871035E0,1.143874E0,1.7913104E0],"tree_param":{"num_deleted":"0","num_feature":"29","num_nodes":"33","size_leaf_vector":"1"}},{"base_weights":[-2.427314E-2,-3.6396658E-1,5.150393E-1,-9.648856E-3,-7.866827E-1,6.0869163E-1,-3.904112E-2,2.6322764E-1,-9.8952246E-1,8.777601E-2,-1.0062628E0,2.739974E-1,5.2607186E-2,4.8614004E-1,-8.9083195E-1,-6.7421354E-2,1.4543854E-2,-4.032632E-2,4.1771494E-2,6.611111E-3,-5.7528343E-2,4.814603E-1,-5.7433444E-1,-4.8608396E-2,3.169867E-2,-6.5412626E-2,3.9687604E-4,7.993481E-3,5.1953543E-2,-7.454558E-2,2.6275167E-2],"categories":[],"categories_nodes":[],"categories_segments":[],"categories_sizes":[],"default_left":[0,0,0,0,0,0,0,0,0,0,0,0,0,0,0,0,0,0,0,0,0,0,0,0,0,0,0,0,0,0,0],"id":26,"left_children":[1,3,5,7,9,11,-1,13,15,17,19,21,-1,23,25,-1,-1,-1,-1,-1,-1,27,29,-1,-1,-1,-1,-1,-1,-1,-1],"loss_changes":[1.3804624E1,6.91062E0,4.0115647E0,7.250059E0,4.130185E0,3.8284216E0,0E0,5.896242E0,3.1054125E0,4.1136217E0,2.9294586E0,3.2964199E0,0E0,4.59294E0,1.4326105E0,0E0,0E0,0E0,0E0,0E0,0E0,2.4037664E0,4.642135E0,0E0,0E0,0E0,0E0,0E0,0E0,0E0,0E0],"parents":[2147483647,0,0,1,1,2,2,3,3,4,4,5,5,7,7,8,8,9,9,10,10,11,11,13,13,14,14,21,21,22,22],"right_children":[2,4,6,8,10,12,-1,14,16,18,20,22,-1,24,26,-1,-1,-1,-1,-1,-1,28,30,-1,-1,-1,-1,-1,-1,-1,-1],"split_conditions":[5.7E1,3.1696856E0,8.181818E-1,5.606E1,2.48E1,4.67E1,-3.904112E-2,4.7E1,8.972E1,2.086E1,5.5E1,6.683E1,5.2607186E-2,1.648E1,4.765E1,-6.7421354E-2,1.4543854E-2,-4.032632E-2,4.1771494E-2,6.611111E-3,-5.7528343E-2,6.093E1,7.8E1,-4.8608396E-2,3.169867E-2,-6.5412626E-2,3.9687604E-4,7.993481E-3,5.1953543E-2,-7.454558E-2,2.6275167E-2],"split_indices":[11,27,28,5,0,5,0,11,9,0,8,2,0,5,4,0,0,0,0,0,0,4,8,0,0,0,0,0,0,0,0],"split_type":[0,0,0,0,0,0,0,0,0,0,0,0,0,0,0,0,0,0,0,0,0,0,0,0,0,0,0,0,0,0,0],"sum_hessian":[7.332914E1,4.519044E1,2.8138699E1,2.5140596E1,2.0049847E1,2.673671E1,1.4019893E0,2.023648E1,4.904116E0,4.1445975E0,1.5905249E1,1.6158783E1,1.0577926E1,1.7445543E1,2.7909374E0,3.788925E0,1.1151912E0,1.85136E0,2.293238E0,1.7986383E0,1.410661E1,1.3331078E1,2.8277054E0,1.0924932E0,1.635305E1,1.5946988E0,1.1962388E0,9.270948E0,4.0601287E0,1.3484049E0,1.4793005E0],"tree_param":{"num_deleted":"0","num_feature":"29","num_nodes":"31","size_leaf_vector":"1"}},{"base_weights":[9.784229E-2,7.4956626E-1,-2.2951831E-1,8.288431E-1,-2.4765883E-2,-5.9629466E-2,3.9426843E-3,2.739407E-1,9.7538084E-1,8.673864E-1,-1.422291E-1,-3.260147E-2,7.260153E-1,1.762088E-3,1.0801352E0,2.9656736E-3,5.641299E-2,1.5648101E-1,-8.8558E-1,1.1257676E-3,4.704194E-2,9.14181E-3,5.7023723E-2,-3.1545307E-2,2.0381926E-2,1.3119257E-2,-6.1155867E-2],"categories":[],"categories_nodes":[],"categories_segments":[],"categories_sizes":[],"default_left":[0,0,0,0,0,0,0,0,0,0,0,0,0,0,0,0,0,0,0,0,0,0,0,0,0,0,0],"id":27,"left_children":[1,3,5,7,-1,-1,9,11,13,15,17,-1,19,-1,21,-1,-1,23,25,-1,-1,-1,-1,-1,-1,-1,-1],"loss_changes":[1.7642664E1,3.135765E0,1.243243E1,1.8741856E0,0E0,0E0,5.8641744E0,3.358476E0,1.9751949E0,1.3510118E0,8.967024E0,0E0,7.502172E-1,0E0,7.854996E-1,0E0,0E0,6.034118E0,4.7953033E0,0E0,0E0,0E0,0E0,0E0,0E0,0E0,0E0],"parents":[2147483647,0,0,1,1,2,2,3,3,6,6,7,7,8,8,9,9,10,10,12,12,14,14,17,17,18,18],"right_children":[2,4,6,8,-1,-1,10,12,14,16,18,-1,20,-1,22,-1,-1,24,26,-1,-1,-1,-1,-1,-1,-1,-1],"split_conditions":[4E0,8.1E1,6E1,4.29E1,-2.4765883E-2,-5.9629466E-2,5.5E1,6.5E1,3.6E1,4.5E1,6E0,-3.260147E-2,4.287E1,1.762088E-3,1.481E1,2.9656736E-3,5.641299E-2,3E0,3.3333334E-1,1.1257676E-3,4.704194E-2,9.14181E-3,5.7023723E-2,-3.1545307E-2,2.0381926E-2,1.3119257E-2,-6.1155867E-2],"split_indices":[18,11,9,10,0,0,8,8,11,2,22,0,0,0,5,0,0,22,28,0,0,0,0,0,0,0,0],"split_type":[0,0,0,0,0,0,0,0,0,0,0,0,0,0,0,0,0,0,0,0,0,0,0,0,0,0,0],"sum_hessian":[8.0887634E1,2.661386E1,5.4273773E1,2.5334692E1,1.279166E0,9.788022E0,4.4485752E1,5.8921165E0,1.9442575E1,5.726286E0,3.8759464E1,1.7878388E0,4.1042776E0,2.0831704E0,1.7359406E1,1.6970191E0,4.029267E0,2.8212124E1,1.0547342E1,1.2185619E0,2.885716E0,1.3477194E0,1.6011686E1,6.457052E0,2.1755072E1,2.4471676E0,8.100175E0],"tree_param":{"num_deleted":"0","num_feature":"29","num_nodes":"27","size_leaf_vector":"1"}},{"base_weights":[7.93262E-2,7.1760255E-1,-2.5006482E-1,9.5552385E-1,3.0755112E-1,-9.3113536E-1,-6.29312E-2,1.1223432E0,4.776612E-1,-4.7568104E-1,7.4046224E-1,-5.728885E-2,3.4448567E-3,-5.2667428E-2,6.402337E-2,1.257003E-2,6.0171843E-2,-1.8458422E-1,4.573644E-2,1.9223228E-2,-9.599892E-1,-6.6712233E-3,5.137656E-2,9.952218E-1,-1.1629099E-1,-2.8510485E-3,-1.1314319E-2,-6.173253E-2,-8.892461E-3,-2.6654182E-3,6.500381E-2,-3.992774E-2,1.0141055E-2],"categories":[],"categories_nodes":[],"categories_segments":[],"categories_sizes":[],"default_left":[0,0,0,0,0,0,0,0,0,0,0,0,0,0,0,0,0,0,0,0,0,0,0,0,0,0,0,0,0,0,0,0,0],"id":28,"left_children":[1,3,5,7,9,11,13,15,17,19,21,-1,-1,-1,23,-1,-1,25,-1,-1,27,-1,-1,29,31,-1,-1,-1,-1,-1,-1,-1,-1],"loss_changes":[1.6423977E1,2.297264E0,6.5314283E0,7.658949E-1,4.15885E0,2.4556017E0,5.3024054E0,5.0017834E-1,1.8960336E0,2.2875056E0,2.049057E0,0E0,0E0,0E0,6.4704366E0,0E0,0E0,4.1440874E-3,0E0,0E0,4.7478485E-1,0E0,0E0,2.065258E0,7.2600317E0,0E0,0E0,0E0,0E0,0E0,0E0,0E0,0E0],"parents":[2147483647,0,0,1,1,2,2,3,3,4,4,5,5,6,6,7,7,8,8,9,9,10,10,14,14,17,17,20,20,23,23,24,24],"right_children":[2,4,6,8,10,12,14,16,18,20,22,-1,-1,-1,24,-1,-1,26,-1,-1,28,-1,-1,30,32,-1,-1,-1,-1,-1,-1,-1,-1],"split_conditions":[4E0,5.65E1,6E1,6E0,6.333E1,8E0,4.5E1,3.885E1,5.2E1,4E0,4.315E1,-5.728885E-2,3.4448567E-3,-5.2667428E-2,5.5E1,1.257003E-2,6.0171843E-2,6.5E1,4.573644E-2,1.9223228E-2,4.545E1,-6.6712233E-3,5.137656E-2,7E0,4.37E1,-2.8510485E-3,-1.1314319E-2,-6.173253E-2,-8.892461E-3,-2.6654182E-3,6.500381E-2,-3.992774E-2,1.0141055E-2],"split_indices":[18,3,9,22,2,22,11,12,2,22,5,0,0,0,8,0,0,8,0,0,5,0,0,22,10,0,0,0,0,0,0,0,0],"split_type":[0,0,0,0,0,0,0,0,0,0,0,0,0,0,0,0,0,0,0,0,0,0,0,0,0,0,0,0,0,0,0,0,0],"sum_hessian":[7.6265686E1,2.5559425E1,5.070626E1,1.5332753E1,1.0226671E1,1.0072336E1,4.0633926E1,1.0365528E1,4.9672246E0,3.6052246E0,6.6214466E0,8.172496E0,1.8998406E0,3.7876995E0,3.6846226E1,1.2321733E0,9.133355E0,2.2045553E0,2.7626696E0,1.3729614E0,2.232263E0,1.7696247E0,4.851822E0,5.2442007E0,3.1602024E1,1.126384E0,1.0781711E0,1.2239118E0,1.0083514E0,1.3671385E0,3.8770623E0,9.5919485E0,2.2010077E1],"tree_param":{"num_deleted":"0","num_feature":"29","num_nodes":"33","size_leaf_vector":"1"}},{"base_weights":[-9.793051E-4,8.952438E-1,-1.7902832E-1,-1.1267328E-2,1.0102603E0,-4.2203048E-1,2.5752598E-1,5.7605576E-2,2.7290178E-3,5.745862E-2,-6.560894E-1,-4.393331E-2,4.2228648E-1,-5.9725803E-1,3.998112E-1,-2.97402E-1,-5.6424376E-2,1.2803121E-1,9.3448883E-1,3.0458828E-2,-5.0335366E-2,4.1241195E-2,-1.452934E-2,1.0699133E-2,-4.1070394E-2,2.7362341E-2,-2.2222765E-2,5.2003574E-2,1.5991347E-2],"categories":[],"categories_nodes":[],"categories_segments":[],"categories_sizes":[],"default_left":[0,0,0,0,0,0,0,0,0,0,0,0,0,0,0,0,0,0,0,0,0,0,0,0,0,0,0,0,0],"id":29,"left_children":[1,3,5,-1,7,9,11,-1,-1,13,15,-1,17,19,21,23,-1,25,27,-1,-1,-1,-1,-1,-1,-1,-1,-1,-1],"loss_changes":[1.2430015E1,1.8916636E0,7.0021167E0,0E0,1.5491428E0,4.7651668E0,4.837181E0,0E0,0E0,3.5419748E0,4.474308E0,0E0,3.1225362E0,3.3108668E0,3.2549067E0,4.863373E0,0E0,3.8002663E0,1.6643476E-1,0E0,0E0,0E0,0E0,0E0,0E0,0E0,0E0,0E0,0E0],"parents":[2147483647,0,0,1,1,2,2,4,4,5,5,6,6,9,9,10,10,12,12,13,13,14,14,15,15,17,17,18,18],"right_children":[2,4,6,-1,8,10,12,-1,-1,14,16,-1,18,20,22,24,-1,26,28,-1,-1,-1,-1,-1,-1,-1,-1,-1,-1],"split_conditions":[1.3333334E-1,4.5E1,6.5E1,-1.1267328E-2,2E3,6.5E1,2.396E1,5.7605576E-2,2.7290178E-3,1.41E1,8E0,-4.393331E-2,4.3E1,3.5E0,5.36E1,4.9E1,-5.6424376E-2,4.244E1,1.7E3,3.0458828E-2,-5.0335366E-2,4.1241195E-2,-1.452934E-2,1.0699133E-2,-4.1070394E-2,2.7362341E-2,-2.2222765E-2,5.2003574E-2,1.5991347E-2],"split_indices":[28,11,7,0,25,8,0,0,0,17,18,0,4,17,17,3,0,0,25,0,0,0,0,0,0,0,0,0,0],"split_type":[0,0,0,0,0,0,0,0,0,0,0,0,0,0,0,0,0,0,0,0,0,0,0,0,0,0,0,0,0],"sum_hessian":[7.589174E1,1.1910626E1,6.3981113E1,1.0194093E0,1.0891217E1,4.112352E1,2.2857594E1,9.304599E0,1.5866184E0,1.3736888E1,2.7386633E1,2.3460677E0,2.0511526E1,4.4610276E0,9.27586E0,1.6493118E1,1.0893516E1,1.382129E1,6.690235E0,1.0067785E0,3.4542494E0,5.620898E0,3.654962E0,8.646509E0,7.8466086E0,8.004159E0,5.817131E0,5.1188493E0,1.5713859E0],"tree_param":{"num_deleted":"0","num_feature":"29","num_nodes":"29","size_leaf_vector":"1"}},{"base_weights":[3.507922E-2,-4.4074267E-1,5.475374E-1,-7.1099365E-1,7.2359616E-1,5.7245553E-2,2.7239096E-1,3.295572E-1,-9.4021916E-1,1.381455E-1,5.640146E-2,-1.603244E-1,7.7338624E-1,7.188224E-1,-3.264699E-2,8.363644E-3,-1.0104002E0,-2.0902678E-1,3.2345135E-2,3.085032E-1,-1.0047072E0,1.1404696E0,-2.9416445E-1,4.614549E-2,9.719825E-3,3.472843E-3,-5.4966934E-2,-3.7261456E-2,2.4052909E-2,-1.9579064E-2,3.143044E-2,-6.667205E-2,9.969248E-3,1.624464E-2,6.122456E-2,-4.569621E-2,2.265632E-2],"categories":[],"categories_nodes":[],"categories_segments":[],"categories_sizes":[],"default_left":[0,0,0,0,0,0,0,0,0,0,0,0,0,0,0,0,0,0,0,0,0,0,0,0,0,0,0,0,0,0,0,0,0,0,0,0,0],"id":30,"left_children":[1,3,5,7,9,-1,11,13,15,17,-1,19,21,23,-1,-1,25,27,-1,29,31,33,35,-1,-1,-1,-1,-1,-1,-1,-1,-1,-1,-1,-1,-1,-1],"loss_changes":[1.8346159E1,1.2803619E1,5.637225E0,7.9907074E0,1.7035294E0,0E0,5.7805967E0,2.9758263E0,2.2402477E0,9.031852E-1,0E0,6.180199E0,5.1415157E0,3.739221E-1,0E0,0E0,2.496809E0,1.59445E0,0E0,2.5543494E0,2.4543514E0,2.4159145E-1,2.235648E0,0E0,0E0,0E0,0E0,0E0,0E0,0E0,0E0,0E0,0E0,0E0,0E0,0E0,0E0],"parents":[2147483647,0,0,1,1,2,2,3,3,4,4,6,6,7,7,8,8,9,9,11,11,12,12,13,13,16,16,17,17,19,19,20,20,21,21,22,22],"right_children":[2,4,6,8,10,-1,12,14,16,18,-1,20,22,24,-1,-1,26,28,-1,30,32,34,36,-1,-1,-1,-1,-1,-1,-1,-1,-1,-1,-1,-1,-1,-1],"split_conditions":[5.167E1,6.3E1,1.3333334E-1,6.5E0,4.911E1,5.7245553E-2,4.767E1,5E1,4.5E1,6.5E1,5.640146E-2,1.5E1,5.553E1,1E0,-3.264699E-2,8.363644E-3,3.8E1,5.183E1,3.2345135E-2,1.16E1,6.149E1,3E0,4.6E1,4.614549E-2,9.719825E-3,3.472843E-3,-5.4966934E-2,-3.7261456E-2,2.4052909E-2,-1.9579064E-2,3.143044E-2,-6.667205E-2,9.969248E-3,1.624464E-2,6.122456E-2,-4.569621E-2,2.265632E-2],"split_indices":[2,11,28,17,5,0,10,3,8,7,0,16,10,20,0,0,7,10,0,17,12,22,11,0,0,0,0,0,0,0,0,0,0,0,0,0,0],"split_type":[0,0,0,0,0,0,0,0,0,0,0,0,0,0,0,0,0,0,0,0,0,0,0,0,0,0,0,0,0,0,0,0,0,0,0,0,0],"sum_hessian":[7.324918E1,3.8054863E1,3.5194324E1,3.1202019E1,6.852842E0,1.0101577E1,2.5092749E1,5.5537086E0,2.5648312E1,3.3479636E0,3.5048783E0,1.3828716E1,1.1264032E1,4.169947E0,1.3837609E0,1.4460145E0,2.4202297E1,2.3401823E0,1.0077814E0,9.299812E0,4.5289044E0,8.33105E0,2.932983E0,2.4547868E0,1.7151606E0,1.858321E0,2.2343975E1,1.2719533E0,1.068229E0,2.8479457E0,6.4518666E0,3.4732382E0,1.0556661E0,1.2326642E0,7.0983853E0,1.4814067E0,1.4515762E0],"tree_param":{"num_deleted":"0","num_feature":"29","num_nodes":"37","size_leaf_vector":"1"}},{"base_weights":[6.2779314E-3,2.3899244E-1,-7.162388E-1,5.7621443E-1,-3.5722636E-2,1.3600382E-1,-8.3958155E-1,5.9203207E-2,7.341635E-1,-5.7859838E-2,1.4835314E-1,4.4942077E-2,-3.2428708E-2,-2.9836547E-1,-5.433774E-2,5.8009756E-1,-5.519048E-1,2.898292E-1,9.1315055E-1,3.7822002E-1,-8.354502E-1,-4.4404864E-2,3.499704E-1,5.4490594E-3,4.102332E-2,1.5024209E-2,-5.6532007E-2,2.881932E-2,-3.020963E-2,4.8015505E-2,1.2735526E-2,6.6252337E-3,5.471417E-2,-5.3250175E-2,3.3697903E-3,3.161054E-2,7.2714913E-4],"categories":[],"categories_nodes":[],"categories_segments":[],"categories_sizes":[],"default_left":[0,0,0,0,0,0,0,0,0,0,0,0,0,0,0,0,0,0,0,0,0,0,0,0,0,0,0,0,0,0,0,0,0,0,0,0,0],"id":31,"left_children":[1,3,5,7,9,11,13,15,17,-1,19,-1,-1,21,-1,23,25,27,29,31,33,-1,35,-1,-1,-1,-1,-1,-1,-1,-1,-1,-1,-1,-1,-1,-1],"loss_changes":[1.2641435E1,5.2869167E0,2.0397968E0,2.0453272E0,6.8330894E0,2.4841778E0,1.8351269E0,2.5717952E0,1.2865934E0,0E0,6.784893E0,0E0,0E0,2.7728095E0,0E0,3.9821744E-1,2.198186E0,2.1584525E0,1.7271328E-1,4.0559087E0,1.2592077E0,0E0,3.4909236E-1,0E0,0E0,0E0,0E0,0E0,0E0,0E0,0E0,0E0,0E0,0E0,0E0,0E0,0E0],"parents":[2147483647,0,0,1,1,2,2,3,3,4,4,5,5,6,6,7,7,8,8,10,10,13,13,15,15,16,16,17,17,18,18,19,19,20,20,22,22],"right_children":[2,4,6,8,10,12,14,16,18,-1,20,-1,-1,22,-1,24,26,28,30,32,34,-1,36,-1,-1,-1,-1,-1,-1,-1,-1,-1,-1,-1,-1,-1,-1],"split_conditions":[3.78E1,4E0,1.786E1,4.37E1,5E0,2.4E1,8.2E1,1.8E3,1.7E3,-5.7859838E-2,5.553E1,4.4942077E-2,-3.2428708E-2,7.1428573E-1,-5.433774E-2,1.5E1,2.5E0,5.76E1,7.25E1,4.323E1,5.9E1,-4.4404864E-2,3.767E1,5.4490594E-3,4.102332E-2,1.5024209E-2,-5.6532007E-2,2.881932E-2,-3.020963E-2,4.8015505E-2,1.2735526E-2,6.6252337E-3,5.471417E-2,-5.3250175E-2,3.3697903E-3,3.161054E-2,7.2714913E-4],"split_indices":[17,18,15,10,18,2,17,25,25,0,10,0,0,28,0,16,17,10,2,4,2,0,10,0,0,0,0,0,0,0,0,0,0,0,0,0,0],"split_type":[0,0,0,0,0,0,0,0,0,0,0,0,0,0,0,0,0,0,0,0,0,0,0,0,0,0,0,0,0,0,0,0,0,0,0,0,0],"sum_hessian":[7.316587E1,5.58473E1,1.7318565E1,2.4578667E1,3.1268637E1,2.1765993E0,1.5141966E1,6.0734396E0,1.8505226E1,3.6633437E0,2.7605293E1,1.0297481E0,1.1468512E0,5.4392266E0,9.70274E0,3.306122E0,2.7673173E0,6.06591E0,1.2439317E1,2.287587E1,4.729423E0,2.6546886E0,2.7845378E0,1.6079588E0,1.6981634E0,1.3135097E0,1.4538077E0,4.8626065E0,1.2033037E0,1.11801E1,1.2592163E0,1.791383E1,4.96204E0,3.6275034E0,1.1019193E0,1.0316662E0,1.7528716E0],"tree_param":{"num_deleted":"0","num_feature":"29","num_nodes":"37","size_leaf_vector":"1"}},{"base_weights":[5.6637403E-2,3.1800193E-1,-7.243871E-1,8.2935214E-1,1.4149106E-1,4.730973E-3,-8.208926E-1,9.709684E-1,1.8347156E-1,3.9107704E-1,-2.3990181E-1,-5.424289E-2,-3.1287158E-1,5.597877E-2,3.489365E-1,-3.000619E-2,3.8265843E-2,1.85419E-1,9.81827E-1,6.737695E-1,-5.2536935E-1,-5.854252E-1,1.7468564E-2,-1.0736945E-2,3.5634276E-2,-4.8155664E-3,4.2733528E-2,8.922162E-3,5.556136E-2,2.2563708E-3,4.962908E-2,1.2458595E-2,-4.6368502E-2,-4.5018565E-2,7.589716E-3],"categories":[],"categories_nodes":[],"categories_segments":[],"categories_sizes":[],"default_left":[0,0,0,0,0,0,0,0,0,0,0,0,0,0,0,0,0,0,0,0,0,0,0,0,0,0,0,0,0,0,0,0,0,0,0],"id":32,"left_children":[1,3,5,7,9,-1,11,13,15,17,19,-1,21,-1,23,-1,-1,25,27,29,31,33,-1,-1,-1,-1,-1,-1,-1,-1,-1,-1,-1,-1,-1],"loss_changes":[1.54304905E1,4.981089E0,1.577465E0,1.1288567E0,4.205805E0,0E0,1.9508104E0,6.7114544E-1,2.193026E0,3.0363817E0,4.972308E0,0E0,1.5122209E0,0E0,9.050792E-1,0E0,0E0,4.019741E0,4.8865843E-1,8.878348E-1,4.6068068E0,1.4151528E0,0E0,0E0,0E0,0E0,0E0,0E0,0E0,0E0,0E0,0E0,0E0,0E0,0E0],"parents":[2147483647,0,0,1,1,2,2,3,3,4,4,6,6,7,7,8,8,9,9,10,10,12,12,14,14,17,17,18,18,19,19,20,20,21,21],"right_children":[2,4,6,8,10,-1,12,14,16,18,20,-1,22,-1,24,-1,-1,26,28,30,32,34,-1,-1,-1,-1,-1,-1,-1,-1,-1,-1,-1,-1,-1],"split_conditions":[3.78E1,1.3333334E-1,2.468E1,2E3,6E0,4.730973E-3,4.578E1,7.75E1,4.083E1,6.093E1,4.8E1,-5.424289E-2,2.568E2,5.597877E-2,6E0,-3.000619E-2,3.8265843E-2,5E0,4.2E0,4.9E1,3.86E1,3.672E1,1.7468564E-2,-1.0736945E-2,3.5634276E-2,-4.8155664E-3,4.2733528E-2,8.922162E-3,5.556136E-2,2.2563708E-3,4.962908E-2,1.2458595E-2,-4.6368502E-2,-4.5018565E-2,7.589716E-3],"split_indices":[17,28,5,25,22,0,5,9,5,4,8,0,17,0,22,0,0,22,17,3,10,0,0,0,0,0,0,0,0,0,0,0,0,0,0],"split_type":[0,0,0,0,0,0,0,0,0,0,0,0,0,0,0,0,0,0,0,0,0,0,0,0,0,0,0,0,0,0,0,0,0,0,0],"sum_hessian":[7.346224E1,5.54868E1,1.797544E1,1.3289287E1,4.2197514E1,1.8968774E0,1.6078562E1,1.04866495E1,2.802637E0,2.5490786E1,1.6706728E1,9.83361E0,6.2449527E0,7.8188214E0,2.6678278E0,1.1808807E0,1.6217563E0,1.9882837E1,5.60795E0,3.6533942E0,1.3053334E1,4.506321E0,1.7386318E0,1.2070308E0,1.4607971E0,1.4594978E1,5.2878585E0,1.1079872E0,4.499963E0,1.613467E0,2.0399272E0,4.5899577E0,8.463377E0,3.0023754E0,1.5039455E0],"tree_param":{"num_deleted":"0","num_feature":"29","num_nodes":"35","size_leaf_vector":"1"}},{"base_weights":[1.5121628E-2,2.7823356E-1,-8.3724385E-1,-7.004399E-1,3.55676E-1,-5.425563E-2,-1.6746235E-1,2.081989E-3,-4.8969913E-2,8.748126E-1,2.05489E-1,-4.3834392E-2,3.814281E-2,1.0017607E0,9.721543E-3,-4.606955E-1,3.879937E-1,5.465421E-2,9.091819E-3,4.2967588E-2,-3.671443E-2,2.7367314E-2,-1.6466638E-2],"categories":[],"categories_nodes":[],"categories_segments":[],"categories_sizes":[],"default_left":[0,0,0,0,0,0,0,0,0,0,0,0,0,0,0,0,0,0,0,0,0,0,0],"id":33,"left_children":[1,3,5,7,9,-1,11,-1,-1,13,15,-1,-1,17,-1,19,21,-1,-1,-1,-1,-1,-1],"loss_changes":[1.5979158E1,4.372242E0,2.6091337E0,9.362807E-1,3.802453E0,0E0,4.4450035E0,0E0,0E0,7.6859665E-1,5.1540833E0,0E0,0E0,4.8704243E-1,0E0,3.9742672E0,3.9140792E0,0E0,0E0,0E0,0E0,0E0,0E0],"parents":[2147483647,0,0,1,1,2,2,3,3,4,4,6,6,9,9,10,10,13,13,15,15,16,16],"right_children":[2,4,6,8,10,-1,12,-1,-1,14,16,-1,-1,18,-1,20,22,-1,-1,-1,-1,-1,-1],"split_conditions":[3.34E1,3.3E1,4.767E1,4.34E1,1.3333334E-1,-5.425563E-2,3.549E1,2.081989E-3,-4.8969913E-2,2E3,3.667E1,-4.3834392E-2,3.814281E-2,5.76E1,9.721543E-3,5.1E1,5.837E1,5.465421E-2,9.091819E-3,4.2967588E-2,-3.671443E-2,2.7367314E-2,-1.6466638E-2],"split_indices":[17,11,5,10,28,0,0,0,0,25,5,0,0,10,0,7,10,0,0,0,0,0,0],"split_type":[0,0,0,0,0,0,0,0,0,0,0,0,0,0,0,0,0,0,0,0,0,0,0],"sum_hessian":[6.921172E1,5.3401184E1,1.5810538E1,3.3258862E0,5.00753E1,1.1087312E1,4.7232265E0,1.1410961E0,2.1847901E0,1.0153584E1,3.9921715E1,2.7127883E0,2.010438E0,8.158913E0,1.9946712E0,8.257097E0,3.1664618E1,7.041478E0,1.1174343E0,1.0500026E0,7.2070947E0,2.610288E1,5.5617375E0],"tree_param":{"num_deleted":"0","num_feature":"29","num_nodes":"23","size_leaf_vector":"1"}},{"base_weights":[1.9534493E-2,5.0112116E-1,-2.3787752E-1,2.1679178E-1,8.286226E-1,-4.5460626E-1,2.9803E-1,7.0492876E-1,-3.0852947E-1,1.0271362E0,-2.09134E-2,-5.3868514E-2,-2.8732878E-1,5.811829E-1,-5.826175E-1,-5.089469E-4,8.658285E-1,3.655691E-2,-6.7833626E-1,5.5053998E-2,1.4281541E-2,1.6818787E-1,-5.381323E-1,-3.5626397E-2,8.287507E-1,4.8204544E-3,-4.5055345E-2,4.8265677E-2,1.1810824E-2,-8.44196E-2,6.486477E-3,-4.4388052E-2,2.7487794E-2,3.4411665E-2,-3.338052E-2,-4.2510433E-3,5.0036598E-2],"categories":[],"categories_nodes":[],"categories_segments":[],"categories_sizes":[],"default_left":[0,0,0,0,0,0,0,0,0,0,0,0,0,0,0,0,0,0,0,0,0,0,0,0,0,0,0,0,0,0,0,0,0,0,0,0,0],"id":34,"left_children":[1,3,5,7,9,11,13,15,17,19,-1,-1,21,23,25,-1,27,-1,29,-1,-1,31,33,-1,35,-1,-1,-1,-1,-1,-1,-1,-1,-1,-1,-1,-1],"loss_changes":[8.790479E0,2.119154E0,5.508645E0,3.9533262E0,3.181621E0,3.1632318E0,3.8110585E0,9.1273594E-1,3.46129E0,2.2724152E-1,0E0,0E0,3.2484303E0,4.125801E0,9.275918E-1,0E0,1.7440224E-1,0E0,5.2857895E0,0E0,0E0,4.7496986E0,3.3279066E0,0E0,1.6137576E0,0E0,0E0,0E0,0E0,0E0,0E0,0E0,0E0,0E0,0E0,0E0,0E0],"parents":[2147483647,0,0,1,1,2,2,3,3,4,4,5,5,6,6,7,7,8,8,9,9,12,12,13,13,14,14,16,16,18,18,21,21,22,22,24,24],"right_children":[2,4,6,8,10,12,14,16,18,20,-1,-1,22,24,26,-1,28,-1,30,-1,-1,32,34,-1,36,-1,-1,-1,-1,-1,-1,-1,-1,-1,-1,-1,-1],"split_conditions":[4E0,6.5E1,4.4E1,3E0,8.4E1,3E0,5.603E1,5.2E1,5.1E1,5.643E1,-2.09134E-2,-5.3868514E-2,4.073E1,6E1,4.459E1,-5.089469E-4,6.149E1,3.655691E-2,2E-1,5.5053998E-2,1.4281541E-2,3.333E1,3.0769232E-1,-3.5626397E-2,5E0,4.8204544E-3,-4.5055345E-2,4.8265677E-2,1.1810824E-2,-8.44196E-2,6.486477E-3,-4.4388052E-2,2.7487794E-2,3.4411665E-2,-3.338052E-2,-4.2510433E-3,5.0036598E-2],"split_indices":[18,7,4,17,8,22,10,2,7,10,0,0,10,9,4,0,12,0,28,0,0,10,28,0,18,0,0,0,0,0,0,0,0,0,0,0,0],"split_type":[0,0,0,0,0,0,0,0,0,0,0,0,0,0,0,0,0,0,0,0,0,0,0,0,0,0,0,0,0,0,0,0,0,0,0,0,0],"sum_hessian":[6.894869E1,2.3686798E1,4.5261894E1,1.3568708E1,1.0118091E1,3.2336327E1,1.292557E1,6.856053E0,6.7126555E0,8.880496E0,1.2375946E0,5.694696E0,2.6641628E1,1.0038091E1,2.887478E0,1.4313328E0,5.42472E0,1.5048548E0,5.2078004E0,7.6342726E0,1.2462233E0,9.577003E0,1.7064627E1,1.3106964E0,8.727395E0,1.1445546E0,1.7429236E0,4.224084E0,1.2006358E0,1.8304163E0,3.3773842E0,2.1899464E0,7.3870564E0,1.2174991E0,1.5847127E1,1.4624951E0,7.2648997E0],"tree_param":{"num_deleted":"0","num_feature":"29","num_nodes":"37","size_leaf_vector":"1"}},{"base_weights":[-2.6617287E-2,1.5310416E-1,-8.595291E-1,9.186165E-1,3.254636E-2,1.8251227E-2,-5.2982368E-2,1.0468479E-2,5.0620586E-2,6.640096E-1,-7.63992E-2,-1.4632736E-1,5.3339016E-2,1.03509255E-1,-4.629995E-1,-3.698356E-2,2.1440772E-2,-1.2277763E-2,4.7269903E-2,5.3964364E-3,-5.6706723E-2],"categories":[],"categories_nodes":[],"categories_segments":[],"categories_sizes":[],"default_left":[0,0,0,0,0,0,0,0,0,0,0,0,0,0,0,0,0,0,0,0,0],"id":35,"left_children":[1,3,5,7,9,-1,-1,-1,-1,11,13,15,-1,17,19,-1,-1,-1,-1,-1,-1],"loss_changes":[1.0262381E1,5.185779E0,3.3672972E0,2.9711485E-1,3.481012E0,0E0,0E0,0E0,0E0,2.5843816E0,3.0680578E0,1.4602551E0,0E0,9.180524E0,5.4762444E0,0E0,0E0,0E0,0E0,0E0,0E0],"parents":[2147483647,0,0,1,1,2,2,3,3,4,4,9,9,10,10,11,11,13,13,14,14],"right_children":[2,4,6,8,10,-1,-1,-1,-1,12,14,16,-1,18,20,-1,-1,-1,-1,-1,-1],"split_conditions":[8.2E1,2.5E0,2.468E1,5.4E1,5.5E1,1.8251227E-2,-5.2982368E-2,1.0468479E-2,5.0620586E-2,5.6E1,6E0,5.167E1,5.3339016E-2,5E0,3.6363637E-1,-3.698356E-2,2.1440772E-2,-1.2277763E-2,4.7269903E-2,5.3964364E-3,-5.6706723E-2],"split_indices":[17,17,5,7,8,0,0,0,0,7,22,2,0,22,28,0,0,0,0,0,0],"split_type":[0,0,0,0,0,0,0,0,0,0,0,0,0,0,0,0,0,0,0,0,0],"sum_hessian":[6.6677475E1,5.5514927E1,1.1162545E1,6.6526327E0,4.8862297E1,1.4522103E0,9.710335E0,1.1545469E0,5.4980855E0,6.4400454E0,4.242225E1,2.34959E0,4.0904555E0,2.9449759E1,1.2972492E1,1.015691E0,1.3338989E0,2.131885E1,8.130909E0,7.462985E0,5.509507E0],"tree_param":{"num_deleted":"0","num_feature":"29","num_nodes":"21","size_leaf_vector":"1"}},{"base_weights":[5.8344066E-2,-1.785787E-1,4.875056E-1,3.2718915E-1,-5.109502E-1,-3.788347E-2,5.864634E-1,5.631301E-1,-7.1081525E-1,-7.6665074E-1,-8.686002E-2,7.097383E-1,-3.1330775E-2,8.035058E-1,-3.3391166E-1,-2.853407E-4,-5.9362095E-2,-3.040528E-1,-6.1045E-2,-4.3428883E-2,3.209065E-1,8.0492115E-1,-1.577781E-2,-1.4067489E-2,5.896127E-2,3.0803863E-2,-4.221524E-2,2.0828865E-2,-3.6608826E-2,3.3267975E-2,-3.6258403E-2,1.3697418E-2,5.1599022E-2],"categories":[],"categories_nodes":[],"categories_segments":[],"categories_sizes":[],"default_left":[0,0,0,0,0,0,0,0,0,0,0,0,0,0,0,0,0,0,0,0,0,0,0,0,0,0,0,0,0,0,0,0,0],"id":36,"left_children":[1,3,5,7,9,-1,11,13,15,17,19,21,-1,23,25,-1,-1,27,-1,-1,29,31,-1,-1,-1,-1,-1,-1,-1,-1,-1,-1,-1],"loss_changes":[7.2623053E0,7.933423E0,3.5702896E0,5.036481E0,2.9988995E0,0E0,4.0434427E0,3.7145276E0,1.3194987E0,3.3078098E0,4.027661E0,2.4316158E0,0E0,5.589139E0,2.5003831E0,0E0,0E0,3.3920126E0,0E0,0E0,3.530639E0,2.2129202E0,0E0,0E0,0E0,0E0,0E0,0E0,0E0,0E0,0E0,0E0,0E0],"parents":[2147483647,0,0,1,1,2,2,3,3,4,4,6,6,7,7,8,8,9,9,10,10,11,11,13,13,14,14,17,17,20,20,21,21],"right_children":[2,4,6,8,10,-1,12,14,16,18,20,22,-1,24,26,-1,-1,28,-1,-1,30,32,-1,-1,-1,-1,-1,-1,-1,-1,-1,-1,-1],"split_conditions":[5.7E1,3.3333334E-1,3.167E1,6.3E1,7.3333335E-1,-3.788347E-2,6.347E1,4.863E1,5.6E1,2.849E1,3.221E1,1.8E1,-3.1330775E-2,4.29E1,1.964E1,-2.853407E-4,-5.9362095E-2,4.6666667E-1,-6.1045E-2,-4.3428883E-2,7.75E1,6E1,-1.577781E-2,-1.4067489E-2,5.896127E-2,3.0803863E-2,-4.221524E-2,2.0828865E-2,-3.6608826E-2,3.3267975E-2,-3.6258403E-2,1.3697418E-2,5.1599022E-2],"split_indices":[11,28,10,3,28,0,10,5,2,4,4,16,0,10,4,0,0,28,0,0,9,7,0,0,0,0,0,0,0,0,0,0,0],"split_type":[0,0,0,0,0,0,0,0,0,0,0,0,0,0,0,0,0,0,0,0,0,0,0,0,0,0,0,0,0,0,0,0,0],"sum_hessian":[6.956824E1,4.519938E1,2.4368862E1,1.7930391E1,2.7268986E1,1.3040197E0,2.3064842E1,1.4982354E1,2.9480379E0,1.6507946E1,1.0761041E1,2.1313828E1,1.7510153E0,1.1898299E1,3.0840545E0,1.5967848E0,1.351253E0,9.005887E0,7.502058E0,3.301583E0,7.4594574E0,1.9699926E1,1.6138995E0,3.1253402E0,8.77296E0,1.0054874E0,2.078567E0,3.3664134E0,5.639474E0,5.885438E0,1.5740196E0,6.561805E0,1.3138123E1],"tree_param":{"num_deleted":"0","num_feature":"29","num_nodes":"33","size_leaf_vector":"1"}},{"base_weights":[1.5074474E-2,2.6856774E-1,-6.645119E-1,-4.8404064E-2,3.1680223E-1,2.9156065E-1,-8.8052696E-1,-3.9034333E-2,3.7503746E-1,-3.247544E-2,4.6335705E-2,1.8717332E-2,-5.3798687E-2,4.3080342E-1,-3.498498E-2,4.90177E-3,2.9570764E-2],"categories":[],"categories_nodes":[],"categories_segments":[],"categories_sizes":[],"default_left":[0,0,0,0,0,0,0,0,0,0,0,0,0,0,0,0,0],"id":37,"left_children":[1,3,5,-1,7,9,11,-1,13,-1,-1,-1,-1,15,-1,-1,-1],"loss_changes":[1.1361392E1,3.1693337E0,3.9583974E0,0E0,3.2930474E0,3.025401E0,4.0495644E0,0E0,3.0136342E0,0E0,0E0,0E0,0E0,2.2744246E0,0E0,0E0,0E0],"parents":[2147483647,0,0,1,1,2,2,4,4,5,5,6,6,8,8,13,13],"right_children":[2,4,6,-1,8,10,12,-1,14,-1,-1,-1,-1,16,-1,-1,-1],"split_conditions":[3.34E1,1.214E1,2.817E1,-4.8404064E-2,2.952E1,2.312E1,1.786E1,-3.9034333E-2,8.1E1,-3.247544E-2,4.6335705E-2,1.8717332E-2,-5.3798687E-2,4.49E1,-3.498498E-2,4.90177E-3,2.9570764E-2],"split_indices":[17,5,5,0,0,5,15,0,11,0,0,0,0,10,0,0,0],"split_type":[0,0,0,0,0,0,0,0,0,0,0,0,0,0,0,0,0],"sum_hessian":[6.391489E1,4.699139E1,1.6923504E1,1.0481555E0,4.5943233E1,3.054537E0,1.3868966E1,1.6899045E0,4.425333E1,1.2217462E0,1.8327909E0,1.7456454E0,1.2123321E1,4.263998E1,1.6133494E0,1.4404994E1,2.8234985E1],"tree_param":{"num_deleted":"0","num_feature":"29","num_nodes":"17","size_leaf_vector":"1"}},{"base_weights":[9.138859E-2,3.4077826E-1,-6.6255754E-1,3.914921E-1,-5.0774213E-2,-8.7433386E-1,4.7412932E-1,-3.373794E-1,4.6528134E-1,2.1946825E-1,-5.3106423E-2,3.0777702E-2,7.550606E-3,3.4812763E-2,-8.096915E-1,6.574474E-1,1.7990622E-1,4.6674453E-2,-2.9910166E-2,9.317221E-5,-5.581948E-2,2.43869E-2,6.4298876E-2,3.921695E-2,-8.525626E-3],"categories":[],"categories_nodes":[],"categories_segments":[],"categories_sizes":[],"default_left":[0,0,0,0,0,0,0,0,0,0,0,0,0,0,0,0,0,0,0,0,0,0,0,0,0],"id":38,"left_children":[1,3,5,7,-1,9,11,13,15,17,-1,-1,-1,-1,19,21,23,-1,-1,-1,-1,-1,-1,-1,-1],"loss_changes":[1.3151643E1,3.9960518E0,4.609614E0,2.9081845E0,0E0,3.3228054E0,6.1740696E-2,3.1425612E0,2.452136E0,2.3290865E0,0E0,0E0,0E0,0E0,1.0195787E0,2.3203688E0,4.4202905E0,0E0,0E0,0E0,0E0,0E0,0E0,0E0,0E0],"parents":[2147483647,0,0,1,1,2,2,3,3,5,5,6,6,7,7,8,8,9,9,14,14,15,15,16,16],"right_children":[2,4,6,8,-1,10,12,14,16,18,-1,-1,-1,-1,20,22,24,-1,-1,-1,-1,-1,-1,-1,-1],"split_conditions":[3.5380566E0,8.1E1,8.1E1,3.6E1,-5.0774213E-2,1.786E1,3.524E1,2.377E1,6E0,6E1,-5.3106423E-2,3.0777702E-2,7.550606E-3,3.4812763E-2,2.536E1,3.226844E0,5.5E1,4.6674453E-2,-2.9910166E-2,9.317221E-5,-5.581948E-2,2.43869E-2,6.4298876E-2,3.921695E-2,-8.525626E-3],"split_indices":[27,11,11,11,0,15,5,5,22,8,0,0,0,0,4,27,8,0,0,0,0,0,0,0,0],"split_type":[0,0,0,0,0,0,0,0,0,0,0,0,0,0,0,0,0,0,0,0,0,0,0,0,0],"sum_hessian":[6.774491E1,5.1317997E1,1.6426916E1,5.015397E1,1.1640295E0,1.4041624E1,2.3852923E0,4.2823005E0,4.587167E1,2.0328293E0,1.2008795E1,1.0295997E0,1.3556927E0,1.1943576E0,3.0879426E0,2.6633432E1,1.9238235E1,1.0095822E0,1.0232471E0,1.119515E0,1.9684278E0,2.2369453E1,4.2639794E0,6.605758E0,1.2632478E1],"tree_param":{"num_deleted":"0","num_feature":"29","num_nodes":"25","size_leaf_vector":"1"}},{"base_weights":[4.4131976E-2,2.2837317E-1,-4.297925E-1,-7.363634E-1,3.2004198E-1,-1.2932362E-1,-4.9435493E-2,-4.782431E-2,-2.6860167E-4,5.460223E-1,-4.748878E-2,-4.8607954E-1,4.2282388E-1,-4.8765935E-2,6.4738315E-1,-9.6753955E-1,3.0895782E-1,1.2658231E-1,-4.619284E-2,8.94094E-1,-3.275479E-2,2.321167E-2,-3.941269E-2,-8.109186E-3,3.4864955E-2,2.0955747E-2,-7.208141E-2,-8.755223E-3,3.604406E-2,3.0974684E-2,-3.512071E-2,1.1744624E-2,5.9362363E-2],"categories":[],"categories_nodes":[],"categories_segments":[],"categories_sizes":[],"default_left":[0,0,0,0,0,0,0,0,0,0,0,0,0,0,0,0,0,0,0,0,0,0,0,0,0,0,0,0,0,0,0,0,0],"id":39,"left_children":[1,3,5,7,9,11,-1,-1,-1,13,15,17,19,21,23,25,27,29,-1,31,-1,-1,-1,-1,-1,-1,-1,-1,-1,-1,-1,-1,-1],"loss_changes":[5.646161E0,4.339599E0,2.91744E0,6.915543E-1,3.6035762E0,2.7552562E0,0E0,0E0,0E0,1.6445594E0,5.9793863E0,2.3507292E0,3.4383287E0,2.1965127E0,1.0396643E0,3.9429712E0,2.7667189E0,2.2128327E0,0E0,5.5790067E-1,0E0,0E0,0E0,0E0,0E0,0E0,0E0,0E0,0E0,0E0,0E0,0E0,0E0],"parents":[2147483647,0,0,1,1,2,2,3,3,4,4,5,5,9,9,10,10,11,11,12,12,13,13,14,14,15,15,16,16,17,17,19,19],"right_children":[2,4,6,8,10,12,-1,-1,-1,14,16,18,20,22,24,26,28,30,-1,32,-1,-1,-1,-1,-1,-1,-1,-1,-1,-1,-1,-1,-1],"split_conditions":[2.92E1,3.3E1,1E0,5.781E1,6E0,1.3E1,-4.9435493E-2,-4.782431E-2,-2.6860167E-4,2E0,4.315E1,5.36E1,1.5E1,7.1E0,4.5E1,5.3E1,5.6E1,5.8E1,-4.619284E-2,8.888889E-1,-3.275479E-2,2.321167E-2,-3.941269E-2,-8.109186E-3,3.4864955E-2,2.0955747E-2,-7.208141E-2,-8.755223E-3,3.604406E-2,3.0974684E-2,-3.512071E-2,1.1744624E-2,5.9362363E-2],"split_indices":[17,11,26,0,22,18,0,0,0,22,5,17,18,17,11,7,7,7,0,28,0,0,0,0,0,0,0,0,0,0,0,0,0],"split_type":[0,0,0,0,0,0,0,0,0,0,0,0,0,0,0,0,0,0,0,0,0,0,0,0,0,0,0,0,0,0,0,0,0],"sum_hessian":[6.2539124E1,4.540555E1,1.7133577E1,3.3297608E0,4.2075787E1,1.1943983E1,5.1895933E0,2.322047E0,1.0077139E0,2.5754623E1,1.6321163E1,7.3285108E0,4.6154723E0,3.8254812E0,2.1929142E1,4.078763E0,1.22424E1,3.3504565E0,3.9780545E0,3.3300853E0,1.285387E0,2.4783897E0,1.3470913E0,1.1429504E0,2.078619E1,1.0687498E0,3.010013E0,5.8926725E0,6.3497276E0,2.2596276E0,1.0908288E0,1.5795282E0,1.7505571E0],"tree_param":{"num_deleted":"0","num_feature":"29","num_nodes":"33","size_leaf_vector":"1"}},{"base_weights":[8.589159E-2,3.5097778E-1,-5.642601E-1,8.5571575E-1,1.9425E-1,-8.012973E-1,4.516987E-1,5.2968025E-2,3.9373076E-1,-1.6111046E-1,5.2262235E-1,1.544223E-1,-5.350077E-2,-8.221736E-3,4.1462034E-2,-2.3323106E-2,4.230379E-2,1.6996674E-1,-1.046749E0,7.781484E-1,-1.3611183E-1,-3.6212713E-2,5.0384518E-2,-4.7620155E-2,2.1456974E-2,-6.473665E-2,-1.0271775E-2,-9.518712E-3,4.5748107E-2,-5.2602064E-2,1.9916354E-2],"categories":[],"categories_nodes":[],"categories_segments":[],"categories_sizes":[],"default_left":[0,0,0,0,0,0,0,0,0,0,0,0,0,0,0,0,0,0,0,0,0,0,0,0,0,0,0,0,0,0,0],"id":40,"left_children":[1,3,5,7,9,11,13,-1,15,17,19,21,-1,-1,-1,-1,-1,23,25,27,29,-1,-1,-1,-1,-1,-1,-1,-1,-1,-1],"loss_changes":[1.1479964E1,3.5610728E0,5.0202007E0,6.0559034E-1,4.430587E0,4.2857714E0,1.1363268E0,0E0,2.3079739E0,5.6471953E0,3.4041014E0,4.024998E0,0E0,0E0,0E0,0E0,0E0,4.6084223E0,8.2208824E-1,2.0646343E0,3.516432E0,0E0,0E0,0E0,0E0,0E0,0E0,0E0,0E0,0E0,0E0],"parents":[2147483647,0,0,1,1,2,2,3,3,4,4,5,5,6,6,8,8,9,9,10,10,11,11,17,17,18,18,19,19,20,20],"right_children":[2,4,6,8,10,12,14,-1,16,18,20,22,-1,-1,-1,-1,-1,24,26,28,30,-1,-1,-1,-1,-1,-1,-1,-1,-1,-1],"split_conditions":[2.56E1,1.3333334E-1,7.5E1,7.098E1,6.2E1,3.413E1,7.75E1,5.2968025E-2,5E0,5.5E1,5.6E1,3.343E1,-5.350077E-2,-8.221736E-3,4.1462034E-2,-2.3323106E-2,4.230379E-2,2.765E1,5.3333336E-1,3.3E1,6.183E1,-3.6212713E-2,5.0384518E-2,-4.7620155E-2,2.1456974E-2,-6.473665E-2,-1.0271775E-2,-9.518712E-3,4.5748107E-2,-5.2602064E-2,1.9916354E-2],"split_indices":[17,28,11,9,7,10,9,0,22,7,2,10,0,0,0,0,0,4,28,11,2,0,0,0,0,0,0,0,0,0,0],"split_type":[0,0,0,0,0,0,0,0,0,0,0,0,0,0,0,0,0,0,0,0,0,0,0,0,0,0,0,0,0,0,0],"sum_hessian":[6.446079E1,4.611748E1,1.834331E1,9.8703575E0,3.6247124E1,1.5044508E1,3.2988017E0,5.9531317E0,3.9172254E0,1.7652824E1,1.85943E1,3.395051E0,1.1649457E1,1.4678267E0,1.8309748E0,1.3392531E0,2.5779724E0,1.3437562E1,4.215262E0,1.3266776E1,5.3275237E0,1.7471126E0,1.6479384E0,2.0190616E0,1.14185E1,2.8393872E0,1.3758746E0,1.5936468E0,1.1673129E1,1.6062359E0,3.721288E0],"tree_param":{"num_deleted":"0","num_feature":"29","num_nodes":"31","size_leaf_vector":"1"}},{"base_weights":[9.9441156E-2,-1.3637382E-1,5.308129E-1,-6.5839964E-1,6.546583E-2,6.134084E-1,-3.242079E-2,-5.5916447E-2,2.0556988E-1,-7.0279145E-1,1.798434E-1,6.915487E-1,-1.9383453E-2,6.7228645E-1,-3.965331E-2,1.3987804E-3,-4.738195E-2,3.262076E-1,-5.9214985E-1,-9.382411E-3,7.5056267E-1,4.6208084E-2,-9.864894E-5,2.3399776E-2,-1.4673992E-2,1.0093408E-2,-4.3726604E-2,7.7178846E-3,4.069557E-2],"categories":[],"categories_nodes":[],"categories_segments":[],"categories_sizes":[],"default_left":[0,0,0,0,0,0,0,0,0,0,0,0,0,0,0,0,0,0,0,0,0,0,0,0,0,0,0,0,0],"id":41,"left_children":[1,3,5,7,9,11,-1,-1,13,15,17,19,-1,21,-1,-1,-1,23,25,-1,27,-1,-1,-1,-1,-1,-1,-1,-1],"loss_changes":[6.8972554E0,4.697538E0,2.7273178E0,5.1603136E0,3.0056212E0,2.0567837E0,0E0,0E0,2.9359274E0,8.2270527E-1,3.505706E0,1.2599859E0,0E0,6.9039774E-1,0E0,0E0,0E0,2.359343E0,1.3038038E0,0E0,6.453419E-1,0E0,0E0,0E0,0E0,0E0,0E0,0E0,0E0],"parents":[2147483647,0,0,1,1,2,2,3,3,4,4,5,5,8,8,9,9,10,10,11,11,13,13,17,17,18,18,20,20],"right_children":[2,4,6,8,10,12,-1,-1,14,16,18,20,-1,22,-1,-1,-1,24,26,-1,28,-1,-1,-1,-1,-1,-1,-1,-1],"split_conditions":[5.7E1,2.765E1,8.181818E-1,5.423E1,5E1,6.347E1,-3.242079E-2,-5.5916447E-2,5.69E1,2.5E1,4.6E1,3.28E1,-1.9383453E-2,1E0,-3.965331E-2,1.3987804E-3,-4.738195E-2,5.373E1,2.1E0,-9.382411E-3,2.463E1,4.6208084E-2,-9.864894E-5,2.3399776E-2,-1.4673992E-2,1.0093408E-2,-4.3726604E-2,7.7178846E-3,4.069557E-2],"split_indices":[11,4,28,10,9,10,0,0,10,9,0,10,0,20,0,0,0,10,17,0,5,0,0,0,0,0,0,0,0],"split_type":[0,0,0,0,0,0,0,0,0,0,0,0,0,0,0,0,0,0,0,0,0,0,0,0,0,0,0,0,0],"sum_hessian":[6.609205E1,4.3174183E1,2.2917866E1,1.1407784E1,3.1766397E1,2.1866142E1,1.0517242E0,7.2525325E0,4.1552525E0,3.4498405E0,2.8316559E1,2.0569742E1,1.2964004E0,3.05451E0,1.1007423E0,1.0880904E0,2.3617501E0,2.4288992E1,4.027566E0,1.1567417E0,1.9413E1,1.9539601E0,1.1005502E0,1.9965553E1,4.323439E0,1.1313889E0,2.8961773E0,2.1946597E0,1.721834E1],"tree_param":{"num_deleted":"0","num_feature":"29","num_nodes":"29","size_leaf_vector":"1"}},{"base_weights":[-3.3465873E-2,4.1163313E-1,-2.9755533E-1,4.6520818E-2,7.948029E-1,-5.840305E-1,2.4136709E-1,-5.246027E-1,4.1718665E-1,9.653125E-1,-2.0116186E-2,-4.5049395E-2,-8.9787364E-1,-1.2102186E-1,7.2413737E-1,-9.992421E-1,2.1953557E-2,7.1310955E-1,-1.5443441E-1,5.4980513E-2,3.5952652E-1,3.8815597E-1,-4.8059538E-2,1.0132282E-1,-5.869935E-2,5.991415E-1,-6.201694E-1,-2.9320035E-3,5.3178824E-2,-6.791636E-4,-7.187913E-2,4.48831E-2,1.0130466E-2,-4.2222332E-2,3.3277452E-2,-9.901393E-3,3.4776762E-2,-2.2732375E-2,5.7552893E-2,-3.7723802E-2,3.771268E-2,1.9226099E-3,4.392285E-2,-5.7523157E-2,3.765471E-2],"categories":[],"categories_nodes":[],"categories_segments":[],"categories_sizes":[],"default_left":[0,0,0,0,0,0,0,0,0,0,0,0,0,0,0,0,0,0,0,0,0,0,0,0,0,0,0,0,0,0,0,0,0,0,0,0,0,0,0,0,0,0,0,0,0],"id":42,"left_children":[1,3,5,7,9,11,13,15,17,19,-1,21,23,25,27,29,-1,31,33,-1,35,37,-1,39,-1,41,43,-1,-1,-1,-1,-1,-1,-1,-1,-1,-1,-1,-1,-1,-1,-1,-1,-1,-1],"loss_changes":[7.752884E0,3.4035149E0,6.5205364E0,3.1095967E0,2.825036E0,4.5728254E0,2.7205243E0,3.0995631E0,1.6050992E0,4.7868443E-1,0E0,4.7741385E0,4.8596487E0,3.7697082E0,1.8149788E0,1.7963462E0,0E0,3.8352513E-1,2.7327683E0,0E0,7.8131354E-1,5.8223243E0,0E0,3.1622581E0,0E0,6.5193224E-1,5.290251E0,0E0,0E0,0E0,0E0,0E0,0E0,0E0,0E0,0E0,0E0,0E0,0E0,0E0,0E0,0E0,0E0,0E0,0E0],"parents":[2147483647,0,0,1,1,2,2,3,3,4,4,5,5,6,6,7,7,8,8,9,9,11,11,12,12,13,13,14,14,15,15,17,17,18,18,20,20,21,21,23,23,25,25,26,26],"right_children":[2,4,6,8,10,12,14,16,18,20,-1,22,24,26,28,30,-1,32,34,-1,36,38,-1,40,-1,42,44,-1,-1,-1,-1,-1,-1,-1,-1,-1,-1,-1,-1,-1,-1,-1,-1,-1,-1],"split_conditions":[4E0,6.5E1,5.7E1,4.315E1,8.4E1,6.5E1,4.863E1,6.045E1,7.098E1,6.339E1,-2.0116186E-2,4.6E1,2.817E1,2.757E1,6.3E1,6E1,2.1953557E-2,1.5E1,5.986E1,5.4980513E-2,2.381E1,4.457E1,-4.8059538E-2,2.31E1,-5.869935E-2,6.5E1,6.453E1,-2.9320035E-3,5.3178824E-2,-6.791636E-4,-7.187913E-2,4.48831E-2,1.0130466E-2,-4.2222332E-2,3.3277452E-2,-9.901393E-3,3.4776762E-2,-2.2732375E-2,5.7552893E-2,-3.7723802E-2,3.771268E-2,1.9226099E-3,4.392285E-2,-5.7523157E-2,3.765471E-2],"split_indices":[18,7,11,5,8,8,5,0,9,0,0,10,5,4,11,8,0,16,12,0,5,10,0,5,0,7,4,0,0,0,0,0,0,0,0,0,0,0,0,0,0,0,0,0,0],"split_type":[0,0,0,0,0,0,0,0,0,0,0,0,0,0,0,0,0,0,0,0,0,0,0,0,0,0,0,0,0,0,0,0,0,0,0,0,0,0,0,0,0,0,0,0,0],"sum_hessian":[6.3914192E1,2.3592487E1,4.03217E1,1.2655146E1,1.0937342E1,2.6272383E1,1.404932E1,4.8173122E0,7.8378334E0,9.743233E0,1.1941096E0,1.0089184E1,1.6183199E1,8.453251E0,5.5960693E0,3.2028832E0,1.614429E0,5.0012245E0,2.836609E0,7.307942E0,2.4352906E0,7.2413588E0,2.8478248E0,3.6408312E0,1.2542368E1,3.3784864E0,5.074764E0,1.9428724E0,3.653197E0,1.3032852E0,1.8995981E0,3.1162596E0,1.8849652E0,1.5241826E0,1.3124262E0,1.0701647E0,1.3651258E0,3.6324852E0,3.6088736E0,1.5083323E0,2.132499E0,1.501695E0,1.8767914E0,3.7780786E0,1.2966853E0],"tree_param":{"num_deleted":"0","num_feature":"29","num_nodes":"45","size_leaf_vector":"1"}},{"base_weights":[1.8860658E-1,3.3096078E-1,-6.849294E-1,-4.386378E-2,3.9408275E-1,2.123676E-2,-4.8790976E-2,9.2873275E-1,2.984538E-1,1.225588E-2,5.1049378E-2,-3.7799202E-2,3.448928E-1,4.6560906E-2,1.2640697E-2],"categories":[],"categories_nodes":[],"categories_segments":[],"categories_sizes":[],"default_left":[0,0,0,0,0,0,0,0,0,0,0,0,0,0,0],"id":43,"left_children":[1,3,5,-1,7,-1,-1,9,11,-1,-1,-1,13,-1,-1],"loss_changes":[8.052652E0,4.52432E0,3.3662562E0,0E0,2.4203005E0,0E0,0E0,2.2471762E-1,2.5243816E0,0E0,0E0,0E0,2.1921344E0,0E0,0E0],"parents":[2147483647,0,0,1,1,2,2,4,4,7,7,8,8,12,12],"right_children":[2,4,6,-1,8,-1,-1,10,12,-1,-1,-1,14,-1,-1],"split_conditions":[8.2E1,3.233E1,1.786E1,-4.386378E-2,2E0,2.123676E-2,-4.8790976E-2,4.067E1,1.648E1,1.225588E-2,5.1049378E-2,-3.7799202E-2,3.677E1,4.6560906E-2,1.2640697E-2],"split_indices":[17,10,15,0,18,0,0,10,5,0,0,0,10,0,0],"split_type":[0,0,0,0,0,0,0,0,0,0,0,0,0,0,0],"sum_hessian":[6.1934235E1,5.378963E1,8.144605E0,2.0302339E0,5.1759396E1,1.5960392E0,6.5485654E0,6.531383E0,4.5228012E1,1.2114451E0,5.3199377E0,1.2633547E0,4.3964657E1,4.7303314E0,3.9234325E1],"tree_param":{"num_deleted":"0","num_feature":"29","num_nodes":"15","size_leaf_vector":"1"}}]},"name":"gbtree"},"learner_model_param":{"base_score":"[5E-1]","boost_from_average":"1","num_class":"0","num_feature":"29","num_target":"1"},"objective":{"name":"binary:logistic","reg_loss_param":{"scale_pos_weight":"3.5"}}},"version":[3,2,0]}